{"learner":{"attributes":{"best_ntree_limit":"6"},"feature_names":[],"feature_types":["q","q","q","q","c","c","c","c","c","c"],"gradient_booster":{"model":{"gbtree_model_param":{"num_parallel_tree":"1","num_trees":"1","size_leaf_vector":"0"},"tree_info":[0],"trees":[{"base_weights":[-1.5735685E0,-6.89562E-1,-2.3273005E0,-7.3074895E-1,5.8501554E-1,-3.292892E1,-1.2463934E0,-7.01118E-1,-1.7333694E0,4.0966558E-1,4.414226E-1,-4.275446E2,-1.6486019E-1,-3.63922E-2,-2.1673336E0,-7.062022E-1,3.6510128E-1,-2.768622E0,-9.844251E-1,2.835352E-1,1.289225E0,-1.7431518E0,1.1910787E0,-2.2899689E1,-7.344778E-1,3.0676296E-1,-7.091028E-1,-6.65238E0,-1.9927813E0,-1.1013312E0,3.1257355E-1,3.544202E-1,-9.01583E-1,4.12777E-1,1.2178288E-1,6.3242875E-2,-1.9966283E0,1.3993177E0,-3.7880585E-1,-2.2417073E-1,-4.0238956E2,1.07295446E-1,-1.8588237E0,-2.1390595E-1,-9.9753894E-2,-2.8675482E-1,-3.7195013E0,-6.9249153E-1,3.2503194E-1,-2.2259508E-1,-4.534862E-1,-1.6999541E-1,1.5519474E-1,-9.093057E-2,-3.3844283E-1,3.228308E-1,-5.153467E-1,-7.558324E-1,-3.4523523E-1,-3.3844283E-1,4.4891304E-1,-9.2930686E-1,3.3612987E-1,-5.5296165E-1,4.152768E-1,-3.3050305E2,6.507237E-2,-4.570751E0,-3.7544623E-2],"categories":[1,2,3,4,4,5,6,7,8,11,1,2,3,4,7,8,0,1,2,4,5,6,7,8,10,0,2,3,4,5,1,2,3,4,0,1,2,3,4,5,6,7,11,7,0,1,2,3,4,0,3,5,6],"categories_nodes":[0,3,6,17,19,22,24,29,32,35,38],"categories_segments":[0,4,10,14,16,25,30,34,43,44,49],"categories_sizes":[4,6,4,2,9,5,4,9,1,5,4],"default_left":[0,1,1,0,1,1,0,1,1,1,0,0,0,0,1,0,0,0,1,0,0,0,0,0,0,0,1,0,1,0,0,1,0,0,0,0,0,0,0,0,1,0,1,0,0,0,0,0,0,0,0,0,0,0,0,0,0,0,0,0,0,0,0,0,0,0,0,0,0],"id":0,"left_children":[1,3,5,7,9,11,13,15,17,19,-1,-1,21,-1,23,25,-1,27,29,31,33,35,37,39,41,-1,43,45,47,49,-1,51,53,-1,-1,55,57,59,61,63,65,-1,67,-1,-1,-1,-1,-1,-1,-1,-1,-1,-1,-1,-1,-1,-1,-1,-1,-1,-1,-1,-1,-1,-1,-1,-1,-1,-1],"loss_changes":[3.8152158E3,1.3889929E2,1.0222083E5,7.470923E1,1.2317156E1,4.809188E6,3.094831E3,2.5083374E1,5.3627335E1,7.4869537E0,0E0,0E0,2.2466783E2,0E0,4.8777207E4,1.3150757E1,0E0,7.7009476E1,1.1505245E1,5.6276693E0,9.967613E-2,2.2320007E1,1.9013893E1,9.133246E5,1.8884746E3,0E0,3.413086E0,1.3741708E2,2.812223E1,5.0449104E0,0E0,9.346222E0,1.798482E-1,0E0,0E0,1.4356993E1,1.5911255E1,1.3986198E1,3.36699E1,2.659906E2,1.6850802E6,0E0,1.7569834E4,0E0,0E0,0E0,0E0,0E0,0E0,0E0,0E0,0E0,0E0,0E0,0E0,0E0,0E0,0E0,0E0,0E0,0E0,0E0,0E0,0E0,0E0,0E0,0E0,0E0,0E0],"parents":[2147483647,0,0,1,1,2,2,3,3,4,4,5,5,6,6,7,7,8,8,9,9,12,12,14,14,15,15,17,17,18,18,19,19,20,20,21,21,22,22,23,23,24,24,26,26,27,27,28,28,29,29,31,31,32,32,35,35,36,36,37,37,38,38,39,39,40,40,42,42],"right_children":[2,4,6,8,10,12,14,16,18,20,-1,-1,22,-1,24,26,-1,28,30,32,34,36,38,40,42,-1,44,46,48,50,-1,52,54,-1,-1,56,58,60,62,64,66,-1,68,-1,-1,-1,-1,-1,-1,-1,-1,-1,-1,-1,-1,-1,-1,-1,-1,-1,-1,-1,-1,-1,-1,-1,-1,-1,-1],"split_conditions":[NaN,1.3E1,1E1,NaN,5.178E3,2.961E3,NaN,5.178E3,1E1,1.848E3,4.414226E-1,-4.275446E2,5.178E3,-3.63922E-2,1.2E1,1.98E3,3.6510128E-1,NaN,7.298E3,NaN,5.3E1,3.137E3,NaN,1.99998E5,NaN,3.0676296E-1,1E1,2.5124E4,5.178E3,NaN,3.1257355E-1,1.6E1,NaN,4.12777E-1,1.2178288E-1,NaN,4.386E3,7.298E3,NaN,5.178E3,2.377E3,1.07295446E-1,4.1E1,-2.1390595E-1,-9.9753894E-2,-2.8675482E-1,-3.7195013E0,-6.9249153E-1,3.2503194E-1,-2.2259508E-1,-4.534862E-1,-1.6999541E-1,1.5519474E-1,-9.093057E-2,-3.3844283E-1,3.228308E-1,-5.153467E-1,-7.558324E-1,-3.4523523E-1,-3.3844283E-1,4.4891304E-1,-9.2930686E-1,3.3612987E-1,-5.5296165E-1,4.152768E-1,-3.3050305E2,6.507237E-2,-4.570751E0,-3.7544623E-2],"split_indices":[8,0,0,7,1,1,8,1,0,2,0,0,1,0,0,2,0,7,1,7,3,1,8,1,8,0,0,1,1,7,0,3,7,0,0,8,1,1,4,1,2,0,3,0,0,0,0,0,0,0,0,0,0,0,0,0,0,0,0,0,0,0,0,0,0,0,0,0,0],"split_type":[1,0,0,1,0,0,1,0,0,0,0,0,0,0,0,0,0,1,0,1,0,0,1,0,1,0,0,0,0,1,0,0,1,0,0,1,0,0,1,0,0,0,0,0,0,0,0,0,0,0,0,0,0,0,0,0,0,0,0,0,0,0,0,0,0,0,0,0,0],"sum_hessian":[5.7273457E3,2.6367627E3,3.090583E3,2.5546384E3,8.21244E1,1.04435646E2,2.9861475E3,2.4829575E3,7.168083E1,6.9782E1,1.2342395E1,1.4241225E0,1.0301152E2,1.344609E3,1.6415385E3,2.4770237E3,5.9338436E0,2.8957157E1,4.2723675E1,6.218668E1,7.5953197E0,4.747075E1,5.5540775E1,1.05147705E2,1.5363907E3,3.560306E0,2.4734634E3,3.560306E0,2.539685E1,4.0824844E1,1.8988299E0,5.9338436E1,2.848245E0,6.408551E0,1.1867688E0,5.9338436E0,4.1536903E1,4.9132225E1,6.408551E0,1.0016328E2,4.9844284E0,7.7970703E2,7.566837E2,2.4471172E3,2.6346266E1,2.3735375E0,1.1867688E0,2.3260666E1,2.1361837E0,2.3260666E1,1.7564177E1,8.544735E0,5.07937E1,1.4241225E0,1.4241225E0,4.0350137E0,1.8988299E0,2.4447435E1,1.708947E1,1.4241225E0,4.7708103E1,1.8988299E0,4.5097213E0,4.9844284E1,5.0318993E1,1.1867688E0,3.7976599E0,8.592206E1,6.7076166E2],"tree_param":{"num_deleted":"0","num_feature":"10","num_nodes":"69","size_leaf_vector":"0"}}]},"name":"gbtree"},"learner_model_param":{"base_score":"5E-1","num_class":"0","num_feature":"10","num_target":"1"},"objective":{"name":"reg:squarederror","reg_loss_param":{"scale_pos_weight":"1"}}},"version":[1,6,2]}