{"learner":{"attributes":{"best_ntree_limit":"1"},"feature_names":[],"feature_types":["q","q","q","q","c","c","c","c","c","c"],"gradient_booster":{"model":{"gbtree_model_param":{"num_parallel_tree":"1","num_trees":"1","size_leaf_vector":"0"},"tree_info":[0],"trees":[{"base_weights":[-7.1711046E-1,-1.0707872E-1,-1.2367655E0,-8.951915E-2,-6.504979E-1,-2.3248724E1,-5.4284394E-1,-1.0501381E-1,5.059916E-1,-1.9253565E0,-2.2107105E-1,-3.8902997E2,1.9450566E-1,6.466937E-2,-1.157926E0,-1.0743136E-1,2.5002846E-1,3.422428E-1,7.112389E-1,-9.150108E-1,-3.8625586E0,-3.1353852E-1,2.2838826E-1,-8.27045E-1,9.18167E-1,-1.3960535E1,-2.1794783E-1,-1.0524564E-1,-5.080382E-1,2.3176181E-1,6.0229856E-1,2.6884404E-1,4.6890122E-1,-2.0331042E-2,-1.0383122E0,-1.6935399E-1,-8.413492E-1,-1.1819273E0,-3.6157092E-1,1.0421766E0,-9.6196204E-2,-4.860273E2,-5.306105E-1,1.4848477E-1,-9.457594E-1,2.0160277E-1,-3.1840555E-2,-2.3341891E-1,-8.083429E-2,4.132484E-2,2.3281634E-1,2.2928232E-1,3.9096788E-2,2.567292E-1,9.268095E-2,1.18005425E-1,-1.6808803E-1,-7.4268706E-2,-3.1941926E-1,-1.5613616E-1,-2.0869005E-2,-9.853535E-2,-1.5724256E0,-1.2396104E-1,-3.6194807E-1,2.8560516E-1,-2.5549123E-1,1.7082751E-1,3.3466965E-1,-5.964117E-1,1.9362512E-1,-3.7063428E2,2.1292366E-1,-4.2166326E-2,-3.54801E-1,-2.6399968E0,4.514511E-2],"categories":[1,2,3,4,4,5,6,7,8,10,11,1,2,3,4,2,12,13,0,2,6,5,25,31,38,4,5,7,4,5,1,2,3,4,0,1,2,3,4,5,7,8,1,2,4,5,1,2,3,4],"categories_nodes":[0,1,6,15,18,19,21,24,26,33,37,42],"categories_segments":[0,4,11,15,18,21,25,28,30,34,42,46],"categories_sizes":[4,7,4,3,3,4,3,2,4,8,4,4],"default_left":[0,0,1,1,1,1,0,1,0,0,1,0,0,0,1,0,0,0,0,0,0,0,0,0,0,1,0,0,0,1,0,0,0,0,0,0,0,0,0,1,1,1,0,0,1,0,0,0,0,0,0,0,0,0,0,0,0,0,0,0,0,0,0,0,0,0,0,0,0,0,0,0,0,0,0,0,0],"id":0,"left_children":[1,3,5,7,9,11,13,15,17,19,21,-1,23,-1,25,27,-1,29,31,33,-1,35,-1,37,39,41,43,45,47,49,51,-1,53,55,57,59,61,63,65,67,69,71,73,-1,75,-1,-1,-1,-1,-1,-1,-1,-1,-1,-1,-1,-1,-1,-1,-1,-1,-1,-1,-1,-1,-1,-1,-1,-1,-1,-1,-1,-1,-1,-1,-1,-1],"loss_changes":[3.4803901E3,4.8145107E1,9.054676E4,4.521701E1,8.6052925E1,5.40906E6,2.681877E3,1.0914406E1,3.9340496E0,4.2711755E2,1.1074754E1,0E0,1.330066E2,0E0,3.819819E4,4.114418E0,0E0,1.9021921E0,2.009903E0,4.104389E0,0E0,8.208747E0,0E0,1.1913002E1,1.3331863E1,1.3761771E6,1.535389E3,3.3453674E0,1.4375949E0,2.5284352E0,1.4724574E0,0E0,1.3178973E0,1.460039E0,4.2262268E-1,3.027517E0,5.0846672E1,2.936287E-1,2.25421E1,2.6195984E0,1.8644281E1,2.1911925E6,5.378045E1,0E0,1.2608079E4,0E0,0E0,0E0,0E0,0E0,0E0,0E0,0E0,0E0,0E0,0E0,0E0,0E0,0E0,0E0,0E0,0E0,0E0,0E0,0E0,0E0,0E0,0E0,0E0,0E0,0E0,0E0,0E0,0E0,0E0,0E0,0E0],"parents":[2147483647,0,0,1,1,2,2,3,3,4,4,5,5,6,6,7,7,8,8,9,9,10,10,12,12,14,14,15,15,17,17,18,18,19,19,21,21,23,23,24,24,25,25,26,26,27,27,28,28,29,29,30,30,32,32,33,33,34,34,35,35,36,36,37,37,38,38,39,39,40,40,41,41,42,42,44,44],"right_children":[2,4,6,8,10,12,14,16,18,20,22,-1,24,-1,26,28,-1,30,32,34,-1,36,-1,38,40,42,44,46,48,50,52,-1,54,56,58,60,62,64,66,68,70,72,74,-1,76,-1,-1,-1,-1,-1,-1,-1,-1,-1,-1,-1,-1,-1,-1,-1,-1,-1,-1,-1,-1,-1,-1,-1,-1,-1,-1,-1,-1,-1,-1,-1,-1],"split_conditions":[NaN,NaN,1E1,1.3E1,1E1,3.273E3,NaN,5.178E3,1.4E1,9E0,5.178E3,-3.8902997E2,5.06E3,6.466937E-2,1.2E1,NaN,2.5002846E-1,4.4E1,NaN,NaN,-3.8625586E0,NaN,2.2838826E-1,4.386E3,NaN,5.7E1,NaN,1.98E3,1E1,5.178E3,5.1E1,2.6884404E-1,1.99998E5,NaN,3.137E3,4.1E1,3.1E1,NaN,4.416E3,2.5E1,1.4344E4,2.7828E4,NaN,1.4848477E-1,4.1E1,2.0160277E-1,-3.1840555E-2,-2.3341891E-1,-8.083429E-2,4.132484E-2,2.3281634E-1,2.2928232E-1,3.9096788E-2,2.567292E-1,9.268095E-2,1.18005425E-1,-1.6808803E-1,-7.4268706E-2,-3.1941926E-1,-1.5613616E-1,-2.0869005E-2,-9.853535E-2,-1.5724256E0,-1.2396104E-1,-3.6194807E-1,2.8560516E-1,-2.5549123E-1,1.7082751E-1,3.3466965E-1,-5.964117E-1,1.9362512E-1,-3.7063428E2,2.1292366E-1,-4.2166326E-2,-3.54801E-1,-2.6399968E0,4.514511E-2],"split_indices":[8,7,0,0,0,1,8,1,0,0,1,0,1,0,0,7,0,3,4,9,0,7,0,1,6,3,8,2,0,1,3,0,1,7,1,3,3,4,1,3,1,1,8,0,3,0,0,0,0,0,0,0,0,0,0,0,0,0,0,0,0,0,0,0,0,0,0,0,0,0,0,0,0,0,0,0,0],"split_type":[1,1,0,0,0,0,1,0,0,0,0,0,0,0,0,1,0,0,1,1,0,1,0,0,1,0,1,0,0,0,0,0,0,1,0,0,0,1,0,0,0,0,1,0,0,0,0,0,0,0,0,0,0,0,0,0,0,0,0,0,0,0,0,0,0,0,0,0,0,0,0,0,0,0,0,0,0],"sum_hessian":[1.0978358E4,5.050591E3,5.9277676E3,4.8936274E3,1.5696368E2,1.80167E2,5.7476006E3,4.770331E3,1.2329611E2,3.867221E1,1.1829147E2,2.274836E0,1.7789218E2,2.5742043E3,3.1733962E3,4.758957E3,1.137418E1,7.006495E1,5.3231163E1,3.6397377E1,2.274836E0,1.0873716E2,9.554311E0,7.370469E1,1.0418749E2,2.1610942E2,2.9572869E3,4.7343887E3,2.456823E1,5.0501358E1,1.956359E1,2.8662933E1,2.456823E1,4.549672E0,3.1847704E1,8.644377E1,2.2293392E1,4.094705E1,3.2757637E1,9.281331E1,1.137418E1,5.004639E0,2.1110478E2,1.4941123E3,1.4631746E3,4.549672E0,4.729839E3,1.0464246E1,1.4103983E1,4.4131817E1,6.3695407E0,1.4103983E1,5.459606E0,5.9145737E0,1.8653656E1,2.729803E0,1.8198688E0,1.3649015E0,3.0482803E1,1.8198689E1,6.824508E1,2.0928492E1,1.3649015E0,1.8198688E0,3.912718E1,8.644377E0,2.4113262E1,1.3649016E1,7.916429E1,2.729803E0,8.644377E0,1.3649015E0,3.6397376E0,1.3285042E2,7.825436E1,1.7834714E2,1.2848274E3],"tree_param":{"num_deleted":"0","num_feature":"10","num_nodes":"77","size_leaf_vector":"0"}}]},"name":"gbtree"},"learner_model_param":{"base_score":"5E-1","num_class":"0","num_feature":"10","num_target":"1"},"objective":{"name":"reg:squarederror","reg_loss_param":{"scale_pos_weight":"1"}}},"version":[1,6,2]}