{"learner":{"attributes":{"best_ntree_limit":"6"},"feature_names":[],"feature_types":[],"gradient_booster":{"model":{"gbtree_model_param":{"num_parallel_tree":"1","num_trees":"1","size_leaf_vector":"0"},"tree_info":[0],"trees":[{"base_weights":[-7.9006946E-1,-1.5176389E0,-4.263732E-1,-8.1548706E-2,-7.5874114E-1,-4.1369838E-1,8.870173E-2,-2.9169598E-1,-1.1969256E0,-1.999916E-1,-1.0091337E0,1.4637287E-1,-8.495776E-2,-8.559165E-1,-3.9132565E-2,-8.799467E-1,-1.4949676E0,-6.0791856E-1,-3.6479034E-2,1.7429799E-1,6.485751E-2,-2.2138499E-1,6.0206186E-2,-1.858083E-1,1.0517735E-1,-3.2598475E-1,-1.4628538E0,5.269923E-2,-1.2984269E0,8.883541E-2,-2.4153657E-1,1.414451E-1,2.3391885E-1,-7.4886777E-3,1.0195238E-1,-3.5650328E-1,1.5264916E-1,2.1522792E-1,-9.446846E-2,-6.346252E-1,-4.1619577E-3,5.8680023E-3,1.9626786E-1,-7.713187E-1,-6.304486E-2],"categories":[],"categories_nodes":[],"categories_segments":[],"categories_sizes":[],"default_left":[1,0,1,1,1,1,1,1,1,1,0,1,1,0,1,1,0,1,1,1,1,1,1,1,1,1,0,0,0,0,0,0,0,0,0,0,0,0,0,0,0,0,0,0,0],"id":0,"left_children":[1,-1,3,5,7,9,11,13,15,17,-1,19,21,-1,23,25,-1,27,29,31,33,35,37,39,41,43,-1,-1,-1,-1,-1,-1,-1,-1,-1,-1,-1,-1,-1,-1,-1,-1,-1,-1,-1],"loss_changes":[1.488096E2,0E0,4.3255714E1,1.0590068E1,3.9012848E1,7.868141E0,1.2563746E0,1.3422109E1,8.029022E0,3.1738865E0,0E0,2.0177841E-1,6.390952E-1,0E0,1.4223622E0,1.5786068E1,0E0,6.2936516E0,9.2775756E-1,1.02320194E-1,6.913806E-2,8.8844883E-1,4.0625122E-1,2.7064128E0,3.0682665E-1,3.125829E0,0E0,0E0,0E0,0E0,0E0,0E0,0E0,0E0,0E0,0E0,0E0,0E0,0E0,0E0,0E0,0E0,0E0,0E0,0E0],"parents":[2147483647,0,0,2,2,3,3,4,4,5,5,6,6,7,7,8,8,9,9,11,11,12,12,14,14,15,15,17,17,18,18,19,19,20,20,21,21,22,22,23,23,24,24,25,25],"right_children":[2,-1,4,6,8,10,12,14,16,18,-1,20,22,-1,24,26,-1,28,30,32,34,36,38,40,42,44,-1,-1,-1,-1,-1,-1,-1,-1,-1,-1,-1,-1,-1,-1,-1,-1,-1,-1,-1],"split_conditions":[3E0,-4.552917E-1,2.5E0,1.5E0,2.5E0,3.5E0,3.5E0,1.5E0,3.5E0,2.5E0,-3.0274013E-1,4.5E0,2.5E0,-2.5677496E-1,2.5E0,3.5E0,-4.484903E-1,4.5E0,2.5E0,2.5E0,1.5E0,4.5E0,1.5E0,2.5E0,3.5E0,1.5E0,-4.3885615E-1,1.580977E-2,-3.8952807E-1,2.6650624E-2,-7.246097E-2,4.243353E-2,7.0175655E-2,-2.2466034E-3,3.0585716E-2,-1.0695099E-1,4.579475E-2,6.456838E-2,-2.8340539E-2,-1.9038756E-1,-1.2485874E-3,1.7604007E-3,5.888036E-2,-2.3139562E-1,-1.8913459E-2],"split_indices":[3,0,0,4,1,1,1,4,1,2,0,2,4,0,4,0,0,3,1,1,1,2,0,2,0,4,0,0,0,0,0,0,0,0,0,0,0,0,0,0,0,0,0,0,0],"split_type":[0,0,0,0,0,0,0,0,0,0,0,0,0,0,0,0,0,0,0,0,0,0,0,0,0,0,0,0,0,0,0,0,0,0,0,0,0,0,0,0,0,0,0,0,0],"sum_hessian":[5.6380963E2,1.8684863E2,3.76961E2,1.8562473E2,1.9133626E2,6.2418865E1,1.23205864E2,9.342432E1,9.791194E1,4.691614E1,1.5502725E1,9.260838E1,3.0597483E1,2.8149685E1,6.527463E1,4.9363937E1,4.8548004E1,1.2646959E1,3.426918E1,6.8130394E1,2.4477985E1,1.5502725E1,1.5094758E1,3.2229347E1,3.304528E1,2.6109852E1,2.3254087E1,6.9354296E0,5.71153E0,2.1622221E1,1.2646959E1,4.610021E1,2.2030188E1,8.567295E0,1.5910691E1,1.142306E1,4.079664E0,7.3433957E0,7.7513623E0,8.567295E0,2.3662054E1,1.6318657E1,1.6726624E1,8.975262E0,1.713459E1],"tree_param":{"num_deleted":"0","num_feature":"5","num_nodes":"45","size_leaf_vector":"0"}}]},"name":"gbtree"},"learner_model_param":{"base_score":"5E-1","num_class":"0","num_feature":"5","num_target":"1"},"objective":{"name":"reg:squarederror","reg_loss_param":{"scale_pos_weight":"1"}}},"version":[1,6,2]}