{"learner":{"attributes":{"best_ntree_limit":"9"},"feature_names":[],"feature_types":["q","q","q","q","q","q","q","q","q","q","q","q","q","q","q","q","q","q","q","q"],"gradient_booster":{"model":{"gbtree_model_param":{"num_parallel_tree":"1","num_trees":"9","size_leaf_vector":"0"},"tree_info":[0,0,0,0,0,0,0,0,0],"trees":[{"base_weights":[-1.9807343E0,-9.151279E-1,-2.1055505E0,-1.2438875E0,4.66079E-2,-2.114093E0,-7.6694034E-2,-1.534012E0,-5.53402E-1,-3.244483E-1,2.9416052E-1,-2.1225607E0,-7.988371E-1,-1.6523539E0,-4.5364922E-1,2.731656E-1,-1.239099E0,5.524346E-1,-2.6393968E-1,-1.6785443E-1,-2.1268628E0,3.245777E-2,-3.5684446E-1,-1.7085077E0,-1.00032344E-1,-3.244483E-1,1.6494788E-1,-2.3252246E-1,6.390101E-1,-5.754673E-1,-4.966024E-1,7.3517483E-1,-1.00032344E-1,-2.6346096E-1,1.8092872E-1,-1.7584022E0,-6.4625E-1,-5.41475E-1,-1.17300265E-1,2.2942555E-1,3.245777E-2,6.466768E-2,-3.244483E-1,2.512507E-1,3.245777E-2,-5.6585974E-1,-2.2632806E-1],"categories":[],"categories_nodes":[],"categories_segments":[],"categories_sizes":[],"default_left":[1,1,1,0,0,1,0,1,1,0,0,1,0,1,0,0,0,0,0,0,0,0,0,1,0,0,0,0,0,0,0,0,0,0,0,1,0,0,0,0,0,0,0,0,0,0,0],"id":0,"left_children":[1,3,5,7,9,11,-1,13,15,-1,17,19,21,23,25,27,29,31,33,-1,35,-1,-1,37,-1,-1,-1,-1,39,41,-1,43,-1,-1,-1,45,-1,-1,-1,-1,-1,-1,-1,-1,-1,-1,-1],"loss_changes":[6.5260254E1,1.7363636E1,6.5932617E0,7.329632E0,4.481276E0,3.307251E0,0E0,2.8536606E0,8.071103E0,0E0,2.0212579E0,1.8071289E0,1.7149682E0,1.283493E0,3.2160501E0,3.1818485E0,1.1571741E0,1.7374072E0,3.082315E0,0E0,6.80542E-1,0E0,0E0,2.3119736E0,0E0,0E0,0E0,0E0,3.004613E-1,2.0251336E0,0E0,4.196825E-1,0E0,0E0,0E0,3.2068634E0,0E0,0E0,0E0,0E0,0E0,0E0,0E0,0E0,0E0,0E0,0E0],"parents":[2147483647,0,0,1,1,2,2,3,3,4,4,5,5,7,7,8,8,10,10,11,11,12,12,13,13,14,14,15,15,16,16,17,17,18,18,20,20,23,23,28,28,29,29,31,31,35,35],"right_children":[2,4,6,8,10,12,-1,14,16,-1,18,20,22,24,26,28,30,32,34,-1,36,-1,-1,38,-1,-1,-1,-1,40,42,-1,44,-1,-1,-1,46,-1,-1,-1,-1,-1,-1,-1,-1,-1,-1,-1],"split_conditions":[3.7E-1,5E-2,7E-1,6.8E-1,5.8E-1,7.3E-1,-7.6694034E-2,8.4E-1,1.9E-1,-3.244483E-1,7.3E-1,9E-2,5.9E-1,4.1E-1,7E-2,8E-2,1E-1,4.5E-1,2.6E-1,-1.6785443E-1,4.5E-1,3.245777E-2,-3.5684446E-1,5.4E-1,-1.00032344E-1,-3.244483E-1,1.6494788E-1,-2.3252246E-1,6.3E-1,3.3E-1,-4.966024E-1,7.1E-1,-1.00032344E-1,-2.6346096E-1,1.8092872E-1,5.7E-1,-6.4625E-1,-5.41475E-1,-1.17300265E-1,2.2942555E-1,3.245777E-2,6.466768E-2,-3.244483E-1,2.512507E-1,3.245777E-2,-5.6585974E-1,-2.2632806E-1],"split_indices":[9,19,18,5,5,13,0,17,11,0,15,14,3,11,15,11,18,14,9,0,9,0,0,14,0,0,0,0,3,9,0,3,0,0,0,17,0,0,0,0,0,0,0,0,0,0,0],"split_type":[0,0,0,0,0,0,0,0,0,0,0,0,0,0,0,0,0,0,0,0,0,0,0,0,0,0,0,0,0,0,0,0,0,0,0,0,0,0,0,0,0,0,0,0,0,0,0],"sum_hessian":[5.041476E2,5.37336E1,4.50414E2,3.982608E1,1.390752E1,4.4820145E2,2.21256E0,2.718288E1,1.26432E1,1.8964801E0,1.201104E1,4.4472458E2,3.47688E0,2.402208E1,3.1608E0,6.00552E0,6.63768E0,8.2180805E0,3.7929602E0,1.5804E0,4.4314417E2,1.26432E0,2.21256E0,2.2757761E1,1.26432E0,1.8964801E0,1.26432E0,1.26432E0,4.7412E0,3.47688E0,3.1608E0,6.95376E0,1.26432E0,2.21256E0,1.5804E0,3.508488E1,4.080593E2,2.086128E1,1.8964801E0,3.47688E0,1.26432E0,1.5804E0,1.8964801E0,5.6894403E0,1.26432E0,3.0343681E1,4.7412E0],"tree_param":{"num_deleted":"0","num_feature":"20","num_nodes":"47","size_leaf_vector":"0"}},{"base_weights":[-1.2965866E0,-4.738632E-1,-1.3582325E0,-4.6433527E-3,-8.1574255E-1,-1.3661816E0,4.1292614E-4,-5.542428E-1,2.53218E-1,9.9931754E-2,-9.373474E-1,-1.3912935E0,-1.0210866E0,1.8588111E-1,-1.654532E-1,-8.517993E-1,5.1244244E-2,4.2483425E-1,-2.1051665E-1,1.698017E-1,-1.0815095E0,-6.702889E-2,-4.1822854E-1,-1.2171783E0,-1.2411737E-1,-4.8094872E-2,-3.2914153E-1,6.7236066E-1,-9.789401E-2,1.4594842E-1,-7.921679E-2,-1.1442422E0,-4.70829E-2,-1.2725401E0,-3.0681302E-3,2.2030385E-1,-5.263431E-1,2.2720334E-1,3.837701E-2,-2.0633976E-1,1.825541E-1,-1.1714913E-1,-3.6986643E-1,-3.9724895E-1,-3.2083552E-2,-3.487695E-1,2.9444063E-2],"categories":[],"categories_nodes":[],"categories_segments":[],"categories_sizes":[],"default_left":[1,0,1,0,0,1,0,0,0,0,1,0,0,0,0,0,0,0,0,0,1,0,0,1,0,0,0,1,0,0,0,0,0,0,0,0,0,0,0,0,0,0,0,0,0,0,0],"id":1,"left_children":[1,3,5,7,9,11,13,15,17,-1,19,21,23,-1,-1,25,-1,27,-1,29,31,-1,-1,33,35,-1,-1,37,39,-1,-1,41,-1,43,-1,-1,45,-1,-1,-1,-1,-1,-1,-1,-1,-1,-1],"loss_changes":[2.6362305E1,6.1967525E0,5.3447876E0,2.591811E0,3.4353294E0,2.8425293E0,1.6670055E0,1.4049472E0,2.3401415E0,0E0,3.4519997E0,1.1798706E0,6.379284E0,0E0,0E0,5.546267E-1,0E0,1.5130341E0,0E0,5.7136476E-1,8.791504E-1,0E0,0E0,2.0151863E0,3.0709107E0,0E0,0E0,2.602036E-1,2.280109E0,0E0,0E0,6.500969E-1,0E0,1.6042213E0,0E0,0E0,2.4488404E0,0E0,0E0,0E0,0E0,0E0,0E0,0E0,0E0,0E0,0E0],"parents":[2147483647,0,0,1,1,2,2,3,3,4,4,5,5,6,6,7,7,8,8,10,10,11,11,12,12,15,15,17,17,19,19,20,20,23,23,24,24,27,27,28,28,31,31,33,33,36,36],"right_children":[2,4,6,8,10,12,14,16,18,-1,20,22,24,-1,-1,26,-1,28,-1,30,32,-1,-1,34,36,-1,-1,38,40,-1,-1,42,-1,44,-1,-1,46,-1,-1,-1,-1,-1,-1,-1,-1,-1,-1],"split_conditions":[2.9E-1,1E0,6.2E-1,6.9E-1,4.1E-1,4.9E-1,3.3E-1,6.2E-1,8.4E-1,9.9931754E-2,7E-2,1.1E-1,7E-1,1.8588111E-1,-1.654532E-1,5.1E-1,5.1244244E-2,4.9E-1,-2.1051665E-1,7.1E-1,4.1E-1,-6.702889E-2,-4.1822854E-1,2.4E-1,3E-2,-4.8094872E-2,-3.2914153E-1,4.1E-1,1E0,1.4594842E-1,-7.921679E-2,4.2E-1,-4.70829E-2,7.7E-1,-3.0681302E-3,2.2030385E-1,1.1E-1,2.2720334E-1,3.837701E-2,-2.0633976E-1,1.825541E-1,-1.1714913E-1,-3.6986643E-1,-3.9724895E-1,-3.2083552E-2,-3.487695E-1,2.9444063E-2],"split_indices":[9,19,18,7,1,13,14,4,6,0,9,16,7,0,0,4,0,2,0,3,11,0,0,19,18,0,0,10,13,0,0,8,0,1,0,0,15,0,0,0,0,0,0,0,0,0,0],"split_type":[0,0,0,0,0,0,0,0,0,0,0,0,0,0,0,0,0,0,0,0,0,0,0,0,0,0,0,0,0,0,0,0,0,0,0,0,0,0,0,0,0,0,0,0,0,0,0],"sum_hessian":[5.3147797E2,3.765274E1,4.9382526E2,1.6297905E1,2.1354837E1,4.9094727E2,2.87799E0,4.837657E0,1.1460248E1,1.877559E0,1.9477278E1,4.548194E2,3.6127857E1,1.2985498E0,1.5794404E0,3.3060725E0,1.5315844E0,1.0184982E1,1.2752659E0,2.2234635E0,1.7253815E1,1.2816838E0,4.5353772E2,2.9353682E1,6.774175E0,1.2988207E0,2.0072517E0,6.7177076E0,3.4672744E0,1.2151473E0,1.0083163E0,1.5935011E1,1.3188037E0,2.8014347E1,1.3393356E0,1.8978722E0,4.8763027E0,5.472431E0,1.2452765E0,1.9037979E0,1.5634764E0,2.2456515E0,1.368936E1,2.6695969E1,1.318377E0,1.9886602E0,2.8876426E0],"tree_param":{"num_deleted":"0","num_feature":"20","num_nodes":"47","size_leaf_vector":"0"}},{"base_weights":[-9.820271E-1,-1.0483294E0,-5.019022E-1,8.381602E-2,-1.0545099E0,-7.2471267E-1,7.147438E-2,-5.571502E-1,-1.0619859E0,-5.441282E-1,-1.0643643E0,-2.4590261E-1,2.1525894E-1,1.408085E-1,-2.7943143E-1,-5.5405367E-2,-1.0642093E0,-8.9723283E-1,-2.501165E-1,-9.88575E-2,-3.3366412E-1,3.5500225E-1,-5.407876E-1,-3.1984678E-1,-7.223772E-2,-2.9153302E-1,-2.718586E-2,-3.9211854E-1,3.915197E-1,1.9938816E-1,-9.6844696E-2,1.5018408E-1,-8.510469E-1,-2.3566172E-1,-3.0474091E-2,-1.1580496E-1,2.716043E-1,-3.0459678E-1,3.0096252E-3],"categories":[],"categories_nodes":[],"categories_segments":[],"categories_sizes":[],"default_left":[1,0,0,0,0,0,0,0,0,0,0,0,0,0,0,0,1,1,1,0,0,0,1,0,0,0,0,0,0,0,0,0,1,0,0,0,0,0,0],"id":2,"left_children":[1,3,5,-1,7,9,11,13,15,17,19,21,-1,-1,-1,-1,23,25,27,-1,-1,29,31,-1,-1,-1,-1,33,35,-1,-1,-1,37,-1,-1,-1,-1,-1,-1],"loss_changes":[1.5368225E1,3.887146E0,8.03675E0,0E0,1.0293884E0,2.1871624E0,3.9495084E0,3.7259893E0,6.3916016E-1,3.044938E0,1.4719391E-1,2.5104847E0,0E0,0E0,0E0,0E0,4.2785645E-1,7.490034E-1,1.8455137E0,0E0,0E0,1.2452011E0,3.3899992E0,0E0,0E0,0E0,0E0,1.7153068E0,1.8938026E0,0E0,0E0,0E0,1.0623341E0,0E0,0E0,0E0,0E0,0E0,0E0],"parents":[2147483647,0,0,1,1,2,2,4,4,5,5,6,6,7,7,8,8,9,9,10,10,11,11,16,16,17,17,18,18,21,21,22,22,27,27,28,28,32,32],"right_children":[2,4,6,-1,8,10,12,14,16,18,20,22,-1,-1,-1,-1,24,26,28,-1,-1,30,32,-1,-1,-1,-1,34,36,-1,-1,-1,38,-1,-1,-1,-1,-1,-1],"split_conditions":[5.3E-1,2.8E-1,6.9E-1,8.381602E-2,1.9E-1,4.8E-1,5.6E-1,3E-2,1.1E-1,5.4E-1,1.5E-1,1E-1,2.1525894E-1,1.408085E-1,-2.7943143E-1,-5.5405367E-2,9.1E-1,2.3E-1,3.8E-1,-9.88575E-2,-3.3366412E-1,8.4E-1,1E-1,-3.1984678E-1,-7.223772E-2,-2.9153302E-1,-2.718586E-2,7E-2,1.6E-1,1.9938816E-1,-9.6844696E-2,1.5018408E-1,3.2E-1,-2.3566172E-1,-3.0474091E-2,-1.1580496E-1,2.716043E-1,-3.0459678E-1,3.0096252E-3],"split_indices":[13,9,5,0,0,16,8,2,16,5,11,18,0,0,0,0,18,18,11,0,0,7,9,0,0,0,0,2,19,0,0,0,19,0,0,0,0,0,0],"split_type":[0,0,0,0,0,0,0,0,0,0,0,0,0,0,0,0,0,0,0,0,0,0,0,0,0,0,0,0,0,0,0,0,0,0,0,0,0,0,0],"sum_hessian":[4.982995E2,4.367971E2,6.1502407E1,1.8190509E0,4.3497803E2,4.4101078E1,1.740133E1,7.5599017E0,4.2741812E2,3.0491505E1,1.3609571E1,1.208427E1,5.317062E0,1.9521036E0,5.607798E0,1.2930492E0,4.261251E2,1.2921383E1,1.7570122E1,1.3141682E0,1.22954035E1,3.9109087E0,8.173361E0,4.2482602E2,1.2990531E0,1.1640825E1,1.2805582E0,1.4704673E1,2.8654494E0,2.697953E0,1.2129556E0,1.7352784E0,6.438082E0,5.5226564E0,9.182016E0,1.2391231E0,1.6263262E0,5.2561855E0,1.1818967E0],"tree_param":{"num_deleted":"0","num_feature":"20","num_nodes":"39","size_leaf_vector":"0"}},{"base_weights":[-7.7649254E-1,-4.4447023E-1,-8.553661E-1,-5.2111125E-1,1.5582561E-1,-4.54455E-2,-8.572104E-1,-1.4642319E-1,-6.027876E-1,4.0279976E-1,-1.983149E-1,-8.590514E-1,-5.955565E-2,1.12478584E-1,-5.727524E-1,-6.3089645E-1,9.125149E-2,5.906289E-1,-9.198739E-2,-2.582204E-1,-5.885105E-2,-1.2993057E-1,2.021771E-1,-2.5913802E-1,4.5235567E-2,-6.597037E-1,8.127971E-2,2.351998E-1,-4.139404E-2,1.09344035E-1,-1.4410676E-1,-1.5259841E-1,1.2011957E-1,3.264097E-2,-2.0517078E-1,-1.4930803E-1,1.8366931E-1],"categories":[],"categories_nodes":[],"categories_segments":[],"categories_sizes":[],"default_left":[1,1,0,1,0,0,1,0,1,0,0,1,0,0,0,0,0,0,1,0,0,0,0,0,0,0,0,0,0,0,0,0,0,0,0,0,0],"id":3,"left_children":[1,3,5,7,9,-1,11,13,15,17,-1,19,-1,21,23,25,-1,27,29,-1,-1,31,-1,-1,-1,33,35,-1,-1,-1,-1,-1,-1,-1,-1,-1,-1],"loss_changes":[1.1468262E1,4.1726418E0,3.4335327E-1,2.3322048E0,2.4528582E0,0E0,2.7008057E-1,1.7726331E0,1.8391914E0,8.8550043E-1,0E0,2.3510742E-1,0E0,1.5117882E0,1.3961431E0,1.3460941E0,0E0,1.0405066E0,7.647315E-1,0E0,0E0,1.8400624E0,0E0,0E0,0E0,1.2024918E0,1.331292E0,0E0,0E0,0E0,0E0,0E0,0E0,0E0,0E0,0E0,0E0],"parents":[2147483647,0,0,1,1,2,2,3,3,4,4,6,6,7,7,8,8,9,9,11,11,13,13,14,14,15,15,17,17,18,18,21,21,25,25,26,26],"right_children":[2,4,6,8,10,-1,12,14,16,18,-1,20,-1,22,24,26,-1,28,30,-1,-1,32,-1,-1,-1,34,36,-1,-1,-1,-1,-1,-1,-1,-1,-1,-1],"split_conditions":[4.5E-1,1.3E-1,9E-2,2E-1,4.1E-1,-4.54455E-2,9.1E-1,7.8E-1,9.2E-1,9.6E-1,-1.983149E-1,4.2E-1,-5.955565E-2,1.9E-1,7E-2,5.6E-1,9.125149E-2,4.3E-1,3E-2,-2.582204E-1,-5.885105E-2,5.9E-1,2.021771E-1,-2.5913802E-1,4.5235567E-2,1.4E-1,5.7E-1,2.351998E-1,-4.139404E-2,1.09344035E-1,-1.4410676E-1,-1.5259841E-1,1.2011957E-1,3.264097E-2,-2.0517078E-1,-1.4930803E-1,1.8366931E-1],"split_indices":[9,19,8,9,0,0,18,3,8,17,0,12,0,9,12,11,0,10,11,0,0,18,0,0,0,11,5,0,0,0,0,0,0,0,0,0,0],"split_type":[0,0,0,0,0,0,0,0,0,0,0,0,0,0,0,0,0,0,0,0,0,0,0,0,0,0,0,0,0,0,0,0,0,0,0,0,0],"sum_hessian":[4.5144183E2,8.7930275E1,3.6351154E2,7.809202E1,9.838261E0,1.1672332E0,3.623443E2,1.4476092E1,6.3615925E1,7.943518E0,1.8947421E0,3.6103107E2,1.3132434E0,9.464592E0,5.0115004E0,6.1998814E1,1.6171094E0,5.6173706E0,2.3261473E0,3.598189E2,1.2121496E0,7.1472697E0,2.317322E0,3.4356666E0,1.5758338E0,5.9659298E1,2.3395152E0,4.3791404E0,1.2382305E0,1.0975984E0,1.2285489E0,4.1934233E0,2.9538462E0,1.7144858E0,5.7944813E1,1.1491112E0,1.1904039E0],"tree_param":{"num_deleted":"0","num_feature":"20","num_nodes":"37","size_leaf_vector":"0"}},{"base_weights":[-6.1795884E-1,-3.315372E-1,-6.9101644E-1,-4.1091678E-1,9.830957E-3,-6.985925E-1,-4.0483826E-1,-5.092737E-1,-1.1465747E-1,-1.8206134E-1,1.5711033E-1,-2.1122055E-1,-4.4195533E-1,1.6489601E-1,-5.691625E-1,1.7925465E-1,-5.5422294E-1,-2.7507988E-1,3.511068E-1,3.327587E-1,-2.9117328E-1,-5.905674E-1,6.846278E-2,1.07733354E-1,-3.5098575E-2,-1.9139844E-1,-1.4010511E-2,1.7235869E-1,-8.895637E-2,1.18533336E-1,-6.0622966E-1,1.3289292E-1,-5.0646067E-1,5.23183E-1,-2.4204484E-1,-5.453289E-1,6.3325286E-2,-2.0649703E-1,3.590658E-3,-1.3120319E-1,1.3212378E-1,7.4236067E-3,-1.9163059E-1,-1.19951E-1,1.8117745E-1,8.071875E-2,-1.8273526E-1,9.707815E-4,1.789699E-1,9.220548E-2,-1.9490243E-1,-2.0439439E-1,-4.293907E-2],"categories":[],"categories_nodes":[],"categories_segments":[],"categories_sizes":[],"default_left":[1,1,1,1,0,1,0,0,1,0,0,0,0,0,0,1,0,0,0,0,0,1,0,0,0,0,0,0,0,0,0,0,0,0,0,0,0,0,0,0,0,0,0,0,0,0,0,0,0,0,0,0,0],"id":4,"left_children":[1,3,5,7,9,11,13,15,17,-1,19,-1,21,23,25,27,29,31,-1,33,35,37,-1,-1,-1,-1,-1,-1,-1,39,41,43,45,47,49,51,-1,-1,-1,-1,-1,-1,-1,-1,-1,-1,-1,-1,-1,-1,-1,-1,-1],"loss_changes":[8.301956E0,2.3013258E0,4.1944885E-1,1.9465847E0,1.6367906E0,1.303711E-1,1.0985968E0,1.6890783E0,4.1233535E0,0E0,1.2381368E0,0E0,1.0560185E0,2.1599126E-1,2.778325E-1,9.044536E-1,1.7674713E0,1.691269E0,0E0,1.3175439E0,7.0404357E-1,4.706018E-1,0E0,0E0,0E0,0E0,0E0,0E0,0E0,9.644958E-1,9.427719E-1,2.0025349E0,1.0543969E0,3.2197118E-1,9.591389E-1,8.5294604E-2,0E0,0E0,0E0,0E0,0E0,0E0,0E0,0E0,0E0,0E0,0E0,0E0,0E0,0E0,0E0,0E0,0E0],"parents":[2147483647,0,0,1,1,2,2,3,3,4,4,5,5,6,6,7,7,8,8,10,10,12,12,13,13,14,14,15,15,16,16,17,17,19,19,20,20,21,21,29,29,30,30,31,31,32,32,33,33,34,34,35,35],"right_children":[2,4,6,8,10,12,14,16,18,-1,20,-1,22,24,26,28,30,32,-1,34,36,38,-1,-1,-1,-1,-1,-1,-1,40,42,44,46,48,50,52,-1,-1,-1,-1,-1,-1,-1,-1,-1,-1,-1,-1,-1,-1,-1,-1,-1],"split_conditions":[4.5E-1,6E-2,7.6E-1,5.5E-1,5.6E-1,4.9E-1,7.9E-1,1.4E-1,4.3E-1,-1.8206134E-1,3.8E-1,-2.1122055E-1,6.2E-1,6.7E-1,1.5E-1,4E-1,2.2E-1,9E-2,3.511068E-1,4.5E-1,3.1E-1,4.2E-1,6.846278E-2,1.07733354E-1,-3.5098575E-2,-1.9139844E-1,-1.4010511E-2,1.7235869E-1,-8.895637E-2,6E-1,2E-2,1E-1,4.1E-1,4.5E-1,6E-1,4.3E-1,6.3325286E-2,-2.0649703E-1,3.590658E-3,-1.3120319E-1,1.3212378E-1,7.4236067E-3,-1.9163059E-1,-1.19951E-1,1.8117745E-1,8.071875E-2,-1.8273526E-1,9.707815E-4,1.789699E-1,9.220548E-2,-1.9490243E-1,-2.0439439E-1,-4.293907E-2],"split_indices":[9,19,6,17,6,13,7,9,9,0,0,0,6,10,2,14,14,18,0,14,18,17,0,0,0,0,0,0,0,6,2,15,13,4,13,14,0,0,0,0,0,0,0,0,0,0,0,0,0,0,0,0,0],"split_type":[0,0,0,0,0,0,0,0,0,0,0,0,0,0,0,0,0,0,0,0,0,0,0,0,0,0,0,0,0,0,0,0,0,0,0,0,0,0,0,0,0,0,0,0,0,0,0,0,0,0,0,0,0],"sum_hessian":[4.066911E2,8.3778046E1,3.2291306E2,6.780692E1,1.5971125E1,3.1318103E2,9.732019E0,5.0366444E1,1.7440481E1,2.4773188E0,1.3493806E1,3.0493106E2,8.24996E0,2.1778033E0,7.5542164E0,2.9034665E0,4.7462975E1,1.6203545E1,1.2369353E0,9.880207E0,3.6135988E0,6.849766E0,1.4001942E0,1.127235E0,1.0505682E0,6.4794397E0,1.0747764E0,1.4725287E0,1.4309379E0,3.3140001E0,4.4148975E1,6.018073E0,1.01854725E1,7.489009E0,2.3911982E0,2.342484E0,1.2711146E0,5.7710834E0,1.0786822E0,1.0837212E0,2.230279E0,2.1768272E0,4.197215E1,2.89501E0,3.1230628E0,1.0011647E0,9.184308E0,1.0553772E0,6.433632E0,1.1232735E0,1.2679247E0,1.2319722E0,1.110512E0],"tree_param":{"num_deleted":"0","num_feature":"20","num_nodes":"53","size_leaf_vector":"0"}},{"base_weights":[-4.901404E-1,-2.4856402E-1,-5.558193E-1,-4.8738828E-1,-1.5308425E-1,-5.618995E-1,-3.0488887E-1,-5.452187E-1,5.611938E-2,-2.0660093E-1,-8.549342E-2,-5.6399137E-1,-2.125469E-2,-4.8109037E-1,8.227818E-2,2.3962455E-2,-5.818832E-1,-1.630495E-1,3.2682586E-1,-5.6598514E-1,-1.7041039E-2,-1.7200094E-1,9.813992E-3,-2.4295159E-1,-6.9427526E-1,1.20537825E-1,-2.725884E-1,-1.8876904E-1,7.888296E-1,-2.62814E-1,-5.685859E-1,-1.5014288E-1,1.5395285E-1,-4.415489E-2,-2.2461173E-1,1.0219045E-1,-1.6448422E-1,-1.07606456E-1,4.5364283E-2,-1.7952794E-1,9.374368E-2,9.23228E-2,2.982705E-1,1.596465E-2,-1.2204625E-1,-1.7160957E-1,-9.876442E-2],"categories":[],"categories_nodes":[],"categories_segments":[],"categories_sizes":[],"default_left":[1,0,1,0,0,1,0,0,0,0,0,0,0,0,0,0,0,1,0,0,0,0,0,0,0,0,0,0,1,0,0,0,0,0,0,0,0,0,0,0,0,0,0,0,0,0,0],"id":5,"left_children":[1,3,5,7,9,11,13,15,-1,-1,17,19,-1,21,-1,-1,23,25,27,29,-1,-1,-1,31,33,35,37,39,41,43,45,-1,-1,-1,-1,-1,-1,-1,-1,-1,-1,-1,-1,-1,-1,-1,-1],"loss_changes":[5.716469E0,1.765243E0,2.7008057E-1,9.829478E-1,2.0805383E0,2.4897766E-1,1.0534859E0,5.291028E-1,0E0,0E0,1.7678788E0,2.5093842E-1,0E0,3.641373E-1,0E0,0E0,5.9365034E-1,1.455472E0,2.2502563E0,7.033539E-2,0E0,0E0,0E0,1.526782E0,3.2130003E-1,2.1672456E0,1.2708862E0,1.2087423E0,1.7286873E-1,2.1416855E-1,3.894043E-2,0E0,0E0,0E0,0E0,0E0,0E0,0E0,0E0,0E0,0E0,0E0,0E0,0E0,0E0,0E0,0E0],"parents":[2147483647,0,0,1,1,2,2,3,3,4,4,5,5,6,6,7,7,10,10,11,11,13,13,16,16,17,17,18,18,19,19,23,23,24,24,25,25,26,26,27,27,28,28,29,29,30,30],"right_children":[2,4,6,8,10,12,14,16,-1,-1,18,20,-1,22,-1,-1,24,26,28,30,-1,-1,-1,32,34,36,38,40,42,44,46,-1,-1,-1,-1,-1,-1,-1,-1,-1,-1,-1,-1,-1,-1,-1,-1],"split_conditions":[4.5E-1,4E-2,4.9E-1,8.9E-1,5.3E-1,9.1E-1,6.2E-1,3.2E-1,5.611938E-2,-2.0660093E-1,4.3E-1,9.9E-1,-2.125469E-2,4.3E-1,8.227818E-2,2.3962455E-2,2.5E-1,2.3E-1,5.2E-1,1.7E-1,-1.7041039E-2,-1.7200094E-1,9.813992E-3,2.7E-1,2E-2,2.6E-1,7.6E-1,4.9E-1,4E-2,8.5E-1,9.1E-1,-1.5014288E-1,1.5395285E-1,-4.415489E-2,-2.2461173E-1,1.0219045E-1,-1.6448422E-1,-1.07606456E-1,4.5364283E-2,-1.7952794E-1,9.374368E-2,9.23228E-2,2.982705E-1,1.596465E-2,-1.2204625E-1,-1.7160957E-1,-9.876442E-2],"split_indices":[9,15,13,8,7,18,6,8,0,0,9,14,0,17,0,0,9,11,17,0,0,0,0,10,19,2,6,8,11,1,11,0,0,0,0,0,0,0,0,0,0,0,0,0,0,0,0],"split_type":[0,0,0,0,0,0,0,0,0,0,0,0,0,0,0,0,0,0,0,0,0,0,0,0,0,0,0,0,0,0,0,0,0,0,0,0,0,0,0,0,0,0,0,0,0,0,0],"sum_hessian":[3.6799408E2,7.968515E1,2.8830893E2,2.1586372E1,5.8098778E1,2.8027835E2,8.030563E0,2.0058117E1,1.528254E0,5.480761E0,5.2618015E1,2.789415E2,1.3368429E0,6.287085E0,1.7434785E0,1.0460165E0,1.9012102E1,4.4796482E1,7.8215356E0,2.777338E2,1.2077223E0,5.231904E0,1.0551809E0,5.5218754E0,1.3490226E1,1.245391E1,3.234257E1,3.9758787E0,3.8456569E0,3.2302282E0,2.7450357E2,4.3712173E0,1.1506582E0,1.5558723E0,1.1934354E1,9.739496E0,2.7144134E0,2.7009054E1,5.3335166E0,2.081141E0,1.8947376E0,1.8981518E0,1.9475052E0,1.2085266E0,2.0217016E0,2.6923785E2,5.2656937E0],"tree_param":{"num_deleted":"0","num_feature":"20","num_nodes":"47","size_leaf_vector":"0"}},{"base_weights":[-3.8483655E-1,-1.880029E-1,-4.415239E-1,-1.14735715E-1,-4.2588168E-1,-4.483107E-1,-2.1093756E-1,5.2693863E-3,-4.0172797E-1,-1.9179454E-1,-1.113475E-1,-4.5223105E-1,-2.5415537E-1,1.10528715E-1,-3.257208E-1,-7.651718E-2,4.4010457E-1,-1.9916098E-1,5.8727022E-2,-3.9781207E-1,1.4910512E-1,-4.557174E-1,-2.502564E-1,1.8538648E-1,-1.7469351E-1,-1.3249022E-1,4.6135567E-2,4.989765E-1,-1.49025E-1,-1.07862376E-1,6.8298894E-1,-2.105369E-1,4.3745232E-1,6.2307317E-2,-2.0043732E-1,-1.3742492E-1,-2.2440083E-1,-1.1745607E-1,7.648146E-2,2.0249613E-1,-9.207766E-2,1.8122278E-2,2.2502226E-1,-6.0850218E-2,1.3549924E-1,-1.18109085E-1,6.985092E-2,8.516021E-2,2.7998102E-1,-1.5466267E-1,4.8515428E-2,1.8066156E-1,2.0811163E-2,-1.07640594E-1,2.6297973E-2],"categories":[],"categories_nodes":[],"categories_segments":[],"categories_sizes":[],"default_left":[1,0,1,0,0,1,0,0,1,0,0,0,0,0,1,0,0,0,0,0,0,1,0,0,0,0,0,0,0,0,1,0,0,0,0,0,0,0,0,0,0,0,0,0,0,0,0,0,0,0,0,0,0,0,0],"id":6,"left_children":[1,3,5,7,9,11,13,15,17,-1,19,21,23,-1,25,27,29,-1,31,33,-1,35,37,39,-1,-1,-1,41,43,45,47,49,51,-1,-1,-1,53,-1,-1,-1,-1,-1,-1,-1,-1,-1,-1,-1,-1,-1,-1,-1,-1,-1,-1],"loss_changes":[3.6852722E0,1.2976079E0,3.1461334E-1,2.0834565E0,1.1253176E0,7.77092E-2,7.4274147E-1,1.5842872E0,2.1913745E0,0E0,1.6644133E0,5.974579E-2,1.1598198E0,0E0,5.318272E-1,1.6412548E0,1.0120515E0,0E0,8.454785E-1,1.1661803E0,0E0,2.930069E-2,5.569812E-1,1.1413683E0,0E0,0E0,0E0,4.4272017E-1,1.1944165E0,3.8663912E-1,2.3669791E-1,6.5026975E-1,1.6409308E-1,0E0,0E0,0E0,2.1616355E-1,0E0,0E0,0E0,0E0,0E0,0E0,0E0,0E0,0E0,0E0,0E0,0E0,0E0,0E0,0E0,0E0,0E0,0E0],"parents":[2147483647,0,0,1,1,2,2,3,3,4,4,5,5,6,6,7,7,8,8,10,10,11,11,12,12,14,14,15,15,16,16,18,18,19,19,21,21,22,22,23,23,27,27,28,28,29,29,30,30,31,31,32,32,36,36],"right_children":[2,4,6,8,10,12,14,16,18,-1,20,22,24,-1,26,28,30,-1,32,34,-1,36,38,40,-1,-1,-1,42,44,46,48,50,52,-1,-1,-1,54,-1,-1,-1,-1,-1,-1,-1,-1,-1,-1,-1,-1,-1,-1,-1,-1,-1,-1],"split_conditions":[4.5E-1,4E-1,7.6E-1,6.9E-1,6.4E-1,1.6E-1,3.2E-1,6.4E-1,7E-2,-1.9179454E-1,4.7E-1,9.8E-1,6.4E-1,1.10528715E-1,3.3E-1,3.7E-1,5.6E-1,-1.9916098E-1,4E-1,2.7E-1,1.4910512E-1,9.1E-1,7E-2,6.3E-1,-1.7469351E-1,-1.3249022E-1,4.6135567E-2,6E-1,8.2E-1,5.9E-1,3.8E-1,1E0,4.3E-1,6.2307317E-2,-2.0043732E-1,-1.3742492E-1,4.4E-1,-1.1745607E-1,7.648146E-2,2.0249613E-1,-9.207766E-2,1.8122278E-2,2.2502226E-1,-6.0850218E-2,1.3549924E-1,-1.18109085E-1,6.985092E-2,8.516021E-2,2.7998102E-1,-1.5466267E-1,4.8515428E-2,1.8066156E-1,2.0811163E-2,-1.07640594E-1,2.6297973E-2],"split_indices":[9,0,6,3,5,18,0,3,12,0,17,10,6,0,19,1,4,0,16,8,0,1,13,10,0,0,0,13,1,18,11,13,16,0,0,0,13,0,0,0,0,0,0,0,0,0,0,0,0,0,0,0,0,0,0],"split_type":[0,0,0,0,0,0,0,0,0,0,0,0,0,0,0,0,0,0,0,0,0,0,0,0,0,0,0,0,0,0,0,0,0,0,0,0,0,0,0,0,0,0,0,0,0,0,0,0,0,0,0,0,0,0,0],"sum_hessian":[3.367207E2,7.6255974E1,2.6046475E2,5.943285E1,1.682312E1,2.5210051E2,8.364237E0,4.260099E1,1.683186E1,9.407141E0,7.4159803E0,2.4580795E2,6.292558E0,1.0176885E0,7.346548E0,3.6550392E1,6.050598E0,1.0444134E1,6.387727E0,5.2771773E0,2.138803E0,2.4040196E2,5.405983E0,2.8757558E0,3.4168024E0,5.979964E0,1.3665841E0,3.4316592E0,3.3118732E1,2.0289752E0,4.021623E0,3.99294E0,2.3947866E0,1.7002525E0,3.5769248E0,2.3699792E2,3.4040344E0,4.4005113E0,1.0054718E0,1.2558084E0,1.6199474E0,1.7010928E0,1.7305663E0,3.100378E1,2.1149535E0,1.0187347E0,1.0102406E0,2.3724642E0,1.6491588E0,1.9831438E0,2.0097961E0,1.2149247E0,1.179862E0,2.2746046E0,1.1294297E0],"tree_param":{"num_deleted":"0","num_feature":"20","num_nodes":"55","size_leaf_vector":"0"}},{"base_weights":[-2.9608598E-1,-4.15869E-2,-3.2956904E-1,1.889058E-1,-2.1134062E-1,-2.3329973E-1,-3.5375625E-1,-1.03520915E-1,2.946328E-1,-3.9377424E-1,1.0328497E-1,-2.7993542E-1,2.559138E-1,-1.6525157E-3,-3.555371E-1,-1.034779E-1,3.87461E-1,1.8212022E-1,-5.1739436E-1,-3.3422053E-1,3.9140052E-1,-3.1930882E-1,-2.0171007E-2,-1.6063696E-1,2.1382974E-1,-2.365606E-1,-3.630783E-1,6.1813617E-1,1.1789786E-1,-1.0854774E-2,9.778898E-2,-1.4896263E-1,-6.479E-1,2.0918451E-2,-1.4889823E-1,6.1173606E-1,-1.0836274E-2,-9.144461E-2,-3.798682E-1,-5.184149E-1,4.4002447E-1,5.127287E-2,-1.2582992E-1,-1.0715806E-1,9.609155E-2,1.4949117E-2,-3.660629E-1,4.1208747E-3,2.2955476E-1,-7.490403E-2,1.1971261E-1,1.1786426E-1,-1.2702152E-1,-2.1036947E-1,-3.7841395E-2,2.2600412E-1,5.591749E-2,-9.748287E-2,1.6866775E-1,-1.278964E-1,1.5113469E-2,-1.9525483E-1,-2.2738934E-2,2.2971793E-1,2.7074574E-2,-8.148272E-2,2.1689667E-1,-1.108778E-1,-5.7953317E-2],"categories":[],"categories_nodes":[],"categories_segments":[],"categories_sizes":[],"default_left":[1,0,0,0,0,0,0,0,0,1,0,1,0,0,0,0,0,0,0,1,0,0,0,0,0,0,0,0,0,0,0,0,1,0,0,0,0,1,1,0,0,0,0,0,0,0,0,0,0,0,0,0,0,0,0,0,0,0,0,0,0,0,0,0,0,0,0,0,0],"id":7,"left_children":[1,3,5,7,9,11,13,-1,15,17,19,21,23,-1,25,-1,27,29,31,33,35,37,39,41,-1,43,45,47,49,-1,-1,51,53,-1,-1,55,-1,57,59,61,63,-1,-1,-1,65,-1,67,-1,-1,-1,-1,-1,-1,-1,-1,-1,-1,-1,-1,-1,-1,-1,-1,-1,-1,-1,-1,-1,-1],"loss_changes":[2.6532745E0,1.5084856E0,5.611572E-1,1.030179E0,1.3083975E0,1.4050517E0,1.3385773E-1,0E0,9.807192E-1,1.1043E0,1.2524917E0,5.441842E-1,1.1818942E0,0E0,1.0958481E-1,0E0,7.311586E-1,1.1375386E-1,4.7763872E-1,3.0129698E-1,5.708826E-1,6.094508E-1,2.0976262E0,3.9344347E-1,0E0,6.7059934E-1,2.684269E-1,5.878067E-1,8.435235E-1,0E0,0E0,8.2391E-1,1.4860249E-1,0E0,0E0,9.450793E-2,0E0,1.8797708E0,7.522502E-1,2.0706344E-1,4.7538555E-1,0E0,0E0,0E0,1.3507054E0,0E0,5.167198E-2,0E0,0E0,0E0,0E0,0E0,0E0,0E0,0E0,0E0,0E0,0E0,0E0,0E0,0E0,0E0,0E0,0E0,0E0,0E0,0E0,0E0,0E0],"parents":[2147483647,0,0,1,1,2,2,3,3,4,4,5,5,6,6,8,8,9,9,10,10,11,11,12,12,14,14,16,16,17,17,18,18,19,19,20,20,21,21,22,22,23,23,25,25,26,26,27,27,28,28,31,31,32,32,35,35,37,37,38,38,39,39,40,40,44,44,46,46],"right_children":[2,4,6,8,10,12,14,-1,16,18,20,22,24,-1,26,-1,28,30,32,34,36,38,40,42,-1,44,46,48,50,-1,-1,52,54,-1,-1,56,-1,58,60,62,64,-1,-1,-1,66,-1,68,-1,-1,-1,-1,-1,-1,-1,-1,-1,-1,-1,-1,-1,-1,-1,-1,-1,-1,-1,-1,-1,-1],"split_conditions":[3.3E-1,1.3E-1,5E-1,4E-2,3.2E-1,5.4E-1,1E-1,-1.03520915E-1,5.4E-1,9E-2,5.5E-1,5.7E-1,5.8E-1,-1.6525157E-3,4E-2,-1.034779E-1,5.9E-1,8.5E-1,4E-2,3.5E-1,6E-1,1.3E-1,5.5E-1,6.3E-1,2.1382974E-1,5.6E-1,1.7E-1,5.1E-1,3.5E-1,-1.0854774E-2,9.778898E-2,4.7E-1,2.9E-1,2.0918451E-2,-1.4889823E-1,5E-2,-1.0836274E-2,5E-1,5.8E-1,4E-1,6.2E-1,5.127287E-2,-1.2582992E-1,-1.0715806E-1,3.6E-1,1.4949117E-2,9.8E-1,4.1208747E-3,2.2955476E-1,-7.490403E-2,1.1971261E-1,1.1786426E-1,-1.2702152E-1,-2.1036947E-1,-3.7841395E-2,2.2600412E-1,5.591749E-2,-9.748287E-2,1.6866775E-1,-1.278964E-1,1.5113469E-2,-1.9525483E-1,-2.2738934E-2,2.2971793E-1,2.7074574E-2,-8.148272E-2,2.1689667E-1,-1.108778E-1,-5.7953317E-2],"split_indices":[9,18,9,15,10,15,8,0,5,9,4,17,18,0,19,0,3,17,2,10,8,17,1,2,0,16,0,13,16,0,0,16,19,0,0,2,0,8,16,9,1,0,0,0,4,0,10,0,0,0,0,0,0,0,0,0,0,0,0,0,0,0,0,0,0,0,0,0,0],"split_type":[0,0,0,0,0,0,0,0,0,0,0,0,0,0,0,0,0,0,0,0,0,0,0,0,0,0,0,0,0,0,0,0,0,0,0,0,0,0,0,0,0,0,0,0,0,0,0,0,0,0,0,0,0,0,0,0,0,0,0,0,0,0,0,0,0,0,0,0,0],"sum_hessian":[3.1197394E2,3.653322E1,2.7544073E2,1.5446729E1,2.108649E1,5.744504E1,2.179957E2,2.1788144E0,1.3267914E1,1.3187968E1,7.898522E0,5.2836075E1,4.608967E0,1.1299297E0,2.1686577E2,1.3374603E0,1.1930453E1,2.2469845E0,1.0940984E1,3.0726533E0,4.8258686E0,4.5682583E1,7.153492E0,2.749969E0,1.8589976E0,1.4855847E1,2.0200992E2,5.732143E0,6.1983104E0,1.189779E0,1.0572053E0,3.4219291E0,7.5190544E0,1.043143E0,2.0295103E0,2.9002504E0,1.925618E0,1.0118845E1,3.5563736E1,3.374011E0,3.7794807E0,1.3544132E0,1.3955559E0,1.0848115E1,4.0077324E0,1.337073E0,2.0067284E2,1.3356552E0,4.396488E0,2.7347348E0,3.4635756E0,1.0053881E0,2.416541E0,6.5097017E0,1.009353E0,1.5973089E0,1.3029417E0,7.8261523E0,2.292693E0,3.210638E1,3.4573572E0,2.2348702E0,1.1391408E0,1.3413035E0,2.438177E0,2.8833008E0,1.1244318E0,1.9554274E2,5.130108E0],"tree_param":{"num_deleted":"0","num_feature":"20","num_nodes":"69","size_leaf_vector":"0"}},{"base_weights":[-2.2475782E-1,-2.506252E-1,-1.7243762E-2,-2.5933492E-1,-4.473773E-2,2.7879828E-1,-1.2692387E-1,-2.6310062E-1,1.3344122E-1,2.6680198E-1,-3.3277333E-1,5.068606E-2,5.247063E-1,-4.3808067E-1,-1.8984916E-2,-2.7636358E-1,-1.449204E-1,1.4346077E-1,-8.179243E-2,4.8817006E-1,-5.953327E-2,2.3771817E-2,-4.590849E-1,-2.894488E-1,3.7679803E-1,5.463243E-2,2.0901416E-1,-1.5490173E-1,-1.4086664E-2,1.8933044E-1,-2.9589987E-1,-3.7233868E-1,-2.6593298E-1,7.4453205E-2,-2.5830197E-1,2.2321464E-1,-2.2319052E-2,-1.8139634E-1,-1.7852367E-1,1.022267E-2,-1.3095164E-1,2.119202E-1,-3.7253715E-2,-1.02754995E-1,4.3442163E-1,5.5990167E-2,-4.133635E-1,-1.2838754E-1,1.000981E-2,1.4121667E-2,-8.17869E-2,-7.821128E-2,1.5212741E-1,-9.535305E-2,1.03315406E-1,-7.301534E-4,-8.369753E-2,5.0497137E-2,-1.1485033E-1,1.815922E-1,3.7492435E-2,-3.0652244E-2,-1.8454093E-1],"categories":[],"categories_nodes":[],"categories_segments":[],"categories_sizes":[],"default_left":[1,1,0,1,0,0,0,1,0,0,0,0,0,1,1,1,0,0,0,0,0,0,1,0,0,0,0,0,0,0,0,0,0,0,0,0,0,0,0,0,0,0,0,0,0,0,0,0,0,0,0,0,0,0,0,0,0,0,0,0,0,0,0],"id":8,"left_children":[1,3,5,7,9,11,13,15,17,19,21,23,25,27,29,31,33,-1,-1,35,-1,-1,37,39,41,-1,-1,-1,-1,43,45,47,49,51,53,-1,-1,55,-1,-1,-1,-1,-1,57,59,-1,61,-1,-1,-1,-1,-1,-1,-1,-1,-1,-1,-1,-1,-1,-1,-1,-1],"loss_changes":[1.5704422E0,4.560337E-1,1.1260577E0,4.0485764E-1,1.1469861E0,5.003228E-1,8.3794236E-1,3.4859085E-1,5.556255E-1,7.3749304E-1,3.7841904E-1,7.723711E-1,1.3320434E-1,1.7300427E-1,1.1954662E0,1.2305069E-1,6.938174E-1,0E0,0E0,7.0366716E-1,0E0,0E0,8.757675E-2,1.8103918E-1,6.63563E-1,0E0,0E0,0E0,0E0,8.9527094E-1,5.7991403E-1,4.4856668E-1,4.3913937E-1,1.5847496E0,7.5911474E-1,0E0,0E0,5.417329E-2,0E0,0E0,0E0,0E0,0E0,5.374557E-1,2.761228E-1,0E0,4.0460086E-1,0E0,0E0,0E0,0E0,0E0,0E0,0E0,0E0,0E0,0E0,0E0,0E0,0E0,0E0,0E0,0E0],"parents":[2147483647,0,0,1,1,2,2,3,3,4,4,5,5,6,6,7,7,8,8,9,9,10,10,11,11,12,12,13,13,14,14,15,15,16,16,19,19,22,22,23,23,24,24,29,29,30,30,31,31,32,32,33,33,34,34,37,37,43,43,44,44,46,46],"right_children":[2,4,6,8,10,12,14,16,18,20,22,24,26,28,30,32,34,-1,-1,36,-1,-1,38,40,42,-1,-1,-1,-1,44,46,48,50,52,54,-1,-1,56,-1,-1,-1,-1,-1,58,60,-1,62,-1,-1,-1,-1,-1,-1,-1,-1,-1,-1,-1,-1,-1,-1,-1,-1],"split_conditions":[6.6E-1,3.6E-1,4E-2,3E-1,4.5E-1,4E-1,5.5E-1,4.2E-1,5.3E-1,6E-1,3.3E-1,6.4E-1,3.5E-1,4.5E-1,3.6E-1,4.3E-1,4.7E-1,1.4346077E-1,-8.179243E-2,6.3E-1,-5.953327E-2,2.3771817E-2,3.1E-1,3.1E-1,6.2E-1,5.463243E-2,2.0901416E-1,-1.5490173E-1,-1.4086664E-2,3.1E-1,5.9E-1,8.1E-1,4.6E-1,4.7E-1,7.8E-1,2.2321464E-1,-2.2319052E-2,3.8E-1,-1.7852367E-1,1.022267E-2,-1.3095164E-1,2.119202E-1,-3.7253715E-2,5.9E-1,6E-1,5.5990167E-2,2.5E-1,-1.2838754E-1,1.000981E-2,1.4121667E-2,-8.17869E-2,-7.821128E-2,1.5212741E-1,-9.535305E-2,1.03315406E-1,-7.301534E-4,-8.369753E-2,5.0497137E-2,-1.1485033E-1,1.815922E-1,3.7492435E-2,-3.0652244E-2,-1.8454093E-1],"split_indices":[13,15,18,19,8,10,7,17,19,10,14,6,16,16,14,10,8,0,0,15,0,0,19,14,5,0,0,0,0,18,6,7,10,3,7,0,0,1,0,0,0,0,0,3,17,0,0,0,0,0,0,0,0,0,0,0,0,0,0,0,0,0,0],"split_type":[0,0,0,0,0,0,0,0,0,0,0,0,0,0,0,0,0,0,0,0,0,0,0,0,0,0,0,0,0,0,0,0,0,0,0,0,0,0,0,0,0,0,0,0,0,0,0,0,0,0,0,0,0,0,0,0,0,0,0,0,0,0,0],"sum_hessian":[2.9236984E2,2.5977963E2,3.259021E1,2.4898705E2,1.0792578E1,8.393378E0,2.419683E1,2.469496E2,2.0374491E0,5.220162E0,5.572416E0,4.979942E0,3.4134367E0,5.444195E0,1.8752636E1,2.2082831E2,2.6121296E1,1.0058719E0,1.0315772E0,3.5037675E0,1.7163947E0,1.3949448E0,4.177471E0,2.4925923E0,2.4873495E0,1.8290749E0,1.5843617E0,4.269744E0,1.1744511E0,1.0882399E1,7.870237E0,1.8245888E1,2.0258241E2,9.0174465E0,1.7103848E1,2.1866105E0,1.317157E0,2.1405334E0,2.0369377E0,1.019024E0,1.4735684E0,1.252958E0,1.2343913E0,5.230153E0,5.6522455E0,1.4254999E0,6.444737E0,1.5997826E1,2.2480614E0,4.1129947E0,1.9846942E2,5.3050904E0,3.7123563E0,1.5996155E1,1.1076933E0,1.1170735E0,1.0234599E0,2.860547E0,2.3696063E0,3.0254228E0,2.6268225E0,3.1275604E0,3.3171768E0],"tree_param":{"num_deleted":"0","num_feature":"20","num_nodes":"63","size_leaf_vector":"0"}}]},"name":"gbtree"},"learner_model_param":{"base_score":"5E-1","num_class":"0","num_feature":"20","num_target":"1"},"objective":{"name":"reg:squarederror","reg_loss_param":{"scale_pos_weight":"1"}}},"version":[1,6,2]}