{"learner":{"attributes":{"best_ntree_limit":"12"},"feature_names":[],"feature_types":["q","q","q","q","q","q","q","q","q","q","q","q","q","q","q","q","q","q","q","q"],"gradient_booster":{"model":{"gbtree_model_param":{"num_parallel_tree":"1","num_trees":"7","size_leaf_vector":"0"},"tree_info":[0,0,0,0,0,0,0],"trees":[{"base_weights":[-1.9590548E0,-5.429718E-1,-2.0736616E0,1.6596182E-1,-1.0594631E0,-1.6062013E0,-2.132108E0,-3.885424E-1,3.3183572E-1,2.0100513E-1,-1.2723945E0,-1.7995354E0,-5.439031E-1,-2.1373203E0,-1.3738716E-1,-7.142064E-1,2.5034127E-1,-2.085577E-1,2.5034127E-1,2.9313175E-2,-1.4239459E0,-1.8372264E0,-6.857081E-2,3.913529E-1,-9.603735E-1,-2.3569392E-1,-6.427554E-1,-1.0102663E0,2.1140294E-1,7.141607E-2,-1.5664436E0,-1.9771075E0,-1.3199584E0,-6.857081E-2,2.3316278E-1,-4.3819764E-1,6.185169E-3,-4.118528E-1,1.0964613E-1,-6.857081E-2,-4.9808794E-1,-6.1108685E-1,-6.857081E-2,6.427093E-2,-4.958942E-1,2.1140294E-1,-2.085577E-1],"categories":[],"categories_nodes":[],"categories_segments":[],"categories_sizes":[],"default_left":[1,0,0,0,1,1,1,0,0,0,0,0,0,1,0,0,0,0,0,0,0,1,0,0,0,0,0,0,0,0,0,0,0,0,0,0,0,0,0,0,0,0,0,0,0,0,0],"id":0,"left_children":[1,3,5,7,9,11,13,15,-1,17,19,21,23,25,-1,27,-1,-1,-1,-1,29,31,-1,33,35,-1,-1,37,-1,-1,39,41,43,-1,-1,-1,45,-1,-1,-1,-1,-1,-1,-1,-1,-1,-1],"loss_changes":[7.305481E1,1.3202824E1,8.118774E0,8.697801E0,5.8162613E0,9.497345E0,2.2717285E0,4.8640723E0,0E0,2.7701428E0,3.8476295E0,2.109665E0,3.993258E0,9.234619E-1,0E0,4.493171E0,0E0,0E0,0E0,0E0,4.1966553E0,3.987732E-1,0E0,1.0320433E0,3.2562475E0,0E0,0E0,4.421624E0,0E0,0E0,1.5042E0,2.7491379E0,6.413166E0,0E0,0E0,0E0,2.099774E0,0E0,0E0,0E0,0E0,0E0,0E0,0E0,0E0,0E0,0E0],"parents":[2147483647,0,0,1,1,2,2,3,3,4,4,5,5,6,6,7,7,9,9,10,10,11,11,12,12,13,13,15,15,20,20,21,21,23,23,24,24,27,27,30,30,31,31,32,32,36,36],"right_children":[2,4,6,8,10,12,14,16,-1,18,20,22,24,26,-1,28,-1,-1,-1,-1,30,32,-1,34,36,-1,-1,38,-1,-1,40,42,44,-1,-1,-1,46,-1,-1,-1,-1,-1,-1,-1,-1,-1,-1],"split_conditions":[2.9E-1,1E0,4.5E-1,2.6E-1,9E-2,5.4E-1,9.1E-1,3E-1,3.3183572E-1,4E-2,3.6E-1,6.3E-1,4.1E-1,7E-2,-1.3738716E-1,7.7E-1,2.5034127E-1,-2.085577E-1,2.5034127E-1,2.9313175E-2,3.5E-1,5E-1,-6.857081E-2,3E-1,6.9E-1,-2.3569392E-1,-6.427554E-1,3.9E-1,2.1140294E-1,7.141607E-2,5.1E-1,1.9E-1,4.6E-1,-6.857081E-2,2.3316278E-1,-4.3819764E-1,3.8E-1,-4.118528E-1,1.0964613E-1,-6.857081E-2,-4.9808794E-1,-6.1108685E-1,-6.857081E-2,6.427093E-2,-4.958942E-1,2.1140294E-1,-2.085577E-1],"split_indices":[9,19,9,11,9,17,18,19,0,2,8,15,13,14,0,3,0,0,0,0,4,8,0,0,6,0,0,10,0,0,5,2,1,0,0,0,1,0,0,0,0,0,0,0,0,0,0],"split_type":[0,0,0,0,0,0,0,0,0,0,0,0,0,0,0,0,0,0,0,0,0,0,0,0,0,0,0,0,0,0,0,0,0,0,0,0,0,0,0,0,0,0,0,0,0,0,0],"sum_hessian":[4.5608017E2,3.4577507E1,4.2150266E2,1.4859755E1,1.9717752E1,5.000879E1,3.7149387E2,9.715994E0,5.143761E0,2.857645E0,1.6860106E1,4.172162E1,8.287171E0,3.7006503E2,1.4288225E0,8.001407E0,1.7145871E0,1.1430581E0,1.7145871E0,1.7145871E0,1.5145519E1,4.057856E1,1.1430581E0,2.5718806E0,5.71529E0,2.0003517E0,3.680647E2,6.8583484E0,1.1430581E0,1.1430581E0,1.4002461E1,2.971951E1,1.0859052E1,1.1430581E0,1.4288225E0,3.4291742E0,2.2861161E0,5.429526E0,1.4288225E0,1.1430581E0,1.2859404E1,2.8576452E1,1.1430581E0,2.0003517E0,8.8587E0,1.1430581E0,1.1430581E0],"tree_param":{"num_deleted":"0","num_feature":"20","num_nodes":"47","size_leaf_vector":"0"}},{"base_weights":[-1.3999536E0,-4.8273984E-1,-1.4705276E0,4.2365894E-2,-8.38305E-1,-1.4987847E0,-1.0794833E0,-3.5769233E-1,2.4122815E-1,1.01158634E-1,-9.391816E-1,-4.4914372E-2,-1.5023178E0,-1.303646E0,-2.0323734E-1,-5.846056E-1,2.0578517E-1,1.6490407E-2,-1.0214925E0,-1.5050352E0,-1.326533E-1,-4.261782E-1,-1.9661038E-1,2.5174165E-1,-5.635618E-1,-8.484641E-1,1.7585728E-1,-1.1035017E0,4.395923E-2,-9.0833074E-1,-4.5323157E-1,-2.9483148E-1,2.394759E-1,-3.2763582E-1,3.0008915E-1,1.5115327E-2,-3.6558294E-1,-3.8668153E-1,-2.0713072E-1,-3.7176156E-1,3.3697E-2,1.9230606E-1,-5.3983133E-2],"categories":[],"categories_nodes":[],"categories_segments":[],"categories_sizes":[],"default_left":[1,0,1,0,0,0,0,0,0,0,0,0,1,1,0,0,0,0,0,0,0,0,0,0,0,0,0,0,0,0,0,0,0,0,0,0,0,0,0,0,0,0,0],"id":1,"left_children":[1,3,5,7,9,11,13,15,-1,-1,17,-1,19,21,23,25,-1,-1,27,29,-1,-1,31,-1,33,35,-1,37,-1,39,-1,-1,-1,-1,41,-1,-1,-1,-1,-1,-1,-1,-1],"loss_changes":[3.0454102E1,6.7356825E0,3.3162842E0,4.992872E0,2.8596582E0,1.7478638E0,6.3481255E0,2.962343E0,0E0,0E0,1.6939163E0,0E0,5.233154E-1,3.1676674E0,3.4938455E0,3.408654E0,0E0,0E0,1.9371452E0,3.540039E-2,0E0,0E0,3.6819024E0,0E0,3.3292549E0,2.7560825E0,0E0,4.456482E-1,0E0,2.3084798E0,0E0,0E0,0E0,0E0,6.5227115E-1,0E0,0E0,0E0,0E0,0E0,0E0,0E0,0E0],"parents":[2147483647,0,0,1,1,2,2,3,3,4,4,5,5,6,6,7,7,10,10,12,12,13,13,14,14,15,15,18,18,19,19,22,22,24,24,25,25,27,27,29,29,34,34],"right_children":[2,4,6,8,10,12,14,16,-1,-1,18,-1,20,22,24,26,-1,-1,28,30,-1,-1,32,-1,34,36,-1,38,-1,40,-1,-1,-1,-1,42,-1,-1,-1,-1,-1,-1,-1,-1],"split_conditions":[2.9E-1,1E0,5E-1,2.6E-1,2.8E-1,1E-1,6.9E-1,2.6E-1,2.4122815E-1,1.01158634E-1,1E-1,-4.4914372E-2,9.1E-1,6E-2,3E-2,3E-1,2.0578517E-1,1.6490407E-2,6.6E-1,1.9E-1,-1.326533E-1,-4.261782E-1,3.1E-1,2.5174165E-1,1.1E-1,1.4E-1,1.7585728E-1,6.3E-1,4.395923E-2,6.1E-1,-4.5323157E-1,-2.9483148E-1,2.394759E-1,-3.2763582E-1,4.3E-1,1.5115327E-2,-3.6558294E-1,-3.8668153E-1,-2.0713072E-1,-3.7176156E-1,3.3697E-2,1.9230606E-1,-5.3983133E-2],"split_indices":[9,19,13,11,16,16,7,9,0,0,17,0,18,19,18,19,0,0,8,0,0,0,14,0,15,11,0,4,0,6,0,0,0,0,10,0,0,0,0,0,0,0,0],"split_type":[0,0,0,0,0,0,0,0,0,0,0,0,0,0,0,0,0,0,0,0,0,0,0,0,0,0,0,0,0,0,0,0,0,0,0,0,0,0,0,0,0,0,0],"sum_hessian":[4.8043478E2,3.488555E1,4.4554922E2,1.4440453E1,2.0445099E1,4.1288147E2,3.266776E1,9.815689E0,4.6247635E0,1.4307009E0,1.9014399E1,1.1917843E0,4.116897E2,2.5624655E1,7.043105E0,8.423958E0,1.3917313E0,1.4793253E0,1.7535072E1,4.1021857E2,1.4711094E0,2.292012E1,2.7045348E0,1.4678748E0,5.57523E0,7.0993185E0,1.3246394E0,1.6436289E1,1.0987834E0,5.4235578E0,4.04795E2,1.5175166E0,1.1870182E0,3.2944667E0,2.2807636E0,2.32274E0,4.7765784E0,9.880323E0,6.555966E0,3.9340832E0,1.4894745E0,1.1375095E0,1.143254E0],"tree_param":{"num_deleted":"0","num_feature":"20","num_nodes":"43","size_leaf_vector":"0"}},{"base_weights":[-1.1553335E0,-4.9723846E-1,-1.220906E0,-6.023198E-1,3.6464438E-1,-1.2391022E0,-6.975452E-1,-2.0388213E-1,-8.144122E-1,-1.2089918E-1,2.0588766E-1,-1.2422607E0,-2.871847E-2,-9.469859E-1,2.62503E-1,-2.4847476E-2,-2.4212359E-1,-3.422773E-1,-9.964883E-1,-1.2473546E0,-5.186237E-1,-1.0905421E0,1.5091613E-2,-2.690482E-1,1.8376733E-1,-2.8836346E-1,1.6926141E-1,1.2313162E-3,-1.0886778E0,-3.7809202E-1,-9.5530725E-1,1.03997216E-1,-2.783723E-1,-6.121267E-2,-3.5540298E-1,-1.6644153E-1,1.4536995E-1,-1.0305755E-1,2.0510928E-1,-3.5858622E-1,-1.2242634E-1,-9.127183E-2,-3.4332892E-1],"categories":[],"categories_nodes":[],"categories_segments":[],"categories_sizes":[],"default_left":[1,0,1,0,0,0,0,0,0,0,0,1,0,1,0,0,0,0,0,1,0,0,0,0,0,0,0,0,0,0,0,0,0,0,0,0,0,0,0,0,0,0,0],"id":2,"left_children":[1,3,5,7,9,11,13,15,17,-1,-1,19,-1,21,-1,23,-1,25,27,29,31,33,-1,35,-1,-1,37,-1,39,-1,41,-1,-1,-1,-1,-1,-1,-1,-1,-1,-1,-1,-1],"loss_changes":[1.8716614E1,4.0472574E0,3.0072021E0,3.0491323E0,1.5643654E0,1.295227E0,7.0841694E0,1.5513625E0,1.7646961E0,0E0,0E0,7.922363E-1,0E0,2.0941982E0,0E0,2.0719595E0,0E0,2.8034425E0,1.5869274E0,2.5982666E-1,1.8943579E0,8.010788E-1,0E0,2.3261688E0,0E0,0E0,1.6638031E0,0E0,6.5221024E-1,0E0,2.1841145E0,0E0,0E0,0E0,0E0,0E0,0E0,0E0,0E0,0E0,0E0,0E0,0E0],"parents":[2147483647,0,0,1,1,2,2,3,3,4,4,5,5,6,6,7,7,8,8,11,11,13,13,15,15,17,17,18,18,19,19,20,20,21,21,23,23,26,26,28,28,30,30],"right_children":[2,4,6,8,10,12,14,16,18,-1,-1,20,-1,22,-1,24,-1,26,28,30,32,34,-1,36,-1,-1,38,-1,40,-1,42,-1,-1,-1,-1,-1,-1,-1,-1,-1,-1,-1,-1],"split_conditions":[3.3E-1,3.2E-1,7.6E-1,8E-1,6.5E-1,8.1E-1,5.5E-1,8.9E-1,1.9E-1,-1.2089918E-1,2.0588766E-1,4.2E-1,-2.871847E-2,1E-1,2.62503E-1,7.4E-1,-2.4212359E-1,7E-2,3E-1,5.3E-1,6.4E-1,2E-2,1.5091613E-2,6.4E-1,1.8376733E-1,-2.8836346E-1,1.8E-1,1.2313162E-3,3.9E-1,-3.7809202E-1,4.7E-1,1.03997216E-1,-2.783723E-1,-6.121267E-2,-3.5540298E-1,-1.6644153E-1,1.4536995E-1,-1.0305755E-1,2.0510928E-1,-3.5858622E-1,-1.2242634E-1,-9.127183E-2,-3.4332892E-1],"split_indices":[9,9,6,19,6,7,8,17,11,0,0,12,0,12,0,6,0,11,1,17,6,18,0,4,0,0,9,0,11,0,10,0,0,0,0,0,0,0,0,0,0,0,0],"split_type":[0,0,0,0,0,0,0,0,0,0,0,0,0,0,0,0,0,0,0,0,0,0,0,0,0,0,0,0,0,0,0,0,0,0,0,0,0,0,0,0,0,0,0],"sum_hessian":[4.4679648E2,4.1262543E1,4.0553394E2,3.7046917E1,4.215626E0,3.9058646E2,1.494748E1,1.3551085E1,2.349583E1,1.1701181E0,3.0455077E0,3.894242E2,1.1622357E0,1.3244435E1,1.703045E0,1.1252442E1,2.2986429E0,7.3407235E0,1.6155106E1,3.859834E2,3.4408064E0,1.1496111E1,1.7483243E0,8.553393E0,2.699049E0,2.9239016E0,4.416822E0,1.443487E0,1.4711619E1,3.6641763E2,1.9565771E1,1.1540354E0,2.286771E0,1.4076165E0,1.0088494E1,6.393068E0,2.160326E0,2.378339E0,2.038483E0,1.2065409E1,2.6462107E0,4.9913554E0,1.4574416E1],"tree_param":{"num_deleted":"0","num_feature":"20","num_nodes":"43","size_leaf_vector":"0"}},{"base_weights":[-1.0117905E0,-5.206103E-1,-1.0877547E0,-6.558088E-1,-1.2203814E-2,-1.1027187E0,-6.374232E-1,-2.16327E-1,-8.344745E-1,-2.349832E-1,1.9407281E-1,-3.34743E-1,-8.042456E-1,-8.062241E-1,1.9410218E-1,-5.3789645E-1,3.7415656E-1,-9.000883E-1,-1.3919812E-1,1.5233994E-1,-4.0114474E-1,1.995325E-2,-1.0322562E0,6.280185E-2,-9.218063E-1,-8.076316E-1,1.2404124E-1,-1.5635398E-1,2.4780083E-1,-4.8066854E-1,-1.005102E0,-2.6939696E-1,2.1074541E-1,-7.2135484E-1,8.62699E-2,-2.0427787E-1,2.3613964E-1,-9.082454E-2,-3.2122505E-1,-6.1490986E-2,-3.0102876E-1,-3.0871093E-1,4.954604E-3,8.115988E-2,-2.5729448E-1,-3.6576512E-1,-1.9866565E-1,-2.67919E-1,-3.5557956E-2,-1.19761944E-1,1.4288418E-1],"categories":[],"categories_nodes":[],"categories_segments":[],"categories_sizes":[],"default_left":[1,1,1,1,0,1,0,1,1,0,0,0,0,0,0,1,0,0,0,0,0,0,0,0,0,1,0,0,0,0,1,0,0,0,0,0,0,0,0,0,0,0,0,0,0,0,0,0,0,0,0],"id":3,"left_children":[1,3,5,7,9,11,13,15,17,19,-1,-1,21,23,-1,25,27,29,31,-1,33,35,37,-1,39,41,-1,-1,-1,43,45,-1,-1,47,49,-1,-1,-1,-1,-1,-1,-1,-1,-1,-1,-1,-1,-1,-1,-1,-1],"loss_changes":[1.4210785E1,3.7699938E0,1.6022644E0,3.22719E0,1.9970107E0,3.9086914E-1,3.4206715E0,2.8394275E0,1.2663536E0,1.4532748E0,0E0,0E0,3.2970314E0,1.632441E0,0E0,2.7475128E0,2.6508512E0,7.365608E-1,3.0663643E0,0E0,1.4407272E0,3.094937E0,5.9864044E-2,0E0,4.4936275E-1,1.4158802E0,0E0,0E0,0E0,2.3450608E0,7.5125694E-1,0E0,0E0,4.5695996E-1,1.0222933E0,0E0,0E0,0E0,0E0,0E0,0E0,0E0,0E0,0E0,0E0,0E0,0E0,0E0,0E0,0E0,0E0],"parents":[2147483647,0,0,1,1,2,2,3,3,4,4,5,5,6,6,7,7,8,8,9,9,12,12,13,13,15,15,16,16,17,17,18,18,20,20,21,21,22,22,24,24,25,25,29,29,30,30,33,33,34,34],"right_children":[2,4,6,8,10,12,14,16,18,20,-1,-1,22,24,-1,26,28,30,32,-1,34,36,38,-1,40,42,-1,-1,-1,44,46,-1,-1,48,50,-1,-1,-1,-1,-1,-1,-1,-1,-1,-1,-1,-1,-1,-1,-1,-1],"split_conditions":[3.9E-1,5E-2,7.6E-1,1.9E-1,3.8E-1,5.3E-1,5.5E-1,2E-2,8.8E-1,1.6E-1,1.9407281E-1,-3.34743E-1,4.7E-1,7.7E-1,1.9410218E-1,1.7E-1,1E-1,4.1E-1,2.6E-1,1.5233994E-1,2.4E-1,4.5E-1,4.6E-1,6.280185E-2,2E-2,5E-2,1.2404124E-1,-1.5635398E-1,2.4780083E-1,3.5E-1,3.3E-1,-2.6939696E-1,2.1074541E-1,6.6E-1,1.9E-1,-2.0427787E-1,2.3613964E-1,-9.082454E-2,-3.2122505E-1,-6.1490986E-2,-3.0102876E-1,-3.0871093E-1,4.954604E-3,8.115988E-2,-2.5729448E-1,-3.6576512E-1,-1.9866565E-1,-2.67919E-1,-3.5557956E-2,-1.19761944E-1,1.4288418E-1],"split_indices":[9,19,6,11,9,17,8,18,17,16,0,0,10,6,0,11,11,1,11,0,11,11,9,0,18,12,0,0,0,10,10,0,0,3,17,0,0,0,0,0,0,0,0,0,0,0,0,0,0,0,0],"split_type":[0,0,0,0,0,0,0,0,0,0,0,0,0,0,0,0,0,0,0,0,0,0,0,0,0,0,0,0,0,0,0,0,0,0,0,0,0,0,0,0,0,0,0,0,0,0,0,0,0,0,0],"sum_hessian":[3.9503903E2,5.396403E1,3.41075E2,4.239908E1,1.1564953E1,3.2870386E2,1.2371146E1,1.2893772E1,2.9505306E1,9.124403E0,2.4405503E0,3.1226917E2,1.6434692E1,1.1263233E1,1.107913E0,8.4053755E0,4.4883976E0,2.6691801E1,2.8135042E0,1.2921432E0,7.8322597E0,3.7590826E0,1.267561E1,1.0680065E0,1.0195227E1,6.6663814E0,1.7389939E0,1.4539464E0,3.034451E0,6.461618E0,2.0230183E1,1.4444284E0,1.3690758E0,4.437231E0,3.3950284E0,2.0231767E0,1.7359059E0,1.0796518E0,1.1595958E1,1.4011445E0,8.794082E0,5.0587535E0,1.6076276E0,2.2534907E0,4.2081275E0,1.088021E1,9.349974E0,3.0788128E0,1.3584182E0,1.5019087E0,1.8931198E0],"tree_param":{"num_deleted":"0","num_feature":"20","num_nodes":"51","size_leaf_vector":"0"}},{"base_weights":[-9.1457677E-1,-4.6238634E-1,-9.9158406E-1,-5.7419324E-1,-5.037121E-2,-1.006918E0,-5.6051624E-1,-2.1178542E-1,-7.250035E-1,-2.290667E-1,1.5021998E-1,-1.0150063E0,-5.2741385E-1,-5.302859E-2,-2.9476252E-1,1.4418454E-1,-3.749458E-1,-7.786109E-1,-1.5431133E-1,2.2882709E-1,-4.414092E-1,-1.0175948E0,-6.917392E-2,1.053465E-1,-7.6351404E-1,-1.8083647E-1,4.2284754E-1,-5.62578E-1,1.2282744E-1,-8.123015E-1,-6.4126994E-3,-2.3981483E-1,1.7134003E-1,-4.8615683E-2,1.447348E-1,-6.831368E-1,3.5503697E-2,-3.059212E-1,-6.6003695E-2,-6.143179E-2,-2.5763386E-1,-4.00777E-3,1.9972143E-1,-2.3749322E-4,-2.625489E-1,-2.527E-1,-2.0608326E-2,-2.6664028E-1,-2.870589E-3],"categories":[],"categories_nodes":[],"categories_segments":[],"categories_sizes":[],"default_left":[1,1,1,1,0,1,0,0,1,1,0,1,0,0,0,0,1,0,0,0,0,1,0,0,0,0,0,0,0,0,0,0,0,0,0,0,0,0,0,0,0,0,0,0,0,0,0,0,0],"id":4,"left_children":[1,3,5,7,9,11,13,15,17,19,-1,21,23,25,-1,-1,27,29,31,33,35,37,-1,-1,39,-1,41,43,-1,45,-1,-1,-1,-1,-1,47,-1,-1,-1,-1,-1,-1,-1,-1,-1,-1,-1,-1,-1],"loss_changes":[1.140921E1,2.3419867E0,1.3547668E0,2.0537386E0,1.3044975E0,5.471802E-1,2.5669942E0,1.6804938E0,7.396984E-1,1.0547862E0,0E0,3.2052612E-1,1.6603206E0,1.9840013E0,0E0,0E0,1.8947598E0,6.317892E-1,2.169563E0,4.5156705E-1,1.0338336E0,2.4078369E-1,0E0,0E0,1.2249851E-1,0E0,4.4651562E-1,1.6758888E0,0E0,4.855652E-1,0E0,0E0,0E0,0E0,0E0,6.9335747E-1,0E0,0E0,0E0,0E0,0E0,0E0,0E0,0E0,0E0,0E0,0E0,0E0,0E0],"parents":[2147483647,0,0,1,1,2,2,3,3,4,4,5,5,6,6,7,7,8,8,9,9,11,11,12,12,13,13,16,16,17,17,18,18,19,19,20,20,21,21,24,24,26,26,27,27,29,29,35,35],"right_children":[2,4,6,8,10,12,14,16,18,20,-1,22,24,26,-1,-1,28,30,32,34,36,38,-1,-1,40,-1,42,44,-1,46,-1,-1,-1,-1,-1,48,-1,-1,-1,-1,-1,-1,-1,-1,-1,-1,-1,-1,-1],"split_conditions":[3.9E-1,5E-2,7.6E-1,1.9E-1,3.8E-1,8.5E-1,8.2E-1,3E-1,8.8E-1,8E-2,1.5021998E-1,7.8E-1,5.7E-1,2.5E-1,-2.9476252E-1,1.4418454E-1,1.7E-1,3.6E-1,2.6E-1,6.8E-1,3.5E-1,1E0,-6.917392E-2,1.053465E-1,4.2E-1,-1.8083647E-1,3.9E-1,8E-2,1.2282744E-1,7.6E-1,-6.4126994E-3,-2.3981483E-1,1.7134003E-1,-4.8615683E-2,1.447348E-1,3E-1,3.5503697E-2,-3.059212E-1,-6.6003695E-2,-6.143179E-2,-2.5763386E-1,-4.00777E-3,1.9972143E-1,-2.3749322E-4,-2.625489E-1,-2.527E-1,-2.0608326E-2,-2.6664028E-1,-2.870589E-3],"split_indices":[9,19,6,11,9,1,7,16,17,18,0,13,3,13,0,0,11,15,11,5,18,19,0,0,8,0,14,18,0,6,0,0,0,0,0,19,0,0,0,0,0,0,0,0,0,0,0,0,0],"split_type":[0,0,0,0,0,0,0,0,0,0,0,0,0,0,0,0,0,0,0,0,0,0,0,0,0,0,0,0,0,0,0,0,0,0,0,0,0,0,0,0,0,0,0,0,0,0,0,0,0],"sum_hessian":[3.3981055E2,5.0467514E1,2.8934302E2,3.93859E1,1.1081615E1,2.7811414E2,1.12289E1,1.22801485E1,2.710575E1,8.80949E0,2.2721252E0,2.7240244E2,5.7116957E0,5.6093197E0,5.6195803E0,1.9708458E0,1.0309302E1,2.444519E1,2.6605597E0,2.7664044E0,6.0430856E0,2.712102E2,1.1922289E0,1.1065866E0,4.605109E0,2.4788811E0,3.1304383E0,8.547409E0,1.7618932E0,2.3334288E1,1.1109024E0,1.3543445E0,1.306215E0,1.2307053E0,1.535699E0,4.066545E0,1.9765408E0,2.7020584E2,1.0043472E0,1.1295689E0,3.4755404E0,1.4576483E0,1.6727902E0,3.414073E0,5.1333365E0,2.2300867E1,1.0334219E0,2.8705304E0,1.1960146E0],"tree_param":{"num_deleted":"0","num_feature":"20","num_nodes":"49","size_leaf_vector":"0"}},{"base_weights":[-8.3749306E-1,-4.788414E-1,-9.4221586E-1,-6.139182E-1,-1.9273333E-1,-9.564595E-1,-4.5387354E-1,-9.385803E-2,-7.107992E-1,5.5639595E-1,-3.183124E-1,-2.8863096E-1,-6.4458266E-2,-6.271821E-1,1.1142215E-1,-5.503023E-1,1.816186E-1,3.203882E-2,-7.484785E-1,2.5552705E-1,-1.2071707E-2,-5.4151213E-1,4.8541088E-2,3.5990853E-2,-7.740296E-1,-2.5259846E-1,4.5632735E-2,-5.6794506E-1,-2.9197496E-1,7.01966E-2,-8.2083184E-1,-3.2270497E-1,5.211834E-1,-2.53616E-1,-6.514971E-2,-2.800102E-1,-1.207768E-1,1.3582624E-1,-6.735849E-2,-5.144857E-3,-2.8006208E-1,1.0745981E-1,-1.9123787E-1,2.1642223E-1,2.8553E-2],"categories":[],"categories_nodes":[],"categories_segments":[],"categories_sizes":[],"default_left":[1,1,1,1,0,1,0,1,0,0,0,0,0,0,0,0,0,0,0,0,0,0,0,0,0,0,0,1,0,0,0,1,1,0,0,0,0,0,0,0,0,0,0,0,0],"id":5,"left_children":[1,3,5,7,9,11,13,15,17,19,21,-1,-1,23,-1,25,-1,-1,27,-1,-1,29,31,-1,33,-1,-1,35,-1,37,39,41,43,-1,-1,-1,-1,-1,-1,-1,-1,-1,-1,-1,-1],"loss_changes":[1.0434021E1,2.4915514E0,1.1190033E0,2.2215405E0,2.3516994E0,6.9750977E-1,1.4102226E0,2.9771776E0,1.2546539E0,6.832185E-1,1.6993713E0,0E0,0E0,8.800287E-1,0E0,1.2623563E0,0E0,0E0,9.315033E-1,0E0,0E0,2.2422745E0,1.685436E0,0E0,6.0003042E-2,0E0,0E0,9.950328E-1,0E0,6.574412E-1,7.862425E-1,1.3986288E0,2.8842425E-1,0E0,0E0,0E0,0E0,0E0,0E0,0E0,0E0,0E0,0E0,0E0,0E0],"parents":[2147483647,0,0,1,1,2,2,3,3,4,4,5,5,6,6,7,7,8,8,9,9,10,10,13,13,15,15,18,18,21,21,22,22,24,24,27,27,29,29,30,30,31,31,32,32],"right_children":[2,4,6,8,10,12,14,16,18,20,22,-1,-1,24,-1,26,-1,-1,28,-1,-1,30,32,-1,34,-1,-1,36,-1,38,40,42,44,-1,-1,-1,-1,-1,-1,-1,-1,-1,-1,-1,-1],"split_conditions":[4.5E-1,5.3E-1,7.6E-1,1.9E-1,4.1E-1,4.2E-1,5E-1,2E-2,2E-2,6.7E-1,7.1E-1,-2.8863096E-1,-6.4458266E-2,7.7E-1,1.1142215E-1,1.7E-1,1.816186E-1,3.203882E-2,3.9E-1,2.5552705E-1,-1.2071707E-2,4.8E-1,2.6E-1,3.5990853E-2,4.9E-1,-2.5259846E-1,4.5632735E-2,2.7E-1,-2.9197496E-1,3.9E-1,6.1E-1,9E-2,3E-2,-2.53616E-1,-6.514971E-2,-2.800102E-1,-1.207768E-1,1.3582624E-1,-6.735849E-2,-5.144857E-3,-2.8006208E-1,1.0745981E-1,-1.9123787E-1,2.1642223E-1,2.8553E-2],"split_indices":[9,17,6,11,13,12,8,18,2,5,1,0,0,6,0,11,0,0,9,0,0,1,10,0,14,0,0,10,0,10,17,9,19,0,0,0,0,0,0,0,0,0,0,0,0],"split_type":[0,0,0,0,0,0,0,0,0,0,0,0,0,0,0,0,0,0,0,0,0,0,0,0,0,0,0,0,0,0,0,0,0,0,0,0,0,0,0,0,0,0,0,0,0],"sum_hessian":[2.8881586E2,6.653186E1,2.22284E2,4.4416348E1,2.2115515E1,2.1505287E2,7.2311234E0,7.284066E0,3.713228E1,2.6825275E0,1.9432987E1,2.1313359E2,1.9192845E0,6.1745157E0,1.0566076E0,4.5360985E0,2.7479675E0,1.5550556E0,3.5577225E1,1.5082673E0,1.1742604E0,1.17860565E1,7.6469307E0,1.0442853E0,5.130231E0,3.064694E0,1.4714048E0,2.1686047E1,1.3891177E1,3.9293926E0,7.856664E0,4.460543E0,3.1863878E0,4.0882387E0,1.041992E0,5.309002E0,1.6377045E1,1.4765784E0,2.452814E0,1.1080099E0,6.7486544E0,1.3664634E0,3.0940795E0,1.6958956E0,1.4904922E0],"tree_param":{"num_deleted":"0","num_feature":"20","num_nodes":"45","size_leaf_vector":"0"}},{"base_weights":[-7.7224797E-1,-4.1471526E-1,-8.8980806E-1,-5.38267E-1,-1.6574028E-1,-9.067963E-1,-3.9645475E-1,-2.157892E-1,-6.804005E-1,-2.5597587E-1,1.6975218E-1,-9.206057E-1,-5.6557494E-1,7.201284E-2,-5.541524E-1,2.5395837E-1,-4.327275E-1,1.347721E-3,-7.2542995E-1,-3.789855E-1,1.7094369E-1,-2.772197E-1,-5.5481855E-2,-7.405054E-1,1.3158303E-1,7.741015E-2,-2.3061292E-1,-5.657101E-2,1.4663912E-1,4.2789765E-2,-7.9990596E-1,-9.132265E-1,-4.4723862E-1,-7.089581E-1,-9.846857E-2,1.1936999E-1,-7.114781E-2,-2.5506794E-1,1.0629267E-2,-1.9189546E-1,1.213503E-1,-2.7511206E-1,-7.452856E-2,-2.0537334E-2,-2.910361E-1,-1.7457527E-1,1.2522386E-1,1.8681312E-2,-2.800575E-1,1.8180357E-1,-7.4811846E-2],"categories":[],"categories_nodes":[],"categories_segments":[],"categories_sizes":[],"default_left":[1,1,1,1,1,1,0,0,0,1,0,1,0,0,0,0,0,0,0,0,0,0,0,0,0,0,0,0,0,1,0,0,0,0,0,0,0,0,0,0,0,0,0,0,0,0,0,0,0,0,0],"id":6,"left_children":[1,3,5,7,9,11,13,15,17,19,-1,21,23,-1,25,27,29,-1,31,33,35,-1,-1,37,-1,-1,-1,-1,-1,39,41,43,45,47,49,-1,-1,-1,-1,-1,-1,-1,-1,-1,-1,-1,-1,-1,-1,-1,-1],"loss_changes":[9.930466E0,1.8336039E0,1.1787415E0,1.7476025E0,1.6087897E0,3.1170654E-1,9.2460215E-1,1.5476441E0,8.7366486E-1,1.1376553E0,0E0,2.5720215E-1,1.987261E0,0E0,1.3524163E0,6.208643E-1,1.7839258E0,0E0,9.753933E-1,1.4270039E0,5.814552E-1,0E0,0E0,7.479882E-1,0E0,0E0,0E0,0E0,0E0,1.5708897E0,1.4074183E-1,6.474724E-1,1.7142069E0,1.3170843E0,1.2037612E0,0E0,0E0,0E0,0E0,0E0,0E0,0E0,0E0,0E0,0E0,0E0,0E0,0E0,0E0,0E0,0E0],"parents":[2147483647,0,0,1,1,2,2,3,3,4,4,5,5,6,6,7,7,8,8,9,9,11,11,12,12,14,14,15,15,16,16,18,18,19,19,20,20,23,23,29,29,30,30,31,31,32,32,33,33,34,34],"right_children":[2,4,6,8,10,12,14,16,18,20,-1,22,24,-1,26,28,30,-1,32,34,36,-1,-1,38,-1,-1,-1,-1,-1,40,42,44,46,48,50,-1,-1,-1,-1,-1,-1,-1,-1,-1,-1,-1,-1,-1,-1,-1,-1],"split_conditions":[4.5E-1,5.3E-1,3.6E-1,2.7E-1,4.3E-1,4.2E-1,5.4E-1,9E-2,2E-2,1.4E-1,1.6975218E-1,2.8E-1,4.4E-1,7.201284E-2,2.8E-1,6.8E-1,2.3E-1,1.347721E-3,5.1E-1,5.6E-1,9.6E-1,-2.772197E-1,-5.5481855E-2,7E-1,1.3158303E-1,7.741015E-2,-2.3061292E-1,-5.657101E-2,1.4663912E-1,1.8E-1,7.5E-1,2.2E-1,7.6E-1,3.5E-1,4.8E-1,1.1936999E-1,-7.114781E-2,-2.5506794E-1,1.0629267E-2,-1.9189546E-1,1.213503E-1,-2.7511206E-1,-7.452856E-2,-2.0537334E-2,-2.910361E-1,-1.7457527E-1,1.2522386E-1,1.8681312E-2,-2.800575E-1,1.8180357E-1,-7.4811846E-2],"split_indices":[9,17,15,9,9,13,6,19,2,19,0,19,17,0,4,5,17,0,13,4,17,0,0,6,0,0,0,0,0,10,7,11,7,4,1,0,0,0,0,0,0,0,0,0,0,0,0,0,0,0,0],"split_type":[0,0,0,0,0,0,0,0,0,0,0,0,0,0,0,0,0,0,0,0,0,0,0,0,0,0,0,0,0,0,0,0,0,0,0,0,0,0,0,0,0,0,0,0,0,0,0,0,0,0,0],"sum_hessian":[2.4404161E2,6.1507633E1,1.8253397E2,4.0331516E1,2.1176117E1,1.7564766E2,6.886313E0,1.310855E1,2.7222965E1,1.9429699E1,1.7464174E0,1.6718367E2,8.463986E0,1.2636819E0,5.622631E0,4.087352E0,9.021198E0,1.7349403E0,2.5488024E1,1.5170777E1,4.2589226E0,1.6614615E2,1.0375227E0,7.4319167E0,1.0320693E0,1.1326102E0,4.4900208E0,1.4853646E0,2.601987E0,4.315648E0,4.70555E0,1.385339E1,1.1634634E1,6.2690983E0,8.901679E0,2.7529435E0,1.505979E0,6.427321E0,1.0045958E0,1.2288227E0,3.0868256E0,3.334435E0,1.3711154E0,1.0131536E0,1.2840237E1,1.0349568E1,1.2850664E0,1.576756E0,4.692342E0,1.0383555E0,7.863323E0],"tree_param":{"num_deleted":"0","num_feature":"20","num_nodes":"51","size_leaf_vector":"0"}}]},"name":"gbtree"},"learner_model_param":{"base_score":"5E-1","num_class":"0","num_feature":"20","num_target":"1"},"objective":{"name":"reg:squarederror","reg_loss_param":{"scale_pos_weight":"1"}}},"version":[1,6,2]}