{"learner":{"attributes":{"best_ntree_limit":"13"},"feature_names":[],"feature_types":["q","q","q","q","q","q","q","q","q","q","q","q","q","q","q","q","q","q","q","q"],"gradient_booster":{"model":{"gbtree_model_param":{"num_parallel_tree":"1","num_trees":"13","size_leaf_vector":"0"},"tree_info":[0,0,0,0,0,0,0,0,0,0,0,0,0],"trees":[{"base_weights":[-1.9809693E0,-6.347676E-1,-2.0850437E0,-4.936471E-2,-1.1873366E0,-2.1071243E0,-8.8303095E-1,-6.9891065E-1,4.6080995E-1,-1.466335E0,-3.3379498E-1,-1.7503322E0,-6.434642E-1,-1.4514425E0,-1.1873534E-1,-1.062249E0,1.8086259E-1,5.924292E-1,-1.0009263E-1,-1.5994381E0,-1.1737095E-1,1.8086259E-1,-7.991166E-1,-5.741418E-1,-7.0666015E-1,-5.077788E-1,-1.0009263E-1,-2.841816E-1,4.6822318E-1,-3.1206772E-1,-4.4076785E-1,1.3859594E-1,7.245354E-1,-1.0009263E-1,-1.7134082E0,-1.3796951E-2,-4.0044263E-1,-1.0529387E0,8.9777045E-2,1.8086259E-1,3.2397486E-2,-2.3258273E-1,6.4601555E-2,1.6488759E-1,-1.0009263E-1,2.4896957E-1,3.2397486E-2,-1.0009263E-1,-5.5699074E-1,8.9777045E-2,-5.077788E-1],"categories":[],"categories_nodes":[],"categories_segments":[],"categories_sizes":[],"default_left":[1,0,1,0,0,0,0,0,0,1,1,1,0,1,0,0,0,0,0,0,0,0,0,0,0,0,0,0,0,0,0,0,0,0,0,0,0,0,0,0,0,0,0,0,0,0,0,0,0,0,0],"id":0,"left_children":[1,3,5,7,9,11,13,15,17,19,21,23,-1,25,27,29,-1,31,-1,33,-1,-1,35,-1,37,-1,-1,-1,39,41,-1,43,45,-1,47,-1,-1,49,-1,-1,-1,-1,-1,-1,-1,-1,-1,-1,-1,-1,-1],"loss_changes":[6.940588E1,1.2125182E1,1.0565063E1,6.728552E0,4.114357E0,2.428955E0,4.2442617E0,4.8509493E0,1.3929062E0,1.4170303E0,3.121851E0,7.0690765E0,0E0,9.8288536E-1,3.0818608E0,1.7768354E0,0E0,5.090959E-1,0E0,1.2141476E0,0E0,0E0,1.7447836E0,0E0,3.195712E0,0E0,0E0,0E0,1.2138635E-1,1.1062073E0,0E0,8.683002E-1,4.0652895E-1,0E0,1.5770111E0,0E0,0E0,6.019106E0,0E0,0E0,0E0,0E0,0E0,0E0,0E0,0E0,0E0,0E0,0E0,0E0,0E0],"parents":[2147483647,0,0,1,1,2,2,3,3,4,4,5,5,6,6,7,7,8,8,9,9,10,10,11,11,13,13,14,14,15,15,17,17,19,19,22,22,24,24,28,28,29,29,31,31,32,32,34,34,37,37],"right_children":[2,4,6,8,10,12,14,16,18,20,22,24,-1,26,28,30,-1,32,-1,34,-1,-1,36,-1,38,-1,-1,-1,40,42,-1,44,46,-1,48,-1,-1,50,-1,-1,-1,-1,-1,-1,-1,-1,-1,-1,-1,-1,-1],"split_conditions":[2.9E-1,1E0,7E-1,6E-1,8E-2,4.5E-1,5.5E-1,8.2E-1,8.7E-1,2E-2,2E-1,5.7E-1,-6.434642E-1,3.3E-1,5E-1,5.1E-1,1.8086259E-1,6.5E-1,-1.0009263E-1,5.1E-1,-1.1737095E-1,1.8086259E-1,1.3E-1,-5.741418E-1,6.9E-1,-5.077788E-1,-1.0009263E-1,-2.841816E-1,2.7E-1,5.6E-1,-4.4076785E-1,5.7E-1,9.6E-1,-1.0009263E-1,9E-2,-1.3796951E-2,-4.0044263E-1,4.1E-1,8.9777045E-2,1.8086259E-1,3.2397486E-2,-2.3258273E-1,6.4601555E-2,1.6488759E-1,-1.0009263E-1,2.4896957E-1,3.2397486E-2,-1.0009263E-1,-5.5699074E-1,8.9777045E-2,-5.077788E-1],"split_indices":[9,19,13,4,15,9,7,5,5,18,11,17,0,14,8,4,0,6,0,5,0,0,2,0,6,0,0,0,0,3,0,3,2,0,9,0,0,13,0,0,0,0,0,0,0,0,0,0,0,0,0],"split_type":[0,0,0,0,0,0,0,0,0,0,0,0,0,0,0,0,0,0,0,0,0,0,0,0,0,0,0,0,0,0,0,0,0,0,0,0,0,0,0,0,0,0,0,0,0,0,0,0,0,0,0],"sum_hessian":[5.038315E2,3.666528E1,4.6716626E2,1.833264E1,1.833264E1,4.5799994E2,9.16632E0,7.902E0,1.043064E1,1.327536E1,5.05728E0,4.836024E1,4.0963968E2,4.7412E0,4.42512E0,6.3216E0,1.5804E0,9.16632E0,1.26432E0,1.13788805E1,1.8964801E0,1.5804E0,3.47688E0,4.10904E1,7.2698402E0,3.47688E0,1.26432E0,1.5804E0,2.8447201E0,2.8447201E0,3.47688E0,2.52864E0,6.63768E0,1.26432E0,1.011456E1,1.8964801E0,1.5804E0,5.37336E0,1.8964801E0,1.5804E0,1.26432E0,1.26432E0,1.5804E0,1.26432E0,1.26432E0,5.37336E0,1.26432E0,1.26432E0,8.85024E0,1.8964801E0,3.47688E0],"tree_param":{"num_deleted":"0","num_feature":"20","num_nodes":"51","size_leaf_vector":"0"}},{"base_weights":[-1.2960227E0,-4.6279892E-1,-1.3575697E0,-3.7739772E-2,-8.452646E-1,-1.3653702E0,-1.435347E-1,-4.828026E-1,4.0670103E-1,4.510845E-3,-9.718189E-1,-1.385755E0,-1.0029225E0,-1.8963765E-1,1.704365E-1,-7.725276E-1,1.6235523E-1,5.583532E-1,-1.1333143E-1,6.620914E-2,-6.446092E-2,-1.1109113E0,-2.7320948E-1,-6.752373E-2,-1.3877926E0,-1.2313058E0,1.4975375E-1,-1.0069637E0,7.7631414E-2,2.2066082E-1,1.7638623E-3,-1.1994092E0,-4.189358E-2,1.5657282E-1,-2.3382972E-1,-6.044058E-1,-4.173037E-1,-1.2824404E0,-5.1380295E-2,2.3437922E-1,-2.763918E-1,-9.9199966E-2,-3.992272E-1,-1.4567888E-1,-4.2780808E-1,-2.5567672E-1,-2.780348E-2,-3.95239E-1,-7.42748E-2,-2.3347779E-1,1.5408465E-1],"categories":[],"categories_nodes":[],"categories_segments":[],"categories_sizes":[],"default_left":[1,0,1,0,0,1,0,0,0,0,1,0,0,0,0,0,0,0,0,0,0,1,0,0,0,0,0,0,0,0,0,0,0,0,0,0,0,1,0,0,0,0,0,0,0,0,0,0,0,0,0],"id":1,"left_children":[1,3,5,7,9,11,13,15,17,19,21,23,25,-1,-1,27,-1,29,-1,-1,-1,31,33,-1,35,37,39,41,-1,-1,-1,43,-1,-1,-1,45,-1,47,-1,-1,49,-1,-1,-1,-1,-1,-1,-1,-1,-1,-1],"loss_changes":[2.6660522E1,6.165248E0,4.491699E0,3.9746683E0,2.1572237E0,2.2432861E0,1.8465106E0,3.3851764E0,1.4125074E0,2.1769486E-1,1.3900127E0,7.824707E-1,8.030121E0,0E0,0E0,2.244927E0,0E0,8.6369777E-1,0E0,0E0,0E0,1.0537853E0,2.1053479E0,0E0,3.2440186E-1,1.1345558E0,1.7822006E0,1.0691237E0,0E0,0E0,0E0,1.3926525E0,0E0,0E0,0E0,3.8510954E-1,0E0,5.3204346E-1,0E0,0E0,2.0703857E0,0E0,0E0,0E0,0E0,0E0,0E0,0E0,0E0,0E0,0E0],"parents":[2147483647,0,0,1,1,2,2,3,3,4,4,5,5,6,6,7,7,8,8,9,9,10,10,11,11,12,12,15,15,17,17,21,21,22,22,24,24,25,25,26,26,27,27,31,31,35,35,37,37,40,40],"right_children":[2,4,6,8,10,12,14,16,18,20,22,24,26,-1,-1,28,-1,30,-1,-1,-1,32,34,-1,36,38,40,42,-1,-1,-1,44,-1,-1,-1,46,-1,48,-1,-1,50,-1,-1,-1,-1,-1,-1,-1,-1,-1,-1],"split_conditions":[2.9E-1,1E0,6.2E-1,6.2E-1,4.4E-1,5.3E-1,4.6E-1,8.2E-1,8.3E-1,2.1E-1,8E-1,1E-1,7E-1,-1.8963765E-1,1.704365E-1,1.3E-1,1.6235523E-1,1E0,-1.1333143E-1,6.620914E-2,-6.446092E-2,3.3E-1,8E-2,-6.752373E-2,3.3E-1,8.7E-1,3E-2,1.3E-1,7.7631414E-2,2.2066082E-1,1.7638623E-3,1.9E-1,-4.189358E-2,1.5657282E-1,-2.3382972E-1,4.2E-1,-4.173037E-1,3.1E-1,-5.1380295E-2,2.3437922E-1,3.5E-1,-9.9199966E-2,-3.992272E-1,-1.4567888E-1,-4.2780808E-1,-2.5567672E-1,-2.780348E-2,-3.95239E-1,-7.42748E-2,-2.3347779E-1,1.5408465E-1],"split_indices":[9,19,18,4,1,13,3,5,6,11,17,16,6,0,0,19,0,17,0,0,0,11,18,0,9,4,18,18,0,0,0,11,0,0,0,3,0,18,0,0,17,0,0,0,0,0,0,0,0,0,0],"split_type":[0,0,0,0,0,0,0,0,0,0,0,0,0,0,0,0,0,0,0,0,0,0,0,0,0,0,0,0,0,0,0,0,0,0,0,0,0,0,0,0,0,0,0,0,0,0,0,0,0,0,0],"sum_hessian":[5.311275E2,3.7119747E1,4.9400775E2,1.8101282E1,1.9018465E1,4.9073007E2,3.2776792E0,9.001184E0,9.100098E0,2.590223E0,1.6428242E1,4.6192697E2,2.8803114E1,2.0096798E0,1.2679994E0,7.207482E0,1.7937032E0,7.8674307E0,1.2326671E0,1.3015869E0,1.2886362E0,1.3208307E1,3.2199347E0,1.0048399E0,4.6092212E2,2.398306E1,4.820054E0,5.891757E0,1.3157247E0,5.70609E0,2.1613407E0,1.189004E1,1.3182673E0,1.2405028E0,1.9794319E0,2.6591437E0,4.58263E2,2.2679245E1,1.303815E0,1.606313E0,3.2137413E0,2.5619404E0,3.3298166E0,3.6224952E0,8.267545E0,1.3431535E0,1.3159903E0,2.1672686E1,1.006559E0,1.974361E0,1.2393804E0],"tree_param":{"num_deleted":"0","num_feature":"20","num_nodes":"51","size_leaf_vector":"0"}},{"base_weights":[-9.8218095E-1,-4.895683E-1,-1.0460764E0,-6.887359E-1,7.8242324E-2,-1.0523505E0,-3.1993666E-1,-3.0403003E-1,-8.404457E-1,2.1727398E-1,-1.4205943E-1,-1.0643709E0,-7.000771E-1,-2.0726635E-1,9.406354E-2,-2.9177964E-1,1.9161317E-2,-9.284828E-1,2.609168E-2,5.260927E-1,-3.4388492E-1,-9.188229E-1,-3.243232E-1,-8.7865937E-1,2.6620156E-1,4.524252E-1,-3.6075628E-1,-9.82524E-1,3.4674197E-2,-1.7281127E-1,1.6710535E-1,2.054022E-1,3.547998E-2,-5.5792105E-1,1.4451161E-1,9.926681E-3,-9.5106864E-1,7.5068146E-2,-9.915767E-1,-6.303845E-2,2.1172173E-1,1.0796731E-1,-2.0698217E-1,-3.0609977E-1,-6.634122E-2,-1.4266534E-2,-2.4756631E-1,-3.0937207E-1,-1.4502345E-1,-8.194057E-2,-3.1168193E-1],"categories":[],"categories_nodes":[],"categories_segments":[],"categories_sizes":[],"default_left":[1,1,1,1,0,1,0,0,1,0,0,0,0,0,0,0,0,0,0,0,0,0,0,0,0,0,1,0,0,0,0,0,0,0,0,0,0,0,0,0,0,0,0,0,0,0,0,0,0,0,0],"id":2,"left_children":[1,3,5,7,9,11,13,15,17,-1,19,21,23,-1,-1,-1,25,27,29,31,33,35,-1,37,-1,39,41,43,-1,-1,-1,-1,-1,45,-1,-1,47,-1,49,-1,-1,-1,-1,-1,-1,-1,-1,-1,-1,-1,-1],"loss_changes":[1.5194061E1,6.7455883E0,1.6716309E0,2.3071156E0,2.4174542E0,1.1036682E0,1.4416375E0,3.0404396E0,2.383278E0,0E0,1.9290829E0,2.8656006E-2,5.691985E0,0E0,0E0,0E0,1.8764609E0,1.6989517E0,1.5435368E0,1.3909322E-1,2.1349547E0,1.5642853E0,0E0,2.2976618E0,0E0,1.0388833E0,1.6958287E0,5.46463E-1,0E0,0E0,0E0,0E0,0E0,1.1680942E0,0E0,0E0,1.3136749E0,0E0,2.204504E-1,0E0,0E0,0E0,0E0,0E0,0E0,0E0,0E0,0E0,0E0,0E0,0E0],"parents":[2147483647,0,0,1,1,2,2,3,3,4,4,5,5,6,6,7,7,8,8,10,10,11,11,12,12,16,16,17,17,18,18,19,19,20,20,21,21,23,23,25,25,26,26,27,27,33,33,36,36,38,38],"right_children":[2,4,6,8,10,12,14,16,18,-1,20,22,24,-1,-1,-1,26,28,30,32,34,36,-1,38,-1,40,42,44,-1,-1,-1,-1,-1,46,-1,-1,48,-1,50,-1,-1,-1,-1,-1,-1,-1,-1,-1,-1,-1,-1],"split_conditions":[3.8E-1,5E-2,7.3E-1,1.9E-1,1.6E-1,7.6E-1,5.5E-1,6.4E-1,8.8E-1,2.1727398E-1,6.3E-1,4.9E-1,5.5E-1,-2.0726635E-1,9.406354E-2,-2.9177964E-1,1.2E-1,4.4E-1,2.5E-1,3.1E-1,6.1E-1,2.3E-1,-3.243232E-1,7.7E-1,2.6620156E-1,9E-2,1E-1,7.7E-1,3.4674197E-2,-1.7281127E-1,1.6710535E-1,2.054022E-1,3.547998E-2,5.7E-1,1.4451161E-1,9.926681E-3,5.2E-1,7.5068146E-2,2E-2,-6.303845E-2,2.1172173E-1,1.0796731E-1,-2.0698217E-1,-3.0609977E-1,-6.634122E-2,-1.4266534E-2,-2.4756631E-1,-3.0937207E-1,-1.4502345E-1,-8.194057E-2,-3.1168193E-1],"split_indices":[9,19,13,11,16,6,7,6,17,0,13,9,8,0,0,0,18,11,11,0,8,4,0,6,0,11,10,4,0,0,0,0,0,1,0,0,17,0,18,0,0,0,0,0,0,0,0,0,0,0,0],"split_type":[0,0,0,0,0,0,0,0,0,0,0,0,0,0,0,0,0,0,0,0,0,0,0,0,0,0,0,0,0,0,0,0,0,0,0,0,0,0,0,0,0,0,0,0,0,0,0,0,0,0,0],"sum_hessian":[4.9799402E2,5.8171722E1,4.398223E2,4.2908123E1,1.5263599E1,4.3560925E2,4.2130256E0,1.2984933E1,2.9923191E1,3.2998188E0,1.196378E1,4.192809E2,1.6328358E1,2.5999436E0,1.6130819E0,3.5766823E0,9.408251E0,2.7098585E1,2.824606E0,2.4027383E0,9.561042E0,4.8936794E1,3.7034412E2,1.50785265E1,1.2498311E0,4.3063602E0,5.1018906E0,2.582102E1,1.2775655E0,1.2837375E0,1.5408684E0,1.2412472E0,1.1614913E0,7.850101E0,1.7109407E0,1.6025487E0,4.7334248E1,1.2605178E0,1.3818008E1,1.2382215E0,3.0681386E0,1.5704949E0,3.5313957E0,2.4275461E1,1.5455582E0,3.103115E0,4.7469864E0,3.9378395E1,7.9558516E0,1.2731218E0,1.2544887E1],"tree_param":{"num_deleted":"0","num_feature":"20","num_nodes":"51","size_leaf_vector":"0"}},{"base_weights":[-7.7637845E-1,-3.6254904E-1,-8.339264E-1,-5.2135366E-1,7.986003E-2,-6.787877E-1,-8.613008E-1,-8.579715E-1,-3.7442455E-1,1.7803246E-1,-8.9464694E-2,-6.995989E-1,3.4933273E-2,-2.5995904E-1,-5.1797354E-1,-5.7189163E-2,-9.142004E-1,1.3287415E-1,-4.5177552E-1,-2.1365473E-1,1.05588645E-1,1.0959351E-2,-7.148711E-1,-2.3268063E-2,-2.1842022E-1,-1.0171952E-1,-2.9801622E-1,-1.4482905E-1,-6.262582E-1,-3.5343927E-1,3.6545187E-1,-7.3211557E-1,1.6886082E-2,1.258136E-1,-1.3892448E-1,6.511258E-2,-1.7112911E-1,-2.229534E-1,5.7331934E-3,1.1448511E-1,-2.176777E-1,1.9419411E-1,-1.6195562E-1,-9.4258316E-2,-2.334427E-1],"categories":[],"categories_nodes":[],"categories_segments":[],"categories_sizes":[],"default_left":[1,1,0,1,0,1,1,0,0,0,0,0,0,0,0,0,0,0,1,0,0,0,0,0,0,0,0,1,0,0,0,0,0,0,0,0,0,0,0,0,0,0,0,0,0],"id":3,"left_children":[1,3,5,7,9,11,13,15,17,-1,19,21,-1,-1,23,-1,25,-1,27,-1,29,-1,31,33,-1,-1,-1,35,37,39,41,43,-1,-1,-1,-1,-1,-1,-1,-1,-1,-1,-1,-1,-1],"loss_changes":[1.0469788E1,4.0456343E0,1.0985413E0,1.7595072E0,1.4375968E0,1.1433563E0,1.4932251E-1,2.7635002E-1,2.1638508E0,0E0,1.6350611E0,7.3067474E-1,0E0,0E0,7.6096034E-1,0E0,1.5560627E-1,0E0,1.455533E0,0E0,1.3995491E0,0E0,8.583126E-1,8.296639E-1,0E0,0E0,0E0,1.935676E0,1.3804531E0,1.4690737E0,2.2101395E0,9.1296387E-1,0E0,0E0,0E0,0E0,0E0,0E0,0E0,0E0,0E0,0E0,0E0,0E0,0E0],"parents":[2147483647,0,0,1,1,2,2,3,3,4,4,5,5,6,6,7,7,8,8,10,10,11,11,14,14,16,16,18,18,20,20,22,22,23,23,27,27,28,28,29,29,30,30,31,31],"right_children":[2,4,6,8,10,12,14,16,18,-1,20,22,-1,-1,24,-1,26,-1,28,-1,30,-1,32,34,-1,-1,-1,36,38,40,42,44,-1,-1,-1,-1,-1,-1,-1,-1,-1,-1,-1,-1,-1],"split_conditions":[3.8E-1,5E-2,5E-1,2.1E-1,1.6E-1,7E-1,3.6E-1,3.6E-1,2.3E-1,1.7803246E-1,5.8E-1,1.2E-1,3.4933273E-2,-2.5995904E-1,2E-1,-5.7189163E-2,2E-2,1.3287415E-1,1.9E-1,-2.1365473E-1,2.3E-1,1.0959351E-2,7.9E-1,6.1E-1,-2.1842022E-1,-1.0171952E-1,-2.9801622E-1,3.8E-1,8.6E-1,5.6E-1,8.6E-1,2.9E-1,1.6886082E-2,1.258136E-1,-1.3892448E-1,6.511258E-2,-1.7112911E-1,-2.229534E-1,5.7331934E-3,1.1448511E-1,-2.176777E-1,1.9419411E-1,-1.6195562E-1,-9.4258316E-2,-2.334427E-1],"split_indices":[9,19,9,17,16,18,15,13,17,0,5,14,0,0,3,0,18,0,11,0,9,0,13,0,0,0,0,14,17,17,5,3,0,0,0,0,0,0,0,0,0,0,0,0,0],"split_type":[0,0,0,0,0,0,0,0,0,0,0,0,0,0,0,0,0,0,0,0,0,0,0,0,0,0,0,0,0,0,0,0,0,0,0,0,0,0,0,0,0,0,0,0,0],"sum_hessian":[4.5132532E2,5.599108E1,3.9533423E2,4.1070286E1,1.49207945E1,6.316378E1,3.3217047E2,1.100902E1,3.0061266E1,3.0785234E0,1.1842271E1,6.167013E1,1.4936463E0,3.2568594E2,6.4845243E0,1.196685E0,9.812335E0,2.1903756E0,2.7870892E1,2.1922338E0,9.650037E0,1.2251523E0,6.044498E1,2.2640781E0,4.220446E0,1.826716E0,7.985619E0,1.0764407E1,1.7106483E1,3.3581076E0,6.2919292E0,5.9172413E1,1.2725686E0,1.1515614E0,1.1125169E0,6.082633E0,4.681774E0,1.43543825E1,2.7521012E0,1.1201731E0,2.2379346E0,5.0153894E0,1.2765396E0,6.6467257E0,5.252569E1],"tree_param":{"num_deleted":"0","num_feature":"20","num_nodes":"45","size_leaf_vector":"0"}},{"base_weights":[-6.207201E-1,-3.514695E-1,-6.891259E-1,3.8707718E-1,-3.8929066E-1,-6.985221E-1,-3.840184E-1,-2.7051365E-2,1.6834813E-1,-4.1778472E-1,3.491815E-1,-2.1013592E-1,-7.672906E-2,-5.6189036E-1,1.9514404E-1,-7.1861297E-1,-3.282548E-1,-5.052487E-2,2.0389895E-1,-2.1347351E-1,1.07482165E-1,-2.6032785E-1,-3.8825786E-1,-4.417024E-1,-7.3734954E-2,-1.9810097E-1,3.9531207E-3,8.514017E-2,-1.491438E-1,-6.420731E-2,2.2729331E-1],"categories":[],"categories_nodes":[],"categories_segments":[],"categories_sizes":[],"default_left":[1,0,1,0,1,1,0,0,0,0,0,0,0,1,0,1,1,0,0,0,0,0,0,0,0,0,0,0,0,0,0],"id":4,"left_children":[1,3,5,7,9,11,13,-1,-1,15,17,-1,-1,19,-1,21,23,-1,-1,-1,-1,-1,25,27,29,-1,-1,-1,-1,-1,-1],"loss_changes":[7.2604523E0,2.5128288E0,6.599884E-1,4.3452418E-1,1.8491192E0,8.834839E-2,2.5541735E0,0E0,0E0,1.8754654E0,7.220489E-1,0E0,0E0,1.726788E0,0E0,5.0752926E-1,1.7649884E0,0E0,0E0,0E0,0E0,0E0,7.886114E-1,1.8651123E0,2.540756E0,0E0,0E0,0E0,0E0,0E0,0E0],"parents":[2147483647,0,0,1,1,2,2,3,3,4,4,5,5,6,6,9,9,10,10,13,13,15,15,16,16,22,22,23,23,24,24],"right_children":[2,4,6,8,10,12,14,-1,-1,16,18,-1,-1,20,-1,22,24,-1,-1,-1,-1,-1,26,28,30,-1,-1,-1,-1,-1,-1],"split_conditions":[4.5E-1,1.3E-1,7.6E-1,1E-1,9E-1,4.2E-1,5E-1,-2.7051365E-2,1.6834813E-1,5.4E-1,4.1E-1,-2.1013592E-1,-7.672906E-2,1.5E-1,1.9514404E-1,3.8E-1,5.3E-1,-5.052487E-2,2.0389895E-1,-2.1347351E-1,1.07482165E-1,-2.6032785E-1,5.2E-1,1.4E-1,4.2E-1,-1.9810097E-1,3.9531207E-3,8.514017E-2,-1.491438E-1,-6.420731E-2,2.2729331E-1],"split_indices":[9,16,6,15,8,12,8,0,0,5,5,0,0,2,0,11,17,0,0,0,0,0,1,11,9,0,0,0,0,0,0],"split_type":[0,0,0,0,0,0,0,0,0,0,0,0,0,0,0,0,0,0,0,0,0,0,0,0,0,0,0,0,0,0,0],"sum_hessian":[4.0634775E2,8.356547E1,3.227823E2,3.62108E0,7.994439E1,3.1188785E2,1.0894437E1,1.0966477E0,2.5244322E0,7.739245E1,2.5519392E0,3.0995407E2,1.9337742E0,9.685889E0,1.2085472E0,1.613866E1,6.1253788E1,1.185543E0,1.3663964E0,8.525659E0,1.1602309E0,9.998058E0,6.140603E0,4.1860012E1,1.9393776E1,3.275585E0,2.8650181E0,2.6794572E0,3.9180553E1,1.7229061E1,2.1647153E0],"tree_param":{"num_deleted":"0","num_feature":"20","num_nodes":"31","size_leaf_vector":"0"}},{"base_weights":[-4.9089533E-1,-2.608332E-1,-5.5366486E-1,-1.9841291E-1,-5.915042E-1,-5.621943E-1,-2.8915578E-1,-8.886291E-2,-4.6660128E-1,-1.0423366E-1,-6.8358207E-1,-5.691881E-1,-3.6924505E-1,-4.47206E-1,1.6022632E-1,-1.7571239E-1,2.501848E-1,-7.0715225E-1,-1.0444408E-2,-1.1757238E-1,6.639439E-2,-2.1648957E-1,-6.36019E-2,-1.7182645E-1,-3.3723176E-1,-1.700555E-1,-2.8365737E-2,-1.7703123E-1,1.0105618E-1,3.675128E-1,-2.571946E-1,-1.4601953E-1,4.730147E-1,-1.2388873E-2,-2.3116793E-1,-2.8074634E-1,3.0148166E-1,5.1941205E-2,-1.4198482E-1,1.762847E-1,-3.1483665E-1,-1.3563442E-1,2.2977196E-1,5.396065E-2,-1.09269135E-1,3.2180283E-2,2.3480143E-1,-2.0991673E-1,3.6331967E-2,-3.472525E-2,1.6460462E-1,-1.3712694E-1,2.7911833E-2],"categories":[],"categories_nodes":[],"categories_segments":[],"categories_sizes":[],"default_left":[1,0,1,0,0,1,0,0,1,0,0,0,1,0,0,0,0,1,0,0,0,0,0,0,0,0,0,0,0,0,0,0,0,0,0,0,0,0,0,0,0,0,0,0,0,0,0,0,0,0,0,0,0],"id":5,"left_children":[1,3,5,7,9,11,13,15,17,19,21,23,25,27,-1,29,31,33,35,-1,-1,-1,-1,-1,37,-1,39,-1,-1,41,43,-1,45,-1,-1,47,49,-1,-1,-1,51,-1,-1,-1,-1,-1,-1,-1,-1,-1,-1,-1,-1],"loss_changes":[5.184906E0,1.5544553E0,4.89563E-1,2.0045512E0,4.8316574E-1,1.6627502E-1,1.6816155E0,1.53624E0,2.1829505E0,3.8116252E-1,3.0267715E-2,2.8030396E-2,8.329632E-1,1.3020247E0,0E0,1.9062747E0,1.9949567E0,5.1933575E-1,7.5131243E-1,0E0,0E0,0E0,0E0,0E0,5.3192484E-1,0E0,1.1869701E0,0E0,0E0,2.22401E0,1.7581067E0,0E0,9.0804493E-1,0E0,0E0,8.851477E-1,4.9185634E-1,0E0,0E0,0E0,3.051809E-1,0E0,0E0,0E0,0E0,0E0,0E0,0E0,0E0,0E0,0E0,0E0,0E0],"parents":[2147483647,0,0,1,1,2,2,3,3,4,4,5,5,6,6,7,7,8,8,9,9,10,10,11,11,12,12,13,13,15,15,16,16,17,17,18,18,24,24,26,26,29,29,30,30,32,32,35,35,36,36,40,40],"right_children":[2,4,6,8,10,12,14,16,18,20,22,24,26,28,-1,30,32,34,36,-1,-1,-1,-1,-1,38,-1,40,-1,-1,42,44,-1,46,-1,-1,48,50,-1,-1,-1,52,-1,-1,-1,-1,-1,-1,-1,-1,-1,-1,-1,-1],"split_conditions":[4.5E-1,4.3E-1,7.6E-1,6.9E-1,2.3E-1,4.4E-1,5E-1,4.5E-1,7E-2,3.1E-1,2.4E-1,9.8E-1,5E-2,2.6E-1,1.6022632E-1,3.7E-1,4.6E-1,7E-2,7.7E-1,-1.1757238E-1,6.639439E-2,-2.1648957E-1,-6.36019E-2,-1.7182645E-1,6E-2,-1.700555E-1,7E-2,-1.7703123E-1,1.0105618E-1,3.8E-1,2.5E-1,-1.4601953E-1,6E-2,-1.2388873E-2,-2.3116793E-1,1.8E-1,2.2E-1,5.1941205E-2,-1.4198482E-1,1.762847E-1,5.3E-1,-1.3563442E-1,2.2977196E-1,5.396065E-2,-1.09269135E-1,3.2180283E-2,2.3480143E-1,-2.0991673E-1,3.6331967E-2,-3.472525E-2,1.6460462E-1,-1.3712694E-1,2.7911833E-2],"split_indices":[9,0,6,3,8,13,8,11,12,3,2,10,15,15,0,1,3,9,3,0,0,0,0,0,1,0,2,0,0,3,0,0,15,0,0,9,0,0,0,0,13,0,0,0,0,0,0,0,0,0,0,0,0],"split_type":[0,0,0,0,0,0,0,0,0,0,0,0,0,0,0,0,0,0,0,0,0,0,0,0,0,0,0,0,0,0,0,0,0,0,0,0,0,0,0,0,0,0,0,0,0,0,0,0,0,0,0,0,0],"sum_hessian":[3.6804367E2,7.9996605E1,2.880471E2,6.863963E1,1.1356976E1,2.7795856E2,1.00885105E1,4.9678307E1,1.8961327E1,2.1438515E0,9.213123E0,2.66354E2,1.1604548E1,8.84683E0,1.2416809E0,3.9931355E1,9.746953E0,1.2054327E1,6.907E0,1.0299156E0,1.1139358E0,8.034584E0,1.1785401E0,2.608735E2,5.480507E0,6.926418E0,4.6781306E0,7.692258E0,1.154572E0,4.750488E0,3.5180866E1,1.9880362E0,7.758917E0,1.1916654E0,1.0862661E1,3.7539473E0,3.153053E0,1.0961014E0,4.3844056E0,1.1513113E0,3.5268192E0,1.5096974E0,3.2407904E0,6.786958E0,2.8393908E1,4.1745768E0,3.5843403E0,1.4749297E0,2.2790174E0,1.3709215E0,1.7821314E0,2.525391E0,1.001428E0],"tree_param":{"num_deleted":"0","num_feature":"20","num_nodes":"53","size_leaf_vector":"0"}},{"base_weights":[-3.8555035E-1,-1.0418414E-1,-4.2377394E-1,7.0565335E-2,-2.3979002E-1,-4.4571298E-1,-2.8797612E-1,-1.1682241E-1,3.4834465E-1,-5.0562817E-1,-2.8963866E-2,-4.4933933E-1,6.709027E-2,-3.6302596E-1,1.5769616E-1,1.3966109E-1,-4.4767237E-1,5.86284E-1,-1.2465469E-1,7.029277E-2,-6.277794E-1,2.780715E-1,-3.1199637E-1,-4.5514607E-1,-1.913009E-1,-5.264725E-1,-2.5936127E-1,4.206372E-1,-3.184797E-1,4.648189E-1,-2.3190598E-1,-2.5923928E-2,-1.8256885E-1,-1.3125782E-2,2.2523911E-1,1.0343551E-1,-1.4926511E-1,-4.654243E-2,-7.060719E-1,-6.629359E-2,4.4812062E-1,-1.7531866E-1,3.886154E-2,-2.4488004E-2,-4.567268E-1,1.2570763E-1,-1.3366094E-1,-5.642234E-1,-1.6946258E-2,2.6521704E-1,-4.3822673E-1,2.2627656E-1,-2.697879E-2,-1.1288421E-2,-1.3167503E-1,-5.4850575E-2,2.3412299E-1,-1.6553026E-1,7.502437E-2,-6.258416E-2,-2.2943765E-1,3.171604E-2,1.7859326E-1,1.1454066E-1,-5.8227867E-2,-1.3814414E-1,-7.505135E-2,-6.335904E-2,-1.8149301E-1,2.59805E-1,-3.890831E-2,1.5120313E-2,-1.4431432E-1],"categories":[],"categories_nodes":[],"categories_segments":[],"categories_sizes":[],"default_left":[1,0,1,0,0,1,0,0,0,0,0,1,0,0,0,0,0,0,0,0,0,0,0,0,0,0,0,0,0,1,1,0,0,0,0,0,0,0,0,0,1,0,0,0,0,0,0,0,0,1,0,0,0,0,0,0,0,0,0,0,0,0,0,0,0,0,0,0,0,0,0,0,0],"id":6,"left_children":[1,3,5,7,9,11,13,15,17,19,21,23,-1,25,27,29,31,33,35,-1,37,39,41,43,45,47,49,51,53,55,57,-1,-1,-1,-1,-1,-1,-1,59,-1,61,-1,63,-1,65,-1,-1,67,-1,69,71,-1,-1,-1,-1,-1,-1,-1,-1,-1,-1,-1,-1,-1,-1,-1,-1,-1,-1,-1,-1,-1,-1],"loss_changes":[3.588791E0,1.0057307E0,7.566948E-1,1.0299393E0,1.3148891E0,7.1683884E-1,1.5337572E0,1.0891083E0,9.6297926E-1,1.0899389E0,1.3286455E0,2.9185104E-1,0E0,5.087428E-1,1.0178533E0,1.0232295E0,2.682972E-1,5.962876E-1,7.7915496E-1,0E0,2.3182964E-1,7.256116E-1,7.784414E-1,1.0831833E-1,1.3179598E0,2.1314001E-1,2.4877548E0,9.159152E-1,8.7682664E-2,1.0366428E0,7.860036E-1,0E0,0E0,0E0,0E0,0E0,0E0,0E0,6.341004E-2,0E0,2.3125076E-1,0E0,4.2510837E-1,0E0,7.502365E-2,0E0,0E0,5.4534912E-2,0E0,1.784944E0,4.2650652E-1,0E0,0E0,0E0,0E0,0E0,0E0,0E0,0E0,0E0,0E0,0E0,0E0,0E0,0E0,0E0,0E0,0E0,0E0,0E0,0E0,0E0,0E0],"parents":[2147483647,0,0,1,1,2,2,3,3,4,4,5,5,6,6,7,7,8,8,9,9,10,10,11,11,13,13,14,14,15,15,16,16,17,17,18,18,20,20,21,21,22,22,23,23,24,24,25,25,26,26,27,27,28,28,29,29,30,30,38,38,40,40,42,42,44,44,47,47,49,49,50,50],"right_children":[2,4,6,8,10,12,14,16,18,20,22,24,-1,26,28,30,32,34,36,-1,38,40,42,44,46,48,50,52,54,56,58,-1,-1,-1,-1,-1,-1,-1,60,-1,62,-1,64,-1,66,-1,-1,68,-1,70,72,-1,-1,-1,-1,-1,-1,-1,-1,-1,-1,-1,-1,-1,-1,-1,-1,-1,-1,-1,-1,-1,-1],"split_conditions":[3.4E-1,5.7E-1,4E-2,5.1E-1,6.1E-1,1.6E-1,7.6E-1,4.4E-1,5.1E-1,1.3E-1,7.4E-1,8.5E-1,6.709027E-2,4.5E-1,8.2E-1,4E-1,6E-1,5.6E-1,6E-1,7.029277E-2,2E-2,1.6E-1,7E-2,1.7E-1,4.1E-1,7.1E-1,4.9E-1,4.1E-1,2.4E-1,3E-2,4.3E-1,-2.5923928E-2,-1.8256885E-1,-1.3125782E-2,2.2523911E-1,1.0343551E-1,-1.4926511E-1,-4.654243E-2,6.2E-1,-6.629359E-2,3.2E-1,-1.7531866E-1,1.3E-1,-2.4488004E-2,9.1E-1,1.2570763E-1,-1.3366094E-1,3.7E-1,-1.6946258E-2,3E-2,4.5E-1,2.2627656E-1,-2.697879E-2,-1.1288421E-2,-1.3167503E-1,-5.4850575E-2,2.3412299E-1,-1.6553026E-1,7.502437E-2,-6.258416E-2,-2.2943765E-1,3.171604E-2,1.7859326E-1,1.1454066E-1,-5.8227867E-2,-1.3814414E-1,-7.505135E-2,-6.335904E-2,-1.8149301E-1,2.59805E-1,-3.890831E-2,1.5120313E-2,-1.4431432E-1],"split_indices":[9,3,12,1,4,18,7,1,3,11,3,1,0,11,7,0,13,5,5,0,19,9,12,0,11,6,11,3,19,18,14,0,0,0,0,0,0,0,13,0,14,0,2,0,11,0,0,9,0,18,9,0,0,0,0,0,0,0,0,0,0,0,0,0,0,0,0,0,0,0,0,0,0],"split_type":[0,0,0,0,0,0,0,0,0,0,0,0,0,0,0,0,0,0,0,0,0,0,0,0,0,0,0,0,0,0,0,0,0,0,0,0,0,0,0,0,0,0,0,0,0,0,0,0,0,0,0,0,0,0,0,0,0,0,0,0,0,0,0,0,0,0,0,0,0,0,0,0,0],"sum_hessian":[3.3679617E2,4.072712E1,2.9606903E2,1.8004772E1,2.2722347E1,2.5292513E2,4.314392E1,1.1097755E1,6.9070163E0,9.431508E0,1.3290839E1,2.5188914E2,1.0359789E0,3.7084454E1,6.059467E0,6.5769806E0,4.520775E0,4.436008E0,2.4710083E0,1.2062708E0,8.225237E0,6.383504E0,6.9073353E0,2.4559848E2,6.2906704E0,1.28094225E1,2.427503E1,3.9789515E0,2.0805151E0,3.3736954E0,3.203285E0,1.8666162E0,2.6541586E0,1.0704703E0,3.3655376E0,1.1272696E0,1.3437388E0,1.5925932E0,6.6326437E0,1.5462278E0,4.837276E0,3.5137277E0,3.3936079E0,1.2568051E0,2.4434167E2,1.6592475E0,4.6314225E0,1.1671418E1,1.1380043E0,6.049685E0,1.8225344E1,2.1178198E0,1.8611317E0,1.0183102E0,1.0622051E0,1.2431557E0,2.1305397E0,1.8384539E0,1.3648311E0,1.1809247E0,5.451719E0,1.9708503E0,2.866426E0,1.1142797E0,2.279328E0,2.3877321E2,5.5684566E0,1.8477305E0,9.8236885E0,1.9262463E0,4.123439E0,1.454226E0,1.6771118E1],"tree_param":{"num_deleted":"0","num_feature":"20","num_nodes":"73","size_leaf_vector":"0"}},{"base_weights":[-2.991141E-1,-4.8117444E-2,-3.2639265E-1,-2.6276317E-1,1.1703335E-1,-3.348806E-1,-1.6049664E-2,-3.79379E-1,1.00313656E-1,5.0750417E-1,-6.4576976E-2,-3.458681E-1,-1.438603E-1,2.558551E-1,-3.0188853E-1,-4.731008E-1,6.0809933E-2,1.4230649E-1,-9.870545E-2,9.047456E-3,6.8659663E-1,-2.481218E-1,1.4058799E-1,-3.8155455E-2,-3.5283095E-1,-4.0986222E-1,2.0384988E-1,-1.277141E-1,1.7751554E-1,2.8300824E-2,-1.3653418E-1,-1.20707996E-1,-5.5470395E-1,2.4587147E-1,7.419268E-2,-3.7960783E-1,6.901895E-2,-3.272544E-1,1.9219185E-1,-4.1016364E-3,-3.5469985E-1,-1.3928576E-1,4.519448E-3,2.337202E-1,-1.4599076E-1,-8.025883E-2,2.1051092E-2,6.9056354E-2,-1.2478372E-1,-4.130516E-2,-1.9773063E-1,-1.5649201E-1,1.8054083E-2,1.8754328E-2,-1.3115019E-1,-1.0685293E-1,-9.5144365E-5,1.1710117E-1,-1.1125182E-1],"categories":[],"categories_nodes":[],"categories_segments":[],"categories_sizes":[],"default_left":[1,0,1,0,0,1,0,1,0,0,0,0,0,0,0,0,0,0,0,0,0,0,0,0,0,0,0,0,0,0,0,0,0,0,0,0,0,0,0,0,1,0,0,0,0,0,0,0,0,0,0,0,0,0,0,0,0,0,0],"id":7,"left_children":[1,3,5,7,9,11,13,15,17,19,21,23,25,27,29,31,-1,-1,-1,-1,33,35,-1,37,39,41,43,45,-1,-1,-1,47,49,-1,-1,51,-1,53,-1,-1,55,-1,-1,-1,57,-1,-1,-1,-1,-1,-1,-1,-1,-1,-1,-1,-1,-1,-1],"loss_changes":[2.1221008E0,1.1573277E0,7.3602104E-1,6.3622165E-1,1.3555074E0,5.2513504E-1,7.4122506E-1,6.906469E-1,8.346104E-1,4.9516094E-1,1.4490721E0,5.3995705E-1,1.6198843E0,7.0934504E-1,3.2364097E-1,2.1169591E-1,0E0,0E0,0E0,0E0,5.0950527E-2,7.654292E-1,0E0,1.5512693E0,1.5517426E-1,2.3231554E-1,1.6969204E0,1.050713E-1,0E0,0E0,0E0,4.1691342E-1,2.3969102E-1,0E0,0E0,5.833428E-1,0E0,2.610895E-1,0E0,0E0,1.3124847E-1,0E0,0E0,0E0,8.362601E-1,0E0,0E0,0E0,0E0,0E0,0E0,0E0,0E0,0E0,0E0,0E0,0E0,0E0,0E0],"parents":[2147483647,0,0,1,1,2,2,3,3,4,4,5,5,6,6,7,7,8,8,9,9,10,10,11,11,12,12,13,13,14,14,15,15,20,20,21,21,23,23,24,24,25,25,26,26,27,27,31,31,32,32,35,35,37,37,40,40,44,44],"right_children":[2,4,6,8,10,12,14,16,18,20,22,24,26,28,30,32,-1,-1,-1,-1,34,36,-1,38,40,42,44,46,-1,-1,-1,48,50,-1,-1,52,-1,54,-1,-1,56,-1,-1,-1,58,-1,-1,-1,-1,-1,-1,-1,-1,-1,-1,-1,-1,-1,-1],"split_conditions":[2.9E-1,7E-2,5.7E-1,6.7E-1,1E-1,5.3E-1,6.3E-1,3.3E-1,1.8E-1,2.5E-1,5.9E-1,1.9E-1,5.6E-1,3.2E-1,3.3E-1,4.8E-1,6.0809933E-2,1.4230649E-1,-9.870545E-2,9.047456E-3,7.1E-1,2.7E-1,1.4058799E-1,5.9E-1,7E-2,7E-1,6.3E-1,4.7E-1,1.7751554E-1,2.8300824E-2,-1.3653418E-1,2.6E-1,3E-2,2.4587147E-1,7.419268E-2,2.5E-1,6.901895E-2,4E-2,1.9219185E-1,-4.1016364E-3,9.9E-1,-1.3928576E-1,4.519448E-3,2.337202E-1,4E-1,-8.025883E-2,2.1051092E-2,6.9056354E-2,-1.2478372E-1,-4.130516E-2,-1.9773063E-1,-1.5649201E-1,1.8054083E-2,1.8754328E-2,-1.3115019E-1,-1.0685293E-1,-9.5144365E-5,1.1710117E-1,-1.1125182E-1],"split_indices":[9,15,15,5,2,17,2,11,11,0,8,0,4,13,14,8,0,0,0,0,5,9,0,6,14,6,4,14,0,0,0,0,18,0,0,11,0,18,0,0,1,0,0,0,11,0,0,0,0,0,0,0,0,0,0,0,0,0,0],"split_type":[0,0,0,0,0,0,0,0,0,0,0,0,0,0,0,0,0,0,0,0,0,0,0,0,0,0,0,0,0,0,0,0,0,0,0,0,0,0,0,0,0,0,0,0,0,0,0,0,0,0,0,0,0,0,0,0,0,0,0],"sum_hessian":[3.112332E2,3.078026E1,2.804529E2,1.3127482E1,1.7652779E1,2.7290973E2,7.5431957E0,9.902137E0,3.2253451E0,5.034309E0,1.261847E1,2.572992E2,1.5610528E1,3.9195828E0,3.623613E0,8.69014E0,1.2119968E0,1.6676189E0,1.5577264E0,1.6922497E0,3.3420591E0,9.784877E0,2.8335927E0,5.8366523E0,2.5146254E2,8.743167E0,6.8673606E0,2.119161E0,1.8004218E0,1.1176975E0,2.5059156E0,2.1001441E0,6.589996E0,1.9009485E0,1.4411106E0,7.8362894E0,1.9485879E0,4.456512E0,1.3801404E0,1.4236366E0,2.500389E2,7.668393E0,1.074774E0,2.133115E0,4.734246E0,1.0355468E0,1.0836141E0,1.060294E0,1.03985E0,1.7837216E0,4.8062744E0,5.7826366E0,2.0536528E0,1.0751371E0,3.3813746E0,2.4899637E2,1.0425274E0,1.1810662E0,3.5531795E0],"tree_param":{"num_deleted":"0","num_feature":"20","num_nodes":"59","size_leaf_vector":"0"}},{"base_weights":[-2.2626078E-1,-2.941307E-2,-2.4827719E-1,-1.9920258E-1,1.17141314E-1,-2.66485E-1,-1.498693E-1,1.741567E-1,-2.8123483E-1,4.625677E-1,-3.790528E-2,-2.6997292E-1,7.400123E-2,-3.4971595E-1,-5.9065327E-2,1.2219538E-1,-4.441044E-2,-3.43068E-1,4.687082E-2,3.8301777E-2,5.5022055E-1,-1.8875301E-1,1.15881294E-1,-2.5230069E-3,-2.7519935E-1,-4.112487E-1,5.844664E-2,9.260966E-2,-2.4135436E-1,-1.1440988E-1,-4.6743307E-1,2.046342E-1,6.877271E-2,-3.254522E-1,2.0217884E-1,1.7757407E-1,-1.07285E-1,-2.8010103E-1,-3.701228E-2,-1.423417E-1,-7.278674E-2,-1.0751405E-1,4.186935E-1,-1.2606539E-1,-3.0987367E-2,-1.4897145E-1,4.3101154E-2,-1.6029395E-1,-3.070683E-2,6.2815614E-2,-1.3074964E-1,1.2245336E-1,-3.176016E-2,-1.195396E-1,-8.040475E-2,-7.116525E-2,1.2881148E-1,-1.0447847E-1,4.744522E-2,1.8468773E-1,-3.6704287E-2,-8.696276E-2,8.737263E-2],"categories":[],"categories_nodes":[],"categories_segments":[],"categories_sizes":[],"default_left":[1,0,1,0,0,1,0,1,1,0,0,0,0,0,1,0,0,0,0,0,0,1,0,0,1,0,0,0,0,0,0,0,0,0,0,0,0,0,0,0,0,0,0,0,0,0,0,0,0,0,0,0,0,0,0,0,0,0,0,0,0,0,0],"id":8,"left_children":[1,3,5,7,9,11,13,15,17,19,21,23,-1,25,27,-1,-1,29,-1,-1,31,33,-1,35,37,39,-1,41,43,45,47,-1,-1,49,51,-1,-1,53,55,-1,-1,57,59,-1,61,-1,-1,-1,-1,-1,-1,-1,-1,-1,-1,-1,-1,-1,-1,-1,-1,-1,-1],"loss_changes":[1.2594624E0,7.8320783E-1,4.3086624E-1,4.9361372E-1,9.290687E-1,4.6115875E-1,7.652959E-1,3.0314493E-1,3.859067E-1,8.67542E-2,8.836995E-1,3.060341E-1,0E0,5.2669156E-1,8.789881E-1,0E0,0E0,2.6150107E-1,0E0,0E0,1.0297179E-2,6.0121506E-1,0E0,1.3125073E0,2.4090385E-1,1.5972376E-2,0E0,1.195774E0,5.268759E-1,5.867886E-1,1.1256814E-1,0E0,0E0,5.521127E-1,2.4707189E-1,0E0,0E0,1.9464302E-1,6.146536E-1,0E0,0E0,8.048831E-1,8.116603E-1,0E0,7.2454005E-1,0E0,0E0,0E0,0E0,0E0,0E0,0E0,0E0,0E0,0E0,0E0,0E0,0E0,0E0,0E0,0E0,0E0,0E0],"parents":[2147483647,0,0,1,1,2,2,3,3,4,4,5,5,6,6,7,7,8,8,9,9,10,10,11,11,13,13,14,14,17,17,20,20,21,21,23,23,24,24,25,25,27,27,28,28,29,29,30,30,33,33,34,34,37,37,38,38,41,41,42,42,44,44],"right_children":[2,4,6,8,10,12,14,16,18,20,22,24,-1,26,28,-1,-1,30,-1,-1,32,34,-1,36,38,40,-1,42,44,46,48,-1,-1,50,52,-1,-1,54,56,-1,-1,58,60,-1,62,-1,-1,-1,-1,-1,-1,-1,-1,-1,-1,-1,-1,-1,-1,-1,-1,-1,-1],"split_conditions":[2.9E-1,8E-2,4E-2,4E-2,1.1E-1,1.6E-1,5E-2,2E-2,3.6E-1,2.5E-1,5.9E-1,1.9E-1,7.400123E-2,7.2E-1,7E-2,1.2219538E-1,-4.441044E-2,1.9E-1,4.687082E-2,3.8301777E-2,7.1E-1,3E-1,1.15881294E-1,5.5E-1,7.5E-1,5E-1,5.844664E-2,6.4E-1,1.9E-1,7E-2,8.1E-1,2.046342E-1,6.877271E-2,4.8E-1,4.3E-1,1.7757407E-1,-1.07285E-1,4.5E-1,5.2E-1,-1.423417E-1,-7.278674E-2,2.2E-1,5.1E-1,-1.2606539E-1,5.2E-1,-1.4897145E-1,4.3101154E-2,-1.6029395E-1,-3.070683E-2,6.2815614E-2,-1.3074964E-1,1.2245336E-1,-3.176016E-2,-1.195396E-1,-8.040475E-2,-7.116525E-2,1.2881148E-1,-1.0447847E-1,4.744522E-2,1.8468773E-1,-3.6704287E-2,-8.696276E-2,8.737263E-2],"split_indices":[9,15,12,19,2,18,19,18,11,0,8,0,0,6,18,0,0,11,0,0,5,19,0,3,17,9,0,6,12,11,1,0,0,1,16,0,0,10,1,0,0,17,16,0,13,0,0,0,0,0,0,0,0,0,0,0,0,0,0,0,0,0,0],"split_type":[0,0,0,0,0,0,0,0,0,0,0,0,0,0,0,0,0,0,0,0,0,0,0,0,0,0,0,0,0,0,0,0,0,0,0,0,0,0,0,0,0,0,0,0,0,0,0,0,0,0,0,0,0,0,0,0,0,0,0,0,0,0,0],"sum_hessian":[2.9129355E2,2.9537348E1,2.617562E2,1.3517504E1,1.6019846E1,2.1944559E2,4.231062E1,2.2326868E0,1.1284817E1,4.3484893E0,1.1671356E1,2.1843478E2,1.0108055E0,1.2327723E1,2.9982897E1,1.1420244E0,1.0906625E0,1.0076388E1,1.2084285E0,1.4116335E0,2.9368558E0,9.01899E0,2.6523666E0,4.215206E0,2.1421957E2,1.1296045E1,1.0316772E0,1.6634226E1,1.3348672E1,4.22614E0,5.8502483E0,1.284096E0,1.6527597E0,6.8064413E0,2.212548E0,1.3269438E0,2.8882623E0,2.097276E2,4.491973E0,6.896548E0,4.399497E0,1.0723377E1,5.910848E0,6.6753983E0,6.6732736E0,1.3310479E0,2.895092E0,4.5526624E0,1.2975858E0,1.0109599E0,5.7954817E0,1.131097E0,1.081451E0,1.6467834E1,1.9325977E2,3.486631E0,1.0053421E0,5.4624004E0,5.260977E0,4.232439E0,1.678409E0,3.7559998E0,2.9172738E0],"tree_param":{"num_deleted":"0","num_feature":"20","num_nodes":"63","size_leaf_vector":"0"}},{"base_weights":[-1.690261E-1,-2.7024774E-2,-1.8886147E-1,-7.8042865E-2,3.050819E-1,-1.9482143E-1,2.4568101E-2,9.9762246E-2,-1.153943E-1,1.7162815E-1,-3.738588E-2,-1.883101E-1,-3.769994E-1,2.2002865E-1,-2.229535E-1,-2.2530952E-1,6.469884E-2,-6.414593E-2,4.7142427E-2,-1.9574147E-1,3.85102E-2,-1.3656134E-2,-4.2558208E-1,-2.434604E-2,1.4013942E-1,-9.161071E-2,3.0681508E-4,-1.0844033E-1,-1.47504E-1,-9.334604E-2,3.1710577E-1,-1.3401298E-1,-1.8987115E-1,4.6856865E-1,-9.1683425E-2,-5.114973E-2,-1.5136676E-1,6.4056806E-2,-6.279921E-2,4.0988166E-2,-1.4586794E-1,1.2894707E-2,1.283668E-1,-5.816255E-2,2.9641317E-2,2.3671085E-2,1.7413397E-1],"categories":[],"categories_nodes":[],"categories_segments":[],"categories_sizes":[],"default_left":[1,0,1,0,0,1,0,0,0,0,1,1,0,0,0,0,0,0,0,0,0,0,0,0,0,0,0,0,0,0,0,0,1,0,0,0,0,0,0,0,0,0,0,0,0,0,0],"id":9,"left_children":[1,3,5,7,9,11,13,-1,15,-1,17,19,21,23,25,27,29,-1,-1,31,33,-1,35,-1,-1,-1,-1,37,-1,39,41,-1,43,45,-1,-1,-1,-1,-1,-1,-1,-1,-1,-1,-1,-1,-1],"loss_changes":[7.7609205E-1,6.195429E-1,3.1413174E-1,5.179937E-1,4.6815386E-1,2.0977974E-1,4.1164732E-1,0E0,5.967262E-1,0E0,1.3927796E-1,3.9610863E-1,9.609282E-2,3.870247E-1,7.052292E-2,5.221549E-1,5.052322E-1,0E0,0E0,2.4427605E-1,1.349154E0,0E0,3.7534952E-2,0E0,0E0,0E0,0E0,5.037303E-1,0E0,7.987051E-1,1.2793592E-1,0E0,2.7345753E-1,1.2931532E-1,0E0,0E0,0E0,0E0,0E0,0E0,0E0,0E0,0E0,0E0,0E0,0E0,0E0],"parents":[2147483647,0,0,1,1,2,2,3,3,4,4,5,5,6,6,8,8,10,10,11,11,12,12,13,13,14,14,15,15,16,16,19,19,20,20,22,22,27,27,29,29,30,30,32,32,33,33],"right_children":[2,4,6,8,10,12,14,-1,16,-1,18,20,22,24,26,28,30,-1,-1,32,34,-1,36,-1,-1,-1,-1,38,-1,40,42,-1,44,46,-1,-1,-1,-1,-1,-1,-1,-1,-1,-1,-1,-1,-1],"split_conditions":[3.3E-1,3.2E-1,5.7E-1,4.5E-1,4.2E-1,8E-1,6.3E-1,9.9762246E-2,6.2E-1,1.7162815E-1,1.7E-1,7.6E-1,3.2E-1,3.2E-1,4.7E-1,6.5E-1,2.8E-1,-6.414593E-2,4.7142427E-2,3.6E-1,3.5E-1,-1.3656134E-2,2.5E-1,-2.434604E-2,1.4013942E-1,-9.161071E-2,3.0681508E-4,1.7E-1,-1.47504E-1,8.5E-1,2.4E-1,-1.3401298E-1,3.6E-1,2E-2,-9.1683425E-2,-5.114973E-2,-1.5136676E-1,6.4056806E-2,-6.279921E-2,4.0988166E-2,-1.4586794E-1,1.2894707E-2,1.283668E-1,-5.816255E-2,2.9641317E-2,2.3671085E-2,1.7413397E-1],"split_indices":[9,9,15,13,10,5,2,0,4,0,18,6,10,13,3,1,0,0,0,9,0,0,13,0,0,0,0,10,0,17,11,0,15,12,0,0,0,0,0,0,0,0,0,0,0,0,0],"split_type":[0,0,0,0,0,0,0,0,0,0,0,0,0,0,0,0,0,0,0,0,0,0,0,0,0,0,0,0,0,0,0,0,0,0,0,0,0,0,0,0,0,0,0,0,0,0,0],"sum_hessian":[2.763498E2,3.4160103E1,2.4218968E2,3.0274374E1,3.8857303E0,2.3569514E2,6.4945397E0,1.8654531E0,2.840892E1,1.8066419E0,2.0790884E0,2.295252E2,6.1699324E0,3.6909654E0,2.803574E0,1.7485825E1,1.0923097E1,1.0382408E0,1.0408477E0,2.2237646E2,7.148756E0,1.036292E0,5.133641E0,1.9661256E0,1.7248399E0,1.7837987E0,1.0197755E0,1.3131516E1,4.354308E0,7.104674E0,3.8184226E0,3.366258E0,2.1901021E2,3.0168617E0,4.131894E0,1.9604324E0,3.1732082E0,2.8667405E0,1.0264776E1,4.8928676E0,2.2118065E0,1.4985027E0,2.3199198E0,2.1633792E2,2.6722832E0,1.0533526E0,1.9635092E0],"tree_param":{"num_deleted":"0","num_feature":"20","num_nodes":"47","size_leaf_vector":"0"}},{"base_weights":[-1.2468307E-1,-6.423084E-2,-1.6050497E-1,-1.7359366E-1,3.9639603E-3,-1.7098814E-1,7.784133E-2,5.3175222E-2,-1.9193497E-1,1.3349067E-1,-6.322215E-2,-1.7720456E-1,2.7179122E-2,3.4229854E-1,-2.7964962E-1,-1.4949661E-1,-3.31962E-1,-3.7067093E-2,4.659353E-1,-2.157639E-1,5.8734413E-2,-3.0423808E-1,-1.6342053E-1,-5.1341563E-2,1.11870944E-1,6.128349E-1,-6.834441E-2,-1.9594705E-2,-1.0424724E-1,-8.15843E-2,-3.4030765E-1,-1.237481E-1,-9.8352835E-2,1.1937291E-1,-1.3151152E-1,8.1645024E-1,2.3565465E-3,-2.7694678E-1,1.6939263E-1,1.536957E-1,-7.131353E-3,-9.759594E-2,-9.994794E-3,-5.0832104E-2,-5.3335864E-2,3.239325E-2,2.4477653E-1,-4.2866684E-2,8.794328E-2,-1.3599367E-1,-5.3558476E-2,-5.0534036E-2,9.709863E-3,9.2586316E-2,-5.9608903E-2,8.611181E-2,3.3673772E-1,6.8006285E-2,-9.0193465E-2,-5.960364E-2,-1.1840183E-1,-3.5401884E-2,1.1295245E-1,-6.161942E-2,2.9222716E-2,1.2025137E-1,-4.9982633E-2],"categories":[],"categories_nodes":[],"categories_segments":[],"categories_sizes":[],"default_left":[0,1,1,0,0,0,0,0,0,0,0,0,1,0,1,0,0,1,0,0,0,0,1,0,0,0,0,0,0,0,1,0,0,0,0,0,0,0,0,0,0,0,0,0,0,0,0,0,0,0,0,0,0,0,0,0,0,0,0,0,0,0,0,0,0,0,0],"id":10,"left_children":[1,3,5,7,9,11,13,-1,15,17,19,21,23,25,27,29,31,33,35,37,39,41,43,-1,-1,45,-1,-1,-1,47,49,-1,51,-1,53,55,57,59,61,-1,63,-1,-1,-1,65,-1,-1,-1,-1,-1,-1,-1,-1,-1,-1,-1,-1,-1,-1,-1,-1,-1,-1,-1,-1,-1,-1],"loss_changes":[5.670471E-1,7.529707E-1,4.2994213E-1,2.8346133E-1,5.5761397E-1,2.0195866E-1,8.2483435E-1,0E0,1.7213416E-1,1.2576008E0,7.983196E-1,2.2221327E-1,4.56992E-1,8.926708E-1,3.298852E-2,3.6691856E-1,1.07302904E-1,6.8431747E-1,1.2153025E0,4.9410158E-1,7.2826993E-1,6.935632E-2,8.523512E-2,0E0,0E0,2.7918303E-1,0E0,0E0,0E0,5.8813214E-1,5.9465826E-2,0E0,3.5945896E-2,0E0,4.5730042E-1,3.6840367E-1,3.555557E-1,7.597089E-2,2.362056E-1,0E0,4.7942343E-1,0E0,0E0,0E0,5.213131E-1,0E0,0E0,0E0,0E0,0E0,0E0,0E0,0E0,0E0,0E0,0E0,0E0,0E0,0E0,0E0,0E0,0E0,0E0,0E0,0E0,0E0,0E0],"parents":[2147483647,0,0,1,1,2,2,3,3,4,4,5,5,6,6,8,8,9,9,10,10,11,11,12,12,13,13,14,14,15,15,16,16,17,17,18,18,19,19,20,20,21,21,22,22,25,25,29,29,30,30,32,32,34,34,35,35,36,36,37,37,38,38,40,40,44,44],"right_children":[2,4,6,8,10,12,14,-1,16,18,20,22,24,26,28,30,32,34,36,38,40,42,44,-1,-1,46,-1,-1,-1,48,50,-1,52,-1,54,56,58,60,62,-1,64,-1,-1,-1,66,-1,-1,-1,-1,-1,-1,-1,-1,-1,-1,-1,-1,-1,-1,-1,-1,-1,-1,-1,-1,-1,-1],"split_conditions":[4.1E-1,4E-2,3.6E-1,3.4E-1,6E-2,9.1E-1,6.3E-1,5.3175222E-2,6.4E-1,4.2E-1,5.3E-1,4.9E-1,8E-2,6.5E-1,1.4E-1,6.8E-1,4.6E-1,3.4E-1,4.9E-1,5.8E-1,3.9E-1,7.5E-1,3E-2,-5.1341563E-2,1.11870944E-1,4.8E-1,-6.834441E-2,-1.9594705E-2,-1.0424724E-1,7.6E-1,4.4E-1,-1.237481E-1,4.2E-1,1.1937291E-1,4E-2,3E-2,5E-2,4.1E-1,4.9E-1,1.536957E-1,6.5E-1,-9.759594E-2,-9.994794E-3,-5.0832104E-2,1.1E-1,3.239325E-2,2.4477653E-1,-4.2866684E-2,8.794328E-2,-1.3599367E-1,-5.3558476E-2,-5.0534036E-2,9.709863E-3,9.2586316E-2,-5.9608903E-2,8.611181E-2,3.3673772E-1,6.8006285E-2,-9.0193465E-2,-5.960364E-2,-1.1840183E-1,-3.5401884E-2,1.1295245E-1,-6.161942E-2,2.9222716E-2,1.2025137E-1,-4.9982633E-2],"split_indices":[0,15,15,8,2,11,15,0,5,17,13,9,13,10,19,3,9,14,8,16,1,5,19,0,0,9,0,0,0,1,16,0,3,0,19,12,15,13,5,0,7,0,0,0,13,0,0,0,0,0,0,0,0,0,0,0,0,0,0,0,0,0,0,0,0,0,0],"split_type":[0,0,0,0,0,0,0,0,0,0,0,0,0,0,0,0,0,0,0,0,0,0,0,0,0,0,0,0,0,0,0,0,0,0,0,0,0,0,0,0,0,0,0,0,0,0,0,0,0,0,0,0,0,0,0,0,0,0,0,0,0,0,0,0,0,0,0],"sum_hessian":[2.656141E2,9.986955E1,1.6574454E2,3.776343E1,6.210612E1,1.5903242E2,6.712107E0,1.4456728E0,3.6317757E1,2.087492E1,4.12312E1,1.5429796E2,4.734476E0,3.882494E0,2.8296132E0,2.9457592E1,6.860166E0,1.4383893E1,6.4910264E0,1.7976826E1,2.3254377E1,1.3040945E1,1.41257E2,3.3295383E0,1.404938E0,2.582217E0,1.300277E0,1.1521964E0,1.6774168E0,2.277811E1,6.6794815E0,4.532086E0,2.3280804E0,1.9927673E0,1.2391126E1,3.2628067E0,3.2282197E0,1.57550535E1,2.2217722E0,2.0891585E0,2.1165218E1,1.1913142E1,1.1278027E0,1.3342184E2,7.83516E0,1.1801476E0,1.4020693E0,2.0107294E1,2.670816E0,2.8716002E0,3.8078816E0,1.327587E0,1.0004934E0,1.1650678E0,1.1226058E1,1.9050254E0,1.3577813E0,1.9996283E0,1.2285914E0,1.1077807E1,4.6772456E0,1.1107315E0,1.1110408E0,6.973954E0,1.4191264E1,1.0572735E0,6.7778864E0],"tree_param":{"num_deleted":"0","num_feature":"20","num_nodes":"67","size_leaf_vector":"0"}},{"base_weights":[-8.988999E-2,1.3304873E-1,-9.525703E-2,-1.07896715E-1,2.9514617E-1,-8.805067E-2,-3.589229E-1,1.2449881E-1,-4.7113295E-3,-1.09093696E-1,4.9650837E-3,-1.1212897E-1,-1.5170176E-1,-1.15105584E-1,7.55728E-2,1.4383864E-1,-9.66454E-2,3.876694E-2,-8.210718E-2,-1.01174414E-1,-2.0981446E-1,-1.3805631E-1,1.7184463E-1,-9.0820074E-2,4.197909E-1,-1.3395704E-1,1.9629213E-1,1.5817562E-2,-3.5940703E-2,2.0691846E-3,-7.227094E-2,5.8513124E-2,-1.0226339E-1,-4.1976884E-2,4.5899633E-2,2.1169123E-1,2.6538398E-2,3.2019675E-2,-5.462956E-2,9.7021796E-2,-1.5177823E-2],"categories":[],"categories_nodes":[],"categories_segments":[],"categories_sizes":[],"default_left":[1,0,1,0,0,1,0,0,0,1,0,0,0,1,0,0,1,0,0,0,0,0,0,0,0,0,0,0,0,0,0,0,0,0,0,0,0,0,0,0,0],"id":11,"left_children":[1,3,5,-1,7,9,11,-1,-1,13,15,17,-1,19,21,23,25,-1,-1,27,29,31,-1,33,35,37,39,-1,-1,-1,-1,-1,-1,-1,-1,-1,-1,-1,-1,-1,-1],"loss_changes":[3.214531E-1,6.239904E-1,4.483168E-1,0E0,2.0874006E-1,4.8436594E-1,1.7489386E-1,0E0,0E0,2.3254204E-1,6.709159E-1,1.7845052E-1,0E0,2.3693275E-1,8.184841E-1,1.338062E0,3.2671186E-1,0E0,0E0,5.0085986E-1,1.6442907E-1,4.4986692E-1,0E0,1.6113897E-1,8.2818186E-1,3.0882052E-1,1.2654454E-1,0E0,0E0,0E0,0E0,0E0,0E0,0E0,0E0,0E0,0E0,0E0,0E0,0E0,0E0],"parents":[2147483647,0,0,1,1,2,2,4,4,5,5,6,6,9,9,10,10,11,11,13,13,14,14,15,15,16,16,19,19,20,20,21,21,23,23,24,24,25,25,26,26],"right_children":[2,4,6,-1,8,10,12,-1,-1,14,16,18,-1,20,22,24,26,-1,-1,28,30,32,-1,34,36,38,40,-1,-1,-1,-1,-1,-1,-1,-1,-1,-1,-1,-1,-1,-1],"split_conditions":[9E-2,4.7E-1,1E0,-1.07896715E-1,3.8E-1,3.5E-1,6.2E-1,1.2449881E-1,-4.7113295E-3,3.6E-1,4.9E-1,1.3E-1,-1.5170176E-1,5.6E-1,4.3E-1,4.7E-1,3E-1,3.876694E-2,-8.210718E-2,4.8E-1,3E-2,2.7E-1,1.7184463E-1,5.7E-1,5.2E-1,1.7E-1,2.9E-1,1.5817562E-2,-3.5940703E-2,2.0691846E-3,-7.227094E-2,5.8513124E-2,-1.0226339E-1,-4.1976884E-2,4.5899633E-2,2.1169123E-1,2.6538398E-2,3.2019675E-2,-5.462956E-2,9.7021796E-2,-1.5177823E-2],"split_indices":[9,8,17,0,14,17,5,0,0,15,8,18,0,3,4,3,19,0,0,9,2,4,0,4,4,0,11,0,0,0,0,0,0,0,0,0,0,0,0,0,0],"split_type":[0,0,0,0,0,0,0,0,0,0,0,0,0,0,0,0,0,0,0,0,0,0,0,0,0,0,0,0,0,0,0,0,0,0,0,0,0,0,0,0,0],"sum_hessian":[2.5706406E2,5.4838424E0,2.5158022E2,1.0558287E0,4.428014E0,2.4618556E2,5.39465E0,2.954038E0,1.4739758E0,2.0062515E2,4.556042E1,2.6694412E0,2.7252088E0,1.9466444E2,5.9606953E0,1.9074814E1,2.6485607E1,1.1506625E0,1.5187786E0,1.715052E2,2.315924E1,4.67468E0,1.286015E0,1.0671275E1,8.40354E0,2.3974651E1,2.5109558E0,1.8319906E1,1.531853E2,3.0031476E0,2.0156094E1,1.783664E0,2.8910165E0,9.237123E0,1.4341524E0,3.9049363E0,4.498603E0,3.793171E0,2.018148E1,1.4529351E0,1.0580207E0],"tree_param":{"num_deleted":"0","num_feature":"20","num_nodes":"41","size_leaf_vector":"0"}},{"base_weights":[-6.445001E-2,-9.305165E-2,-3.2357603E-2,-8.4148966E-2,-2.610335E-1,2.4916323E-2,-8.872602E-2,-9.436205E-2,1.2927005E-1,-2.3686739E-2,-9.9244714E-2,2.1705791E-1,-1.33860465E-2,-1.9170791E-1,-5.1758483E-2,-1.0046041E-1,8.776837E-2,1.173786E-1,-7.326833E-2,-1.16114795E-1,5.409671E-1,1.9459864E-1,-7.155436E-2,-2.726734E-1,-1.04434915E-1,-8.807908E-2,2.4909198E-1,-9.345007E-2,-8.114467E-2,-3.609866E-2,1.1693586E-1,1.4992581E-2,-4.336234E-2,7.238266E-2,-2.5987306E-1,3.009807E-1,-2.4751129E-2,5.845118E-1,1.6639294E-2,4.4356365E-2,-1.7854884E-1,-3.1205133E-1,-9.844763E-3,-3.752599E-2,7.767797E-3,5.5111397E-2,-1.1367147E-1,4.4102526E-1,-5.1901843E-2,-3.1416487E-2,9.228164E-2,-1.0055048E-1,-2.158997E-2,5.858982E-2,2.1666954E-1,8.054846E-2,-3.9747693E-2,-4.9293507E-2,4.3082487E-2,4.442945E-2,-6.196507E-2,-2.7673816E-2,-1.037607E-1,-2.5156612E-2,1.2284497E-1,-8.2243785E-2,-2.747059E-2,1.9631486E-1,-6.764384E-3],"categories":[],"categories_nodes":[],"categories_segments":[],"categories_sizes":[],"default_left":[1,1,0,1,0,0,1,1,0,0,0,0,0,0,0,1,1,0,0,0,0,0,0,0,0,0,0,1,0,0,0,0,0,0,0,0,0,1,0,0,1,0,0,0,0,0,0,0,0,0,0,0,0,0,0,0,0,0,0,0,0,0,0,0,0,0,0,0,0],"id":12,"left_children":[1,3,5,7,9,11,13,15,17,-1,-1,19,21,23,25,27,29,-1,31,33,35,37,39,41,43,45,47,49,-1,-1,-1,-1,-1,-1,51,-1,-1,53,55,57,59,61,-1,-1,-1,63,65,67,-1,-1,-1,-1,-1,-1,-1,-1,-1,-1,-1,-1,-1,-1,-1,-1,-1,-1,-1,-1,-1],"loss_changes":[2.2805512E-1,1.7629623E-1,3.9014435E-1,2.8983647E-1,5.261478E-2,4.472905E-1,2.2146091E-1,1.4447498E-1,3.597367E-1,0E0,0E0,1.1521747E0,6.344164E-1,8.235371E-2,5.2561027E-1,1.1613953E-1,3.2914528E-1,0E0,4.5531027E-2,3.606571E-1,1.6089752E0,7.867187E-1,5.140411E-1,6.0745955E-2,2.7917407E-2,1.5969092E-1,4.9972567E-1,5.542246E-1,0E0,0E0,0E0,0E0,0E0,0E0,4.120508E-2,0E0,0E0,5.0183892E-2,3.7024277E-1,4.4588658E-1,2.2651243E-1,1.5209258E-2,0E0,0E0,0E0,3.8013113E-1,1.0203877E-1,3.979776E-1,0E0,0E0,0E0,0E0,0E0,0E0,0E0,0E0,0E0,0E0,0E0,0E0,0E0,0E0,0E0,0E0,0E0,0E0,0E0,0E0,0E0],"parents":[2147483647,0,0,1,1,2,2,3,3,4,4,5,5,6,6,7,7,8,8,11,11,12,12,13,13,14,14,15,15,16,16,18,18,19,19,20,20,21,21,22,22,23,23,24,24,25,25,26,26,27,27,34,34,37,37,38,38,39,39,40,40,41,41,45,45,46,46,47,47],"right_children":[2,4,6,8,10,12,14,16,18,-1,-1,20,22,24,26,28,30,-1,32,34,36,38,40,42,44,46,48,50,-1,-1,-1,-1,-1,-1,52,-1,-1,54,56,58,60,62,-1,-1,-1,64,66,68,-1,-1,-1,-1,-1,-1,-1,-1,-1,-1,-1,-1,-1,-1,-1,-1,-1,-1,-1,-1,-1],"split_conditions":[4E-2,7.4E-1,4.1E-1,7.1E-1,2.4E-1,3.6E-1,4.3E-1,9.8E-1,7.3E-1,-2.3686739E-2,-9.9244714E-2,4E-1,4.3E-1,4.8E-1,3.5E-1,9E-1,5E-2,1.173786E-1,3.7E-1,2.8E-1,5.8E-1,3.2E-1,4.2E-1,4.9E-1,6.5E-1,4E-2,6.5E-1,7.9E-1,-8.114467E-2,-3.609866E-2,1.1693586E-1,1.4992581E-2,-4.336234E-2,7.238266E-2,4.9E-1,3.009807E-1,-2.4751129E-2,4E-2,3E-2,5E-1,1.4E-1,4E-2,-9.844763E-3,-3.752599E-2,7.767797E-3,5.1E-1,4.8E-1,2.7E-1,-5.1901843E-2,-3.1416487E-2,9.228164E-2,-1.0055048E-1,-2.158997E-2,5.858982E-2,2.1666954E-1,8.054846E-2,-3.9747693E-2,-4.9293507E-2,4.3082487E-2,4.442945E-2,-6.196507E-2,-2.7673816E-2,-1.037607E-1,-2.5156612E-2,1.2284497E-1,-8.2243785E-2,-2.747059E-2,1.9631486E-1,-6.764384E-3],"split_indices":[15,5,0,7,13,4,14,10,7,0,0,18,8,11,15,1,3,0,14,11,9,0,14,3,11,19,10,1,0,0,0,0,0,0,9,0,0,12,18,8,11,12,0,0,0,8,9,1,0,0,0,0,0,0,0,0,0,0,0,0,0,0,0,0,0,0,0,0,0],"split_type":[0,0,0,0,0,0,0,0,0,0,0,0,0,0,0,0,0,0,0,0,0,0,0,0,0,0,0,0,0,0,0,0,0,0,0,0,0,0,0,0,0,0,0,0,0,0,0,0,0,0,0,0,0,0,0,0,0,0,0,0,0,0,0,0,0,0,0,0,0],"sum_hessian":[2.5073462E2,1.3157333E2,1.1916129E2,1.2637658E2,5.196749E0,5.9382668E1,5.9778625E1,1.2113745E2,5.2391295E0,2.030409E0,3.16634E0,9.094365E0,5.0288303E1,1.4684794E1,4.509383E1,1.1764665E2,3.490803E0,1.8780284E0,3.3611012E0,4.7993145E0,4.2950506E0,1.0478017E1,3.9810287E1,6.5156646E0,8.169129E0,4.0867302E1,4.2265296E0,1.14476204E2,3.1704476E0,2.4229312E0,1.0678718E0,1.3410314E0,2.0200696E0,1.1821322E0,3.617182E0,2.1165023E0,2.178548E0,2.5676687E0,7.910348E0,1.9389942E1,2.0420345E1,5.3382807E0,1.1773838E0,7.086428E0,1.0827016E0,6.021777E0,3.4845524E1,2.874581E0,1.3519485E0,1.1206552E2,2.4106815E0,2.0228987E0,1.5942835E0,1.3030865E0,1.2645822E0,2.6442733E0,5.2660747E0,6.038677E0,1.3351265E1,1.2736592E0,1.9146687E1,1.2088484E0,4.129432E0,4.8738627E0,1.1479143E0,2.8379312E0,3.2007595E1,1.6866853E0,1.1878958E0],"tree_param":{"num_deleted":"0","num_feature":"20","num_nodes":"69","size_leaf_vector":"0"}}]},"name":"gbtree"},"learner_model_param":{"base_score":"5E-1","num_class":"0","num_feature":"20","num_target":"1"},"objective":{"name":"reg:squarederror","reg_loss_param":{"scale_pos_weight":"1"}}},"version":[1,6,2]}