{"learner":{"attributes":{"best_ntree_limit":"9"},"feature_names":[],"feature_types":["q","q","q","q","q","q","q","q","q","q","q","q","q","q","q","q","q","q","q","q"],"gradient_booster":{"model":{"gbtree_model_param":{"num_parallel_tree":"1","num_trees":"9","size_leaf_vector":"0"},"tree_info":[0,0,0,0,0,0,0,0,0],"trees":[{"base_weights":[-1.9812043E0,-6.703037E-1,-2.0889974E0,-6.634E-2,-1.1193402E0,-2.103278E0,-4.8738E-1,-4.6152234E-1,5.7674843E-1,-1.3661795E0,-2.6841208E-1,-6.4110553E-1,-1.618406E0,-1.0923488E0,1.8086502E-1,-1.0118327E0,2.9036456E-1,1.661782E-2,2.375066E-1,-1.5503027E0,-3.1205794E-1,2.1161881E-1,-1.0923488E0,-1.8261306E0,-4.253152E-1,-4.0044025E-1,-1.00090414E-1,-1.3613577E0,-1.3794358E-2,2.2433384E-1,-1.6791812E-1,-5.077913E-1,-1.17368355E-1,-2.8417915E-1,1.6488981E-1,-1.00090414E-1,-4.0044025E-1,-5.6372005E-1,-1.6791812E-1,1.5306465E-1,-4.0044025E-1,-1.00090414E-1,-4.8376283E-1,-1.6791812E-1,2.0338477E-1],"categories":[],"categories_nodes":[],"categories_segments":[],"categories_sizes":[],"default_left":[1,0,1,0,0,1,0,0,0,0,0,0,0,0,0,0,0,0,0,0,0,0,0,1,0,0,0,0,0,0,0,0,0,0,0,0,0,0,0,0,0,0,0,0,0],"id":0,"left_children":[1,3,5,7,9,11,13,15,17,19,21,-1,23,25,-1,27,29,-1,-1,31,33,-1,35,37,39,-1,-1,41,-1,-1,-1,-1,-1,-1,-1,-1,-1,-1,-1,43,-1,-1,-1,-1,-1],"loss_changes":[7.002478E1,1.0740683E1,9.6467285E0,4.858014E0,4.4242687E0,4.102295E0,4.2368345E0,5.154255E0,7.766068E-1,2.9003716E0,5.884244E0,0E0,7.696373E0,2.6190662E-1,0E0,2.3023906E0,2.6509867E0,0E0,0E0,1.7450409E0,2.6250584E0,0E0,2.6190662E-1,8.799515E-1,3.5568771E0,0E0,0E0,7.808924E-1,0E0,0E0,0E0,0E0,0E0,0E0,0E0,0E0,0E0,0E0,0E0,2.1726727E0,0E0,0E0,0E0,0E0,0E0],"parents":[2147483647,0,0,1,1,2,2,3,3,4,4,5,5,6,6,7,7,8,8,9,9,10,10,12,12,13,13,15,15,16,16,19,19,20,20,22,22,23,23,24,24,27,27,39,39],"right_children":[2,4,6,8,10,12,14,16,18,20,22,-1,24,26,-1,28,30,-1,-1,32,34,-1,36,38,40,-1,-1,42,-1,-1,-1,-1,-1,-1,-1,-1,-1,-1,-1,44,-1,-1,-1,-1,-1],"split_conditions":[2.9E-1,1E0,4.8E-1,2.6E-1,7E-2,5E-1,4.7E-1,5.6E-1,2.7E-1,7.4E-1,1.4E-1,-6.4110553E-1,7E-1,4.9E-1,1.8086502E-1,2.6E-1,2.2E-1,1.661782E-2,2.375066E-1,3.5E-1,5E-1,2.1161881E-1,6.5E-1,2.4E-1,7.9E-1,-4.0044025E-1,-1.00090414E-1,1.4E-1,-1.3794358E-2,2.2433384E-1,-1.6791812E-1,-5.077913E-1,-1.17368355E-1,-2.8417915E-1,1.6488981E-1,-1.00090414E-1,-4.0044025E-1,-5.6372005E-1,-1.6791812E-1,6.4E-1,-4.0044025E-1,-1.00090414E-1,-4.8376283E-1,-1.6791812E-1,2.0338477E-1],"split_indices":[9,19,18,11,15,13,3,8,14,6,15,0,6,0,0,10,11,0,0,0,1,0,6,19,5,0,0,11,0,0,0,0,0,0,0,0,0,0,0,5,0,0,0,0,0],"split_type":[0,0,0,0,0,0,0,0,0,0,0,0,0,0,0,0,0,0,0,0,0,0,0,0,0,0,0,0,0,0,0,0,0,0,0,0,0,0,0,0,0,0,0,0,0],"sum_hessian":[5.0446368E2,3.8877842E1,4.6558585E2,1.706832E1,2.180952E1,4.6116074E2,4.42512E0,1.074672E1,6.3216E0,1.6436161E1,5.37336E0,4.2797232E2,3.31884E1,2.8447201E0,1.5804E0,6.00552E0,4.7412E0,2.21256E0,4.1090403E0,1.359144E1,2.8447201E0,2.52864E0,2.8447201E0,2.781504E1,5.37336E0,1.5804E0,1.26432E0,4.1090403E0,1.8964801E0,3.1608E0,1.5804E0,1.1694961E1,1.8964801E0,1.5804E0,1.26432E0,1.26432E0,1.5804E0,2.623464E1,1.5804E0,3.7929602E0,1.5804E0,1.26432E0,2.8447201E0,1.5804E0,2.21256E0],"tree_param":{"num_deleted":"0","num_feature":"20","num_nodes":"45","size_leaf_vector":"0"}},{"base_weights":[-1.2957278E0,-4.8462558E-1,-1.3595897E0,-5.6539673E-2,-7.877706E-1,-1.3731223E0,-6.065654E-1,-3.32839E-1,5.661241E-1,-1.7463093E-1,-9.491423E-1,-1.3891326E0,-8.7991416E-1,-8.303524E-1,8.495171E-2,-6.428773E-1,4.382701E-1,2.1195321E-1,3.455978E-3,-2.6688656E-1,2.1122614E-1,4.4980947E-2,-1.1327485E0,-4.2092422E-1,-1.073559E0,-1.068879E0,2.9664707E-1,-2.552024E-1,-1.0836723E0,-9.308898E-1,-2.0765617E-2,2.9276013E-3,1.7987141E-1,1.980796E-1,-1.6333294E-1,-1.7153977E-1,1.7656074E-1,-1.2233312E0,-2.7760027E-2,-4.8643127E-1,-4.0566137E-1,-1.2101828E0,-2.0258952E-2,-6.4433925E-2,1.8556464E-1,-2.8143075E-1,1.9875239E-1,-3.624771E-1,-7.593848E-2,-5.9257183E-2,-3.6044228E-1,1.5726925E-1,-2.0002012E-1,-4.1393536E-1,-4.8775464E-2,9.5661774E-2,-3.1866017E-1,-7.4941E-2,-3.9597625E-1],"categories":[],"categories_nodes":[],"categories_segments":[],"categories_sizes":[],"default_left":[1,0,1,0,0,1,0,0,0,0,1,1,0,0,0,0,0,0,0,0,0,0,0,0,0,1,0,0,0,0,0,0,0,0,0,0,0,0,0,0,0,0,0,0,0,0,0,0,0,0,0,0,0,0,0,0,0,0,0],"id":1,"left_children":[1,3,5,7,9,11,13,15,17,19,21,23,25,27,-1,29,31,-1,-1,-1,33,35,37,-1,39,41,43,45,47,49,51,-1,-1,-1,-1,-1,-1,53,-1,55,-1,57,-1,-1,-1,-1,-1,-1,-1,-1,-1,-1,-1,-1,-1,-1,-1,-1,-1],"loss_changes":[2.6942139E1,5.204196E0,4.1951294E0,3.2584858E0,2.169405E0,2.598816E0,2.326164E0,3.3873E0,4.4771957E-1,1.8826116E0,3.420065E0,5.491333E-1,4.3062096E0,9.8307276E-1,0E0,1.7133391E0,2.9272562E-1,0E0,0E0,0E0,1.9874957E0,1.6236987E0,1.3584843E0,0E0,3.2725296E0,2.1364555E0,6.704787E-1,3.097968E0,2.8332806E-1,1.06983E0,1.786942E0,0E0,0E0,0E0,0E0,0E0,0E0,2.146494E0,0E0,4.647939E0,0E0,1.1119175E0,0E0,0E0,0E0,0E0,0E0,0E0,0E0,0E0,0E0,0E0,0E0,0E0,0E0,0E0,0E0,0E0,0E0],"parents":[2147483647,0,0,1,1,2,2,3,3,4,4,5,5,6,6,7,7,8,8,9,9,10,10,11,11,12,12,13,13,15,15,16,16,20,20,21,21,22,22,24,24,25,25,26,26,27,27,28,28,29,29,30,30,37,37,39,39,41,41],"right_children":[2,4,6,8,10,12,14,16,18,20,22,24,26,28,-1,30,32,-1,-1,-1,34,36,38,-1,40,42,44,46,48,50,52,-1,-1,-1,-1,-1,-1,54,-1,56,-1,58,-1,-1,-1,-1,-1,-1,-1,-1,-1,-1,-1,-1,-1,-1,-1,-1,-1],"split_conditions":[2.9E-1,1E0,7E-1,2.5E-1,4.2E-1,7.6E-1,5.8E-1,2.6E-1,8.2E-1,3.1E-1,9E-2,5.3E-1,5.5E-1,5.2E-1,8.495171E-2,5.6E-1,6E-2,2.1195321E-1,3.455978E-3,-2.6688656E-1,3.4E-1,6.4E-1,3.4E-1,-4.2092422E-1,4.9E-1,1E-1,2.8E-1,3.9E-1,7.7E-1,6.7E-1,2.2E-1,2.9276013E-3,1.7987141E-1,1.980796E-1,-1.6333294E-1,-1.7153977E-1,1.7656074E-1,9.2E-1,-2.7760027E-2,4.1E-1,-4.0566137E-1,2E-2,-2.0258952E-2,-6.4433925E-2,1.8556464E-1,-2.8143075E-1,1.9875239E-1,-3.624771E-1,-7.593848E-2,-5.9257183E-2,-3.6044228E-1,1.5726925E-1,-2.0002012E-1,-4.1393536E-1,-4.8775464E-2,9.5661774E-2,-3.1866017E-1,-7.4941E-2,-3.9597625E-1],"split_indices":[9,19,13,9,8,6,5,11,1,0,9,17,8,3,0,8,15,0,0,0,10,6,11,0,8,12,0,4,1,6,11,0,0,0,0,0,0,1,0,0,0,18,0,0,0,0,0,0,0,0,0,0,0,0,0,0,0,0,0],"split_type":[0,0,0,0,0,0,0,0,0,0,0,0,0,0,0,0,0,0,0,0,0,0,0,0,0,0,0,0,0,0,0,0,0,0,0,0,0,0,0,0,0,0,0,0,0,0,0,0,0,0,0,0,0,0,0,0,0,0,0],"sum_hessian":[5.318539E2,3.944579E1,4.9240808E2,1.6844858E1,2.2600931E1,4.8290628E2,9.501798E0,1.1989933E1,4.854925E0,5.142793E0,1.745814E1,4.659638E2,1.6942488E1,7.645536E0,1.8562618E0,8.670214E0,3.3197193E0,3.6556675E0,1.1992574E0,1.3449796E0,3.7978134E0,2.8394024E0,1.4618736E1,4.4294012E2,2.3023672E1,1.4676802E1,2.2656848E0,2.9515724E0,4.6939635E0,5.5872183E0,3.082995E0,1.197897E0,2.1218224E0,2.461421E0,1.3363924E0,1.3057665E0,1.533636E0,1.3285765E1,1.3329716E0,8.293763E0,1.4729908E1,1.2679064E1,1.9977382E0,1.0037454E0,1.2619393E0,1.6795446E0,1.2720279E0,3.6862366E0,1.0077268E0,1.972132E0,3.6150866E0,1.774405E0,1.3085899E0,1.1315965E1,1.9697999E0,3.643682E0,4.6500816E0,1.636191E0,1.1042872E1],"tree_param":{"num_deleted":"0","num_feature":"20","num_nodes":"59","size_leaf_vector":"0"}},{"base_weights":[-9.8394495E-1,-3.6514804E-1,-1.0349061E0,-6.2495553E-1,-5.21294E-2,-1.0613768E0,-7.039356E-1,-7.0159197E-1,1.1947148E-1,-2.3046069E-1,4.812976E-1,-6.247467E-2,-1.0634344E0,-8.200753E-1,1.2628081E-1,-8.0950016E-1,-7.890921E-2,1.8029834E-1,-4.580138E-1,8.4570395E-3,1.8342115E-1,-1.0656329E0,-1.1115596E-1,-2.9248273E-2,-8.936043E-1,2.1845256E-1,-2.3733562E-1,3.4661067E-3,-9.3013173E-1,1.6578966E-1,-1.9555537E-1,1.5243436E-1,-6.3809717E-1,-9.832216E-2,-3.2011637E-1,-1.6483936E-1,1.7621617E-1,-4.451374E-2,-9.397479E-1,-1.966758E-1,1.3285133E-1,-3.0508104E-1,-4.048431E-2,-2.3364018E-1,2.4195997E-2,-1.3569212E-1,-2.995577E-1],"categories":[],"categories_nodes":[],"categories_segments":[],"categories_sizes":[],"default_left":[1,0,1,1,0,0,0,0,0,0,0,0,1,0,1,0,0,0,1,0,0,0,0,0,0,0,0,0,1,0,0,0,0,0,0,0,0,0,0,0,0,0,0,0,0,0,0],"id":2,"left_children":[1,3,5,7,9,11,13,15,-1,17,19,-1,21,23,25,27,29,-1,31,-1,-1,33,-1,35,37,-1,39,-1,41,-1,-1,-1,43,-1,-1,-1,-1,-1,45,-1,-1,-1,-1,-1,-1,-1,-1],"loss_changes":[1.5370087E1,3.1832376E0,3.2903137E0,1.9666395E0,1.9207891E0,5.241394E-1,3.6805573E0,1.3055E0,0E0,3.1009955E0,2.828735E-1,0E0,2.5030518E-1,1.8740692E0,1.3588829E0,1.720438E0,1.850318E0,0E0,2.4630904E0,0E0,0E0,9.2559814E-2,0E0,1.546129E0,8.875294E-1,0E0,1.4659576E0,0E0,9.024887E-1,0E0,0E0,0E0,1.1555624E0,0E0,0E0,0E0,0E0,0E0,3.4873772E-1,0E0,0E0,0E0,0E0,0E0,0E0,0E0,0E0],"parents":[2147483647,0,0,1,1,2,2,3,3,4,4,5,5,6,6,7,7,9,9,10,10,12,12,13,13,14,14,15,15,16,16,18,18,21,21,23,23,24,24,26,26,28,28,32,32,38,38],"right_children":[2,4,6,8,10,12,14,16,-1,18,20,-1,22,24,26,28,30,-1,32,-1,-1,34,-1,36,38,-1,40,-1,42,-1,-1,-1,44,-1,-1,-1,-1,-1,46,-1,-1,-1,-1,-1,-1,-1,-1],"split_conditions":[2.9E-1,7E-2,7E-2,5E-2,6E-1,1.2E-1,7.6E-1,7.4E-1,1.1947148E-1,6.9E-1,1.6E-1,-6.247467E-2,1.6E-1,2.2E-1,1.3E-1,4.4E-1,4.4E-1,1.8029834E-1,2.6E-1,8.4570395E-3,1.8342115E-1,7E-2,-1.1115596E-1,2.4E-1,3.6E-1,2.1845256E-1,4.7E-1,3.4661067E-3,3.3E-1,1.6578966E-1,-1.9555537E-1,1.5243436E-1,2.7E-1,-9.832216E-2,-3.2011637E-1,-1.6483936E-1,1.7621617E-1,-4.451374E-2,3.9E-1,-1.966758E-1,1.3285133E-1,-3.0508104E-1,-4.048431E-2,-2.3364018E-1,2.4195997E-2,-1.3569212E-1,-2.995577E-1],"split_indices":[9,15,12,19,8,8,7,6,0,13,14,0,18,14,19,1,17,0,14,0,0,14,0,18,8,0,13,0,11,0,0,0,9,0,0,0,0,0,10,0,0,0,0,0,0,0,0],"split_type":[0,0,0,0,0,0,0,0,0,0,0,0,0,0,0,0,0,0,0,0,0,0,0,0,0,0,0,0,0,0,0,0,0,0,0,0,0,0,0,0,0,0,0,0,0,0,0],"sum_hessian":[4.9838684E2,3.854297E1,4.5984387E2,2.05171E1,1.8025871E1,4.237462E2,3.6097687E1,1.9379873E1,1.1372256E0,1.3935142E1,4.090729E0,1.2654598E0,4.2248074E2,3.1678385E1,4.4193006E0,1.626176E1,3.118112E0,2.6416633E0,1.1293478E1,1.1840011E0,2.9067283E0,4.206083E2,1.8724254E0,2.813723E0,2.8864662E1,1.2867506E0,3.13255E0,2.198993E0,1.4062768E1,1.5000682E0,1.618044E0,1.4881513E0,9.805326E0,1.254016E0,4.1935428E2,1.5852661E0,1.228457E0,1.9288648E0,2.6935797E1,1.9621431E0,1.1704069E0,1.2427293E1,1.6354753E0,8.130202E0,1.6751248E0,3.8341944E0,2.3101603E1],"tree_param":{"num_deleted":"0","num_feature":"20","num_nodes":"47","size_leaf_vector":"0"}},{"base_weights":[-7.76835E-1,-4.530143E-1,-8.5346854E-1,-6.2406975E-1,-1.719923E-1,-8.6461866E-1,-3.9128065E-1,-6.7690456E-1,-1.6213755E-1,2.0502137E-1,-3.2456106E-1,-2.604916E-1,-2.3728687E-1,-5.862683E-1,1.7369474E-1,-3.3318284E-1,-7.521773E-1,-5.25038E-1,2.717151E-1,5.650724E-1,-7.930411E-2,-4.3804905E-1,3.2506046E-1,6.620378E-2,-1.7728955E-1,-7.217129E-1,4.307624E-2,-2.1591441E-1,2.6781753E-1,3.970346E-2,-7.823749E-1,5.724873E-3,-2.2980303E-1,2.2479196E-1,-1.2693137E-1,-2.8111538E-2,2.3586914E-1,-1.925668E-1,3.2154533E-1,-5.2124137E-1,1.4999644E-1,1.9612497E-1,-8.7465875E-2,-4.1346096E-2,-2.4109958E-1,-1.4627913E-1,1.8870132E-1,-5.625144E-2,-2.3889378E-1,-5.4613255E-2,1.6249609E-1,1.0919392E-1,-1.7882824E-1],"categories":[],"categories_nodes":[],"categories_segments":[],"categories_sizes":[],"default_left":[1,1,1,1,1,1,0,0,0,0,0,0,0,1,0,0,1,0,0,1,0,1,0,0,0,0,0,0,0,0,0,0,0,0,0,0,0,0,0,0,0,0,0,0,0,0,0,0,0,0,0,0,0],"id":3,"left_children":[1,3,5,7,9,11,13,15,17,19,21,-1,23,25,-1,27,29,31,33,35,37,39,41,-1,-1,43,-1,-1,45,-1,47,-1,-1,-1,-1,-1,-1,-1,49,51,-1,-1,-1,-1,-1,-1,-1,-1,-1,-1,-1,-1,-1],"loss_changes":[1.084668E1,4.159279E0,1.5422668E0,1.2275429E0,2.0777051E0,6.161499E-1,2.311304E0,1.0133953E0,1.2351544E0,1.1387372E0,2.0060284E0,0E0,6.897012E-1,1.0106726E0,0E0,2.6486812E0,1.1528015E0,5.547483E-1,1.5844812E0,7.7855444E-1,1.7506392E0,1.9731536E0,1.0688696E0,0E0,0E0,2.6751328E-1,0E0,0E0,1.6345851E0,0E0,1.6683197E-1,0E0,0E0,0E0,0E0,0E0,0E0,0E0,6.1568093E-1,1.5850596E0,0E0,0E0,0E0,0E0,0E0,0E0,0E0,0E0,0E0,0E0,0E0,0E0,0E0],"parents":[2147483647,0,0,1,1,2,2,3,3,4,4,5,5,6,6,7,7,8,8,9,9,10,10,12,12,13,13,15,15,16,16,17,17,18,18,19,19,20,20,21,21,22,22,25,25,28,28,30,30,38,38,39,39],"right_children":[2,4,6,8,10,12,14,16,18,20,22,-1,24,26,-1,28,30,32,34,36,38,40,42,-1,-1,44,-1,-1,46,-1,48,-1,-1,-1,-1,-1,-1,-1,50,52,-1,-1,-1,-1,-1,-1,-1,-1,-1,-1,-1,-1,-1],"split_conditions":[4.5E-1,7E-2,7.6E-1,7.3E-1,2E-1,4.2E-1,5E-1,3.7E-1,5.6E-1,6.1E-1,7.6E-1,-2.604916E-1,4.9E-1,1.6E-1,1.7369474E-1,3.8E-1,5E-2,3.6E-1,6.2E-1,3E-2,6E-1,5.4E-1,5.2E-1,6.620378E-2,-1.7728955E-1,7.7E-1,4.307624E-2,-2.1591441E-1,2.3E-1,3.970346E-2,3.3E-1,5.724873E-3,-2.2980303E-1,2.2479196E-1,-1.2693137E-1,-2.8111538E-2,2.3586914E-1,-1.925668E-1,1.4E-1,2.7E-1,1.4999644E-1,1.9612497E-1,-8.7465875E-2,-4.1346096E-2,-2.4109958E-1,-1.4627913E-1,1.8870132E-1,-5.625144E-2,-2.3889378E-1,-5.4613255E-2,1.6249609E-1,1.0919392E-1,-1.7882824E-1],"split_indices":[9,12,6,17,11,12,8,1,4,17,6,0,9,19,0,3,9,10,8,11,4,10,18,0,0,7,0,0,5,0,5,0,0,0,0,0,0,0,9,1,0,0,0,0,0,0,0,0,0,0,0,0,0],"split_type":[0,0,0,0,0,0,0,0,0,0,0,0,0,0,0,0,0,0,0,0,0,0,0,0,0,0,0,0,0,0,0,0,0,0,0,0,0,0,0,0,0,0,0,0,0,0,0,0,0,0,0,0,0],"sum_hessian":[4.5167307E2,8.775774E1,3.6391534E2,5.3793457E1,3.3964283E1,3.5449265E2,9.422708E0,4.785458E1,5.9388766E0,9.685812E0,2.4278471E1,3.5203967E2,2.452974E0,8.175494E0,1.2472136E0,9.571967E0,3.828261E1,3.1194258E0,2.8194509E0,3.8380914E0,5.8477206E0,2.094508E1,3.3333907E0,1.2327598E0,1.2202141E0,6.905203E0,1.2702913E0,5.705172E0,3.8667946E0,1.1521541E0,3.713046E1,1.2400872E0,1.8793387E0,1.62445E0,1.195001E0,1.1094875E0,2.7286038E0,2.1828318E0,3.6648889E0,1.9646963E1,1.298116E0,2.1350584E0,1.1983323E0,1.1799599E0,5.7252426E0,1.1375815E0,2.729213E0,1.1809201E0,3.594954E1,1.1672505E0,2.4976382E0,1.2306373E0,1.8416327E1],"tree_param":{"num_deleted":"0","num_feature":"20","num_nodes":"53","size_leaf_vector":"0"}},{"base_weights":[-6.1915606E-1,-2.7023897E-1,-6.756667E-1,-3.5828012E-1,3.0252215E-1,-6.9726366E-1,-4.722315E-1,-9.8362334E-2,-4.8202184E-1,8.964605E-3,2.0566843E-1,-7.020641E-1,2.3575395E-3,1.6588618E-1,-5.3474545E-1,-5.365417E-1,8.743134E-2,-1.7918709E-1,-6.1192596E-1,-1.09758556E-1,3.1421405E-1,-1.1224251E-2,-7.043378E-1,2.5677368E-1,-1.2215177E-1,-2.2319748E-1,-6.838439E-1,-2.3642069E-1,5.635242E-2,-2.5910407E-1,4.570089E-1,-1.8020517E-1,4.3172825E-2,4.837627E-2,-6.690798E-1,1.6742764E-1,-3.3072732E-2,-6.437295E-2,-2.1163686E-1,-5.0460124E-1,4.18709E-1,-2.1253355E-1,-4.0192477E-2,6.553284E-2,-2.1448469E-1,5.766878E-3,1.8289755E-1,-7.147978E-2,1.8726565E-1,-2.1052985E-1,-5.8480687E-3,-2.024444E-1,1.0944656E-2,-1.1347316E-1,2.3320709E-1],"categories":[],"categories_nodes":[],"categories_segments":[],"categories_sizes":[],"default_left":[1,1,1,1,0,1,0,0,0,1,0,0,0,0,0,0,0,1,0,0,0,0,0,0,0,0,0,0,0,0,0,0,1,0,1,0,0,0,0,0,0,0,0,0,0,0,0,0,0,0,0,0,0,0,0],"id":4,"left_children":[1,3,5,7,9,11,13,15,17,19,-1,21,-1,23,25,27,29,31,33,-1,35,-1,37,-1,-1,39,41,-1,-1,43,45,-1,47,-1,49,-1,-1,-1,-1,51,53,-1,-1,-1,-1,-1,-1,-1,-1,-1,-1,-1,-1,-1,-1],"loss_changes":[7.8561554E0,3.0580049E0,1.2093811E0,1.5979605E0,9.3112886E-1,1.0700531E0,1.553051E0,1.4924699E0,1.2436886E0,7.708097E-1,0E0,4.457245E-1,0E0,1.9454472E0,1.411376E0,1.1368841E0,1.825493E0,1.126355E0,1.153451E0,0E0,4.4425234E-1,0E0,1.9104004E-2,0E0,0E0,2.4479976E0,2.0657635E-1,0E0,0E0,1.792568E0,4.4350696E-1,0E0,1.5582144E0,0E0,4.5823765E-1,0E0,0E0,0E0,0E0,8.5923505E-1,1.5289176E0,0E0,0E0,0E0,0E0,0E0,0E0,0E0,0E0,0E0,0E0,0E0,0E0,0E0,0E0],"parents":[2147483647,0,0,1,1,2,2,3,3,4,4,5,5,6,6,7,7,8,8,9,9,11,11,13,13,14,14,15,15,16,16,17,17,18,18,20,20,22,22,25,25,26,26,29,29,30,30,32,32,34,34,39,39,40,40],"right_children":[2,4,6,8,10,12,14,16,18,20,-1,22,-1,24,26,28,30,32,34,-1,36,-1,38,-1,-1,40,42,-1,-1,44,46,-1,48,-1,50,-1,-1,-1,-1,52,54,-1,-1,-1,-1,-1,-1,-1,-1,-1,-1,-1,-1,-1,-1],"split_conditions":[3.9E-1,1.4E-1,4E-1,1.9E-1,3.4E-1,4.2E-1,3.7E-1,6.4E-1,6.1E-1,2.5E-1,2.0566843E-1,5E-2,2.3575395E-3,5E-1,4.7E-1,1.4E-1,5.1E-1,3.2E-1,3E-1,-1.09758556E-1,6.5E-1,-1.1224251E-2,8E-2,2.5677368E-1,-1.2215177E-1,4.7E-1,7.4E-1,-2.3642069E-1,5.635242E-2,7.2E-1,4E-2,-1.8020517E-1,3E-2,4.837627E-2,7E-2,1.6742764E-1,-3.3072732E-2,-6.437295E-2,-2.1163686E-1,7E-1,4E-2,-2.1253355E-1,-4.0192477E-2,6.553284E-2,-2.1448469E-1,5.766878E-3,1.8289755E-1,-7.147978E-2,1.8726565E-1,-2.1052985E-1,-5.8480687E-3,-2.024444E-1,1.0944656E-2,-1.1347316E-1,2.3320709E-1],"split_indices":[9,19,17,11,11,12,16,6,6,18,0,16,0,6,8,2,8,16,1,0,1,0,14,0,0,3,7,0,0,13,15,0,18,0,19,0,0,0,0,6,15,0,0,0,0,0,0,0,0,0,0,0,0,0,0],"split_type":[0,0,0,0,0,0,0,0,0,0,0,0,0,0,0,0,0,0,0,0,0,0,0,0,0,0,0,0,0,0,0,0,0,0,0,0,0,0,0,0,0,0,0,0,0,0,0,0,0,0,0,0,0,0,0],"sum_hessian":[4.0669574E2,5.7493332E1,3.4920242E2,5.0157856E1,7.335475E0,3.1349402E2,3.570839E1,1.6756325E1,3.340153E1,4.7321815E0,2.6032934E0,3.1137848E2,2.1155314E0,3.0385444E0,3.2669846E1,4.427228E0,1.2329096E1,1.0741091E1,2.2660442E1,2.0348954E0,2.6972861E0,1.1210575E0,3.1025742E2,1.1546421E0,1.8839023E0,1.1382526E1,2.1287321E1,3.2209141E0,1.2063138E0,6.517171E0,5.811925E0,3.121912E0,7.6191783E0,1.434399E0,2.1226042E1,1.5130819E0,1.1842041E0,1.1462343E0,3.091112E2,8.062103E0,3.3204231E0,2.009967E1,1.1876506E0,3.4371645E0,3.0800064E0,1.7936935E0,4.0182314E0,5.5303855E0,2.0887928E0,2.0132664E1,1.093379E0,5.944831E0,2.117272E0,1.0135566E0,2.3068664E0],"tree_param":{"num_deleted":"0","num_feature":"20","num_nodes":"55","size_leaf_vector":"0"}},{"base_weights":[-4.9184263E-1,-5.4615396E-1,-2.1902056E-1,9.4156995E-2,-5.513841E-1,-2.7784926E-1,2.3698522E-1,-5.6197447E-1,-3.2851264E-1,-3.1722385E-2,-3.7877274E-1,5.807656E-1,-1.24193974E-1,-5.6438094E-1,1.8384172E-2,2.5923115E-1,-5.4009664E-1,-2.2023271E-1,5.3075415E-1,-4.0790254E-1,9.814003E-2,3.348231E-2,2.0879126E-1,-1.6803491E-1,2.4957845E-1,-1.9048966E-2,-5.670259E-1,7.2772545E-1,-1.4364924E-1,2.3400865E-2,-1.8084094E-1,-1.7759553E-1,-3.396508E-2,4.364941E-3,2.1496372E-1,-5.3926665E-1,-1.4265218E-1,1.11483596E-1,7.291206E-4,-1.7085901E-1,-2.1020135E-2,2.5834346E-1,7.076251E-2,1.9746499E-1,-6.777446E-2,-1.8308307E-1,-6.28841E-2,4.8177196E-3,-1.787786E-1],"categories":[],"categories_nodes":[],"categories_segments":[],"categories_sizes":[],"default_left":[1,0,1,0,1,0,0,0,0,0,0,0,0,0,0,0,0,0,0,0,0,0,0,0,0,0,1,0,0,0,0,0,0,0,0,0,0,0,0,0,0,0,0,0,0,0,0,0,0],"id":5,"left_children":[1,3,5,-1,7,9,11,13,15,17,19,21,23,25,-1,27,29,31,33,35,-1,-1,-1,-1,37,-1,39,41,-1,-1,-1,-1,43,-1,-1,45,47,-1,-1,-1,-1,-1,-1,-1,-1,-1,-1,-1,-1],"loss_changes":[5.343834E0,1.5531845E0,1.7528205E0,0E0,5.3608704E-1,1.3829932E0,1.0313632E0,4.6966553E-1,2.161843E0,1.9642832E0,9.505458E-1,1.4577603E-1,8.878634E-1,3.4696198E-1,0E0,2.0701866E0,5.2293944E-1,9.324461E-1,4.3714023E-1,1.2683172E0,0E0,0E0,0E0,0E0,9.451108E-2,0E0,3.177719E-1,2.2798061E-2,0E0,0E0,0E0,0E0,1.5072664E0,0E0,0E0,4.680705E-1,1.0273E0,0E0,0E0,0E0,0E0,0E0,0E0,0E0,0E0,0E0,0E0,0E0,0E0],"parents":[2147483647,0,0,1,1,2,2,4,4,5,5,6,6,7,7,8,8,9,9,10,10,11,11,12,12,13,13,15,15,16,16,17,17,18,18,19,19,24,24,26,26,27,27,32,32,35,35,36,36],"right_children":[2,4,6,-1,8,10,12,14,16,18,20,22,24,26,-1,28,30,32,34,36,-1,-1,-1,-1,38,-1,40,42,-1,-1,-1,-1,44,-1,-1,46,48,-1,-1,-1,-1,-1,-1,-1,-1,-1,-1,-1,-1],"split_conditions":[5E-1,2.8E-1,2.5E-1,9.4156995E-2,5.3E-1,4E-2,6.4E-1,9.9E-1,4.5E-1,6.4E-1,8.3E-1,2.8E-1,6.2E-1,1.7E-1,1.8384172E-2,4.7E-1,4.8E-1,5.4E-1,3.2E-1,7.1E-1,9.814003E-2,3.348231E-2,2.0879126E-1,-1.6803491E-1,5.9E-1,-1.9048966E-2,9.1E-1,7E-1,-1.4364924E-1,2.3400865E-2,-1.8084094E-1,-1.7759553E-1,6.1E-1,4.364941E-3,2.1496372E-1,1.6E-1,8.4E-1,1.11483596E-1,7.291206E-4,-1.7085901E-1,-2.1020135E-2,2.5834346E-1,7.076251E-2,1.9746499E-1,-6.777446E-2,-1.8308307E-1,-6.28841E-2,4.8177196E-3,-1.787786E-1],"split_indices":[13,9,18,0,17,18,2,14,9,4,15,15,18,0,0,8,10,5,14,7,0,0,0,0,1,0,18,7,0,0,0,0,6,0,0,15,6,0,0,0,0,0,0,0,0,0,0,0,0],"split_type":[0,0,0,0,0,0,0,0,0,0,0,0,0,0,0,0,0,0,0,0,0,0,0,0,0,0,0,0,0,0,0,0,0,0,0,0,0,0,0,0,0,0,0,0,0,0,0,0,0],"sum_hessian":[3.6772055E2,3.0583533E2,6.1885235E1,1.4919868E0,3.0434332E2,5.515983E1,6.725409E0,2.8908505E2,1.5258275E1,1.642288E1,3.8736946E1,3.1342099E0,3.591199E0,2.8806726E2,1.0177902E0,3.9792933E0,1.1278981E1,1.27561865E1,3.6666934E0,3.7607212E1,1.1297358E0,1.0060359E0,2.128174E0,1.4276333E0,2.1635656E0,1.6445312E0,2.8642273E2,2.4427383E0,1.536555E0,1.016396E0,1.0262586E1,3.5309618E0,9.2252245E0,1.2558222E0,2.4108713E0,2.44603E1,1.3146911E1,1.111261E0,1.0523046E0,2.8484143E2,1.5813102E0,1.3308935E0,1.1118448E0,1.475474E0,7.7497506E0,1.9424765E1,5.0355372E0,1.0451848E1,2.6950624E0],"tree_param":{"num_deleted":"0","num_feature":"20","num_nodes":"49","size_leaf_vector":"0"}},{"base_weights":[-3.8453987E-1,-7.34889E-2,-4.1892752E-1,1.3384536E-1,-1.1296075E-1,-4.3229076E-1,-1.16492055E-1,-2.6022872E-1,6.468262E-2,-4.5293435E-1,-2.9203048E-1,2.9975602E-1,-1.6995406E-1,1.7073783E-1,-3.9792714E-1,-2.4327399E-1,2.6323995E-1,-4.6081987E-1,-1.5366495E-1,5.0293516E-2,-3.6335456E-1,-1.1042114E-1,5.1721835E-1,4.471426E-1,-8.797979E-2,-4.7948506E-1,7.316364E-2,9.042924E-2,-1.6381633E-1,-3.0013194E-2,6.862072E-1,-4.647762E-1,-1.8801378E-1,-3.5228774E-1,1.2664005E-1,-2.6521903E-1,5.5809236E-1,-1.1698038E-1,-4.5086882E-1,7.327732E-1,-5.980578E-2,1.6681087E-1,3.211643E-2,1.4787328E-3,-1.6676882E-1,9.850191E-2,-6.6473596E-2,8.057211E-2,-1.0540829E-1,4.5798603E-2,2.454995E-1,-1.4013264E-1,-2.358878E-2,-1.0621137E-1,7.461667E-2,-1.5349734E-1,3.4650452E-2,-1.448514E-1,5.587849E-2,-6.386683E-2,2.981802E-1,-1.508214E-1,3.1433314E-2,-1.4812623E-1,-7.658851E-2,4.8060924E-2,2.8693977E-1],"categories":[],"categories_nodes":[],"categories_segments":[],"categories_sizes":[],"default_left":[1,0,1,0,0,1,0,0,1,1,0,0,0,1,0,1,0,0,0,0,0,0,0,0,0,0,0,0,0,0,0,1,0,0,0,0,0,0,0,0,0,0,0,0,0,0,0,0,0,0,0,0,0,0,0,0,0,0,0,0,0,0,0,0,0,0,0],"id":6,"left_children":[1,3,5,-1,7,9,11,13,15,17,19,21,-1,23,25,27,29,31,33,35,37,-1,39,41,-1,43,-1,45,-1,47,49,51,53,55,-1,57,59,61,63,65,-1,-1,-1,-1,-1,-1,-1,-1,-1,-1,-1,-1,-1,-1,-1,-1,-1,-1,-1,-1,-1,-1,-1,-1,-1,-1,-1],"loss_changes":[3.575451E0,7.6367396E-1,1.175724E0,0E0,8.8323784E-1,7.07901E-1,2.8309467E0,1.1542902E0,1.0308869E0,5.2181625E-1,9.959521E-1,1.3571343E0,0E0,7.893853E-1,8.5884833E-1,7.2816527E-1,1.2725909E0,1.761589E-1,1.0576228E0,1.3949587E0,6.643791E-1,0E0,1.1464156E0,7.425803E-2,0E0,4.8070002E-1,0E0,3.7366378E-1,0E0,7.582476E-1,1.693685E-1,1.7944336E-1,4.6291605E-1,5.4026103E-1,0E0,6.281647E-1,1.3220648E0,9.1393703E-1,7.684946E-2,5.1183033E-1,0E0,0E0,0E0,0E0,0E0,0E0,0E0,0E0,0E0,0E0,0E0,0E0,0E0,0E0,0E0,0E0,0E0,0E0,0E0,0E0,0E0,0E0,0E0,0E0,0E0,0E0,0E0],"parents":[2147483647,0,0,1,1,2,2,4,4,5,5,6,6,7,7,8,8,9,9,10,10,11,11,13,13,14,14,15,15,16,16,17,17,18,18,19,19,20,20,22,22,23,23,25,25,27,27,29,29,30,30,31,31,32,32,33,33,35,35,36,36,37,37,38,38,39,39],"right_children":[2,4,6,-1,8,10,12,14,16,18,20,22,-1,24,26,28,30,32,34,36,38,-1,40,42,-1,44,-1,46,-1,48,50,52,54,56,-1,58,60,62,64,66,-1,-1,-1,-1,-1,-1,-1,-1,-1,-1,-1,-1,-1,-1,-1,-1,-1,-1,-1,-1,-1,-1,-1,-1,-1,-1,-1],"split_conditions":[2.9E-1,3.2E-1,7.6E-1,1.3384536E-1,6.2E-1,3.6E-1,8.2E-1,4.4E-1,1.3E-1,3.6E-1,3.9E-1,2.6E-1,-1.6995406E-1,4.2E-1,2.8E-1,9E-2,2.6E-1,9.1E-1,4.3E-1,5.6E-1,4.5E-1,-1.1042114E-1,4.5E-1,7.6E-1,-8.797979E-2,2E-2,7.316364E-2,8E-1,-1.6381633E-1,7.5E-1,5.7E-1,2.3E-1,9.8E-1,3.8E-1,1.2664005E-1,6.4E-1,3.2E-1,3.7E-1,9.3E-1,6E-2,-5.980578E-2,1.6681087E-1,3.211643E-2,1.4787328E-3,-1.6676882E-1,9.850191E-2,-6.6473596E-2,8.057211E-2,-1.0540829E-1,4.5798603E-2,2.454995E-1,-1.4013264E-1,-2.358878E-2,-1.0621137E-1,7.461667E-2,-1.5349734E-1,3.4650452E-2,-1.448514E-1,5.587849E-2,-6.386683E-2,2.981802E-1,-1.508214E-1,3.1433314E-2,-1.4812623E-1,-7.658851E-2,4.8060924E-2,2.8693977E-1],"split_indices":[9,8,6,0,4,17,7,1,10,15,16,4,0,14,9,9,11,11,4,1,9,0,3,6,0,19,0,3,0,4,3,2,10,13,0,5,14,11,12,15,0,0,0,0,0,0,0,0,0,0,0,0,0,0,0,0,0,0,0,0,0,0,0,0,0,0,0],"split_type":[0,0,0,0,0,0,0,0,0,0,0,0,0,0,0,0,0,0,0,0,0,0,0,0,0,0,0,0,0,0,0,0,0,0,0,0,0,0,0,0,0,0,0,0,0,0,0,0,0,0,0,0,0,0,0,0,0,0,0,0,0,0,0,0,0,0,0],"sum_hessian":[3.3614774E2,3.3775047E1,3.0237268E2,1.657064E0,3.2117985E1,2.8916638E2,1.3206292E1,1.730614E1,1.4811843E1,2.501238E2,3.904259E1,7.0340466E0,6.1722455E0,4.132467E0,1.3173675E1,5.718072E0,9.093771E0,2.4317645E2,6.947334E0,6.782837E0,3.2259754E1,1.5577202E0,5.4763265E0,2.6125324E0,1.5199342E0,1.1912765E1,1.26091E0,3.053765E0,2.664307E0,5.919018E0,3.174753E0,2.390066E2,4.169848E0,5.454105E0,1.4932288E0,4.4781313E0,2.3047056E0,9.067948E0,2.3191805E1,4.1925397E0,1.2837868E0,1.4979284E0,1.114604E0,1.7505411E0,1.0162224E1,1.7029201E0,1.350845E0,3.1532953E0,2.7657223E0,1.0579557E0,2.1167972E0,2.3736313E2,1.6434721E0,3.1585052E0,1.0113428E0,3.9981918E0,1.4559132E0,2.9747925E0,1.503339E0,1.0170823E0,1.2876234E0,2.8475165E0,6.220432E0,1.7770468E1,5.421338E0,1.6599245E0,2.5326154E0],"tree_param":{"num_deleted":"0","num_feature":"20","num_nodes":"67","size_leaf_vector":"0"}},{"base_weights":[-2.9711914E-1,-4.583247E-2,-3.2622042E-1,1.459406E-1,-1.3243437E-1,-3.3695063E-1,-8.9587055E-2,-1.5236843E-1,3.5079268E-1,-2.7198738E-1,1.5110171E-1,-3.4609935E-1,-1.2634386E-1,2.3583333E-1,-1.3911325E-1,8.954516E-2,5.670796E-1,-3.594809E-1,1.6984436E-1,-2.8249782E-1,3.5941365E-1,-3.6028537E-1,-2.3956323E-1,1.6600917E-1,-3.3436716E-1,-2.4467573E-2,2.0188332E-1,-3.18898E-1,1.3772257E-1,3.15788E-2,2.0088546E-1,1.19481705E-1,-4.9413145E-1,1.0434757E-1,-3.2891817E-2,-1.251443E-1,5.070967E-4,-2.7696192E-2,5.0631493E-1,-3.6356115E-1,-1.4489898E-1,-3.4287748E-1,1.0568618E-2,4.9955627E-1,-1.0892204E-1,9.054967E-2,-1.4349476E-1,-1.2899072E-1,2.9642168E-1,-1.2294333E-1,-2.1321066E-2,1.6731761E-1,-8.9072965E-2,-8.149584E-2,-2.2290646E-1,1.8778215E-1,2.5209175E-2,-1.0964957E-1,-1.9354047E-2,-9.6464165E-2,6.000641E-2,2.4645774E-2,-1.1237408E-1,1.6214712E-1,-4.789539E-2,2.1276915E-1,-1.8113075E-2,-7.911155E-2,1.7771265E-1],"categories":[],"categories_nodes":[],"categories_segments":[],"categories_sizes":[],"default_left":[1,0,1,1,0,1,0,0,0,1,0,1,0,0,0,0,0,0,0,0,0,0,0,0,0,0,0,0,0,0,0,0,0,0,0,0,0,0,0,1,0,0,0,0,0,0,0,0,0,0,0,0,0,0,0,0,0,0,0,0,0,0,0,0,0,0,0,0,0],"id":7,"left_children":[1,3,5,7,9,11,13,-1,15,17,19,21,23,25,-1,27,29,31,33,35,37,39,41,43,45,47,-1,49,-1,-1,-1,51,53,-1,-1,-1,-1,-1,55,57,59,61,63,65,-1,-1,-1,-1,67,-1,-1,-1,-1,-1,-1,-1,-1,-1,-1,-1,-1,-1,-1,-1,-1,-1,-1,-1,-1],"loss_changes":[2.264328E0,5.75909E-1,6.7866516E-1,1.638318E0,9.753631E-1,4.7014427E-1,1.7495611E0,0E0,4.516766E-1,6.8655264E-1,8.63049E-1,2.991085E-1,8.265365E-1,9.1168225E-1,0E0,9.3351865E-1,1.5100157E-1,9.507699E-1,2.049551E-1,1.2682572E-1,4.5386606E-1,1.0470772E-1,8.551737E-1,1.2294376E0,8.531182E-1,8.9467674E-1,0E0,3.9981067E-2,0E0,0E0,0E0,8.6621773E-1,4.0656042E-1,0E0,0E0,0E0,0E0,0E0,1.8905783E-1,1.03342056E-1,3.6923528E-1,3.4540296E-1,1.0426366E0,5.198835E-1,0E0,0E0,0E0,0E0,7.9997826E-1,0E0,0E0,0E0,0E0,0E0,0E0,0E0,0E0,0E0,0E0,0E0,0E0,0E0,0E0,0E0,0E0,0E0,0E0,0E0,0E0],"parents":[2147483647,0,0,1,1,2,2,3,3,4,4,5,5,6,6,8,8,9,9,10,10,11,11,12,12,13,13,15,15,16,16,17,17,18,18,19,19,20,20,21,21,22,22,23,23,24,24,25,25,27,27,31,31,32,32,38,38,39,39,40,40,41,41,42,42,43,43,48,48],"right_children":[2,4,6,8,10,12,14,-1,16,18,20,22,24,26,-1,28,30,32,34,36,38,40,42,44,46,48,-1,50,-1,-1,-1,52,54,-1,-1,-1,-1,-1,56,58,60,62,64,66,-1,-1,-1,-1,68,-1,-1,-1,-1,-1,-1,-1,-1,-1,-1,-1,-1,-1,-1,-1,-1,-1,-1,-1,-1],"split_conditions":[2.9E-1,7.2E-1,7.6E-1,1.3E-1,6E-1,3.4E-1,8.2E-1,-1.5236843E-1,5.2E-1,3.2E-1,5.5E-1,3.6E-1,4.5E-1,5.4E-1,-1.3911325E-1,3.4E-1,4E-1,3E-2,6.8E-1,6E-2,2.1E-1,9.1E-1,5.6E-1,6E-1,2.6E-1,4E-1,2.0188332E-1,3.1E-1,1.3772257E-1,3.15788E-2,2.0088546E-1,6.7E-1,1E-1,1.0434757E-1,-3.2891817E-2,-1.251443E-1,5.070967E-4,-2.7696192E-2,4.3E-1,2.3E-1,2.2E-1,3.7E-1,3.7E-1,4.6E-1,-1.0892204E-1,9.054967E-2,-1.4349476E-1,-1.2899072E-1,6E-2,-1.2294333E-1,-2.1321066E-2,1.6731761E-1,-8.9072965E-2,-8.149584E-2,-2.2290646E-1,1.8778215E-1,2.5209175E-2,-1.0964957E-1,-1.9354047E-2,-9.6464165E-2,6.000641E-2,2.4645774E-2,-1.1237408E-1,1.6214712E-1,-4.789539E-2,2.1276915E-1,-1.8113075E-2,-7.911155E-2,1.7771265E-1],"split_indices":[9,13,6,10,8,15,7,0,1,18,5,17,8,8,0,0,14,19,1,2,0,11,1,10,16,14,0,10,0,0,0,6,12,0,0,0,0,0,10,2,6,17,16,0,0,0,0,0,15,0,0,0,0,0,0,0,0,0,0,0,0,0,0,0,0,0,0,0,0],"split_type":[0,0,0,0,0,0,0,0,0,0,0,0,0,0,0,0,0,0,0,0,0,0,0,0,0,0,0,0,0,0,0,0,0,0,0,0,0,0,0,0,0,0,0,0,0,0,0,0,0,0,0,0,0,0,0,0,0,0,0,0,0,0,0,0,0,0,0,0,0],"sum_hessian":[3.106849E2,3.2513027E1,2.7817188E2,9.901578E0,2.261145E1,2.656997E2,1.2472166E1,2.0092483E0,7.8923297E0,1.5180516E1,7.430934E0,2.5402171E2,1.1678002E1,6.867935E0,5.6042304E0,4.215067E0,3.6772625E0,1.2826868E1,2.353649E0,2.2959027E0,5.135031E0,2.2206978E2,3.1951933E1,4.938904E0,6.7390985E0,4.8962364E0,1.9716989E0,2.0671997E0,2.1478674E0,1.0363371E0,2.6409252E0,2.8394334E0,9.987434E0,1.288548E0,1.0651008E0,1.2403576E0,1.0555451E0,1.3512783E0,3.783753E0,2.1806532E2,4.0044503E0,2.2349802E1,9.602131E0,3.0634403E0,1.8754635E0,1.0410854E0,5.698013E0,2.0127869E0,2.8834496E0,1.034201E0,1.0329987E0,1.2180429E0,1.6213906E0,6.377844E0,3.6095905E0,2.572685E0,1.211068E0,2.164409E2,1.624429E0,2.6930103E0,1.31144E0,1.4408892E0,2.0908913E1,1.8056395E0,7.7964916E0,2.0348358E0,1.0286045E0,1.0345013E0,1.8489484E0],"tree_param":{"num_deleted":"0","num_feature":"20","num_nodes":"69","size_leaf_vector":"0"}},{"base_weights":[-2.2615921E-1,4.6219643E-2,-2.4335517E-1,-2.1546675E-1,1.503853E-1,-2.5598425E-1,-4.1025337E-3,2.3187093E-2,-3.883762E-1,-7.757242E-2,2.8877285E-1,-1.6448267E-1,-2.7293265E-1,-1.5721013E-1,4.4573802E-1,-1.404225E-1,-3.3982463E-2,9.066481E-2,-2.5386336E-1,-5.9563573E-2,4.1491953E-1,-2.2943908E-1,2.9065883E-1,-2.7926597E-1,-1.0712377E-1,-3.1018686E-1,9.464894E-2,1.7727992E-1,8.636366E-3,-1.542059E-2,-1.3470559E-1,5.0317925E-1,9.959319E-3,1.9032152E-1,-2.6490235E-1,5.1588595E-1,-6.867429E-2,-1.0599051E-1,-2.8296453E-1,1.5443094E-1,-3.4845185E-1,-1.21531285E-1,3.7688356E-2,1.3825133E-1,-1.250358E-1,1.9639855E-2,-2.772379E-2,1.8330085E-1,1.4170698E-2,-7.198868E-2,1.486727E-1,-1.2756106E-1,-5.435556E-2,-4.8968475E-2,2.3241684E-1,1.14289485E-1,-9.3770534E-2,-8.1866264E-2,-1.2115096E-1,1.5727521E-1,-7.0977464E-2,3.4523427E-2,-1.4994721E-1,-9.568456E-2,6.4763285E-2],"categories":[],"categories_nodes":[],"categories_segments":[],"categories_sizes":[],"default_left":[1,0,1,0,0,0,0,0,0,0,0,0,1,0,0,0,0,0,0,0,0,0,0,0,0,0,1,0,0,0,0,0,0,0,0,0,0,0,1,0,0,0,0,0,0,0,0,0,0,0,0,0,0,0,0,0,0,0,0,0,0,0,0,0,0],"id":8,"left_children":[1,3,5,7,9,11,13,-1,15,17,19,21,23,25,27,-1,-1,-1,29,-1,31,33,35,37,39,41,43,-1,-1,45,-1,47,-1,49,51,53,-1,55,57,59,61,-1,-1,-1,63,-1,-1,-1,-1,-1,-1,-1,-1,-1,-1,-1,-1,-1,-1,-1,-1,-1,-1,-1,-1],"loss_changes":[1.3775568E0,5.275049E-1,8.2849884E-1,3.1260413E-1,4.5082143E-1,3.5950089E-1,1.0881484E0,0E0,2.7566731E-2,4.7297442E-1,6.148799E-1,1.345893E0,1.9952965E-1,4.8274052E-1,2.260086E-1,0E0,0E0,0E0,2.064574E-1,0E0,2.2602594E-1,6.2239075E-1,8.020941E-1,1.0448456E-1,6.6361845E-1,3.6339957E-1,4.7697043E-1,0E0,0E0,2.5352148E-2,0E0,2.5534368E-1,0E0,5.8850896E-1,4.040408E-1,8.972274E-1,0E0,7.2105414E-1,1.3931084E-1,8.9466524E-1,4.3163276E-1,0E0,0E0,0E0,3.3624125E-1,0E0,0E0,0E0,0E0,0E0,0E0,0E0,0E0,0E0,0E0,0E0,0E0,0E0,0E0,0E0,0E0,0E0,0E0,0E0,0E0],"parents":[2147483647,0,0,1,1,2,2,3,3,4,4,5,5,6,6,8,8,9,9,10,10,11,11,12,12,13,13,14,14,18,18,20,20,21,21,22,22,23,23,24,24,25,25,26,26,29,29,31,31,33,33,34,34,35,35,37,37,38,38,39,39,40,40,44,44],"right_children":[2,4,6,8,10,12,14,-1,16,18,20,22,24,26,28,-1,-1,-1,30,-1,32,34,36,38,40,42,44,-1,-1,46,-1,48,-1,50,52,54,-1,56,58,60,62,-1,-1,-1,64,-1,-1,-1,-1,-1,-1,-1,-1,-1,-1,-1,-1,-1,-1,-1,-1,-1,-1,-1,-1],"split_conditions":[2E-1,4E-2,7.6E-1,2.9E-1,1.6E-1,4.7E-1,5.5E-1,2.3187093E-2,2.9E-1,2.3E-1,3.8E-1,4.5E-1,3.4E-1,4.1E-1,7.9E-1,-1.404225E-1,-3.3982463E-2,9.066481E-2,1.3E-1,-5.9563573E-2,7.6E-1,2.1E-1,5.1E-1,1.9E-1,4E-1,5.2E-1,4.5E-1,1.7727992E-1,8.636366E-3,1.9E-1,-1.3470559E-1,8.1E-1,9.959319E-3,1.8E-1,3.3E-1,1.5E-1,-6.867429E-2,4.7E-1,4.1E-1,4.6E-1,6.4E-1,-1.21531285E-1,3.7688356E-2,1.3825133E-1,6E-2,1.9639855E-2,-2.772379E-2,1.8330085E-1,1.4170698E-2,-7.198868E-2,1.486727E-1,-1.2756106E-1,-5.435556E-2,-4.8968475E-2,2.3241684E-1,1.14289485E-1,-9.3770534E-2,-8.1866264E-2,-1.2115096E-1,1.5727521E-1,-7.0977464E-2,3.4523427E-2,-1.4994721E-1,-9.568456E-2,6.4763285E-2],"split_indices":[11,15,6,17,9,10,8,0,0,0,17,10,15,14,6,0,0,0,9,0,2,9,16,0,2,13,14,0,0,12,0,6,0,9,10,17,0,3,13,0,6,0,0,0,12,0,0,0,0,0,0,0,0,0,0,0,0,0,0,0,0,0,0,0,0],"split_type":[0,0,0,0,0,0,0,0,0,0,0,0,0,0,0,0,0,0,0,0,0,0,0,0,0,0,0,0,0,0,0,0,0,0,0,0,0,0,0,0,0,0,0,0,0,0,0,0,0,0,0,0,0,0,0,0,0,0,0,0,0,0,0,0,0],"sum_hessian":[2.907085E2,1.7163057E1,2.7354544E2,4.5824533E0,1.2580603E1,2.5976373E2,1.3781685E1,1.9068769E0,2.6755767E0,4.9183493E0,7.662254E0,4.2268467E1,2.1749527E2,1.0767412E1,3.0142727E0,1.530668E0,1.1449085E0,1.3327872E0,3.5855622E0,1.4575722E0,6.2046814E0,3.742341E1,4.8450603E0,2.0883429E2,8.660993E0,6.5546145E0,4.2127976E0,1.926226E0,1.0880468E0,2.0994492E0,1.486113E0,4.7810493E0,1.4236324E0,2.5752127E0,3.4848194E1,3.3848674E0,1.4601927E0,4.984205E0,2.0385008E2,4.3291163E0,4.3318768E0,5.4402356E0,1.1143787E0,1.1680578E0,3.0447397E0,1.0968333E0,1.0026158E0,3.591606E0,1.1894431E0,1.1575015E0,1.4177114E0,1.0556198E1,2.4291998E1,1.0360209E0,2.3488464E0,1.233163E0,3.751042E0,1.9117006E2,1.2680022E1,2.0497725E0,2.2793436E0,1.1254141E0,3.2064626E0,1.9818729E0,1.0628667E0],"tree_param":{"num_deleted":"0","num_feature":"20","num_nodes":"65","size_leaf_vector":"0"}}]},"name":"gbtree"},"learner_model_param":{"base_score":"5E-1","num_class":"0","num_feature":"20","num_target":"1"},"objective":{"name":"reg:squarederror","reg_loss_param":{"scale_pos_weight":"1"}}},"version":[1,6,2]}