{"learner":{"attributes":{"best_ntree_limit":"1"},"feature_names":[],"feature_types":["q","q","q","c","c","c","c","c","c"],"gradient_booster":{"model":{"gbtree_model_param":{"num_parallel_tree":"1","num_trees":"1","size_leaf_vector":"0"},"tree_info":[0],"trees":[{"base_weights":[-1.9543713E0,-1.3751355E0,-2.2846444E0,-7.214178E-1,-1.7777635E0,-1.9428241E0,-1.90704E1,-2.2319365E-1,1.0628278E-1,-6.3822037E-1,-1.3188707E0,-2.1081205E-1,-2.266537E0,-2.3463566E1,-1.2427396E0,-6.426853E-1,-1.4772432E0,-1.8563052E0,-1.9385891E1,-1.4323214E0,-1.5489077E-2,3.2159945E-1,-8.4825677E-1,-1.1871285E0,-5.036773E-1,-2.0545244E-1,-2.2305775E0,-9.146257E-2,-4.973192E-1,-1.5341894E-1,2.8197798E-1,-3.1460574E-1,1.574978E-1,-4.3219906E-1,-2.0761698E-1,-1.0101946E1,-5.695744E-1],"categories":[1,1,1,1],"categories_nodes":[0,3,5,17],"categories_segments":[0,1,2,3],"categories_sizes":[1,1,1,1],"default_left":[0,1,0,0,1,0,1,0,0,0,0,0,0,0,0,0,0,0,0,0,0,0,0,0,0,0,1,0,0,0,0,0,0,0,0,0,0],"id":0,"left_children":[1,3,5,7,9,11,13,-1,-1,-1,15,-1,17,-1,19,21,23,25,-1,27,-1,29,31,33,-1,-1,35,-1,-1,-1,-1,-1,-1,-1,-1,-1,-1],"loss_changes":[1.4140845E2,7.159747E1,2.7153435E3,2.8657074E0,2.4578003E1,1.8758374E2,9.877136E3,0E0,0E0,0E0,7.236084E0,0E0,9.427385E3,0E0,1.7969332E0,3.499031E0,1.5854645E0,1.6150256E2,0E0,1.3015347E0,0E0,2.3272002E0,4.318631E0,2.57967E0,0E0,0E0,2.873129E3,0E0,0E0,0E0,0E0,0E0,0E0,0E0,0E0,0E0,0E0],"parents":[2147483647,0,0,1,1,2,2,3,3,4,4,5,5,6,6,10,10,12,12,14,14,15,15,16,16,17,17,19,19,21,21,22,22,23,23,26,26],"right_children":[2,4,6,8,10,12,14,-1,-1,-1,16,-1,18,-1,20,22,24,26,-1,28,-1,30,32,34,-1,-1,36,-1,-1,-1,-1,-1,-1,-1,-1,-1,-1],"split_conditions":[NaN,2.1E1,5E1,NaN,3E0,NaN,9E0,-2.2319365E-1,1.0628278E-1,-6.3822037E-1,6E0,-2.1081205E-1,4E1,-2.3463566E1,2.1E1,2.4E1,3.4E1,NaN,-1.9385891E1,1.1E1,-1.5489077E-2,2E0,1.7E1,6E0,-5.036773E-1,-2.0545244E-1,2.5E1,-9.146257E-2,-4.973192E-1,-1.5341894E-1,2.8197798E-1,-3.1460574E-1,1.574978E-1,-4.3219906E-1,-2.0761698E-1,-1.0101946E1,-5.695744E-1],"split_indices":[7,0,0,3,2,7,2,0,0,0,1,0,0,0,2,0,0,7,0,2,0,1,2,2,0,0,0,0,0,0,0,0,0,0,0,0,0],"split_type":[1,0,0,1,0,1,0,0,0,0,0,0,0,0,0,0,0,1,0,0,0,0,0,0,0,0,0,0,0,0,0,0,0,0,0,0,0],"sum_hessian":[7.545969E2,2.7589435E2,4.7870255E2,1.0622168E2,1.6967268E2,4.7024243E2,8.460134E0,1.04341644E2,1.8800297E0,9.423649E1,7.543619E1,9.7996544E1,3.7224588E2,1.1750185E0,7.2851152E0,1.5275241E1,6.016095E1,3.7083585E2,1.4100223E0,6.1100965E0,1.1750185E0,2.5850408E0,1.2690201E1,2.7495434E1,3.2665516E1,9.0476425E1,2.8035944E2,1.4100223E0,4.700074E0,1.1750185E0,1.4100223E0,1.1280178E1,1.4100223E0,1.6920267E1,1.0575167E1,1.8800297E0,2.784794E2],"tree_param":{"num_deleted":"0","num_feature":"9","num_nodes":"37","size_leaf_vector":"0"}}]},"name":"gbtree"},"learner_model_param":{"base_score":"5E-1","num_class":"0","num_feature":"9","num_target":"1"},"objective":{"name":"reg:squarederror","reg_loss_param":{"scale_pos_weight":"1"}}},"version":[1,6,2]}