{"learner":{"attributes":{"best_ntree_limit":"1"},"feature_names":[],"feature_types":["q","q","q","c","c","c","c","c","c"],"gradient_booster":{"model":{"gbtree_model_param":{"num_parallel_tree":"1","num_trees":"1","size_leaf_vector":"0"},"tree_info":[0],"trees":[{"base_weights":[-7.117874E-1,3.5085343E-2,-1.3144724E0,5.315889E-1,-3.5331237E-1,-6.4745176E-1,-6.2917187E1,1.5116736E-1,1.1195892E0,-7.9819435E-1,6.9632225E-2,1.5936895E-1,-1.1826313E0,-5.8221893E1,-5.4995006E-1,3.819018E-1,7.290491E-2,-6.7184913E-1,-1.2336442E0,3.082798E-1,-2.309097E-1,-4.421275E-1,-3.8487576E1,-4.259393E-1,-9.675414E-1,-2.966162E-1,-1.5559751E0,1.4087014E-1,-1.3434474E-1,-1.2534148E-1,1.1240911E-1,1.6040705E-1,-1.0214158E0,-3.4789192E1,9.127853E-1,-8.263542E-2,-2.1198978E-1,-3.7086248E-1,-2.4021146E-1,-1.0210614E0,-2.3493972E-1,-1.2934022E0,1.951086E-1,7.458279E-1,-1.4138964E-1,-1.6368573E-3,-3.79462E1,3.6961573E-1,6.943862E-2],"categories":[1,1,1,0,1,3,4,5,1,1,0,1,2,3,4,5,1,2,5,1,1,1],"categories_nodes":[0,3,5,8,18,19,20,21,23,24,30,34],"categories_segments":[0,1,2,3,8,9,10,16,17,19,20,21],"categories_sizes":[1,1,1,5,1,1,6,1,2,1,1,1],"default_left":[0,1,0,0,1,0,1,0,0,0,0,0,0,0,0,0,0,0,0,0,0,0,1,0,0,0,1,0,1,0,0,0,0,0,0,0,0,0,0,0,0,0,0,0,0,0,0,0,0],"id":0,"left_children":[1,3,5,7,9,11,13,-1,15,17,19,-1,21,-1,-1,-1,-1,23,25,27,29,31,33,35,37,-1,39,-1,41,-1,43,-1,45,-1,47,-1,-1,-1,-1,-1,-1,-1,-1,-1,-1,-1,-1,-1,-1],"loss_changes":[5.228477E2,1.00398186E2,2.6371896E4,3.1569977E0,5.5030327E1,4.0240137E2,5.472419E4,0E0,9.628477E-1,7.009575E0,1.0879744E1,0E0,1.2091938E4,0E0,0E0,0E0,0E0,7.7773895E0,8.967171E-1,6.090253E0,4.3633866E0,2.4433054E2,2.6114346E4,2.4781942E0,1.2670555E0,0E0,1.3862476E1,0E0,7.9257835E1,0E0,3.5117886E1,0E0,3.4515723E4,0E0,1.1592064E0,0E0,0E0,0E0,0E0,0E0,0E0,0E0,0E0,0E0,0E0,0E0,0E0,0E0,0E0],"parents":[2147483647,0,0,1,1,2,2,3,3,4,4,5,5,6,6,8,8,9,9,10,10,12,12,17,17,18,18,19,19,20,20,21,21,22,22,23,23,24,24,26,26,28,28,30,30,32,32,34,34],"right_children":[2,4,6,8,10,12,14,-1,16,18,20,-1,22,-1,-1,-1,-1,24,26,28,30,32,34,36,38,-1,40,-1,42,-1,44,-1,46,-1,48,-1,-1,-1,-1,-1,-1,-1,-1,-1,-1,-1,-1,-1,-1],"split_conditions":[NaN,2.1E1,4.4E1,NaN,3E0,NaN,7.1E1,1.5116736E-1,NaN,3.4E1,3.4E1,1.5936895E-1,3.3E1,-5.8221893E1,-5.4995006E-1,3.819018E-1,7.290491E-2,3E0,NaN,NaN,NaN,NaN,2E1,NaN,NaN,-2.966162E-1,4.5E1,1.4087014E-1,8E0,-1.2534148E-1,NaN,1.6040705E-1,2.4E1,-3.4789192E1,NaN,-8.263542E-2,-2.1198978E-1,-3.7086248E-1,-2.4021146E-1,-1.0210614E0,-2.3493972E-1,-1.2934022E0,1.951086E-1,7.458279E-1,-1.4138964E-1,-1.6368573E-3,-3.79462E1,3.6961573E-1,6.943862E-2],"split_indices":[7,0,0,3,2,7,0,0,5,0,0,0,0,0,0,0,0,2,6,6,5,7,2,5,3,0,0,0,2,0,6,0,2,0,8,0,0,0,0,0,0,0,0,0,0,0,0,0,0],"split_type":[1,0,0,1,0,1,0,0,1,0,0,0,0,0,0,0,0,0,1,1,1,1,0,1,1,0,0,0,0,0,1,0,0,0,1,0,0,0,0,0,0,0,0,0,0,0,0,0,0],"sum_hessian":[1.1604484E3,5.186532E2,6.417951E2,2.274836E2,2.911696E2,6.3592004E2,5.8750925E0,2.1902345E2,8.460134E0,1.4147223E2,1.4969736E2,1.9857814E2,4.3734192E2,1.1750185E0,4.700074E0,6.8151073E0,1.645026E0,1.1162676E2,2.984547E1,8.3426315E1,6.627105E1,4.2982178E2,7.5201187E0,6.227598E1,4.935078E1,1.9270304E1,1.0575167E1,6.1100964E1,2.2325352E1,4.2770676E1,2.350037E1,1.6003752E2,2.6978427E2,1.8800297E0,5.640089E0,4.183066E1,2.0445322E1,1.645026E1,3.290052E1,2.1150334E0,8.460134E0,2.8200445E0,1.9505308E1,3.995063E0,1.9505308E1,2.6860925E2,1.1750185E0,3.290052E0,2.350037E0],"tree_param":{"num_deleted":"0","num_feature":"9","num_nodes":"49","size_leaf_vector":"0"}}]},"name":"gbtree"},"learner_model_param":{"base_score":"5E-1","num_class":"0","num_feature":"9","num_target":"1"},"objective":{"name":"reg:squarederror","reg_loss_param":{"scale_pos_weight":"1"}}},"version":[1,6,2]}