{"learner":{"attributes":{"best_ntree_limit":"10"},"feature_names":[],"feature_types":["q","q","c","c","c","c"],"gradient_booster":{"model":{"gbtree_model_param":{"num_parallel_tree":"1","num_trees":"10","size_leaf_vector":"0"},"tree_info":[0,0,0,0,0,0,0,0,0,0],"trees":[{"base_weights":[-1.954803E0,-1.361603E0,-2.284225E0,-2.1946993E-1,-1.7288308E0,-1.8050505E0,-3.244304E0,-6.1024964E-1,-1.1134971E0,-1.8972142E-1,-2.1824305E0,-2.2275443E0,-2.3032434E0,-8.925071E-1,-1.8286546E0,-5.0956E0,-1.5844951E0,-7.4825084E-1,-5.8610696E-1,3.301761E-2,-2.7776533E-1,-7.893405E-1,-1.5603667E0,-2.0904804E1,-2.3842683E0,-1.3671464E-1,-2.1414554E0,-3.0578944E-1,3.831733E-2,-4.2012018E-1,-1.4655644E1,-7.599223E-1,-3.5745007E-1,-1.6268283E0,-3.7577617E-1],"categories":[1,2,1,1,1,2,1,1,2],"categories_nodes":[0,1,5,6,8,12,15,16,24],"categories_segments":[0,1,2,3,4,5,6,7,8],"categories_sizes":[1,1,1,1,1,1,1,1,1],"default_left":[0,0,0,0,1,0,0,0,0,0,1,0,0,0,0,0,0,0,0,0,0,0,0,0,0,0,1,0,0,0,0,0,0,0,0],"id":0,"left_children":[1,3,5,-1,7,9,11,-1,13,-1,15,-1,17,19,21,23,25,-1,-1,-1,-1,27,-1,29,31,-1,33,-1,-1,-1,-1,-1,-1,-1,-1],"loss_changes":[1.4463525E2,6.1766357E1,2.1709912E2,0E0,2.9933899E1,1.4268213E2,6.127898E2,0E0,7.699692E0,0E0,4.2021057E2,0E0,3.9454956E0,1.676693E0,4.14096E1,1.7256116E3,1.2818958E2,0E0,0E0,0E0,0E0,2.4721122E0,0E0,3.1667756E3,3.457718E0,0E0,3.9366956E2,0E0,0E0,0E0,0E0,0E0,0E0,0E0,0E0],"parents":[2147483647,0,0,1,1,2,2,4,4,5,5,6,6,8,8,10,10,12,12,13,13,14,14,15,15,16,16,21,21,23,23,24,24,26,26],"right_children":[2,4,6,-1,8,10,12,-1,14,-1,16,-1,18,20,22,24,26,-1,-1,-1,-1,28,-1,30,32,-1,34,-1,-1,-1,-1,-1,-1,-1,-1],"split_conditions":[NaN,NaN,3.7E1,-2.1946993E-1,4E0,NaN,NaN,-6.1024964E-1,NaN,-1.8972142E-1,2E0,-2.2275443E0,NaN,3E0,8E0,NaN,NaN,-7.4825084E-1,-5.8610696E-1,3.301761E-2,-2.7776533E-1,1.7E1,-1.5603667E0,2E0,NaN,-1.3671464E-1,4E0,-3.0578944E-1,3.831733E-2,-4.2012018E-1,-1.4655644E1,-7.599223E-1,-3.5745007E-1,-1.6268283E0,-3.7577617E-1],"split_indices":[4,4,1,0,1,4,3,0,2,0,1,0,2,0,0,2,4,0,0,0,0,1,0,0,5,0,1,0,0,0,0,0,0,0,0],"split_type":[1,1,0,0,0,1,1,0,1,0,0,0,1,0,0,1,1,0,0,0,0,0,0,0,1,0,0,0,0,0,0,0,0,0,0],"sum_hessian":[7.550669E2,2.714293E2,4.8363763E2,1.010516E2,1.7037769E2,3.2454013E2,1.5909752E2,1.1233177E2,5.8045918E1,7.966626E1,2.4487387E2,2.796544E1,1.3113206E2,4.6060726E1,1.1985189E1,4.042064E1,2.0445323E2,8.084128E1,5.0290794E1,1.4100223E0,4.4650703E1,1.010516E1,1.8800297E0,4.9350777E0,3.548556E1,6.815108E1,1.3630215E2,7.990126E0,2.1150334E0,3.5250556E0,1.4100223E0,3.0550482E1,4.9350777E0,2.796544E1,1.0833671E2],"tree_param":{"num_deleted":"0","num_feature":"6","num_nodes":"35","size_leaf_vector":"0"}},{"base_weights":[-1.131369E0,-5.7395333E-1,-1.4442567E0,-8.062101E-3,-8.910371E-1,-8.9287144E-1,-2.364749E0,-1.3221382E0,1.4033969E-1,2.0619239E-1,-1.2314537E0,-1.5679663E0,-1.5504887E0,-4.3398315E-1,-1.1192611E0,3.216323E-1,-5.495471E-1,-1.0784769E-1,5.290749E-1,-1.1091474E0,-6.4343853E0,-1.7059321E0,-1.2756416E0,-1.1050278E-1,-1.3142565E0,-3.9572147E-1,5.093809E-1,1.9582671E-1,-8.271797E-1,-3.1131792E-1,5.030027E-1,-1.4266098E-1,5.8753276E-1,-1.2125976E0,8.0939776E-1,-5.119796E0,6.588531E-1,-6.817658E-1,-4.7953984E-1,-9.20089E-1,-1.4257202E0,-7.24296E-1,-3.2539627E-1,3.351171E-2,-2.281063E-1,2.0383625E-1,-7.652305E-2,2.9925096E-1,-1.4294833E-1,-1.1529969E-1,-4.8474464E-1,-6.829118E-2,-3.5476917E-1,-1.0552693E-1,5.98614E-1,3.3124423E-1,1.4445171E-1,-3.254061E-1,-4.3066034E-1,6.077308E-1,-2.317593E-1,3.3844984E-1,-2.2383278E-2,5.4511905E-1,-4.6410286E-1,-5.217339E-1,-2.6663378E-1],"categories":[1,2,1,1,2,2,1,1,2,2,1,2,1,1,1,2,1],"categories_nodes":[0,1,5,6,7,12,14,16,17,19,21,22,25,26,33,39,40],"categories_segments":[0,1,2,3,4,5,6,7,8,9,10,11,12,13,14,15,16],"categories_sizes":[1,1,1,1,1,1,1,1,1,1,1,1,1,1,1,1,1],"default_left":[0,0,0,0,1,0,0,0,0,0,0,0,0,0,0,0,0,0,0,0,1,0,0,0,1,0,0,1,0,1,0,0,0,0,1,0,0,0,0,0,0,0,0,0,0,0,0,0,0,0,0,0,0,0,0,0,0,0,0,0,0,0,0,0,0,0,0],"id":1,"left_children":[1,3,5,-1,7,9,11,13,15,17,19,-1,21,-1,23,25,27,29,31,33,35,37,39,-1,41,43,45,47,49,51,53,-1,55,57,59,-1,61,-1,-1,63,65,-1,-1,-1,-1,-1,-1,-1,-1,-1,-1,-1,-1,-1,-1,-1,-1,-1,-1,-1,-1,-1,-1,-1,-1,-1,-1],"loss_changes":[1.288263E2,4.662622E1,2.3921484E2,0E0,7.58689E1,1.1150517E2,4.055475E2,1.4146423E0,6.565368E0,7.283282E0,1.3839517E2,0E0,3.7886658E0,0E0,6.8519287E0,5.7344337E0,2.4380975E0,4.750138E0,2.3529158E0,4.5569275E1,3.9164545E2,1.617218E0,1.591095E0,0E0,7.328598E0,1.7657623E0,4.463316E0,2.5199718E0,2.2446675E0,1.7970765E0,1.2969418E1,0E0,1.3204784E0,4.5327454E0,2.4835445E1,0E0,1.4570965E0,0E0,0E0,3.535739E1,4.585228E0,0E0,0E0,0E0,0E0,0E0,0E0,0E0,0E0,0E0,0E0,0E0,0E0,0E0,0E0,0E0,0E0,0E0,0E0,0E0,0E0,0E0,0E0,0E0,0E0,0E0,0E0],"parents":[2147483647,0,0,1,1,2,2,4,4,5,5,6,6,7,7,8,8,9,9,10,10,12,12,14,14,15,15,16,16,17,17,18,18,19,19,20,20,21,21,22,22,24,24,25,25,26,26,27,27,28,28,29,29,30,30,32,32,33,33,34,34,36,36,39,39,40,40],"right_children":[2,4,6,-1,8,10,12,14,16,18,20,-1,22,-1,24,26,28,30,32,34,36,38,40,-1,42,44,46,48,50,52,54,-1,56,58,60,-1,62,-1,-1,64,66,-1,-1,-1,-1,-1,-1,-1,-1,-1,-1,-1,-1,-1,-1,-1,-1,-1,-1,-1,-1,-1,-1,-1,-1,-1,-1],"split_conditions":[NaN,NaN,3.7E1,-8.062101E-3,4E0,NaN,NaN,NaN,1.2E1,1.3E1,8E0,-1.5679663E0,NaN,-4.3398315E-1,NaN,7E0,NaN,NaN,3E0,NaN,2.1E1,NaN,NaN,-1.1050278E-1,2E0,NaN,NaN,1.4E1,2E1,8E0,2E0,-1.4266098E-1,3.7E1,NaN,7E0,-5.119796E0,5E0,-6.817658E-1,-4.7953984E-1,NaN,NaN,-7.24296E-1,-3.2539627E-1,3.351171E-2,-2.281063E-1,2.0383625E-1,-7.652305E-2,2.9925096E-1,-1.4294833E-1,-1.1529969E-1,-4.8474464E-1,-6.829118E-2,-3.5476917E-1,-1.0552693E-1,5.98614E-1,3.3124423E-1,1.4445171E-1,-3.254061E-1,-4.3066034E-1,6.077308E-1,-2.317593E-1,3.3844984E-1,-2.2383278E-2,5.4511905E-1,-4.6410286E-1,-5.217339E-1,-2.6663378E-1],"split_indices":[4,4,1,0,1,5,3,2,1,1,1,0,2,0,3,0,5,2,0,2,1,2,5,0,1,5,2,1,1,1,0,0,1,4,1,0,0,0,0,2,3,0,0,0,0,0,0,0,0,0,0,0,0,0,0,0,0,0,0,0,0,0,0,0,0,0,0],"split_type":[1,1,0,0,0,1,1,1,0,0,0,0,1,0,1,0,1,1,0,1,0,1,1,0,0,1,1,0,0,0,0,0,0,1,0,0,0,0,0,1,1,0,0,0,0,0,0,0,0,0,0,0,0,0,0,0,0,0,0,0,0,0,0,0,0,0,0],"sum_hessian":[7.4239996E2,2.6792337E2,4.744766E2,9.8706E1,1.6921738E2,2.9796326E2,1.7651332E2,1.1913761E2,5.007977E1,7.0265884E1,2.2769739E2,3.7897984E1,1.3861534E2,7.0036964E1,4.9100647E1,4.0080864E1,9.998902E0,3.595831E1,3.430757E1,2.236531E2,4.0442786E0,8.5214386E1,5.3400955E1,1.07174E1,3.8383247E1,8.084339E0,3.1996527E1,2.7935576E0,7.205344E0,2.7341417E1,8.616893E0,1.494228E0,3.2813343E1,2.125596E2,1.1093503E1,1.0558227E0,2.988456E0,1.0373406E1,7.484098E1,1.7966677E1,3.5434277E1,4.984837E0,3.339841E1,3.6703238E0,4.414015E0,2.6264507E1,5.732019E0,1.0535878E0,1.7399698E0,5.566751E0,1.6385933E0,2.6096228E1,1.24519E0,5.9648323E0,2.6520603E0,3.984608E0,2.8828737E1,1.387925E2,7.376711E1,6.112743E0,4.98076E0,1.494228E0,1.494228E0,2.994446E0,1.497223E1,2.0961123E1,1.4473156E1],"tree_param":{"num_deleted":"0","num_feature":"6","num_nodes":"67","size_leaf_vector":"0"}},{"base_weights":[-9.834134E-1,-1.1170528E0,1.1143218E0,-5.241272E-1,-1.3785027E0,6.932326E-1,7.877872E-2,-6.6694915E-1,3.7227416E-1,-1.5114595E0,-6.796022E-1,1.0317115E0,-4.976834E0,-1.0053824E-1,-8.620375E-1,2.1303706E-1,-2.859045E-1,-5.026639E-1,-1.2185427E0,-1.7365059E0,6.0435123E0,1.9982065E0,6.2787145E-2,-2.7385254E0,5.6462914E-1,-3.079299E-1,-6.039641E-1,-6.5523684E-1,1.917903E-1,-1.2307914E0,-7.5713044E-4,-5.759678E-1,4.029809E-1,2.7038686E-2,4.834857E0,1.4009717E0,-1.9950176E0,8.016022E-2,-2.52735E-1,-2.3964725E-1,-4.000952E-2,2.375506E-1,-2.5979087E-1,-3.8910225E-1,-3.0082598E-1,-1.06002666E-1,1.1999441E-1,2.1480076E0,1.2599073E-1,5.224047E-1,-2.3674789E-1],"categories":[1,2,2,2,1,1,2,2,2,2,1,1,1],"categories_nodes":[1,2,4,7,8,9,11,14,18,19,26,28,35],"categories_segments":[0,1,2,3,4,5,6,7,8,9,10,11,12],"categories_sizes":[1,1,1,1,1,1,1,1,1,1,1,1,1],"default_left":[1,0,0,1,0,0,0,0,0,0,0,0,1,0,0,0,1,0,0,0,0,0,0,0,0,0,0,1,0,1,0,0,0,0,1,0,0,0,0,0,0,0,0,0,0,0,0,0,0,0,0],"id":2,"left_children":[1,3,5,7,9,-1,11,13,15,17,19,21,23,-1,25,-1,27,-1,29,31,-1,33,35,-1,-1,-1,37,39,41,43,-1,-1,-1,45,47,49,-1,-1,-1,-1,-1,-1,-1,-1,-1,-1,-1,-1,-1,-1,-1],"loss_changes":[1.9067017E2,9.782855E1,5.0577602E1,2.5361195E1,3.9912598E1,0E0,1.15924126E2,1.0687195E1,6.340229E0,1.5710144E1,1.624839E3,1.8770124E1,1.25924576E2,0E0,3.8832397E0,0E0,1.9031222E0,0E0,2.0267181E0,4.1925705E1,0E0,5.617053E1,1.09105484E2,0E0,0E0,0E0,9.3109865E0,3.361907E-1,3.9648778E0,7.366333E-1,0E0,0E0,0E0,1.1267548E0,3.931308E1,8.894665E0,0E0,0E0,0E0,0E0,0E0,0E0,0E0,0E0,0E0,0E0,0E0,0E0,0E0,0E0,0E0],"parents":[2147483647,0,0,1,1,2,2,3,3,4,4,6,6,7,7,8,8,9,9,10,10,11,11,12,12,14,14,16,16,18,18,19,19,21,21,22,22,26,26,27,27,28,28,29,29,33,33,34,34,35,35],"right_children":[2,4,6,8,10,-1,12,14,16,18,20,22,24,-1,26,-1,28,-1,30,32,-1,34,36,-1,-1,-1,38,40,42,44,-1,-1,-1,46,48,50,-1,-1,-1,-1,-1,-1,-1,-1,-1,-1,-1,-1,-1,-1,-1],"split_conditions":[8E0,NaN,NaN,4E0,NaN,6.932326E-1,1.2E1,NaN,NaN,NaN,2E0,NaN,5E0,-1.0053824E-1,NaN,2.1303706E-1,7E0,-5.026639E-1,NaN,NaN,6.0435123E0,1E1,1.1E1,-2.7385254E0,5.6462914E-1,-3.079299E-1,NaN,2E0,NaN,2E0,-7.5713044E-4,-5.759678E-1,4.029809E-1,9E0,1.1E1,NaN,-1.9950176E0,8.016022E-2,-2.52735E-1,-2.3964725E-1,-4.000952E-2,2.375506E-1,-2.5979087E-1,-3.8910225E-1,-3.0082598E-1,-1.06002666E-1,1.1999441E-1,2.1480076E0,1.2599073E-1,5.224047E-1,-2.3674789E-1],"split_indices":[1,4,4,1,2,0,1,4,3,2,1,5,0,0,2,0,1,0,5,2,0,1,1,0,0,0,3,0,3,1,0,0,0,1,1,2,0,0,0,0,0,0,0,0,0,0,0,0,0,0,0],"split_type":[0,1,1,0,1,0,0,1,1,1,0,1,0,0,1,0,0,0,1,1,0,0,0,0,0,0,1,0,1,0,0,0,0,0,0,1,0,0,0,0,0,0,0,0,0,0,0,0,0,0,0],"sum_hessian":[6.746987E2,6.347298E2,3.996893E1,1.9515498E2,4.3957483E2,1.7972393E1,2.1996536E1,1.6855534E2,2.6599646E1,3.6834024E2,7.123457E1,1.9177664E1,2.8188717E0,6.3413857E1,1.0514149E2,1.7524984E1,9.074662E0,2.3306255E2,1.3527771E2,6.86662E1,2.5683713E0,9.069055E0,1.010861E1,1.5498785E0,1.2689933E0,6.2408997E1,4.2732487E1,4.9081984E0,4.1664643E0,1.3391664E2,1.361071E0,6.516267E1,3.5035305E0,5.9464445E0,3.1226096E0,9.088205E0,1.0204049E0,9.158178E0,3.357431E1,3.432965E0,1.4752333E0,2.8188138E0,1.3476505E0,1.0014858E2,3.3768055E1,2.9698837E0,2.9765608E0,1.6380922E0,1.4845175E0,8.043105E0,1.0451007E0],"tree_param":{"num_deleted":"0","num_feature":"6","num_nodes":"51","size_leaf_vector":"0"}},{"base_weights":[-4.05623E0,-6.6493645E0,-2.6654035E-1,-1.4599828E1,-1.0353308E0,-6.578448E-1,7.443002E0,-3.9148343E0,-1.5443256E1,-4.244824E0,5.2515614E1,-1.1957042E0,6.030693E-1,2.5112724E0,4.9838403E-1,-2.0739644E0,-9.936954E0,-2.6849768E0,-2.797266E-1,4.810564E0,-1.211514E0,-7.725087E-1,-1.0627736E0,-3.9622314E1,-8.59788E-1,-1.2326669E0,2.3177517E1,7.259934E0,-5.531241E-1,-2.1218522E0,-1.2019146E-1,-2.8071612E-1,-5.385552E-1,-3.1482174E0,2.778189E1,-2.3315127E0,-1.2541234E-1,1.2142105E1,-7.5581545E-1,-5.273432E-1,9.8668404E-2,1.6359102E0,-6.0914177E-1],"categories":[2,1,2,2,2,1,1,1,2,2,2,2],"categories_nodes":[0,1,3,11,12,15,16,19,20,22,25,30],"categories_segments":[0,1,2,3,4,5,6,7,8,9,10,11],"categories_sizes":[1,1,1,1,1,1,1,1,1,1,1,1],"default_left":[0,0,1,0,0,0,1,0,0,0,0,0,0,0,0,0,0,0,0,0,0,0,0,0,0,0,1,0,1,0,0,0,0,0,0,0,0,0,0,0,0,0,0],"id":3,"left_children":[1,3,5,7,9,11,13,-1,-1,15,-1,17,19,-1,-1,21,23,-1,25,27,29,-1,31,-1,33,35,37,-1,39,-1,41,-1,-1,-1,-1,-1,-1,-1,-1,-1,-1,-1,-1],"loss_changes":[3.2166348E3,8.662034E3,4.0943027E2,3.9241484E3,6.574797E4,8.78936E1,2.1279388E1,0E0,0E0,1.3873208E3,0E0,6.398442E2,3.0434235E2,0E0,0E0,3.969519E1,3.446928E4,0E0,1.8596472E3,1.2595414E3,1.7899907E2,0E0,1.0607681E0,0E0,2.8023947E4,4.211257E2,1.5457241E3,0E0,1.1590149E1,0E0,2.742559E2,0E0,0E0,0E0,0E0,0E0,0E0,0E0,0E0,0E0,0E0,0E0,0E0],"parents":[2147483647,0,0,1,1,2,2,3,3,4,4,5,5,6,6,9,9,11,11,12,12,15,15,16,16,18,18,19,19,20,20,22,22,24,24,25,25,26,26,28,28,30,30],"right_children":[2,4,6,8,10,12,14,-1,-1,16,-1,18,20,-1,-1,22,24,-1,26,28,30,-1,32,-1,34,36,38,-1,40,-1,42,-1,-1,-1,-1,-1,-1,-1,-1,-1,-1,-1,-1],"split_conditions":[NaN,NaN,1.2E1,NaN,9E0,8E0,5E0,-3.9148343E0,-1.5443256E1,2E0,5.2515614E1,NaN,NaN,2.5112724E0,4.9838403E-1,NaN,NaN,-2.6849768E0,6E0,NaN,NaN,-7.725087E-1,NaN,-3.9622314E1,7E0,NaN,2E0,7.259934E0,9E0,-2.1218522E0,NaN,-2.8071612E-1,-5.385552E-1,-3.1482174E0,2.778189E1,-2.3315127E0,-1.2541234E-1,1.2142105E1,-7.5581545E-1,-5.273432E-1,9.8668404E-2,1.6359102E0,-6.0914177E-1],"split_indices":[4,2,1,2,1,1,0,0,0,1,0,4,5,0,0,2,2,0,1,3,4,0,5,0,1,4,0,0,1,0,2,0,0,0,0,0,0,0,0,0,0,0,0],"split_type":[1,1,0,1,0,0,0,0,0,0,0,1,1,0,0,1,1,0,0,1,1,0,1,0,0,1,0,0,0,0,1,0,0,0,0,0,0,0,0,0,0,0,0],"sum_hessian":[3.265007E2,1.9340602E2,1.3309468E2,7.9383865E1,1.14022156E2,1.2753615E2,5.5585346E0,7.748036E1,1.9035044E0,1.1293954E2,1.0826223E0,8.943724E1,3.809891E1,4.403928E0,1.1546068E0,8.274621E1,3.0193323E1,8.522133E0,8.091511E1,1.09825325E1,2.7116379E1,5.42953E1,2.845091E1,1.1513399E0,2.9041983E1,7.8666756E1,2.248352E0,1.6188318E0,9.363701E0,3.3960001E0,2.3720379E1,2.6185951E1,2.2649603E0,2.7132908E1,1.9090747E0,7.768488E0,7.089827E1,1.0001358E0,1.2482163E0,3.538194E0,5.8255067E0,5.581587E0,1.8138792E1],"tree_param":{"num_deleted":"0","num_feature":"6","num_nodes":"43","size_leaf_vector":"0"}},{"base_weights":[-5.6892185E0,-2.4738052E0,-2.9470472E1,-8.120431E-1,-4.2275014E0,-3.134252E0,-5.6780987E1,-3.1388903E-1,-1.5275723E0,-2.6980865E0,-4.6030884E1,-4.122859E0,3.278567E-2,-7.435177E1,-8.406531E-1,-5.868402E-1,7.448707E-1,-4.316409E0,-8.8550436E-1,-1.6501366E0,-2.9209766E0,-2.2716301E1,2.1262386E-1,1.975176E0,-1.6655692E0,-2.7117672E1,-1.447896E-1,-2.237088E-1,-2.5188765E-1,1.4968152E-1,8.839698E-1,1.5097411E-1,-5.055078E-1,-1.7849475E0,7.9215926E-1,-2.991924E-1,-6.844003E-1,5.2290356E-1,-1.639043E-1,-3.243942E-2,9.154153E-2,3.647446E-1,9.890226E-2,3.8595167E-1,-1.0354108E-1,-6.276961E-1,-2.7949354E-1],"categories":[1,1,2,2,2,2,2,2,1,1,1,1],"categories_nodes":[1,2,5,6,12,13,15,19,24,28,31,33],"categories_segments":[0,1,2,3,4,5,6,7,8,9,10,11],"categories_sizes":[1,1,1,1,1,1,1,1,1,1,1,1],"default_left":[0,0,0,0,0,0,0,0,0,0,1,0,0,0,0,0,0,0,0,0,0,0,0,0,0,0,0,0,0,0,0,0,0,0,0,0,0,0,0,0,0,0,0,0,0,0,0],"id":4,"left_children":[1,3,5,7,9,11,13,15,17,19,21,-1,23,25,-1,27,29,-1,31,33,-1,-1,-1,-1,35,-1,-1,-1,37,39,41,43,-1,45,-1,-1,-1,-1,-1,-1,-1,-1,-1,-1,-1,-1,-1],"loss_changes":[1.8809654E4,6.336721E2,2.0910457E4,3.9973145E1,6.661161E3,5.374976E2,1.3387895E4,2.0136564E1,3.697612E2,7.469501E2,5.1653276E3,0E0,1.590251E2,1.27244375E4,0E0,2.7255974E0,1.0608816E0,0E0,3.7699272E1,5.7491425E1,0E0,0E0,0E0,0E0,2.4017334E0,0E0,0E0,0E0,1.2186241E1,1.9066581E-1,1.710494E0,1.2046091E1,0E0,2.1409851E1,0E0,0E0,0E0,0E0,0E0,0E0,0E0,0E0,0E0,0E0,0E0,0E0,0E0],"parents":[2147483647,0,0,1,1,2,2,3,3,4,4,5,5,6,6,7,7,8,8,9,9,10,10,12,12,13,13,15,15,16,16,18,18,19,19,24,24,28,28,29,29,30,30,31,31,33,33],"right_children":[2,4,6,8,10,12,14,16,18,20,22,-1,24,26,-1,28,30,-1,32,34,-1,-1,-1,-1,36,-1,-1,-1,38,40,42,44,-1,46,-1,-1,-1,-1,-1,-1,-1,-1,-1,-1,-1,-1,-1],"split_conditions":[7.400001E1,NaN,NaN,6E0,3E0,NaN,NaN,4E0,8E0,2E0,2.5E1,-4.122859E0,NaN,NaN,-8.406531E-1,NaN,2E0,-4.316409E0,7.400001E1,NaN,-2.9209766E0,-2.2716301E1,2.1262386E-1,1.975176E0,NaN,-2.7117672E1,-1.447896E-1,-2.237088E-1,NaN,5E0,5E0,NaN,-5.055078E-1,NaN,7.9215926E-1,-2.991924E-1,-6.844003E-1,5.2290356E-1,-1.639043E-1,-3.243942E-2,9.154153E-2,3.647446E-1,9.890226E-2,3.8595167E-1,-1.0354108E-1,-6.276961E-1,-2.7949354E-1],"split_indices":[1,4,5,1,1,4,2,1,1,1,1,0,2,4,0,2,0,0,1,2,0,0,0,0,3,0,0,0,3,1,1,5,0,5,0,0,0,0,0,0,0,0,0,0,0,0,0],"split_type":[0,1,1,0,0,1,1,0,0,0,0,0,1,1,0,1,0,0,0,1,0,0,0,0,1,0,0,0,1,0,0,1,0,1,0,0,0,0,0,0,0,0,0,0,0,0,0],"sum_hessian":[2.4593877E2,2.1761899E2,2.8319784E1,1.1248953E2,1.0512945E2,1.4984559E1,1.3335225E1,6.716659E1,4.532295E1,1.02445915E2,2.683535E0,2.677249E0,1.230731E1,9.77569E0,3.5595353E0,5.3754307E1,1.3412279E1,1.1371536E0,4.4185795E1,9.024408E1,1.2201833E1,1.2618917E0,1.4216435E0,1.9415283E0,1.0365782E1,7.847868E0,1.9278221E0,3.563002E1,1.8124289E1,2.9340196E0,1.047826E1,1.9594795E1,2.4590998E1,8.8061226E1,2.182854E0,6.227255E0,4.138527E0,1.698434E0,1.6425856E1,1.218185E0,1.7158346E0,5.807804E0,4.670456E0,5.473503E0,1.4121292E1,6.3673157E1,2.4388067E1],"tree_param":{"num_deleted":"0","num_feature":"6","num_nodes":"47","size_leaf_vector":"0"}},{"base_weights":[-4.800473E0,-8.804854E-1,-4.6414845E1,-1.7903186E0,1.5906473E0,-1.1436151E2,4.2944852E-1,-2.2562282E0,-5.169756E-1,1.3961205E1,-4.575827E-1,4.2538924E0,-3.0006936E0,-2.8706598E0,-9.244168E-1,-1.8232524E0,-1.3439286E-1,1.733084E1,-3.2305474E0,2.2340999E0,-1.7358984E1,1.672958E0,-1.16583474E-1,-1.8451848E0,-1.0366523E0,-1.1059806E0,-8.1348187E-1,2.2685881E-1,-3.0539358E-1,-9.888894E-1,-5.9767115E-1,-7.928806E-1,1.316091E0,5.9126244E0,-1.3567692E-1,4.9577847E-1,-1.4343607E0,-7.427975E-1,-1.7775522E-1,5.543808E-1,-6.0494787E-1,-7.535057E-1,-1.3055812E-1,3.0401704E0,-2.8669995E-1,9.143056E0,-3.6712345E-2,4.380737E-1,-6.0756416E0],"categories":[2,2,2,2,1,1,1,1,2,1,2,2,2,2],"categories_nodes":[2,3,4,6,11,12,13,14,15,19,24,31,32,33],"categories_segments":[0,1,2,3,4,5,6,7,8,9,10,11,12,13],"categories_sizes":[1,1,1,1,1,1,1,1,1,1,1,1,1,1],"default_left":[0,0,0,0,0,0,0,1,0,1,0,0,0,0,0,0,0,0,0,0,0,0,0,0,0,0,0,0,0,0,1,0,0,0,0,0,0,0,0,0,0,0,0,0,0,0,0,0,0],"id":5,"left_children":[1,3,5,7,9,-1,11,13,15,17,19,21,23,25,27,29,31,-1,-1,33,-1,-1,-1,-1,35,-1,37,-1,-1,-1,39,41,43,45,47,-1,-1,-1,-1,-1,-1,-1,-1,-1,-1,-1,-1,-1,-1],"loss_changes":[3.4632613E4,4.41888E2,2.8683562E5,8.378647E1,1.3512881E3,0E0,2.362273E2,8.2891785E1,1.9573647E1,8.825051E3,7.3154595E3,5.4162598E1,5.2807564E1,1.1628009E2,6.1911907E0,1.4104492E1,3.1371181E1,0E0,0E0,3.964533E2,0E0,0E0,0E0,0E0,7.934943E1,0E0,6.4178343E0,0E0,0E0,0E0,2.4829062E1,1.2716703E1,2.1581528E2,2.6432988E3,9.471638E2,0E0,0E0,0E0,0E0,0E0,0E0,0E0,0E0,0E0,0E0,0E0,0E0,0E0,0E0],"parents":[2147483647,0,0,1,1,2,2,3,3,4,4,6,6,7,7,8,8,9,9,10,10,11,11,12,12,13,13,14,14,15,15,16,16,19,19,24,24,26,26,30,30,31,31,32,32,33,33,34,34],"right_children":[2,4,6,8,10,-1,12,14,16,18,20,22,24,26,28,30,32,-1,-1,34,-1,-1,-1,-1,36,-1,38,-1,-1,-1,40,42,44,46,48,-1,-1,-1,-1,-1,-1,-1,-1,-1,-1,-1,-1,-1,-1],"split_conditions":[7.400001E1,3E0,NaN,NaN,NaN,-1.1436151E2,NaN,2E0,5E0,7E0,2.1E1,NaN,NaN,NaN,NaN,NaN,2E0,1.733084E1,-3.2305474E0,NaN,-1.7358984E1,1.672958E0,-1.16583474E-1,-1.8451848E0,NaN,-1.1059806E0,2E0,2.2685881E-1,-3.0539358E-1,-9.888894E-1,2E0,NaN,NaN,NaN,1.4E1,4.9577847E-1,-1.4343607E0,-7.427975E-1,-1.7775522E-1,5.543808E-1,-6.0494787E-1,-7.535057E-1,-1.3055812E-1,3.0401704E0,-2.8669995E-1,9.143056E0,-3.6712345E-2,4.380737E-1,-6.0756416E0],"split_indices":[1,1,4,4,4,0,2,1,0,1,1,2,5,2,5,4,1,0,0,5,0,0,0,0,2,0,0,0,0,0,1,4,5,4,1,0,0,0,0,0,0,0,0,0,0,0,0,0,0],"split_type":[0,0,1,1,1,0,1,0,0,0,0,1,1,1,1,1,0,0,0,1,0,0,0,0,1,0,0,0,0,0,0,1,1,1,0,0,0,0,0,0,0,0,0,0,0,0,0,0,0],"sum_hessian":[2.1155405E2,1.9427492E2,1.7279139E1,1.4219601E2,5.207889E1,1.2448254E0,1.6034313E1,1.0353954E2,3.8656475E1,6.571744E0,4.550715E1,7.4678583E0,8.566454E0,7.0061295E1,3.3478252E1,7.9039316E0,3.0752544E1,1.8891354E0,4.682608E0,4.438698E1,1.1201687E0,5.6554494E0,1.8124089E0,2.471331E0,6.0951233E0,4.9597343E1,2.046395E1,1.3919997E0,3.2086254E1,2.8222482E0,5.0816836E0,2.1462439E1,9.290107E0,1.6805443E1,2.7581537E1,3.8725886E0,2.2225347E0,1.2035097E0,1.9260439E1,1.7546937E0,3.3269897E0,2.6596947E0,1.8802744E1,1.1941607E0,8.095946E0,2.5157166E0,1.4289726E1,2.6413458E1,1.1680791E0],"tree_param":{"num_deleted":"0","num_feature":"6","num_nodes":"49","size_leaf_vector":"0"}},{"base_weights":[-6.6633433E-1,-1.8394231E0,1.4908129E0,-2.0479743E0,-2.1981855E-1,1.0550133E0,4.084363E0,-2.3086357E0,-5.265262E-1,-1.7225841E0,9.8038507E-1,3.4340637E0,-2.2771622E-1,-2.1588218E-1,-6.9664E-1,-2.1633346E-1,-5.786025E-2,-2.4174447E0,-6.857171E-1,-1.34099E0,4.8850703E0,1.6741513E0,-1.6327457E1,-9.01859E-1,-1.1558729E-1,2.3114197E-1,-1.5554382E0,9.581244E-1,-2.7851198E0,5.772733E0,-5.995285E-1,-1.1531651E1,-1.8797574E0,-7.42596E-1,1.47193605E-2,1.0094761E0,2.394983E-2,8.151987E0,6.457557E-3,2.0686005E-1,-3.6923797E0,-8.3415943E-1,-9.922982E-2],"categories":[2,1,2,1,2,1,1,1,2,2,1],"categories_nodes":[1,3,5,8,9,17,21,22,26,29,32],"categories_segments":[0,1,2,3,4,5,6,7,8,9,10],"categories_sizes":[1,1,1,1,1,1,1,1,1,1,1],"default_left":[0,0,1,0,0,0,0,0,0,0,0,0,0,0,0,0,0,0,1,0,0,0,0,0,0,0,0,0,0,0,0,0,0,0,0,0,0,0,0,0,0,0,0],"id":6,"left_children":[1,3,5,7,9,11,-1,13,15,17,-1,19,21,-1,-1,-1,-1,23,25,27,-1,29,31,-1,-1,-1,33,35,-1,37,39,-1,41,-1,-1,-1,-1,-1,-1,-1,-1,-1,-1],"loss_changes":[5.383093E2,4.6006256E1,3.8245135E2,4.705966E1,9.373691E1,2.2533145E2,0E0,5.515747E-1,1.1009955E0,7.2784996E0,0E0,1.6071935E3,1.5198569E3,0E0,0E0,0E0,0E0,7.253113E0,9.269397E0,3.697694E2,0E0,4.1816196E2,1.6026023E3,0E0,0E0,0E0,6.4991493E0,3.404374E1,0E0,1.9652986E3,4.5415958E2,0E0,4.971671E0,0E0,0E0,0E0,0E0,0E0,0E0,0E0,0E0,0E0,0E0],"parents":[2147483647,0,0,1,1,2,2,3,3,4,4,5,5,7,7,8,8,9,9,11,11,12,12,17,17,18,18,19,19,21,21,22,22,26,26,27,27,29,29,30,30,32,32],"right_children":[2,4,6,8,10,12,-1,14,16,18,-1,20,22,-1,-1,-1,-1,24,26,28,-1,30,32,-1,-1,-1,34,36,-1,38,40,-1,42,-1,-1,-1,-1,-1,-1,-1,-1,-1,-1],"split_conditions":[3E0,NaN,1.4E1,NaN,5E0,NaN,4.084363E0,2E0,NaN,NaN,9.8038507E-1,1.4E1,1.4E1,-2.1588218E-1,-6.9664E-1,-2.1633346E-1,-5.786025E-2,NaN,2E0,7E0,4.8850703E0,NaN,NaN,-9.01859E-1,-1.1558729E-1,2.3114197E-1,NaN,4E0,-2.7851198E0,NaN,1.1E1,-1.1531651E1,NaN,-7.42596E-1,1.47193605E-2,1.0094761E0,2.394983E-2,8.151987E0,6.457557E-3,2.0686005E-1,-3.6923797E0,-8.3415943E-1,-9.922982E-2],"split_indices":[1,2,1,4,0,4,0,1,3,4,0,1,1,0,0,0,0,3,1,1,0,5,3,0,0,0,4,1,0,4,1,0,2,0,0,0,0,0,0,0,0,0,0],"split_type":[0,1,0,1,0,1,0,0,1,1,0,0,0,0,0,0,0,1,0,0,0,1,1,0,0,0,1,0,0,1,0,0,1,0,0,0,0,0,0,0,0,0,0],"sum_hessian":[2.1064264E2,1.3653835E2,7.4104294E1,1.2072809E2,1.5810259E1,7.2582275E1,1.5220219E0,1.02628006E2,1.8100082E1,1.140313E1,4.407129E0,2.4838219E1,4.7744057E1,1.3218762E0,1.0130613E2,1.0699216E1,7.4008665E0,6.0303664E0,5.3727636E0,1.8761736E1,6.0764823E0,4.350125E1,4.2428026E0,4.3040805E0,1.7262859E0,2.051692E0,3.3210716E0,1.5232029E1,3.5297077E0,1.49725275E1,2.8528725E1,1.0204746E0,3.2223282E0,1.765916E0,1.5551555E0,3.315448E0,1.1916581E1,2.3824618E0,1.2590066E1,2.6547075E1,1.9816496E0,1.5347667E0,1.6875614E0],"tree_param":{"num_deleted":"0","num_feature":"6","num_nodes":"43","size_leaf_vector":"0"}},{"base_weights":[-1.1482081E0,-2.7423964E0,1.4897524E0,-3.1135783E0,-6.777282E-1,9.953661E-1,1.2411731E1,-7.358618E-1,-1.0884798E0,1.7758081E0,-1.9435605E0,2.7969093E0,-3.636026E-1,6.2780395E0,-7.6537526E-1,-1.8123803E0,-3.8378488E-4,-1.2239075E0,1.408164E0,-4.615452E0,-9.901866E-1,-4.9735677E-1,2.8781812E0,1.2546923E0,-1.6686066E1,-9.3939567E-1,-7.023905E-1,4.9280426E-1,-9.688466E-1,-4.454939E-1,-1.302109E-1,-2.1381898E0,-1.2093297E-1,-6.7006284E-1,4.3222588E-1,4.7482035E-1,-2.119795E0,4.9210973E0,-9.188274E-1,-8.155967E0,-8.433256E-2,1.2866326E-1,-4.276468E-1,-2.5405267E-2,3.8468486E-1,-3.2261565E-1,-9.1961294E-2,4.067246E-1,-3.1540507E-1,3.1381136E-1,1.6998578E-2,6.652862E0,-4.082999E-2,1.0381163E-1,-2.9011517E0],"categories":[1,2,2,1,2,2,1,1,1,1,1,2],"categories_nodes":[1,4,5,6,10,15,23,24,27,28,34,37],"categories_segments":[0,1,2,3,4,5,6,7,8,9,10,11],"categories_sizes":[1,1,1,1,1,1,1,1,1,1,1,1],"default_left":[0,0,1,0,0,0,0,0,0,0,0,0,0,0,0,0,0,0,0,1,0,0,0,0,0,0,1,0,0,0,0,0,0,0,0,0,0,0,0,0,0,0,0,0,0,0,0,0,0,0,0,0,0,0,0],"id":7,"left_children":[1,3,5,7,9,11,13,15,-1,17,19,21,23,-1,-1,25,27,29,-1,31,33,35,-1,37,39,-1,41,43,45,-1,-1,-1,-1,-1,47,49,-1,51,53,-1,-1,-1,-1,-1,-1,-1,-1,-1,-1,-1,-1,-1,-1,-1,-1],"loss_changes":[8.6575903E2,9.6036316E1,4.0790018E2,1.2983337E2,6.803101E1,1.8597255E2,4.717078E2,1.6247013E1,0E0,7.2264496E1,3.15868E1,7.346969E2,1.181792E3,0E0,0E0,9.994579E0,6.778372E0,2.9175854E-1,0E0,3.3732674E1,2.1718643E1,1.496407E2,0E0,3.305613E2,6.872722E2,0E0,5.365704E0,4.3958187E0,8.228779E-3,0E0,0E0,0E0,0E0,0E0,1.0072198E1,4.9308434E0,0E0,1.3455194E3,2.9701285E2,0E0,0E0,0E0,0E0,0E0,0E0,0E0,0E0,0E0,0E0,0E0,0E0,0E0,0E0,0E0,0E0],"parents":[2147483647,0,0,1,1,2,2,3,3,4,4,5,5,6,6,7,7,9,9,10,10,11,11,12,12,15,15,16,16,17,17,19,19,20,20,21,21,23,23,24,24,26,26,27,27,28,28,34,34,35,35,37,37,38,38],"right_children":[2,4,6,8,10,12,14,16,-1,18,20,22,24,-1,-1,26,28,30,-1,32,34,36,-1,38,40,-1,42,44,46,-1,-1,-1,-1,-1,48,50,-1,52,54,-1,-1,-1,-1,-1,-1,-1,-1,-1,-1,-1,-1,-1,-1,-1,-1],"split_conditions":[3E0,NaN,1.1E1,3E0,NaN,NaN,NaN,5E0,-1.0884798E0,3E0,NaN,1.1E1,1.1E1,6.2780395E0,-7.6537526E-1,NaN,2E0,2E0,1.408164E0,2E0,2E0,7E0,2.8781812E0,NaN,NaN,-9.3939567E-1,2E0,NaN,NaN,-4.454939E-1,-1.302109E-1,-2.1381898E0,-1.2093297E-1,-6.7006284E-1,NaN,4E0,-2.119795E0,NaN,9E0,-8.155967E0,-8.433256E-2,1.2866326E-1,-4.276468E-1,-2.5405267E-2,3.8468486E-1,-3.2261565E-1,-9.1961294E-2,4.067246E-1,-3.1540507E-1,3.1381136E-1,1.6998578E-2,6.652862E0,-4.082999E-2,1.0381163E-1,-2.9011517E0],"split_indices":[1,2,1,1,5,4,2,0,0,0,4,1,1,0,0,4,1,1,0,1,1,1,0,5,2,0,1,3,3,0,0,0,0,0,3,1,0,4,1,0,0,0,0,0,0,0,0,0,0,0,0,0,0,0,0],"split_type":[0,1,0,0,1,1,1,0,0,0,1,0,0,0,0,1,0,0,0,0,0,0,0,1,1,0,0,1,1,0,0,0,0,0,1,0,0,1,0,0,0,0,0,0,0,0,0,0,0,0,0,0,0,0,0],"sum_hessian":[2.0389662E2,1.27067085E2,7.6829544E1,1.0727362E2,1.9793465E1,7.454632E1,2.2832253E0,1.9521112E1,8.775251E1,6.5993004E0,1.3194163E1,3.1598732E1,4.2947582E1,1.2011237E0,1.0821015E0,7.3291783E0,1.2191935E1,3.5404108E0,3.0588896E0,2.459653E0,1.073451E1,2.190771E1,9.691024E0,3.9913483E1,3.034102E0,2.5171533E0,4.812025E0,8.403576E0,3.7883587E0,1.9994987E0,1.540912E0,1.1073368E0,1.3523163E0,5.423491E0,5.31102E0,1.989143E1,2.0162795E0,1.4384632E1,2.552885E1,1.44925E0,1.584852E0,2.0350833E0,2.7769423E0,5.3689938E0,3.0345821E0,2.726141E0,1.0622178E0,3.3264647E0,1.9845551E0,7.772465E0,1.2118965E1,2.4931045E0,1.1891527E1,2.31443E1,2.3845487E0],"tree_param":{"num_deleted":"0","num_feature":"6","num_nodes":"55","size_leaf_vector":"0"}},{"base_weights":[-1.5510918E0,-2.4921727E0,1.3906054E1,-3.9912977E0,5.057056E-1,9.532009E0,4.7871723E0,-5.254391E0,-1.388122E0,3.8950493E0,-6.058233E-1,1.5997077E1,-1.235166E1,-8.2245374E-1,-2.0442207E0,8.235818E0,-4.4519777E0,4.484173E0,-2.9558057E-1,2.961552E-1,-1.1857111E1,6.11171E0,7.4425536E-1,-7.689612E0,1.1267765E0,-1.6958749E0,-2.1971275E-1,8.677007E0,-1.2253457E0,-5.465075E0,-1.0802448E0,1.9686269E0,-3.4028218E0,2.566873E0,-2.47314E-1,-5.737815E0,2.0453966E-1,-7.9568046E-1,-2.2035368E-1,-2.0481405E-1,1.9436094E-1,-1.7973825E-1,-5.3352696E-1,-3.750105E0,-1.3102133E0,-4.9870035E-1,-2.0665675E-1,1.136681E0,-4.313783E-2,1.8726242E-1,-7.589692E-1],"categories":[2,1,1,2,1,1,2,2,1,1,2,1,1,1,2,1],"categories_nodes":[2,3,4,9,11,12,15,16,19,20,25,26,28,29,30,31],"categories_segments":[0,1,2,3,4,5,6,7,8,9,10,11,12,13,14,15],"categories_sizes":[1,1,1,1,1,1,1,1,1,1,1,1,1,1,1,1],"default_left":[0,0,0,0,0,0,0,0,1,0,0,0,0,0,0,0,0,0,0,0,0,0,0,0,0,0,0,0,0,0,0,0,0,0,0,0,0,0,0,0,0,0,0,0,0,0,0,0,0,0,0],"id":8,"left_children":[1,3,5,7,9,-1,11,13,15,17,19,21,23,25,-1,27,29,-1,31,33,35,-1,-1,-1,-1,37,39,-1,41,43,45,47,-1,-1,49,-1,-1,-1,-1,-1,-1,-1,-1,-1,-1,-1,-1,-1,-1,-1,-1],"loss_changes":[2.6880588E3,7.7856555E2,1.5782595E3,3.7181995E2,2.2270702E2,0E0,1.774741E3,5.285383E2,1.1874346E3,6.7964764E2,4.5927457E2,2.6871997E2,9.1136597E2,1.0815573E1,0E0,1.9487202E3,9.743384E1,0E0,3.11265E2,1.9313785E2,3.1905203E2,0E0,0E0,0E0,0E0,5.8936024E0,5.9549007E0,0E0,1.5899162E0,1.2314972E2,7.3123455E-1,4.0684116E1,0E0,0E0,8.2937164E1,0E0,0E0,0E0,0E0,0E0,0E0,0E0,0E0,0E0,0E0,0E0,0E0,0E0,0E0,0E0,0E0],"parents":[2147483647,0,0,1,1,2,2,3,3,4,4,6,6,7,7,8,8,9,9,10,10,11,11,12,12,13,13,15,15,16,16,18,18,19,19,20,20,25,25,26,26,28,28,29,29,30,30,31,31,34,34],"right_children":[2,4,6,8,10,-1,12,14,16,18,20,22,24,26,-1,28,30,-1,32,34,36,-1,-1,-1,-1,38,40,-1,42,44,46,48,-1,-1,50,-1,-1,-1,-1,-1,-1,-1,-1,-1,-1,-1,-1,-1,-1,-1,-1],"split_conditions":[9E0,3E0,NaN,NaN,NaN,9.532009E0,7.400001E1,3E0,2E0,NaN,7E0,NaN,NaN,5E0,-2.0442207E0,NaN,NaN,4.484173E0,7E0,NaN,NaN,6.11171E0,7.4425536E-1,-7.689612E0,1.1267765E0,NaN,NaN,8.677007E0,NaN,NaN,NaN,NaN,-3.4028218E0,2.566873E0,5E0,-5.737815E0,2.0453966E-1,-7.9568046E-1,-2.2035368E-1,-2.0481405E-1,1.9436094E-1,-1.7973825E-1,-5.3352696E-1,-3.750105E0,-1.3102133E0,-4.9870035E-1,-2.0665675E-1,1.136681E0,-4.313783E-2,1.8726242E-1,-7.589692E-1],"split_indices":[1,1,4,2,5,0,1,1,1,4,1,2,3,0,0,5,5,0,1,5,2,0,0,0,0,4,3,0,3,4,4,3,0,0,1,0,0,0,0,0,0,0,0,0,0,0,0,0,0,0,0],"split_type":[0,0,1,1,1,0,0,0,0,1,0,1,1,0,0,1,1,0,0,1,1,0,0,0,0,1,1,0,1,1,1,1,0,0,0,0,0,0,0,0,0,0,0,0,0,0,0,0,0,0,0],"sum_hessian":[1.8140924E2,1.7178896E2,9.620298E0,1.1430033E2,5.748862E1,2.4113026E0,7.208996E0,7.627318E1,3.8027153E1,1.3578864E1,4.3909756E1,4.3986273E0,2.8103685E0,2.0252253E1,5.6020924E1,8.775185E0,2.925197E1,3.027483E0,1.0551381E1,4.1552322E1,2.3574338E0,2.9397564E0,1.4588708E0,1.216273E0,1.5940955E0,7.528799E0,1.2723453E1,2.108259E0,6.6669264E0,2.2016014E1,7.2359548E0,9.438649E0,1.112732E0,1.6549711E0,3.989735E1,1.1597681E0,1.1976658E0,2.8924434E0,4.6363554E0,8.435034E0,4.2884192E0,4.103747E0,2.563179E0,1.5694462E0,2.044657E1,1.6036586E0,5.632296E0,4.6435623E0,4.7950873E0,2.9398954E1,1.0498396E1],"tree_param":{"num_deleted":"0","num_feature":"6","num_nodes":"51","size_leaf_vector":"0"}},{"base_weights":[-2.5222933E0,-2.0173716E1,5.855409E-1,-1.0588081E0,-4.497633E1,-4.289993E-1,1.0954186E1,-1.4375144E0,1.0370983E0,1.9744046E0,-1.2172894E0,1.3355056E1,2.4906793E0,-1.0175073E0,-6.47497E-1,4.208991E-1,8.9276046E-2,7.1900916E0,-2.6543653E-1,-7.889191E-1,-9.815815E0,1.7437786E1,-4.212307E0,-4.257547E-2,-1.1750895E0,-4.6362934E-1,3.006614E0,-4.6621337E0,3.342729E0,1.1662084E0,-1.0516056E0,1.0006977E0,-5.319089E0,7.008845E0,8.274492E-1,-2.3380716E0,2.1309521E0,-4.2019007E-1,-1.7567171E-1,-2.3980455E0,-3.0985773E-1,1.5723176E0,2.1697147E-1,-7.317717E-1,1.0752047E-1,-1.5193145E-1,1.2329454E0],"categories":[1,1,1,2,1,2,2,1,1,1,1,2,1,2],"categories_nodes":[1,3,5,6,8,9,13,19,21,22,24,27,28,36],"categories_segments":[0,1,2,3,4,5,6,7,8,9,10,11,12,13],"categories_sizes":[1,1,1,1,1,1,1,1,1,1,1,1,1,1],"default_left":[0,0,0,0,0,0,0,0,0,0,0,0,0,0,0,0,0,0,1,0,0,0,0,0,0,0,0,0,0,0,1,0,0,0,0,0,0,0,0,0,0,0,0,0,0,0,0],"id":9,"left_children":[1,3,5,7,-1,9,11,13,15,17,19,-1,21,23,-1,-1,-1,25,27,29,31,33,35,-1,37,-1,-1,39,41,-1,43,-1,-1,-1,-1,-1,45,-1,-1,-1,-1,-1,-1,-1,-1,-1,-1],"loss_changes":[7.9280435E3,5.34906E4,1.3056659E3,1.7255402E1,0E0,2.1765192E2,3.0308572E3,3.0234795E0,5.62119E-1,3.3417307E2,3.0965485E2,0E0,1.0645436E3,1.5973167E0,0E0,0E0,0E0,2.2775174E2,3.4653024E2,1.06252754E2,4.7568253E2,2.1886414E2,1.9004839E2,0E0,6.022434E-1,0E0,0E0,1.1048125E2,5.6083344E1,0E0,1.5648611E2,0E0,0E0,0E0,0E0,0E0,2.0558496E1,0E0,0E0,0E0,0E0,0E0,0E0,0E0,0E0,0E0,0E0],"parents":[2147483647,0,0,1,1,2,2,3,3,5,5,6,6,7,7,8,8,9,9,10,10,12,12,13,13,17,17,18,18,19,19,20,20,21,21,22,22,24,24,27,27,28,28,30,30,36,36],"right_children":[2,4,6,8,-1,10,12,14,16,18,20,-1,22,24,-1,-1,-1,26,28,30,32,34,36,-1,38,-1,-1,40,42,-1,44,-1,-1,-1,-1,-1,46,-1,-1,-1,-1,-1,-1,-1,-1,-1,-1],"split_conditions":[2E0,NaN,1.1E1,NaN,-4.497633E1,NaN,NaN,2E0,NaN,NaN,7E0,1.3355056E1,7.400001E1,NaN,-6.47497E-1,4.208991E-1,8.9276046E-2,9E0,3E0,NaN,2E1,NaN,NaN,-4.257547E-2,NaN,-4.6362934E-1,3.006614E0,NaN,NaN,1.1662084E0,3E0,1.0006977E0,-5.319089E0,7.008845E0,8.274492E-1,-2.3380716E0,NaN,-4.2019007E-1,-1.7567171E-1,-2.3980455E0,-3.0985773E-1,1.5723176E0,2.1697147E-1,-7.317717E-1,1.0752047E-1,-1.5193145E-1,1.2329454E0],"split_indices":[1,5,1,4,0,5,4,1,3,4,1,0,1,2,0,0,0,1,1,5,0,2,3,0,3,0,0,2,3,0,1,0,0,0,0,0,5,0,0,0,0,0,0,0,0,0,0],"split_type":[0,1,0,1,0,1,1,0,1,1,0,0,0,1,0,0,0,0,0,1,0,1,1,0,1,0,0,1,1,0,0,0,0,0,0,0,1,0,0,0,0,0,0,0,0,0,0],"sum_hessian":[1.4330484E2,2.0631845E1,1.22673E2,1.8861286E1,1.7705603E0,1.126128E2,1.0060192E1,1.6240877E1,2.6204088E0,2.7441679E1,8.517112E1,1.1681094E0,8.892083E0,1.1785323E1,4.4555535E0,1.1528184E0,1.4675905E0,7.580248E0,1.9861431E1,8.216928E1,3.0018446E0,2.2572057E0,6.634877E0,2.0874145E0,9.697909E0,1.9670185E0,5.6132293E0,8.820809E0,1.1040623E1,3.6364055E0,7.8532875E1,1.3451498E0,1.6566949E0,1.1867093E0,1.0704963E0,4.0945477E0,2.5403297E0,6.0191393E0,3.6787696E0,3.97219E0,4.8486195E0,5.8212233E0,5.2193995E0,3.921257E1,3.9320305E1,1.4079373E0,1.1323925E0],"tree_param":{"num_deleted":"0","num_feature":"6","num_nodes":"47","size_leaf_vector":"0"}}]},"name":"gbtree"},"learner_model_param":{"base_score":"5E-1","num_class":"0","num_feature":"6","num_target":"1"},"objective":{"name":"reg:squarederror","reg_loss_param":{"scale_pos_weight":"1"}}},"version":[1,6,2]}