{"learner":{"attributes":{"best_ntree_limit":"1"},"feature_names":[],"feature_types":["q","q","c","c","c","c"],"gradient_booster":{"model":{"gbtree_model_param":{"num_parallel_tree":"1","num_trees":"1","size_leaf_vector":"0"},"tree_info":[0],"trees":[{"base_weights":[-1.4800022E0,-1.1250829E0,-1.6778295E0,-2.1746723E-1,-1.3466198E0,-1.3732439E0,-2.3026755E0,-1.5240669E0,-9.90541E-1,-1.9479728E-1,-1.6022149E0,-1.4707388E0,-1.7237852E0,-4.8526433E-1,-1.3858067E0,-4.8780087E-1,-1.0950788E0,-3.2645411E0,-1.243169E0,-5.5151755E-1,-4.5827532E-1,1.0562699E0,-1.6213284E0,-6.4847934E-1,-1.0767224E-1,-2.9108062E-1,-1.3911911E0,-8.560807E0,-1.6996238E0,-4.6800303E-1,-1.5546135E0,5.1677513E-1,-1.1908725E-1,-5.25947E-1,-3.594675E-1,-1.23436004E-1,-2.3387827E-1,1.3792361E-1,-1.0912383E-1,-2.8828695E-1,-7.5685525E-1,-1.0603163E1,-4.1913685E-1,-5.364918E-1,-3.3624884E-1,-1.628305E-1,-8.432322E-3,-7.2102964E-1,-3.9093575E-1],"categories":[1,2,1,1,2,2,1,1,1,1,2,1,2],"categories_nodes":[0,1,5,6,7,12,14,16,17,18,22,27,28],"categories_segments":[0,1,2,3,4,5,6,7,8,9,10,11,12],"categories_sizes":[1,1,1,1,1,1,1,1,1,1,1,1,1],"default_left":[0,0,0,0,1,0,0,0,0,0,1,0,0,0,0,0,0,0,0,0,0,1,0,0,0,0,0,0,0,1,1,0,0,0,0,0,0,0,0,0,0,0,0,0,0,0,0,0,0],"id":0,"left_children":[1,3,5,-1,7,9,11,13,15,-1,17,-1,19,-1,21,23,25,27,29,-1,-1,31,33,35,37,-1,39,41,43,45,47,-1,-1,-1,-1,-1,-1,-1,-1,-1,-1,-1,-1,-1,-1,-1,-1,-1,-1],"loss_changes":[8.2132324E1,3.7263245E1,1.4268652E2,0E0,1.5958679E1,8.476807E1,3.672859E2,1.1917114E-1,4.4483795E0,0E0,2.3026715E2,0E0,1.81781E0,0E0,4.810547E1,1.0371213E0,1.5211563E0,5.583397E2,7.760922E1,0E0,0E0,8.140157E0,2.0245972E0,6.893492E-2,1.1238458E0,0E0,7.6681786E0,2.9279097E3,7.9833984E-1,3.0905628E0,4.619049E1,0E0,0E0,0E0,0E0,0E0,0E0,0E0,0E0,0E0,0E0,0E0,0E0,0E0,0E0,0E0,0E0,0E0,0E0],"parents":[2147483647,0,0,1,1,2,2,4,4,5,5,6,6,7,7,8,8,10,10,12,12,14,14,15,15,16,16,17,17,18,18,21,21,22,22,23,23,24,24,26,26,27,27,28,28,29,29,30,30],"right_children":[2,4,6,-1,8,10,12,14,16,-1,18,-1,20,-1,22,24,26,28,30,-1,-1,32,34,36,38,-1,40,42,44,46,48,-1,-1,-1,-1,-1,-1,-1,-1,-1,-1,-1,-1,-1,-1,-1,-1,-1,-1],"split_conditions":[NaN,NaN,7.600001E1,-2.1746723E-1,4E0,NaN,NaN,NaN,5E0,-1.9479728E-1,2E0,-1.4707388E0,NaN,-4.8526433E-1,NaN,2E0,NaN,NaN,NaN,-5.5151755E-1,-4.5827532E-1,2E0,NaN,8E0,6E0,-2.9108062E-1,5E0,NaN,NaN,1E1,3E0,5.1677513E-1,-1.1908725E-1,-5.25947E-1,-3.594675E-1,-1.23436004E-1,-2.3387827E-1,1.3792361E-1,-1.0912383E-1,-2.8828695E-1,-7.5685525E-1,-1.0603163E1,-4.1913685E-1,-5.364918E-1,-3.3624884E-1,-1.628305E-1,-8.432322E-3,-7.2102964E-1,-3.9093575E-1],"split_indices":[4,4,1,0,1,4,3,2,0,0,1,0,2,0,5,0,2,2,5,0,0,0,2,1,1,0,1,5,5,1,1,0,0,0,0,0,0,0,0,0,0,0,0,0,0,0,0,0,0],"split_type":[1,1,0,0,0,1,1,1,0,0,0,0,1,0,1,0,1,1,1,0,0,0,1,0,0,0,0,1,1,0,0,0,0,0,0,0,0,0,0,0,0,0,0,0,0,0,0,0,0],"sum_hessian":[1.1956538E3,4.3031622E2,7.653375E2,1.5485428E2,2.7546194E2,5.166773E2,2.4866025E2,1.8165599E2,9.380596E1,1.25074615E2,3.9160266E2,4.3925014E1,2.0473523E2,1.0199537E2,7.966062E1,1.712331E1,7.668265E1,6.8120995E1,3.2348166E2,1.2395788E2,8.077736E1,6.7004256E0,7.296019E1,1.1539622E1,5.5836883E0,5.695362E1,1.972903E1,1.451759E1,5.3603405E1,9.3433716E1,2.3004796E2,4.4669504E0,2.2334752E0,5.323116E1,1.972903E1,5.5836883E0,5.955934E0,1.4889835E0,4.0947046E0,1.5634327E1,4.0947046E0,2.2334752E0,1.2284114E1,4.4669506E1,8.933901E0,7.966062E1,1.3773097E1,5.062544E1,1.7942252E2],"tree_param":{"num_deleted":"0","num_feature":"6","num_nodes":"49","size_leaf_vector":"0"}}]},"name":"gbtree"},"learner_model_param":{"base_score":"5E-1","num_class":"0","num_feature":"6","num_target":"1"},"objective":{"name":"reg:squarederror","reg_loss_param":{"scale_pos_weight":"1"}}},"version":[1,6,2]}