{"learner":{"attributes":{"best_ntree_limit":"1"},"feature_names":[],"feature_types":["q","q","c","c","c","c"],"gradient_booster":{"model":{"gbtree_model_param":{"num_parallel_tree":"1","num_trees":"1","size_leaf_vector":"0"},"tree_info":[0],"trees":[{"base_weights":[-6.605111E-1,-2.3440745E-2,-1.176491E0,1.13716826E-1,-3.0735368E-1,-4.3164486E-1,-4.8034315E0,-6.6887075E-1,6.777099E-2,1.4765015E-1,-9.140629E-1,-4.504837E0,-7.978631E-1,-9.4953346E-1,-3.6406907E-1,4.7670033E-2,-1.6262834E-1,-4.462906E0,-1.0523118E-2,-4.1677457E-1,-2.5446597E-1,-9.603938E-1,-3.3827826E-1,1.4788506E0,-9.516446E-1,3.060623E-1,-1.4849201E0,-6.7320604E0,-4.4844605E-2,1.853313E-1,-6.4827573E-1,3.112005E-1,-1.0303667E0,-2.8980905E-1,-7.6949656E-2,6.764145E-2,-2.2177593E-1,-3.0247381E-2,1.1645511E0,-4.167982E-1,-2.833828E-2,-1.2712795E-1,1.3713154E-1,-2.225402E0,5.118058E-2,1.1634843E-1,-1.0043772E-1,-2.6856477E0,1.2531127E-1,-3.662947E-1,6.740626E-2],"categories":[1,2,1,2,2,1,1,2,1,1,2,1,2,2,2],"categories_nodes":[0,1,5,6,7,8,14,17,18,19,21,22,24,26,28],"categories_segments":[0,1,2,3,4,5,6,7,8,9,10,11,12,13,14],"categories_sizes":[1,1,1,1,1,1,1,1,1,1,1,1,1,1,1],"default_left":[0,0,0,0,1,0,0,0,0,0,1,0,0,1,0,0,0,0,0,0,0,0,0,0,0,0,0,0,0,0,1,0,1,0,0,0,0,0,0,0,0,0,0,0,0,0,0,0,0,0,0],"id":0,"left_children":[1,3,5,-1,7,9,11,13,15,-1,17,-1,19,21,23,-1,25,27,29,31,-1,33,35,37,39,41,43,-1,45,-1,47,-1,49,-1,-1,-1,-1,-1,-1,-1,-1,-1,-1,-1,-1,-1,-1,-1,-1,-1,-1],"loss_changes":[4.3774402E2,6.833506E1,1.9856758E3,0E0,4.759232E1,2.729861E2,5.112199E3,1.4935722E1,3.6575856E0,0E0,1.2892605E3,0E0,1.3933716E0,2.8835297E-1,9.589262E1,0E0,3.1143581E1,6.479677E3,1.2922192E2,1.2302563E1,0E0,1.101532E-1,8.801816E-1,8.1949936E1,2.4919163E1,4.3152723E0,1.3023026E2,0E0,8.472491E0,0E0,1.4203245E3,0E0,2.5126085E0,0E0,0E0,0E0,0E0,0E0,0E0,0E0,0E0,0E0,0E0,0E0,0E0,0E0,0E0,0E0,0E0,0E0,0E0],"parents":[2147483647,0,0,1,1,2,2,4,4,5,5,6,6,7,7,8,8,10,10,12,12,13,13,14,14,16,16,17,17,18,18,19,19,21,21,22,22,23,23,24,24,25,25,26,26,28,28,30,30,32,32],"right_children":[2,4,6,-1,8,10,12,14,16,-1,18,-1,20,22,24,-1,26,28,30,32,-1,34,36,38,40,42,44,-1,46,-1,48,-1,50,-1,-1,-1,-1,-1,-1,-1,-1,-1,-1,-1,-1,-1,-1,-1,-1,-1,-1],"split_conditions":[NaN,NaN,7.600001E1,1.13716826E-1,3E0,NaN,NaN,NaN,NaN,1.4765015E-1,3E0,-4.504837E0,4E0,2E0,NaN,4.7670033E-2,1.1E1,NaN,NaN,NaN,-2.5446597E-1,NaN,NaN,6E0,NaN,4E0,NaN,-6.7320604E0,NaN,1.853313E-1,7E0,3.112005E-1,3E0,-2.8980905E-1,-7.6949656E-2,6.764145E-2,-2.2177593E-1,-3.0247381E-2,1.1645511E0,-4.167982E-1,-2.833828E-2,-1.2712795E-1,1.3713154E-1,-2.225402E0,5.118058E-2,1.1634843E-1,-1.0043772E-1,-2.6856477E0,1.2531127E-1,-3.662947E-1,6.740626E-2],"split_indices":[4,4,1,0,1,4,2,2,3,0,1,0,0,1,5,0,0,2,4,4,0,5,3,0,2,1,2,0,5,0,1,0,0,0,0,0,0,0,0,0,0,0,0,0,0,0,0,0,0,0,0],"split_type":[1,1,0,0,0,1,1,1,1,0,0,0,0,0,1,0,0,1,1,1,0,1,1,0,1,0,1,0,1,0,0,0,0,0,0,0,0,0,0,0,0,0,0,0,0,0,0,0,0,0,0],"sum_hessian":[1.3307645E3,5.959733E2,7.347912E2,2.4636798E2,3.4960535E2,6.10529E2,1.2426219E2,1.7763293E2,1.719724E2,2.0943974E2,4.0108923E2,3.423275E1,9.002944E1,9.137719E1,8.625575E1,1.23453545E2,4.851886E1,8.0595215E1,3.2049402E2,1.1590616E1,7.843882E1,8.9220795E1,2.1563938E0,2.048574E1,6.577001E1,3.6389145E1,1.2129715E1,1.5094756E1,6.550046E1,1.6145998E2,1.5903404E2,3.2345905E0,8.356026E0,8.814259E1,1.0781969E0,1.0781969E0,1.0781969E0,1.2938362E1,7.547378E0,4.3127876E1,2.2642134E1,5.930083E0,3.0459063E1,1.8868445E0,1.024287E1,2.6146275E1,3.9354187E1,1.725115E1,1.4178288E2,7.277829E0,1.0781969E0],"tree_param":{"num_deleted":"0","num_feature":"6","num_nodes":"51","size_leaf_vector":"0"}}]},"name":"gbtree"},"learner_model_param":{"base_score":"5E-1","num_class":"0","num_feature":"6","num_target":"1"},"objective":{"name":"reg:squarederror","reg_loss_param":{"scale_pos_weight":"1"}}},"version":[1,6,2]}