{"learner":{"attributes":{"best_ntree_limit":"6"},"feature_names":[],"feature_types":["q","q","c","c","c","c"],"gradient_booster":{"model":{"gbtree_model_param":{"num_parallel_tree":"1","num_trees":"1","size_leaf_vector":"0"},"tree_info":[0],"trees":[{"base_weights":[-1.4188701E0,-9.9848884E-1,-1.6549759E0,-1.6577214E-1,-1.2507093E0,-1.2916206E0,-2.4514298E0,-1.4827858E0,-9.574314E-1,-1.390273E-1,-1.5557835E0,-1.7845328E0,-1.7309067E0,-4.868656E-1,-1.2851056E0,-1.0259281E0,-1.2560634E-1,-3.7940955E0,-1.1214719E0,-5.619952E-1,-4.4921964E-1,2.092502E0,-1.5794951E0,-9.016895E-1,-1.4773808E0,3.1305736E-1,-4.902366E-1,-1.5178904E1,-1.7373452E0,-9.9441014E-2,-1.4897095E0,1.2522095E0,-2.786378E-1,-5.3169674E-1,-3.0584738E-1,-3.2787196E-2,-2.769098E-1,-2.3415874E-1,-7.891235E-1,-3.2787196E-2,2.1612032E-1,6.665074E-2,-2.2811751E-1,-2.861427E-1,-1.58721695E1,-5.489544E-1,-2.5725818E-1,-1.0328983E0,-2.6590928E-1],"categories":[1,2,1,1,2,2,1,1,1,1,2,1,2],"categories_nodes":[0,1,5,6,7,12,14,15,17,18,22,26,28],"categories_segments":[0,1,2,3,4,5,6,7,8,9,10,11,12],"categories_sizes":[1,1,1,1,1,1,1,1,1,1,1,1,1],"default_left":[0,0,0,0,1,0,0,0,1,0,1,0,0,0,0,0,0,0,0,0,0,1,0,0,0,0,0,0,0,0,1,0,0,0,0,0,0,0,0,0,0,0,0,0,0,0,0,0,0],"id":0,"left_children":[1,3,5,-1,7,9,11,13,15,-1,17,-1,19,-1,21,23,25,27,29,-1,-1,31,33,35,37,39,41,43,45,-1,47,-1,-1,-1,-1,-1,-1,-1,-1,-1,-1,-1,-1,-1,-1,-1,-1,-1,-1],"loss_changes":[1.0176196E2,4.1737244E1,1.8947522E2,0E0,1.4926605E1,9.974994E1,5.1236743E2,1.5770264E0,6.0768433E0,0E0,3.338064E2,0E0,2.9613037E0,0E0,6.2623665E1,4.3040924E0,1.6611332E0,1.287061E3,8.464435E1,0E0,0E0,3.6660366E1,4.1801605E0,1.2752609E0,1.4113243E1,9.198133E-1,1.2345828E0,4.486497E3,2.3893127E0,0E0,2.3186069E2,0E0,0E0,0E0,0E0,0E0,0E0,0E0,0E0,0E0,0E0,0E0,0E0,0E0,0E0,0E0,0E0,0E0,0E0],"parents":[2147483647,0,0,1,1,2,2,4,4,5,5,6,6,7,7,8,8,10,10,12,12,14,14,15,15,16,16,17,17,18,18,21,21,22,22,23,23,24,24,25,25,26,26,27,27,28,28,30,30],"right_children":[2,4,6,-1,8,10,12,14,16,-1,18,-1,20,-1,22,24,26,28,30,-1,-1,32,34,36,38,40,42,44,46,-1,48,-1,-1,-1,-1,-1,-1,-1,-1,-1,-1,-1,-1,-1,-1,-1,-1,-1,-1],"split_conditions":[NaN,NaN,7.600001E1,-1.6577214E-1,3E0,NaN,NaN,NaN,2E0,-1.390273E-1,2E0,-1.7845328E0,NaN,-4.868656E-1,NaN,NaN,6E0,NaN,NaN,-5.619952E-1,-4.4921964E-1,2E0,NaN,2E0,2E0,4E0,NaN,2E0,NaN,-9.9441014E-2,4E0,1.2522095E0,-2.786378E-1,-5.3169674E-1,-3.0584738E-1,-3.2787196E-2,-2.769098E-1,-2.3415874E-1,-7.891235E-1,-3.2787196E-2,2.1612032E-1,6.665074E-2,-2.2811751E-1,-2.861427E-1,-1.58721695E1,-5.489544E-1,-2.5725818E-1,-1.0328983E0,-2.6590928E-1],"split_indices":[4,4,1,0,1,4,3,2,0,0,1,0,2,0,5,2,1,2,4,0,0,0,2,0,0,1,5,0,5,0,1,0,0,0,0,0,0,0,0,0,0,0,0,0,0,0,0,0,0],"split_type":[1,1,0,0,0,1,1,1,0,0,0,0,1,0,1,1,0,1,1,0,0,0,1,0,0,0,1,0,1,0,0,0,0,0,0,0,0,0,0,0,0,0,0,0,0,0,0,0,0],"sum_hessian":[1.0409132E3,3.762454E2,6.646678E2,1.3708165E2,2.3916373E2,4.582351E2,2.0643265E2,1.3124838E2,1.07915344E2,1.1148011E2,3.46755E2,3.402736E1,1.7240529E2,7.2591705E1,5.865669E1,9.948952E1,8.425822E0,5.5091915E1,2.916631E2,1.0273022E2,6.967507E1,4.212911E0,5.4443775E1,8.0369385E1,1.9120136E1,3.8888412E0,4.5369816E0,7.4536123E0,4.7638306E1,9.3332184E1,1.983309E2,2.2684908E0,1.9444206E0,3.8888412E1,1.5555365E1,2.2684908E0,7.810089E1,1.2962804E1,6.157332E0,2.2684908E0,1.6203505E0,1.2962804E0,3.240701E0,6.157332E0,1.2962804E0,4.2129112E1,5.5091915E0,4.5693882E1,1.5263701E2],"tree_param":{"num_deleted":"0","num_feature":"6","num_nodes":"49","size_leaf_vector":"0"}}]},"name":"gbtree"},"learner_model_param":{"base_score":"5E-1","num_class":"0","num_feature":"6","num_target":"1"},"objective":{"name":"reg:squarederror","reg_loss_param":{"scale_pos_weight":"1"}}},"version":[1,6,2]}