{"learner":{"attributes":{"best_ntree_limit":"1"},"feature_names":[],"feature_types":["q","q","c","c","c","c"],"gradient_booster":{"model":{"gbtree_model_param":{"num_parallel_tree":"1","num_trees":"1","size_leaf_vector":"0"},"tree_info":[0],"trees":[{"base_weights":[-1.4816124E0,-1.1199222E0,-1.6855456E0,-2.0867376E-1,-1.3668951E0,-1.3630264E0,-2.3231764E0,-1.5199022E0,-1.071302E0,-1.8191677E-1,-1.6107899E0,-1.481849E0,-1.7380209E0,-4.595745E-1,-3.9754188E-1,-5.949645E-1,-1.1944158E0,-3.9347472E0,-1.2205724E0,-5.5445975E-1,-4.6569705E-1,-2.0227486E-2,-1.6195503E-1,2.2098766E-1,-6.991541E-1,-3.204903E-1,-1.5369738E0,-8.78772E0,-1.7056974E0,-1.5034792E-1,-1.5673387E0,-2.0227486E-2,1.2150005E-1,-2.4505818E-1,-2.9527025E-2,-3.1327674E-1,-8.570728E-1,-5.343875E-1,-3.4974894E-1,-1.1365103E0,-2.9392424E-1],"categories":[1,2,1,1,2,2,1,1,1,2],"categories_nodes":[0,1,5,6,12,14,16,17,18,28],"categories_segments":[0,1,2,3,4,5,6,7,8,9],"categories_sizes":[1,1,1,1,1,1,1,1,1,1],"default_left":[0,0,0,0,1,0,0,1,0,0,1,0,0,0,0,0,0,0,0,0,0,0,0,0,0,0,0,0,0,0,1,0,0,0,0,0,0,0,0,0,0],"id":0,"left_children":[1,3,5,-1,7,9,11,13,15,-1,17,-1,19,-1,21,23,25,27,29,-1,-1,-1,-1,31,33,-1,35,-1,37,-1,39,-1,-1,-1,-1,-1,-1,-1,-1,-1,-1],"loss_changes":[8.635083E1,4.456372E1,1.5374023E2,0E0,1.0740814E1,9.44657E1,3.8161206E2,1.7884216E0,4.9582825E0,0E0,3.4245178E2,0E0,1.4240723E0,0E0,1.1550385E-1,2.0116944E0,1.6336594E0,3.0364097E3,8.136957E1,0E0,0E0,0E0,0E0,1.9891259E-1,1.306385E0,0E0,8.803257E0,0E0,1.499939E-2,0E0,2.8567407E2,0E0,0E0,0E0,0E0,0E0,0E0,0E0,0E0,0E0,0E0],"parents":[2147483647,0,0,1,1,2,2,4,4,5,5,6,6,7,7,8,8,10,10,12,12,14,14,15,15,16,16,17,17,18,18,23,23,24,24,26,26,28,28,30,30],"right_children":[2,4,6,-1,8,10,12,14,16,-1,18,-1,20,-1,22,24,26,28,30,-1,-1,-1,-1,32,34,-1,36,-1,38,-1,40,-1,-1,-1,-1,-1,-1,-1,-1,-1,-1],"split_conditions":[NaN,NaN,7.600001E1,-2.0867376E-1,4E0,NaN,NaN,3E0,6E0,-1.8191677E-1,2E0,-1.481849E0,NaN,-4.595745E-1,NaN,5E0,NaN,NaN,NaN,-5.5445975E-1,-4.6569705E-1,-2.0227486E-2,-1.6195503E-1,2E0,1.7E1,-3.204903E-1,5E0,-8.78772E0,NaN,-1.5034792E-1,4E0,-2.0227486E-2,1.2150005E-1,-2.4505818E-1,-2.9527025E-2,-3.1327674E-1,-8.570728E-1,-5.343875E-1,-3.4974894E-1,-1.1365103E0,-2.9392424E-1],"split_indices":[4,4,1,0,1,4,3,0,0,0,1,0,2,0,5,1,2,2,4,0,0,0,0,0,1,0,1,0,5,0,1,0,0,0,0,0,0,0,0,0,0],"split_type":[1,1,0,0,0,1,1,0,0,0,0,0,1,0,1,0,1,1,1,0,0,0,0,0,0,0,0,0,1,0,0,0,0,0,0,0,0,0,0,0,0],"sum_hessian":[1.1952815E3,4.332942E2,7.619873E2,1.6081023E2,2.7248398E2,5.0811563E2,2.5387169E2,1.7681679E2,9.566719E1,1.2619135E2,3.819243E2,4.504175E1,2.0882994E2,1.7458331E2,2.2334752E0,2.084577E1,7.482142E1,5.3603405E1,3.2832086E2,1.2544686E2,8.338308E1,1.1167376E0,1.1167376E0,2.2334752E0,1.8612293E1,5.7698112E1,1.712331E1,3.3502128E0,5.0253193E1,1.07579056E2,2.207418E2,1.1167376E0,1.1167376E0,1.5262081E1,3.3502128E0,1.3773097E1,3.3502128E0,4.2063786E1,8.189409E0,4.504175E1,1.7570006E2],"tree_param":{"num_deleted":"0","num_feature":"6","num_nodes":"41","size_leaf_vector":"0"}}]},"name":"gbtree"},"learner_model_param":{"base_score":"5E-1","num_class":"0","num_feature":"6","num_target":"1"},"objective":{"name":"reg:squarederror","reg_loss_param":{"scale_pos_weight":"1"}}},"version":[1,6,2]}