{"learner":{"attributes":{"best_ntree_limit":"1"},"feature_names":[],"feature_types":["q","q","q","q","q","q","q","q","q","q","q","q","q","q","c","c","c","c","c","c"],"gradient_booster":{"model":{"gbtree_model_param":{"num_parallel_tree":"1","num_trees":"1","size_leaf_vector":"0"},"tree_info":[0],"trees":[{"base_weights":[-1.6811968E0,-9.685648E-1,-2.0168025E0,-1.8234276E0,-1.8483406E-1,2.2894613E1,-2.0485623E0,-6.171906E-1,-1.4475892E0,3.3801797E-1,-9.516285E-1,1.6938957E1,-5.794636E-1,-1.7963911E0,-2.143883E0,-1.1746598E0,-1.7682596E0,6.384147E-1,1.420954E-1,-5.441213E-1,-1.1880642E0,-1.8545016E0,-1.1972337E0,-1.8215737E0,-2.2026763E0,-1.2184402E0,4.094466E-1,-1.6152258E1,-1.3686459E0,6.7903745E-1,-1.1798953E0,1.8176168E-1,-1.281416E0,-2.3730141E-1,-8.7276745E-1,-1.1407111E0,-1.4319626E0,-1.4912467E0,-1.9198414E0,-5.796383E-1,-1.4763491E0,-1.5984972E0,-1.9703867E0,-2.2236388E0,-1.8787081E0,-3.7098178E-1,9.7877525E-2,-1.5633115E-1,2.7459803E-1,-4.525734E-3,-9.09429E0,-3.2473868E-1,-5.496604E-1,-1.8873388E-1,2.1147165E-1,-1.5749536E-1,-4.9019733E-1,-2.41196E-1,6.896068E-2,-1.9379614E-1,5.7107624E-2,-2.856237E-1,2.5045273E-1,-2.932977E-1,-4.8050034E-1,-6.279791E-1,-4.0929636E-1,-5.291258E-1,-6.0314614E-1,-6.305858E-2,-3.604378E-1,6.1293546E-2,-4.6257687E-1,6.4760596E-2,-4.8496196E-1,-4.461975E-1,-6.1648023E-1,-6.731329E-1,-5.8920926E-1,-6.3604504E-1,-4.8762804E-1],"categories":[1,2,3,7,8,10,1,2,0,1,2,4,5,6,7,9,1,2,1,2,2,4,2,3],"categories_nodes":[0,4,8,9,10,22,39,40],"categories_segments":[0,2,6,8,16,18,20,22],"categories_sizes":[2,4,2,8,2,2,2,2],"default_left":[0,1,1,1,0,1,0,0,0,0,0,0,0,0,0,1,1,1,0,0,0,1,0,1,0,1,0,0,1,0,0,0,0,0,1,0,0,1,0,0,0,0,1,1,1,0,0,0,0,0,0,0,0,0,0,0,0,0,0,0,0,0,0,0,0,0,0,0,0,0,0,0,0,0,0,0,0,0,0,0,0],"id":0,"left_children":[1,3,5,7,9,11,13,-1,15,17,19,-1,-1,21,23,25,27,29,31,33,35,37,39,41,43,45,47,49,51,53,55,57,-1,59,61,63,-1,65,67,69,71,73,75,77,79,-1,-1,-1,-1,-1,-1,-1,-1,-1,-1,-1,-1,-1,-1,-1,-1,-1,-1,-1,-1,-1,-1,-1,-1,-1,-1,-1,-1,-1,-1,-1,-1,-1,-1,-1,-1],"loss_changes":[1.3944004E3,1.2533246E3,3.1865342E3,7.567969E1,3.9214902E2,4.388369E3,9.143555E1,0E0,2.8259888E1,3.4152626E1,3.7555084E1,0E0,0E0,3.5855225E1,5.040332E1,1.3692017E1,8.8261316E2,1.7745148E1,6.2651604E1,1.465839E1,3.7008392E1,2.0755127E1,1.629741E1,1.1748535E1,1.2283203E1,5.60495E0,3.2377124E0,9.5070056E2,1.8477722E1,8.057762E0,7.41591E-1,1.6841642E1,0E0,1.368877E1,1.0384399E1,1.7082855E1,0E0,9.078033E0,8.3376465E0,7.2411118E0,7.796768E0,6.401184E0,7.7626953E0,7.4648438E0,5.9559326E0,0E0,0E0,0E0,0E0,0E0,0E0,0E0,0E0,0E0,0E0,0E0,0E0,0E0,0E0,0E0,0E0,0E0,0E0,0E0,0E0,0E0,0E0,0E0,0E0,0E0,0E0,0E0,0E0,0E0,0E0,0E0,0E0,0E0,0E0,0E0,0E0],"parents":[2147483647,0,0,1,1,2,2,3,3,4,4,5,5,6,6,8,8,9,9,10,10,13,13,14,14,15,15,16,16,17,17,18,18,19,19,20,20,21,21,22,22,23,23,24,24,25,25,26,26,27,27,28,28,29,29,30,30,31,31,33,33,34,34,35,35,37,37,38,38,39,39,40,40,41,41,42,42,43,43,44,44],"right_children":[2,4,6,8,10,12,14,-1,16,18,20,-1,-1,22,24,26,28,30,32,34,36,38,40,42,44,46,48,50,52,54,56,58,-1,60,62,64,-1,66,68,70,72,74,76,78,80,-1,-1,-1,-1,-1,-1,-1,-1,-1,-1,-1,-1,-1,-1,-1,-1,-1,-1,-1,-1,-1,-1,-1,-1,-1,-1,-1,-1,-1,-1,-1,-1,-1,-1,-1,-1],"split_conditions":[NaN,5.65E2,-1.5E1,2.3E1,NaN,1.12742E5,8E4,-6.171906E-1,NaN,NaN,NaN,1.6938957E1,-5.794636E-1,8.695E4,2.072E3,2.75E2,3.6E1,1.2079E4,5.4E1,5.7E3,3.6E5,4E2,NaN,5.56E2,1.79208E6,1.29E3,1.08E2,-2.292E3,9.3E1,2.1E1,1.2575E4,1E3,-1.281416E0,3.01E3,9.606E3,1.4E5,-1.4319626E0,1.7E2,5E4,NaN,NaN,5E1,1.5E2,2.27819E5,3.16E2,-3.7098178E-1,9.7877525E-2,-1.5633115E-1,2.7459803E-1,-4.525734E-3,-9.09429E0,-3.2473868E-1,-5.496604E-1,-1.8873388E-1,2.1147165E-1,-1.5749536E-1,-4.9019733E-1,-2.41196E-1,6.896068E-2,-1.9379614E-1,5.7107624E-2,-2.856237E-1,2.5045273E-1,-2.932977E-1,-4.8050034E-1,-6.279791E-1,-4.0929636E-1,-5.291258E-1,-6.0314614E-1,-6.305858E-2,-3.604378E-1,6.1293546E-2,-4.6257687E-1,6.4760596E-2,-4.8496196E-1,-4.461975E-1,-6.1648023E-1,-6.731329E-1,-5.8920926E-1,-6.3604504E-1,-4.8762804E-1],"split_indices":[14,2,6,1,14,13,0,0,17,18,18,0,0,11,2,13,1,10,1,9,0,10,16,10,10,6,2,7,11,11,13,8,0,12,13,0,0,5,0,18,18,8,11,2,5,0,0,0,0,0,0,0,0,0,0,0,0,0,0,0,0,0,0,0,0,0,0,0,0,0,0,0,0,0,0,0,0,0,0,0,0],"split_type":[1,0,0,0,1,0,0,0,1,1,1,0,0,0,0,0,0,0,0,0,0,0,1,0,0,0,0,0,0,0,0,0,0,0,0,0,0,0,0,1,1,0,0,0,0,0,0,0,0,0,0,0,0,0,0,0,0,0,0,0,0,0,0,0,0,0,0,0,0,0,0,0,0,0,0,0,0,0,0,0,0],"sum_hessian":[5.8374917E3,1.8701864E3,3.9673054E3,8.938659E2,9.763205E2,4.13489E0,3.9631704E3,5.482378E2,3.4562814E2,5.8083044E2,3.9549005E2,1.2161441E0,2.918746E0,1.0925839E3,2.8705867E3,1.8923203E2,1.5639613E2,2.2839186E2,3.5243857E2,1.4642375E2,2.4906631E2,9.940762E2,9.8507675E1,4.4778427E2,2.4228022E3,1.8436745E2,4.8645763E0,3.1619747E0,1.5323416E2,2.2401375E2,4.378119E0,3.502495E2,2.1890595E0,7.661708E1,6.980667E1,2.4712048E2,1.9458306E0,1.5518E2,8.3889624E2,3.1619747E1,6.6887924E1,1.83881E2,2.6390326E2,2.2700547E3,1.527477E2,1.8242162E2,1.9458306E0,1.7026018E0,3.1619747E0,1.9458306E0,1.2161441E0,9.680507E1,5.642909E1,3.8916612E0,2.2012209E2,2.675517E0,1.7026018E0,1.5566645E1,3.3468286E2,3.891661E1,3.7700466E1,6.713116E1,2.675517E0,1.8485391E2,6.226658E1,2.4322882E1,1.308571E2,3.15711E2,5.231852E2,2.067445E1,1.0945297E1,2.4322882E0,6.4455635E1,1.7026018E0,1.8217839E2,4.2078587E1,2.2182469E2,2.0995513E3,1.705034E2,7.442802E1,7.831968E1],"tree_param":{"num_deleted":"0","num_feature":"20","num_nodes":"81","size_leaf_vector":"0"}}]},"name":"gbtree"},"learner_model_param":{"base_score":"5E-1","num_class":"0","num_feature":"20","num_target":"1"},"objective":{"name":"reg:squarederror","reg_loss_param":{"scale_pos_weight":"1"}}},"version":[1,6,2]}