{"learner":{"attributes":{"best_ntree_limit":"8"},"feature_names":[],"feature_types":["q","q","q","q","q","q","q","c","c","c","c","c","c","c","c","c"],"gradient_booster":{"model":{"gbtree_model_param":{"num_parallel_tree":"1","num_trees":"3","size_leaf_vector":"0"},"tree_info":[0,0,0],"trees":[{"base_weights":[-1.4191962E0,-1.4460121E0,-7.0196986E-1,-1.4866954E0,-1.2691835E0,-8.081945E-1,-3.6643255E-1,-1.5424504E0,-1.400306E0,-1.2334242E0,-1.4635901E0,-7.554028E-1,-1.2091713E0,3.3713123E-1,-4.5725223E-1,-1.474589E0,-1.5684409E0,-1.4734927E0,-1.3299206E0,-1.320245E0,-1.1705906E0,-1.567773E0,-1.3225929E0,-5.7829237E-1,-9.0887046E-1,-5.6873494E-1,-1.4288247E0,7.059816E-1,-4.6766376E-1,-5.0462586E-1,2.5514525E-1,-1.6816092E0,-1.4415561E0,-1.638747E0,-1.5351694E0,-1.5100931E0,-1.0949969E0,-1.3420867E0,-1.0856634E0,-9.7916275E-1,-1.3546132E0,-1.1516976E0,-1.5990427E0,-3.47668E-1,-1.6636263E0,-1.338481E0,7.3845394E-2,-3.8580123E-1,-8.5476494E-1,-3.6414492E-1,-8.21578E-1,-2.7396476E-1,-3.9889374E-1,7.3845394E-2,-1.5281074E0,8.7238735E-1,-1.4392738E-2,-2.458015E-1,7.3845394E-2,-2.8412968E-1,-6.804534E-1,7.983091E-1,-1.9948627E-1,-4.1262364E-1,-5.337741E-1,-4.3584812E-1,8.2600373E-1,-4.921567E-1,-8.449243E-2,-4.6093988E-1,-2.375886E-1,-4.790313E-1,-4.3728673E-1,-3.3611852E-1,9.7324796E-2,-3.986411E-1,-4.6120304E-1,-3.402593E-1,-6.1508343E-3,-3.062659E-1,6.702713E-2,-3.6158967E-1,-4.264615E-1,-3.5523742E-1,-2.7998543E-1,-8.8449734E-1,-2.9106084E-1,-4.5951828E-1,-1.7228843E0,-3.7684658E-1,-4.9794197E-1,-9.111638E-2,-3.7093937E-1,-3.0707446E-1,-2.876792E-2,5.49988E-1,-2.935875E-1,-2.7072674E-1,-3.2414666E-3,-4.886363E-1,-1.4392738E-2,3.0501414E-2,3.3354807E-1,-5.5359405E-2,-4.2947397E-1,1.3301557E-2,-2.4168172E-1,7.3845394E-2,2.7557954E-1],"categories":[2,3,1,3,2,3,4,2,1,1],"categories_nodes":[15,20,21,22,24,26,37,47],"categories_segments":[0,1,2,3,4,7,8,9],"categories_sizes":[1,1,1,1,3,1,1,1],"default_left":[1,1,0,0,1,0,0,0,1,0,0,0,0,0,0,0,1,0,0,0,0,0,0,0,0,0,0,0,0,0,0,0,0,0,1,0,0,0,1,0,0,1,1,0,0,0,0,0,0,0,1,0,0,0,1,0,0,0,0,0,0,0,0,0,0,0,0,0,0,0,0,0,0,0,0,0,0,0,0,0,0,0,0,0,0,0,0,0,0,0,0,0,0,0,0,0,0,0,0,0,0,0,0,0,0,0,0,0,0],"id":0,"left_children":[1,3,5,7,9,11,13,15,17,19,21,23,25,27,29,31,33,35,37,39,41,43,45,47,49,51,53,55,57,59,61,63,65,67,69,71,73,75,77,79,81,83,85,-1,87,89,-1,91,93,-1,95,97,-1,-1,99,101,-1,-1,-1,103,105,107,-1,-1,-1,-1,-1,-1,-1,-1,-1,-1,-1,-1,-1,-1,-1,-1,-1,-1,-1,-1,-1,-1,-1,-1,-1,-1,-1,-1,-1,-1,-1,-1,-1,-1,-1,-1,-1,-1,-1,-1,-1,-1,-1,-1,-1,-1,-1],"loss_changes":[1.8950977E2,6.6802734E1,1.249823E1,3.519922E1,1.0657471E1,4.8405457E0,5.7864113E0,5.9833984E0,1.3768555E1,6.7495117E0,1.9390259E0,6.0755615E0,3.4018364E0,3.492498E0,2.7777748E0,6.599121E0,5.404297E0,1.8953857E1,3.1984863E0,6.0655518E0,5.3704834E0,4.0173035E0,3.3818817E0,5.816723E0,2.4197998E0,1.7244189E0,3.9759102E0,1.0083535E0,1.1931342E0,2.673029E0,3.308715E0,2.8013916E0,5.8130615E1,2.1228027E0,1.0136719E0,3.8295898E0,5.223114E0,1.8168945E0,4.090004E0,3.305462E0,3.9852295E0,4.963745E0,2.6881958E1,0E0,5.608777E1,1.1263123E0,0E0,4.505867E0,5.86969E0,0E0,4.469423E1,1.3086346E0,0E0,0E0,2.9878197E0,1.0611467E0,0E0,0E0,0E0,3.6806197E0,3.7018719E0,3.620863E-2,0E0,0E0,0E0,0E0,0E0,0E0,0E0,0E0,0E0,0E0,0E0,0E0,0E0,0E0,0E0,0E0,0E0,0E0,0E0,0E0,0E0,0E0,0E0,0E0,0E0,0E0,0E0,0E0,0E0,0E0,0E0,0E0,0E0,0E0,0E0,0E0,0E0,0E0,0E0,0E0,0E0,0E0,0E0,0E0,0E0,0E0,0E0],"parents":[2147483647,0,0,1,1,2,2,3,3,4,4,5,5,6,6,7,7,8,8,9,9,10,10,11,11,12,12,13,13,14,14,15,15,16,16,17,17,18,18,19,19,20,20,21,21,22,22,23,23,24,24,25,25,26,26,27,27,28,28,29,29,30,30,31,31,32,32,33,33,34,34,35,35,36,36,37,37,38,38,39,39,40,40,41,41,42,42,44,44,45,45,47,47,48,48,50,50,51,51,54,54,55,55,59,59,60,60,61,61],"right_children":[2,4,6,8,10,12,14,16,18,20,22,24,26,28,30,32,34,36,38,40,42,44,46,48,50,52,54,56,58,60,62,64,66,68,70,72,74,76,78,80,82,84,86,-1,88,90,-1,92,94,-1,96,98,-1,-1,100,102,-1,-1,-1,104,106,108,-1,-1,-1,-1,-1,-1,-1,-1,-1,-1,-1,-1,-1,-1,-1,-1,-1,-1,-1,-1,-1,-1,-1,-1,-1,-1,-1,-1,-1,-1,-1,-1,-1,-1,-1,-1,-1,-1,-1,-1,-1,-1,-1,-1,-1,-1,-1],"split_conditions":[5E0,2E0,8E0,5E0,2E0,8E0,2E0,2E0,7E0,4E0,3E0,5E0,4E0,8E0,1.1E1,NaN,6E0,3.4E1,9E0,4E0,NaN,NaN,NaN,2.1E1,NaN,1E1,NaN,1.2E1,3E0,4E0,2.9E1,1.2E1,2.7E1,4.2E1,4E0,1.7E1,6.4E1,NaN,4E0,2.3E1,4E0,4E0,7E0,-3.47668E-1,5E0,6E0,7.3845394E-2,NaN,3.1E1,-3.6414492E-1,1.2E1,4E0,-3.9889374E-1,7.3845394E-2,1.2E1,2E0,-1.4392738E-2,-2.458015E-1,7.3845394E-2,1E1,1E1,4E0,-1.9948627E-1,-4.1262364E-1,-5.337741E-1,-4.3584812E-1,8.2600373E-1,-4.921567E-1,-8.449243E-2,-4.6093988E-1,-2.375886E-1,-4.790313E-1,-4.3728673E-1,-3.3611852E-1,9.7324796E-2,-3.986411E-1,-4.6120304E-1,-3.402593E-1,-6.1508343E-3,-3.062659E-1,6.702713E-2,-3.6158967E-1,-4.264615E-1,-3.5523742E-1,-2.7998543E-1,-8.8449734E-1,-2.9106084E-1,-4.5951828E-1,-1.7228843E0,-3.7684658E-1,-4.9794197E-1,-9.111638E-2,-3.7093937E-1,-3.0707446E-1,-2.876792E-2,5.49988E-1,-2.935875E-1,-2.7072674E-1,-3.2414666E-3,-4.886363E-1,-1.4392738E-2,3.0501414E-2,3.3354807E-1,-5.5359405E-2,-4.2947397E-1,1.3301557E-2,-2.4168172E-1,7.3845394E-2,2.7557954E-1],"split_indices":[6,6,6,1,4,0,1,6,0,1,6,2,5,5,1,8,0,3,0,0,8,15,11,3,7,1,7,6,2,2,3,3,3,3,5,3,3,8,2,3,2,6,0,0,4,4,0,8,3,0,3,1,0,0,1,2,0,0,0,1,3,0,0,0,0,0,0,0,0,0,0,0,0,0,0,0,0,0,0,0,0,0,0,0,0,0,0,0,0,0,0,0,0,0,0,0,0,0,0,0,0,0,0,0,0,0,0,0,0],"split_type":[0,0,0,0,0,0,0,0,0,0,0,0,0,0,0,1,0,0,0,0,1,1,1,0,1,0,1,0,0,0,0,0,0,0,0,0,0,1,0,0,0,0,0,0,0,0,0,1,0,0,0,0,0,0,0,0,0,0,0,0,0,0,0,0,0,0,0,0,0,0,0,0,0,0,0,0,0,0,0,0,0,0,0,0,0,0,0,0,0,0,0,0,0,0,0,0,0,0,0,0,0,0,0,0,0,0,0,0,0],"sum_hessian":[9.905063E3,9.547098E3,3.5796588E2,7.755391E3,1.7917064E3,2.7082065E2,8.7145256E1,4.703162E3,3.052229E3,1.519545E3,2.7216135E2,2.418616E2,2.8959038E1,9.653013E0,7.749224E1,1.3184407E3,3.3847217E3,1.486564E3,1.565665E3,6.2959094E2,8.8995416E2,1.5069426E2,1.2146708E2,1.1449546E2,1.2736614E2,8.312317E0,2.064672E1,6.703481E0,2.9495316E0,7.2933876E1,4.5583673E0,1.7455865E2,1.143882E3,1.0717526E3,2.312969E3,1.3527625E3,1.3380148E2,1.4871002E3,7.85648E1,6.033133E1,5.6925964E2,8.5590045E2,3.4053684E1,3.1104153E1,1.195901E2,1.2039452E2,1.072557E0,6.891179E1,4.558367E1,2.5473228E1,1.01892914E2,6.9716206E0,1.3406962E0,1.072557E0,1.9574165E1,5.362785E0,1.3406962E0,1.8769747E0,1.072557E0,3.3517406E1,3.941647E1,2.9495316E0,1.6088355E0,4.585181E1,1.2870683E2,1.1414688E3,2.4132533E0,1.0701437E3,1.6088355E0,2.3078745E3,5.0946455E0,4.9900714E2,8.537554E2,1.3165637E2,2.145114E0,1.3996869E3,8.741339E1,7.507899E1,3.4858103E0,5.8454353E1,1.8769747E0,1.8206654E2,3.8719305E2,7.41405E2,1.1449546E2,9.653013E0,2.4400671E1,1.1717685E2,2.4132533E0,9.9747795E1,2.064672E1,6.408528E1,4.8265066E0,3.7003216E1,8.580456E0,5.0946455E0,9.679826E1,1.3406962E0,5.630924E0,1.8233469E1,1.3406962E0,1.6088355E0,3.7539494E0,3.190857E1,1.6088355E0,5.899063E0,3.3517406E1,1.072557E0,1.8769747E0],"tree_param":{"num_deleted":"0","num_feature":"16","num_nodes":"109","size_leaf_vector":"0"}},{"base_weights":[-9.794121E-1,-1.0236797E0,-8.171587E-1,-1.0643048E0,-9.608596E-1,-8.529117E-1,-4.9451017E-1,-1.0502976E0,-1.5139358E0,-1.0453612E0,-9.306293E-1,-8.6035985E-1,-4.2660403E-1,-5.6801087E-1,-1.3283469E-1,-9.97674E-1,-1.0781165E0,-2.84125E0,-1.1206295E0,-1.0747856E0,-7.099752E-1,-1.0584571E0,-9.037259E-1,-8.696357E-1,-5.413991E-1,-7.626398E-1,5.030681E-1,-3.5506335E-1,-7.5042677E-1,-3.4961304E-1,3.3565533E-1,-1.1196302E0,-9.70986E-1,-1.0830615E0,-7.291441E-1,-2.935603E0,-3.6968237E-1,-1.1804521E0,-6.9120955E-1,-1.1728227E0,-1.0127926E0,-7.397474E-1,1.9748588E-1,-9.4903135E-1,-1.1274704E0,-8.883206E-1,-1.1160349E0,-9.250938E-1,-8.0375844E-1,-1.1674338E-1,-8.4414136E-1,-4.3561128E-1,-5.1754475E-1,-7.17524E-2,7.0799834E-1,-8.011153E-2,-5.6372815E-1,-3.396788E-1,-6.412805E-1,4.230839E-1,-5.299788E-1,-1.648942E-1,6.226182E-1,-3.1156623E-1,-3.974997E-1,-2.924495E-1,-7.3486E-2,-3.3969682E-1,-3.180521E-1,-9.191665E-2,-2.8242236E-1,-8.9483875E-1,-2.737411E-1,-3.6649674E-1,-1.6134787E-1,-4.2095077E-1,-1.2031477E-1,-3.0804688E-1,-3.8210136E-1,-2.974369E-1,-3.7872726E-1,-9.315238E-2,-2.6318505E-1,-2.7455375E-1,-4.4747254E-1,-3.4048623E-1,-1.2410976E-1,-2.549486E-1,-2.818954E-1,-3.719719E-1,-2.2208007E-1,-2.6854932E-1,-3.3222118E-1,-2.3684055E-1,-3.8361377E-1,-8.117949E-2,1.4435984E-1,-2.8430358E-1,3.2419465E-3,2.162566E-1,-2.0311315E-1,4.8922528E-2,2.8739443E-1,8.2608536E-2,-9.15048E-2,-5.6242153E-2,-2.1013607E-1,-2.4420509E-1,1.6866862E0,-3.1203765E-2,2.7385452E-1,2.883504E-3,-2.2395621E-1,1.825435E-2,4.7819972E-1],"categories":[1,2,2,3,1,3,1,3,3,3,2,2,1,0,1,2],"categories_nodes":[17,22,28,30,35,38,40,43,44,47,50,52,56],"categories_segments":[0,1,2,4,5,6,7,8,9,10,11,12,13],"categories_sizes":[1,1,2,1,1,1,1,1,1,1,1,1,3],"default_left":[1,0,0,0,1,0,0,0,0,0,0,1,0,0,0,0,1,0,0,0,0,0,0,0,0,0,0,0,0,0,0,0,1,1,0,0,0,0,0,0,0,0,0,0,0,0,1,0,1,0,0,0,0,0,0,0,0,0,0,0,0,0,0,0,0,0,0,0,0,0,0,0,0,0,0,0,0,0,0,0,0,0,0,0,0,0,0,0,0,0,0,0,0,0,0,0,0,0,0,0,0,0,0,0,0,0,0,0,0,0,0,0,0,0,0],"id":1,"left_children":[1,3,5,7,9,11,13,15,17,19,21,23,25,27,29,31,33,35,37,39,41,43,45,47,49,51,53,55,57,59,61,63,65,67,69,71,-1,73,75,77,79,81,-1,83,85,87,89,91,93,95,97,-1,99,-1,101,103,105,-1,107,109,111,-1,113,-1,-1,-1,-1,-1,-1,-1,-1,-1,-1,-1,-1,-1,-1,-1,-1,-1,-1,-1,-1,-1,-1,-1,-1,-1,-1,-1,-1,-1,-1,-1,-1,-1,-1,-1,-1,-1,-1,-1,-1,-1,-1,-1,-1,-1,-1,-1,-1,-1,-1,-1,-1],"loss_changes":[7.441992E1,1.997461E1,2.5542969E1,2.9820312E1,7.307617E0,6.0625E0,5.9567375E0,6.0097656E0,7.4291046E1,7.5855713E0,7.2851562E0,5.4143066E0,1.186572E1,7.04747E0,4.142215E0,4.404175E0,4.652588E0,1.4336853E0,2.1674652E0,3.5272217E0,3.3865967E0,2.0326538E0,5.5064697E0,6.312256E0,7.4688854E0,3.8771372E0,1.7452412E0,5.047839E0,3.4629326E0,4.0685425E0,3.65682E0,3.5588684E0,3.6470947E0,2.3032227E0,3.9402485E0,2.0999146E-1,0E0,2.0046387E0,2.869296E0,3.0240173E0,1.3187866E0,3.868126E0,0E0,1.6693878E0,8.479004E-1,2.8708496E0,5.1565857E0,4.694031E0,5.033386E0,2.490748E0,3.0378952E0,0E0,4.786696E0,0E0,9.8413897E-1,3.2392917E0,2.4564562E0,0E0,9.164726E1,1.5861168E0,2.6721077E0,0E0,5.535719E0,0E0,0E0,0E0,0E0,0E0,0E0,0E0,0E0,0E0,0E0,0E0,0E0,0E0,0E0,0E0,0E0,0E0,0E0,0E0,0E0,0E0,0E0,0E0,0E0,0E0,0E0,0E0,0E0,0E0,0E0,0E0,0E0,0E0,0E0,0E0,0E0,0E0,0E0,0E0,0E0,0E0,0E0,0E0,0E0,0E0,0E0,0E0,0E0,0E0,0E0,0E0,0E0],"parents":[2147483647,0,0,1,1,2,2,3,3,4,4,5,5,6,6,7,7,8,8,9,9,10,10,11,11,12,12,13,13,14,14,15,15,16,16,17,17,18,18,19,19,20,20,21,21,22,22,23,23,24,24,25,25,26,26,27,27,28,28,29,29,30,30,31,31,32,32,33,33,34,34,35,35,37,37,38,38,39,39,40,40,41,41,43,43,44,44,45,45,46,46,47,47,48,48,49,49,50,50,52,52,54,54,55,55,56,56,58,58,59,59,60,60,62,62],"right_children":[2,4,6,8,10,12,14,16,18,20,22,24,26,28,30,32,34,36,38,40,42,44,46,48,50,52,54,56,58,60,62,64,66,68,70,72,-1,74,76,78,80,82,-1,84,86,88,90,92,94,96,98,-1,100,-1,102,104,106,-1,108,110,112,-1,114,-1,-1,-1,-1,-1,-1,-1,-1,-1,-1,-1,-1,-1,-1,-1,-1,-1,-1,-1,-1,-1,-1,-1,-1,-1,-1,-1,-1,-1,-1,-1,-1,-1,-1,-1,-1,-1,-1,-1,-1,-1,-1,-1,-1,-1,-1,-1,-1,-1,-1,-1,-1],"split_conditions":[2E0,5E0,6E0,2.7E1,6E0,3.6E1,1E1,4E0,2E0,3.4E1,2.8E1,5E0,7E0,4E0,1.8E1,2E0,3E0,NaN,3.5E1,1.7E1,6.4E1,2E0,NaN,3E0,3E0,4E0,7E0,5E0,NaN,1.2E1,NaN,1.6E1,4E0,6E0,1.1E1,NaN,-3.6968237E-1,8E0,NaN,4E0,NaN,3.6E1,1.9748588E-1,NaN,NaN,6E0,8E0,NaN,6E0,1.2E1,NaN,-4.3561128E-1,NaN,-7.17524E-2,3E0,6E0,NaN,-3.396788E-1,2.2E1,1E1,2E0,-1.648942E-1,4E0,-3.1156623E-1,-3.974997E-1,-2.924495E-1,-7.3486E-2,-3.3969682E-1,-3.180521E-1,-9.191665E-2,-2.8242236E-1,-8.9483875E-1,-2.737411E-1,-3.6649674E-1,-1.6134787E-1,-4.2095077E-1,-1.2031477E-1,-3.0804688E-1,-3.8210136E-1,-2.974369E-1,-3.7872726E-1,-9.315238E-2,-2.6318505E-1,-2.7455375E-1,-4.4747254E-1,-3.4048623E-1,-1.2410976E-1,-2.549486E-1,-2.818954E-1,-3.719719E-1,-2.2208007E-1,-2.6854932E-1,-3.3222118E-1,-2.3684055E-1,-3.8361377E-1,-8.117949E-2,1.4435984E-1,-2.8430358E-1,3.2419465E-3,2.162566E-1,-2.0311315E-1,4.8922528E-2,2.8739443E-1,8.2608536E-2,-9.15048E-2,-5.6242153E-2,-2.1013607E-1,-2.4420509E-1,1.6866862E0,-3.1203765E-2,2.7385452E-1,2.883504E-3,-2.2395621E-1,1.825435E-2,4.7819972E-1],"split_indices":[6,1,6,3,0,3,6,2,6,3,4,4,0,2,5,1,5,8,3,3,3,6,12,6,6,5,1,1,7,3,15,3,5,0,3,8,0,0,11,2,8,3,0,8,11,2,0,9,5,4,11,0,15,0,4,4,7,0,3,3,2,0,2,0,0,0,0,0,0,0,0,0,0,0,0,0,0,0,0,0,0,0,0,0,0,0,0,0,0,0,0,0,0,0,0,0,0,0,0,0,0,0,0,0,0,0,0,0,0,0,0,0,0,0,0],"split_type":[0,0,0,0,0,0,0,0,0,0,0,0,0,0,0,0,0,1,0,0,0,0,1,0,0,0,0,0,1,0,1,0,0,0,0,1,0,0,1,0,1,0,0,1,1,0,0,1,0,0,1,0,1,0,0,0,1,0,0,0,0,0,0,0,0,0,0,0,0,0,0,0,0,0,0,0,0,0,0,0,0,0,0,0,0,0,0,0,0,0,0,0,0,0,0,0,0,0,0,0,0,0,0,0,0,0,0,0,0,0,0,0,0,0,0],"sum_hessian":[1.0476637E4,8.226805E3,2.249832E3,4.9862905E3,3.2405142E3,2.0239164E3,2.259157E2,4.838883E3,1.4740796E2,8.449844E2,2.3955298E3,1.9881625E3,3.5753986E1,1.8728468E2,3.863101E1,1.6861494E3,3.1527334E3,3.2272396E1,1.1513557E2,7.748036E2,7.0180756E1,4.098485E2,1.9856814E3,1.9302999E3,5.7862473E1,2.6393543E1,9.360443E0,8.777035E1,9.9514336E1,2.6583918E1,1.2047089E1,2.9538318E2,1.3907662E3,3.1066096E3,4.61238E1,2.9705875E1,2.566518E0,9.952217E1,1.5613399E1,2.9320477E2,4.8159882E2,6.913577E1,1.0449836E0,1.6421857E2,2.4562996E2,1.8561797E3,1.295017E2,1.0409463E3,8.8935364E2,2.4658993E1,3.320348E1,5.630846E0,2.0762697E1,1.9890703E0,7.3713727E0,3.846716E1,4.930319E1,2.0038422E1,7.9475914E1,4.7762966E0,2.1807621E1,2.7249656E0,9.322124E0,2.1611981E2,7.926337E1,1.3830975E3,7.66862E0,9.701311E2,2.1364785E3,1.6234259E1,2.988954E1,2.85652E1,1.1406747E0,9.267878E1,6.8433895E0,3.4101505E0,1.2203248E1,1.2435533E2,1.6884944E2,4.4825735E2,3.3341457E1,1.7567286E1,5.156848E1,1.5710289E2,7.115672E0,2.4249733E2,3.1326313E0,1.0707761E3,7.854035E2,9.5665886E1,3.3835804E1,8.992313E2,1.4171498E2,8.6596155E2,2.3392076E1,2.004796E1,4.611031E0,2.9520037E1,3.6834445E0,1.9674337E0,1.8795263E1,2.837789E0,4.5335836E0,1.481962E1,2.3647537E1,1.3772858E1,3.553033E1,7.8189644E1,1.2862718E0,2.6798282E0,2.0964684E0,6.518956E0,1.5288665E1,6.579625E0,2.7424982E0],"tree_param":{"num_deleted":"0","num_feature":"16","num_nodes":"115","size_leaf_vector":"0"}},{"base_weights":[-7.3419344E-1,-7.647418E-1,-6.232823E-1,-8.26204E-1,-7.393148E-1,-5.422949E-1,-6.819302E-1,-8.9973557E-1,-8.111411E-1,-8.08372E-1,-7.244837E-1,-5.807367E-1,-2.3459482E-1,-6.8878645E-1,-1.0547673E-1,-9.1146815E-1,7.9489833E-1,-8.9117485E-1,-7.9274905E-1,-7.986938E-1,-3.632224E-1,-7.80861E-1,-7.0261824E-1,-2.8719607E-1,-6.0113627E-1,-1.6953E-1,-6.5631187E-1,-7.80744E-1,-6.364931E-1,5.5152816E-1,-4.8567092E-1,-8.5542995E-1,-1.0162526E0,6.048075E-1,-2.4121833E-1,-8.963212E-1,7.21318E-2,-7.9445267E-1,1.7590089E-1,-2.7824423E-1,-7.6962215E-1,-7.918264E-1,-5.628357E-1,-7.3229176E-1,-6.6289973E-1,-3.535732E-1,3.4997618E-1,-6.240368E-1,-2.555632E-1,-1.351632E-1,-8.0469364E-1,-8.651682E-1,-1.7677954E-1,-7.214259E-1,-1.145296E0,-6.519903E-1,-7.5478815E-2,7.6233345E-1,-5.0856184E-2,5.3686807E-3,-1.0335087E0,-2.600383E-1,-5.0343532E-2,-3.142189E-1,-1.6414726E-1,-2.1755911E-1,-2.7963066E-1,-1.609494E-1,-2.3982501E-1,3.6489555E-1,-2.6476198E-1,-2.446935E-1,1.1948308E0,-2.380074E-1,1.0015542E-1,-6.621768E-2,-2.0598839E-1,-2.1694599E-1,-2.822953E-1,-2.0212808E-1,-1.2159362E-1,5.5586934E-2,-1.2692314E-1,-1.9053665E-1,-8.934936E-2,-2.8259787E-1,-1.5894054E-2,-6.2308405E-2,6.2630825E-2,-3.6559254E-1,8.085406E-2,-3.7747136E-1,-1.3164195E-1,-2.0155063E-1,4.857544E-2,-1.5295383E-1,-2.3753583E-1,-2.7803883E-1,-1.1540294E0,-2.421069E-1,-1.7821869E-1,-9.407642E-2,1.333498E-1,7.4991785E-2,2.593053E-1,-1.2407471E-1,2.5742334E-1,-3.7489337E-1,-3.754987E-2],"categories":[3,1,1,1,1],"categories_nodes":[7,8,19,51,60],"categories_segments":[0,1,2,3,4],"categories_sizes":[1,1,1,1,1],"default_left":[1,0,0,0,0,0,0,0,0,0,1,0,0,0,0,0,1,1,0,0,0,0,0,1,0,1,1,0,1,1,0,0,1,0,0,0,0,0,1,0,0,1,0,0,0,0,0,0,0,1,0,0,0,0,0,0,0,0,0,0,0,0,0,0,0,0,0,0,0,0,0,0,0,0,0,0,0,0,0,0,0,0,0,0,0,0,0,0,0,0,0,0,0,0,0,0,0,0,0,0,0,0,0,0,0,0,0,0,0],"id":2,"left_children":[1,3,5,7,9,11,13,15,17,19,21,23,25,27,29,31,33,35,37,39,-1,41,43,45,47,49,51,53,55,57,59,61,63,-1,-1,65,-1,67,69,-1,71,73,75,77,79,81,-1,83,85,87,89,91,93,95,97,99,101,103,-1,105,107,-1,-1,-1,-1,-1,-1,-1,-1,-1,-1,-1,-1,-1,-1,-1,-1,-1,-1,-1,-1,-1,-1,-1,-1,-1,-1,-1,-1,-1,-1,-1,-1,-1,-1,-1,-1,-1,-1,-1,-1,-1,-1,-1,-1,-1,-1,-1,-1],"loss_changes":[3.460498E1,1.2069824E1,1.0276428E1,1.890625E0,5.30249E0,1.1057098E1,5.050049E0,8.540283E0,2.1989746E0,2.9574585E0,5.297119E0,4.860565E0,2.8184428E0,5.661743E0,4.3683157E0,1.4257812E0,7.9413795E0,2.3165588E0,2.8032227E0,2.9816895E0,0E0,2.7011719E0,3.5535889E0,5.867672E0,6.052826E0,1.9398141E0,1.2415113E0,9.118195E0,7.096039E0,1.1150398E0,2.945854E0,1.8939667E0,1.338913E0,0E0,0E0,1.524353E0,0E0,1.6345215E0,5.09558E0,0E0,1.8065732E2,2.4212036E0,2.6642647E0,3.0421143E0,3.856079E0,2.1319718E0,0E0,2.47052E0,6.969927E0,2.2943146E0,2.3807278E0,1.0302792E0,1.0278194E0,5.5244293E0,3.341752E1,6.701782E0,3.0146637E0,5.5754185E-2,0E0,2.769375E0,8.588686E-1,0E0,0E0,0E0,0E0,0E0,0E0,0E0,0E0,0E0,0E0,0E0,0E0,0E0,0E0,0E0,0E0,0E0,0E0,0E0,0E0,0E0,0E0,0E0,0E0,0E0,0E0,0E0,0E0,0E0,0E0,0E0,0E0,0E0,0E0,0E0,0E0,0E0,0E0,0E0,0E0,0E0,0E0,0E0,0E0,0E0,0E0,0E0,0E0],"parents":[2147483647,0,0,1,1,2,2,3,3,4,4,5,5,6,6,7,7,8,8,9,9,10,10,11,11,12,12,13,13,14,14,15,15,16,16,17,17,18,18,19,19,21,21,22,22,23,23,24,24,25,25,26,26,27,27,28,28,29,29,30,30,31,31,32,32,35,35,37,37,38,38,40,40,41,41,42,42,43,43,44,44,45,45,47,47,48,48,49,49,50,50,51,51,52,52,53,53,54,54,55,55,56,56,57,57,59,59,60,60],"right_children":[2,4,6,8,10,12,14,16,18,20,22,24,26,28,30,32,34,36,38,40,-1,42,44,46,48,50,52,54,56,58,60,62,64,-1,-1,66,-1,68,70,-1,72,74,76,78,80,82,-1,84,86,88,90,92,94,96,98,100,102,104,-1,106,108,-1,-1,-1,-1,-1,-1,-1,-1,-1,-1,-1,-1,-1,-1,-1,-1,-1,-1,-1,-1,-1,-1,-1,-1,-1,-1,-1,-1,-1,-1,-1,-1,-1,-1,-1,-1,-1,-1,-1,-1,-1,-1,-1,-1,-1,-1,-1,-1],"split_conditions":[2E0,3E0,4E0,4E0,4E1,6E0,1.1E1,NaN,NaN,1E1,6E0,4E0,1E1,6E0,1.2E1,1.5E1,1.5E1,4E0,2.9E1,NaN,-3.632224E-1,3.4E1,6E0,9E0,3.1E1,1E1,2E0,2.4E1,5E0,3E0,5E0,9E0,2E0,6.048075E-1,-2.4121833E-1,9E0,7.21318E-2,6E0,5E0,-2.7824423E-1,8E0,8E0,3.6E1,2.8E1,3.9E1,2E0,3.4997618E-1,1.3E1,4E0,4E0,2E1,NaN,6E0,4E0,6E0,3E0,2E1,2E0,-5.0856184E-2,4E0,NaN,-2.600383E-1,-5.0343532E-2,-3.142189E-1,-1.6414726E-1,-2.1755911E-1,-2.7963066E-1,-1.609494E-1,-2.3982501E-1,3.6489555E-1,-2.6476198E-1,-2.446935E-1,1.1948308E0,-2.380074E-1,1.0015542E-1,-6.621768E-2,-2.0598839E-1,-2.1694599E-1,-2.822953E-1,-2.0212808E-1,-1.2159362E-1,5.5586934E-2,-1.2692314E-1,-1.9053665E-1,-8.934936E-2,-2.8259787E-1,-1.5894054E-2,-6.2308405E-2,6.2630825E-2,-3.6559254E-1,8.085406E-2,-3.7747136E-1,-1.3164195E-1,-2.0155063E-1,4.857544E-2,-1.5295383E-1,-2.3753583E-1,-2.7803883E-1,-1.1540294E0,-2.421069E-1,-1.7821869E-1,-9.407642E-2,1.333498E-1,7.4991785E-2,2.593053E-1,-1.2407471E-1,2.5742334E-1,-3.7489337E-1,-3.754987E-2],"split_indices":[6,1,2,4,4,6,6,9,9,4,0,0,1,0,3,3,3,5,3,15,0,3,1,5,3,5,5,3,4,5,0,0,5,0,0,3,0,4,2,0,1,5,3,3,3,1,0,1,5,5,3,15,4,0,6,1,3,5,0,0,8,0,0,0,0,0,0,0,0,0,0,0,0,0,0,0,0,0,0,0,0,0,0,0,0,0,0,0,0,0,0,0,0,0,0,0,0,0,0,0,0,0,0,0,0,0,0,0,0],"split_type":[0,0,0,0,0,0,0,1,1,0,0,0,0,0,0,0,0,0,0,1,0,0,0,0,0,0,0,0,0,0,0,0,0,0,0,0,0,0,0,0,0,0,0,0,0,0,0,0,0,0,0,1,0,0,0,0,0,0,0,0,1,0,0,0,0,0,0,0,0,0,0,0,0,0,0,0,0,0,0,0,0,0,0,0,0,0,0,0,0,0,0,0,0,0,0,0,0,0,0,0,0,0,0,0,0,0,0,0,0],"sum_hessian":[1.0353319E4,8.112888E3,2.240431E3,2.3649116E3,5.7479766E3,9.453011E2,1.2951299E3,3.9209903E2,1.9728125E3,1.00675836E3,4.7412183E3,8.3952924E2,1.0577185E2,1.2797142E3,1.5415642E1,3.8986203E2,2.2370143E0,3.5977524E2,1.6130372E3,9.8602637E2,2.0731985E1,1.3152656E3,3.4259524E3,5.553175E1,7.839975E2,9.284865E1,1.2923201E1,4.588677E2,8.2084656E2,5.485546E0,9.930096E0,2.5998633E2,1.2987569E2,1.1204729E0,1.1165414E0,3.5835345E2,1.4217889E0,1.6103848E3,2.65243E0,1.7589793E2,8.101284E2,1.2497773E3,6.548834E1,1.9509603E3,1.4749922E3,5.3830727E1,1.7010229E0,7.3451654E2,4.9480972E1,8.923331E1,3.615346E0,8.442115E0,4.481086E0,3.9721396E2,6.1653763E1,7.9862354E2,2.2222977E1,4.200295E0,1.2852511E0,5.758668E0,4.1714272E0,2.5550307E2,4.483273E0,1.20633896E2,9.241787E0,6.564945E1,2.92704E2,3.2463997E1,1.5779208E3,1.2623827E0,1.3900473E0,8.031787E2,6.9497247E0,1.248374E3,1.4032333E0,1.8139994E1,4.7348347E1,1.8733912E3,7.756905E1,1.4137684E3,6.1223675E1,5.95966E0,4.7871067E1,7.094602E2,2.505635E1,1.0443715E1,3.903726E1,7.401955E1,1.521376E1,2.5126383E0,1.1027075E0,3.3773646E0,5.06475E0,1.4207983E0,3.0602877E0,1.0118556E2,2.9602838E2,5.8282806E1,3.370954E0,2.1371819E2,5.8490533E2,1.5515167E1,6.7078094E0,1.2703799E0,2.929915E0,4.206781E0,1.5518874E0,3.0661173E0,1.10531E0],"tree_param":{"num_deleted":"0","num_feature":"16","num_nodes":"109","size_leaf_vector":"0"}}]},"name":"gbtree"},"learner_model_param":{"base_score":"5E-1","num_class":"0","num_feature":"16","num_target":"1"},"objective":{"name":"reg:squarederror","reg_loss_param":{"scale_pos_weight":"1"}}},"version":[1,6,2]}