{"learner":{"attributes":{"best_ntree_limit":"6"},"feature_names":[],"feature_types":["q","q","q","q","q","q","q","c","c","c","c","c","c","c","c","c"],"gradient_booster":{"model":{"gbtree_model_param":{"num_parallel_tree":"1","num_trees":"1","size_leaf_vector":"0"},"tree_info":[0],"trees":[{"base_weights":[-1.4191962E0,-1.4466392E0,-6.754976E-1,-1.4863104E0,-1.2764432E0,-7.8833073E-1,-3.2711953E-1,-1.5377554E0,-1.4067081E0,-1.2381401E0,-1.4856173E0,-5.2911633E-1,-9.313816E-1,1.05135165E-1,-4.430162E-1,-1.4749204E0,-1.5612283E0,-1.5269954E0,-1.362812E0,-1.1366216E0,-1.3191326E0,-1.4118063E0,-1.6678275E0,1.9471996E-2,-6.9986516E-1,-6.6187704E-1,-1.0465069E0,3.835136E-1,-9.122035E-1,-2.3417467E-1,-6.707269E-1,-1.6680541E0,-1.4446512E0,-1.6283445E0,-1.5298039E0,-1.5685308E0,-1.0526205E0,-1.3662678E0,-5.883189E-1,-6.840767E-1,-1.1657743E0,-1.4401722E0,-1.2631855E0,-3.2522345E-1,-1.4930404E0,-4.6938628E-1,-1.7017024E0,6.946568E-1,-4.5965114E-1,-8.6718416E-1,-2.8254452E-1,-7.174171E-1,1.7130335E-1,-8.291038E-1,-1.2182288E0,9.528229E-1,9.395073E-2,-8.449243E-2,-3.5007772E-1,-7.0468104E-1,-1.0054098E-1,4.2534757E-1,-8.150388E-1,-4.0221265E-1,-5.2593225E-1,-4.360158E-1,1.0109433E0,-4.890857E-1,-1.4392738E-2,-4.843649E-1,-4.5215297E-1,-4.5073873E-1,-5.0326574E-1,-1.8219823E-1,-3.778962E-1,-3.9369702E-1,-4.2850366E-1,2.4194126E-1,-2.538137E-1,-1.7141864E-1,-4.092106E-1,-1.386964E-1,-3.5172608E-1,-3.383234E-1,-4.432435E-1,8.529075E-3,-3.8235095E-1,-4.2165232E-1,-2.2421343E0,-2.7072674E-1,7.3845394E-2,-5.3837675E-1,-3.4464335E-1,3.25243E-1,-6.434076E-2,-5.579071E-2,-2.9750618E-1,-2.7883348E-1,6.3188575E-2,6.395618E-2,-1.9422983E-1,-1.648434E-2,-2.5564694E-1,-2.1074931E-1,-4.7368127E-1,-3.1371522E-1,-4.5335436E-1,7.3845394E-2,3.222505E-1,1.6741788E-1,-1.1547713E-1,3.4969497E-2,-3.1945053E-1,2.1851342E-2,-1.749955E-1,-1.4255974E-1,2.880969E-1,-2.8188473E-1,1.2286219E-1],"categories":[2,1,3],"categories_nodes":[15,21,25],"categories_segments":[0,1,2],"categories_sizes":[1,1,1],"default_left":[1,1,0,0,1,0,0,0,1,0,1,0,0,1,0,0,1,0,0,0,0,0,0,0,1,0,0,0,0,0,0,0,0,0,0,0,0,0,0,0,0,0,0,0,0,0,0,0,0,0,0,1,0,0,0,0,0,0,0,0,0,1,1,0,0,0,0,0,0,0,0,0,0,0,0,0,0,0,0,0,0,0,0,0,0,0,0,0,0,0,0,0,0,0,0,0,0,0,0,0,0,0,0,0,0,0,0,0,0,0,0,0,0,0,0,0,0,0,0],"id":0,"left_children":[1,3,5,7,9,11,13,15,17,19,21,23,25,27,29,31,33,35,37,39,41,43,45,47,49,51,53,55,57,59,61,63,65,67,69,71,73,75,77,79,81,83,85,-1,87,89,91,93,95,97,99,101,-1,103,105,107,109,-1,-1,111,113,115,117,-1,-1,-1,-1,-1,-1,-1,-1,-1,-1,-1,-1,-1,-1,-1,-1,-1,-1,-1,-1,-1,-1,-1,-1,-1,-1,-1,-1,-1,-1,-1,-1,-1,-1,-1,-1,-1,-1,-1,-1,-1,-1,-1,-1,-1,-1,-1,-1,-1,-1,-1,-1,-1,-1,-1,-1],"loss_changes":[2.0119922E2,6.2601562E1,1.367337E1,2.953711E1,1.2685059E1,9.407547E0,4.475812E0,4.616211E0,1.4026855E1,1.1148193E1,1.3516235E0,9.124233E0,4.6046143E0,5.872798E0,3.1676188E0,5.1550293E0,4.676758E0,1.4255371E1,5.203125E0,8.303711E0,3.9327393E0,3.7762756E0,2.2027435E0,8.102621E0,4.9361877E0,4.0951977E0,3.3918304E0,2.5506992E0,3.9184785E-1,2.3186224E0,5.552041E0,2.35083E0,5.2253906E1,3.1984863E0,2.036621E0,2.8115234E0,5.507141E0,5.6049805E0,4.8973565E0,2.6048717E0,2.4812622E0,1.3800659E0,8.6466675E0,0E0,7.312033E1,1.2797414E0,1.6113892E0,3.909718E0,1.9524002E0,3.7176437E0,4.2476387E0,4.5899487E0,0E0,4.1277275E0,1.6412277E0,1.8923521E-1,2.820817E0,0E0,0E0,2.5612378E0,2.617492E0,2.6174748E0,4.8733807E0,0E0,0E0,0E0,0E0,0E0,0E0,0E0,0E0,0E0,0E0,0E0,0E0,0E0,0E0,0E0,0E0,0E0,0E0,0E0,0E0,0E0,0E0,0E0,0E0,0E0,0E0,0E0,0E0,0E0,0E0,0E0,0E0,0E0,0E0,0E0,0E0,0E0,0E0,0E0,0E0,0E0,0E0,0E0,0E0,0E0,0E0,0E0,0E0,0E0,0E0,0E0,0E0,0E0,0E0,0E0,0E0],"parents":[2147483647,0,0,1,1,2,2,3,3,4,4,5,5,6,6,7,7,8,8,9,9,10,10,11,11,12,12,13,13,14,14,15,15,16,16,17,17,18,18,19,19,20,20,21,21,22,22,23,23,24,24,25,25,26,26,27,27,28,28,29,29,30,30,31,31,32,32,33,33,34,34,35,35,36,36,37,37,38,38,39,39,40,40,41,41,42,42,44,44,45,45,46,46,47,47,48,48,49,49,50,50,51,51,53,53,54,54,55,55,56,56,59,59,60,60,61,61,62,62],"right_children":[2,4,6,8,10,12,14,16,18,20,22,24,26,28,30,32,34,36,38,40,42,44,46,48,50,52,54,56,58,60,62,64,66,68,70,72,74,76,78,80,82,84,86,-1,88,90,92,94,96,98,100,102,-1,104,106,108,110,-1,-1,112,114,116,118,-1,-1,-1,-1,-1,-1,-1,-1,-1,-1,-1,-1,-1,-1,-1,-1,-1,-1,-1,-1,-1,-1,-1,-1,-1,-1,-1,-1,-1,-1,-1,-1,-1,-1,-1,-1,-1,-1,-1,-1,-1,-1,-1,-1,-1,-1,-1,-1,-1,-1,-1,-1,-1,-1,-1,-1],"split_conditions":[5E0,2E0,8E0,5E0,2E0,6E0,3E0,2E0,6E0,5E0,2E0,5E0,5E0,5E0,6E0,NaN,6E0,3.4E1,5.5E1,4E0,3E0,NaN,4E0,5E0,2E0,NaN,6E0,2E0,3E0,1.4E1,2E0,1.2E1,2.7E1,4.2E1,2E0,1.200001E1,5E0,5E0,7E0,1E1,6E0,4E0,5E0,-3.2522345E-1,2.2E1,2.6E1,1E1,2.1E1,6E0,4E0,3E0,4E0,1.7130335E-1,1E1,6E0,9E0,1.2E1,-8.449243E-2,-3.5007772E-1,9E0,2.6E1,2E0,8E0,-4.0221265E-1,-5.2593225E-1,-4.360158E-1,1.0109433E0,-4.890857E-1,-1.4392738E-2,-4.843649E-1,-4.5215297E-1,-4.5073873E-1,-5.0326574E-1,-1.8219823E-1,-3.778962E-1,-3.9369702E-1,-4.2850366E-1,2.4194126E-1,-2.538137E-1,-1.7141864E-1,-4.092106E-1,-1.386964E-1,-3.5172608E-1,-3.383234E-1,-4.432435E-1,8.529075E-3,-3.8235095E-1,-4.2165232E-1,-2.2421343E0,-2.7072674E-1,7.3845394E-2,-5.3837675E-1,-3.4464335E-1,3.25243E-1,-6.434076E-2,-5.579071E-2,-2.9750618E-1,-2.7883348E-1,6.3188575E-2,6.395618E-2,-1.9422983E-1,-1.648434E-2,-2.5564694E-1,-2.1074931E-1,-4.7368127E-1,-3.1371522E-1,-4.5335436E-1,7.3845394E-2,3.222505E-1,1.6741788E-1,-1.1547713E-1,3.4969497E-2,-3.1945053E-1,2.1851342E-2,-1.749955E-1,-1.4255974E-1,2.880969E-1,-2.8188473E-1,1.2286219E-1],"split_indices":[6,6,6,1,4,4,0,6,0,2,2,0,5,5,2,8,0,3,3,0,1,15,0,2,5,8,0,4,2,3,1,3,3,3,1,2,0,2,1,1,3,0,3,0,3,3,1,3,1,4,2,0,0,1,1,3,6,0,0,3,3,5,5,0,0,0,0,0,0,0,0,0,0,0,0,0,0,0,0,0,0,0,0,0,0,0,0,0,0,0,0,0,0,0,0,0,0,0,0,0,0,0,0,0,0,0,0,0,0,0,0,0,0,0,0,0,0,0,0],"split_type":[0,0,0,0,0,0,0,0,0,0,0,0,0,0,0,1,0,0,0,0,0,1,0,0,0,1,0,0,0,0,0,0,0,0,0,0,0,0,0,0,0,0,0,0,0,0,0,0,0,0,0,0,0,0,0,0,0,0,0,0,0,0,0,0,0,0,0,0,0,0,0,0,0,0,0,0,0,0,0,0,0,0,0,0,0,0,0,0,0,0,0,0,0,0,0,0,0,0,0,0,0,0,0,0,0,0,0,0,0,0,0,0,0,0,0,0,0,0,0],"sum_hessian":[9.905063E3,9.551656E3,3.5340753E2,7.7398394E3,1.8118169E3,2.6599414E2,8.741339E1,4.6902915E3,3.0495476E3,1.5372423E3,2.745746E2,9.6261986E1,1.6973215E2,1.8501608E1,6.891179E1,1.2929674E3,3.3973242E3,8.062947E2,2.243253E3,6.8884973E2,8.483926E2,2.0164072E2,7.2933876E1,2.3059975E1,7.320201E1,5.282343E1,1.1690871E2,1.5015798E1,3.4858103E0,3.7003216E1,3.190857E1,1.6785516E2,1.1251123E3,1.0671942E3,2.3301301E3,7.392599E2,6.703481E1,2.2325273E3,1.072557E1,4.3170418E1,6.456793E2,2.6036322E2,5.8802936E2,4.290228E1,1.5873843E2,2.4132533E0,7.052062E1,9.384873E0,1.3675101E1,5.1482735E1,2.1719278E1,5.0946457E1,1.8769747E0,5.4164127E1,6.2744583E1,4.290228E0,1.072557E1,1.6088355E0,1.8769747E0,7.2397594E0,2.9763456E1,3.4858103E0,2.842276E1,3.807577E1,1.2977939E2,1.1237716E3,1.3406962E0,1.0658535E3,1.3406962E0,4.762153E2,1.8539147E3,4.695118E2,2.6974808E2,2.2523697E1,4.4511116E1,1.2063584E3,1.0261688E3,1.3406962E0,9.384873E0,3.8612053E1,4.5583673E0,6.703481E0,6.389758E2,3.1104153E1,2.2925905E2,5.0946455E0,5.829347E2,1.5766588E2,1.072557E0,1.3406962E0,1.072557E0,5.8454353E1,1.2066266E1,6.435342E0,2.9495316E0,9.921152E0,3.7539494E0,4.8801342E1,2.6813924E0,9.384873E0,1.2334405E1,8.848595E0,4.2097862E1,4.7996925E1,6.1672025E0,4.2366E1,2.0378582E1,1.072557E0,3.217671E0,5.362785E0,5.362785E0,2.4132533E0,4.8265066E0,2.2523697E1,7.2397594E0,1.3406962E0,2.145114E0,2.6009506E1,2.4132533E0],"tree_param":{"num_deleted":"0","num_feature":"16","num_nodes":"119","size_leaf_vector":"0"}}]},"name":"gbtree"},"learner_model_param":{"base_score":"5E-1","num_class":"0","num_feature":"16","num_target":"1"},"objective":{"name":"reg:squarederror","reg_loss_param":{"scale_pos_weight":"1"}}},"version":[1,6,2]}