{"learner":{"attributes":{"best_ntree_limit":"12"},"feature_names":[],"feature_types":[],"gradient_booster":{"model":{"gbtree_model_param":{"num_parallel_tree":"1","num_trees":"7","size_leaf_vector":"0"},"tree_info":[0,0,0,0,0,0,0],"trees":[{"base_weights":[-6.5838593E-1,-1.5713347E0,3.5510057E-1,-1.960904E0,-8.02443E-1,-2.3687653E-1,6.0596025E-1,-2.02016E0,-7.1230775E-1,-1.7346227E0,-5.570687E-2,-8.1763417E-1,8.6820465E-1,2.9311648E-1,1.0984389E0,-7.1230775E-1,-2.089548E0,-8.2012486E-1,9.12081E-1,-1.101606E0,1.0891172E-1,6.513649E-1,-2.0247445E-1,2.4032596E-1,1.3053132E0,-1.2552044E0,-1.9096553E-1,-1.6290871E0,-3.609881E-1,-1.3355665E-1,8.74055E-1,3.9539263E-1,-7.8397274E-1,-5.113303E-2,-5.0647146E-1,-5.0647146E-1,9.880912E-1,-9.618098E-1,-3.01698E-1],"categories":[],"categories_nodes":[],"categories_segments":[],"categories_sizes":[],"default_left":[1,1,1,1,1,1,1,1,0,0,1,1,0,1,1,0,0,1,0,1,0,1,1,0,0,0,0,0,1,0,0,1,1,0,0,0,0,0,0],"id":0,"left_children":[1,3,5,7,9,11,13,15,-1,-1,17,19,-1,21,23,-1,-1,25,-1,27,-1,29,31,-1,-1,-1,-1,-1,33,-1,-1,35,37,-1,-1,-1,-1,-1,-1],"loss_changes":[5.4165436E1,7.6117706E0,4.342116E0,1.5617371E-2,8.259785E0,6.5718985E0,2.7807765E0,1.6549683E-1,0E0,0E0,6.4433613E0,1.8308372E0,0E0,2.560588E0,1.0104876E0,0E0,0E0,1.0818176E0,0E0,1.3913927E0,0E0,1.5460305E0,2.5705845E0,0E0,0E0,0E0,0E0,0E0,1.2702489E-1,0E0,0E0,2.5695152E0,2.129054E-2,0E0,0E0,0E0,0E0,0E0,0E0],"parents":[2147483647,0,0,1,1,2,2,3,3,4,4,5,5,6,6,7,7,10,10,11,11,13,13,14,14,17,17,19,19,21,21,22,22,28,28,31,31,32,32],"right_children":[2,4,6,8,10,12,14,16,-1,-1,18,20,-1,22,24,-1,-1,26,-1,28,-1,30,32,-1,-1,-1,-1,-1,34,-1,-1,36,38,-1,-1,-1,-1,-1,-1],"split_conditions":[3.5E0,5.65E1,-9.536743E-7,1.46E2,-9.536743E-7,1.425E2,2.645E2,1.5E0,-2.1369234E-1,-5.203868E-1,2.43E2,3.04E2,2.6046142E-1,2.205E2,1.21E2,-2.1369234E-1,-6.2686443E-1,2.5E0,2.736243E-1,5.4E1,3.267352E-2,1.11E2,1.265E2,7.209779E-2,3.91594E-1,-3.7656134E-1,-5.7289664E-2,-4.8872614E-1,6.25E1,-4.0066995E-2,2.622165E-1,5.3E1,2.41E2,-1.5339909E-2,-1.5194145E-1,-1.5194145E-1,2.9642737E-1,-2.8854296E-1,-9.05094E-2],"split_indices":[2,0,1,3,1,3,4,2,0,0,4,4,0,4,3,0,0,2,0,0,0,3,3,0,0,0,0,0,0,0,0,0,4,0,0,0,0,0,0],"split_type":[0,0,0,0,0,0,0,0,0,0,0,0,0,0,0,0,0,0,0,0,0,0,0,0,0,0,0,0,0,0,0,0,0,0,0,0,0,0,0],"sum_hessian":[5.6937634E1,2.9664986E1,2.727265E1,1.8660233E1,1.1004753E1,8.133948E0,1.91387E1,1.722483E1,1.4354026E0,4.3062077E0,6.6985455E0,5.5023766E0,2.6315713E0,1.2679389E1,6.4593115E0,1.4354026E0,1.5789429E1,3.8277402E0,2.8708053E0,4.066974E0,1.4354026E0,7.177013E0,5.5023766E0,1.6746364E0,4.784675E0,1.6746364E0,2.1531038E0,1.6746364E0,2.3923376E0,1.6746364E0,5.5023766E0,2.8708053E0,2.6315713E0,1.1961688E0,1.1961688E0,1.1961688E0,1.6746364E0,1.1961688E0,1.4354026E0],"tree_param":{"num_deleted":"0","num_feature":"6","num_nodes":"39","size_leaf_vector":"0"}},{"base_weights":[-4.7654665E-1,-1.0987386E0,2.7152768E-1,-1.580893E0,-7.5264174E-1,7.285575E-2,8.3273584E-1,-1.314473E0,-2.4136463E-1,-6.531378E-1,3.7878627E-1,1.0417414E0,-1.3197401E-1,-5.223225E-1,-1.4876419E0,-7.256463E-1,4.3002722E-1,-8.7220746E-1,8.7896466E-2,1.18479416E-1,8.2093793E-1,3.548108E-1,-1.0676131E0,-3.227036E-1,8.4967166E-1,-1.2666416E0,-2.9895738E-1,3.5995418E-1,-4.320603E-1,1.9760817E-1,1.0308124E0,1.2460934E-2,-1.2977186E0,9.7957426E-1,2.7219114E-1,-4.4980708E-1,-1.262778E-2,4.6240285E-2,5.6462663E-1,8.8627264E-2,-8.3038497E-1],"categories":[],"categories_nodes":[],"categories_segments":[],"categories_sizes":[],"default_left":[1,1,1,0,1,1,1,1,1,1,1,0,0,0,0,1,1,1,0,1,1,0,1,0,1,0,1,1,1,0,0,0,0,0,0,0,0,0,0,0,0],"id":1,"left_children":[1,3,5,-1,7,9,11,13,15,17,19,-1,-1,-1,-1,21,23,25,-1,27,29,-1,31,-1,33,-1,35,37,39,-1,-1,-1,-1,-1,-1,-1,-1,-1,-1,-1,-1],"loss_changes":[2.732462E1,4.1330376E0,2.968393E0,0E0,5.564974E0,4.947178E0,1.5503182E0,5.304718E-1,4.196238E0,1.1546507E0,1.689003E0,0E0,0E0,0E0,0E0,3.0805256E0,2.0538187E0,8.0088997E-1,0E0,1.6095608E0,5.266092E-1,0E0,1.4585762E0,0E0,2.5371075E-2,0E0,1.4270127E-1,4.9708104E-1,8.5947675E-1,0E0,0E0,0E0,0E0,0E0,0E0,0E0,0E0,0E0,0E0,0E0,0E0],"parents":[2147483647,0,0,1,1,2,2,4,4,5,5,6,6,7,7,8,8,9,9,10,10,15,15,16,16,17,17,19,19,20,20,22,22,24,24,26,26,27,27,28,28],"right_children":[2,4,6,-1,8,10,12,14,16,18,20,-1,-1,-1,-1,22,24,26,-1,28,30,-1,32,-1,34,-1,36,38,40,-1,-1,-1,-1,-1,-1,-1,-1,-1,-1,-1,-1],"split_conditions":[3.5E0,-9.536743E-7,1.43E2,-4.7426793E-1,2.28E2,-9.536743E-7,6.35E1,1.9E2,5.55E1,3.04E2,2.645E2,3.125224E-1,-3.9592206E-2,-1.5669675E-1,-4.462926E-1,2.34E2,2.43E2,5.4E1,2.636894E-2,1.31E2,1.21E2,1.0644325E-1,1.16E2,-9.6811086E-2,1.5E2,-3.799925E-1,2.32E2,1.165E2,2.215E2,5.9282456E-2,3.0924374E-1,3.7382804E-3,-3.893156E-1,2.938723E-1,8.165734E-2,-1.3494213E-1,-3.7883343E-3,1.3872086E-2,1.69388E-1,2.6588181E-2,-2.491155E-1],"split_indices":[2,1,3,0,4,1,0,4,0,4,4,0,0,0,0,4,4,0,0,3,3,0,3,0,3,0,4,3,4,0,0,0,0,0,0,0,0,0,0,0,0],"split_type":[0,0,0,0,0,0,0,0,0,0,0,0,0,0,0,0,0,0,0,0,0,0,0,0,0,0,0,0,0,0,0,0,0,0,0,0,0,0,0,0,0],"sum_hessian":[5.7065372E1,3.0897993E1,2.616738E1,1.1420326E1,1.9477667E1,2.01603E1,6.0070796E0,8.531561E0,1.0946107E1,5.64038E0,1.4519919E1,4.871758E0,1.1353216E0,2.2509563E0,6.2806044E0,6.312226E0,4.633881E0,4.216774E0,1.4236057E0,9.937438E0,4.582482E0,1.5085012E0,4.803725E0,1.7413565E0,2.8925245E0,1.7814435E0,2.4353309E0,7.1482778E0,2.78916E0,1.6433287E0,2.9391532E0,1.0097911E0,3.7939334E0,1.792922E0,1.0996023E0,1.2210774E0,1.2142533E0,3.306353E0,3.841925E0,1.5458866E0,1.2432733E0],"tree_param":{"num_deleted":"0","num_feature":"6","num_nodes":"41","size_leaf_vector":"0"}},{"base_weights":[-3.6980298E-1,-8.506303E-1,2.1033694E-1,-1.0801218E0,-3.9294472E-1,4.8387375E-2,6.9283247E-1,-4.9267456E-1,-1.1519358E0,-9.001403E-1,2.2239704E-2,-5.3852123E-1,3.0580738E-1,8.8823617E-1,-1.09968044E-1,-1.0105127E0,4.9527955E-1,-1.1964797E0,-4.189191E-1,-1.0652901E-1,-1.1670378E0,-4.1708338E-1,6.592792E-1,-7.186282E-1,7.158788E-2,8.359035E-2,7.086059E-1,-5.008531E-1,-1.2616159E0,-7.9909337E-1,3.4023196E-2,1.9157234E-1,7.798209E-1,-1.0526608E0,-2.4864355E-1,2.8568587E-1,-3.5912886E-1,1.6263437E-1,9.1209525E-1,-3.683933E-1,4.659412E-1,-3.7205338E-1,-1.10907415E-2,3.838173E-3,4.8087004E-1,7.442673E-2,-6.8443227E-1],"categories":[],"categories_nodes":[],"categories_segments":[],"categories_sizes":[],"default_left":[1,1,1,1,1,1,1,1,1,1,1,1,1,0,0,0,0,1,0,0,0,1,1,1,0,1,1,0,0,0,1,0,0,0,1,1,1,0,0,0,0,0,0,0,0,0,0],"id":2,"left_children":[1,3,5,7,9,11,13,15,17,19,21,23,25,-1,-1,-1,-1,27,-1,-1,-1,29,31,33,-1,35,37,-1,-1,-1,39,-1,-1,-1,41,43,45,-1,-1,-1,-1,-1,-1,-1,-1,-1,-1],"loss_changes":[1.5621178E1,2.775856E0,1.9895447E0,2.6446152E-1,2.4937515E0,3.2556942E0,1.1065378E0,2.4934766E0,4.8160553E-2,1.0007892E0,2.3559008E0,7.766638E-1,1.2708085E0,0E0,0E0,0E0,0E0,6.2417984E-2,0E0,0E0,0E0,8.9108616E-1,4.3551087E-2,5.524392E-1,0E0,1.0608405E0,4.237492E-1,0E0,0E0,0E0,7.378974E-1,0E0,0E0,0E0,9.742153E-2,4.33316E-1,5.868454E-1,0E0,0E0,0E0,0E0,0E0,0E0,0E0,0E0,0E0,0E0],"parents":[2147483647,0,0,1,1,2,2,3,3,4,4,5,5,6,6,7,7,8,8,9,9,10,10,11,11,12,12,17,17,21,21,22,22,23,23,25,25,26,26,30,30,34,34,35,35,36,36],"right_children":[2,4,6,8,10,12,14,16,18,20,22,24,26,-1,-1,-1,-1,28,-1,-1,-1,30,32,34,-1,36,38,-1,-1,-1,40,-1,-1,-1,42,44,46,-1,-1,-1,-1,-1,-1,-1,-1,-1,-1],"split_conditions":[3.5E0,5.65E1,1.43E2,1.11E2,-9.536743E-7,-9.536743E-7,6.35E1,2.28E2,1.46E2,6.25E1,2.43E2,3.04E2,2.645E2,2.6647085E-1,-3.2990415E-2,-3.031538E-1,1.4858387E-1,1.9E2,-1.2567574E-1,-3.1958707E-2,-3.5011137E-1,2.5E0,6.05E1,5.4E1,2.1476366E-2,1.31E2,1.21E2,-1.5025595E-1,-3.784848E-1,-2.3972802E-1,5.85E1,5.7471704E-2,2.3394628E-1,-3.1579825E-1,1.26E2,5.3E1,2.215E2,4.8790313E-2,2.736286E-1,-1.1051799E-1,1.3978237E-1,-1.1161602E-1,-3.3272225E-3,1.151452E-3,1.4426102E-1,2.2328021E-2,-2.0532969E-1],"split_indices":[2,0,3,3,1,1,0,4,3,0,4,4,4,0,0,0,0,4,0,0,0,2,0,0,0,3,3,0,0,0,0,0,0,0,3,0,4,0,0,0,0,0,0,0,0,0,0],"split_type":[0,0,0,0,0,0,0,0,0,0,0,0,0,0,0,0,0,0,0,0,0,0,0,0,0,0,0,0,0,0,0,0,0,0,0,0,0,0,0,0,0,0,0,0,0,0,0],"sum_hessian":[5.4359093E1,2.9468761E1,2.4890331E1,1.8721508E1,1.0747254E1,1.9459154E1,5.431177E0,2.8956003E0,1.5825908E1,4.31182E0,6.435434E0,5.5998034E0,1.385935E1,4.2824063E0,1.1487708E0,1.8848295E0,1.0107708E0,1.4323247E1,1.502661E0,1.4372734E0,2.8745468E0,4.0131288E0,2.4223049E0,4.186161E0,1.4136424E0,9.710022E0,4.1493287E0,1.9703268E0,1.2352921E1,1.755291E0,2.2578378E0,1.0269516E0,1.3953533E0,1.722296E0,2.4638653E0,6.910274E0,2.7997475E0,1.6151183E0,2.5342104E0,1.2449749E0,1.0128629E0,1.2488759E0,1.2149894E0,3.244644E0,3.66563E0,1.5307772E0,1.2689704E0],"tree_param":{"num_deleted":"0","num_feature":"6","num_nodes":"47","size_leaf_vector":"0"}},{"base_weights":[-3.008584E-1,-6.949895E-1,1.6476478E-1,-1.0848562E0,-4.3793067E-1,2.7902338E-1,-3.217999E-1,-1.1467463E0,-2.9157534E-1,-8.7578595E-1,-4.7100976E-2,-9.691745E-3,8.105444E-1,-8.933504E-1,8.103493E-2,-1.2073178E0,-3.778994E-1,1.0159136E0,-2.9019415E-1,-2.3256658E-1,4.6359026E-1,-4.366778E-1,7.175847E-1,-6.748893E-1,3.976636E-1,-6.7278403E-1,2.5300047E-1,5.0118124E-1,-6.434283E-1,-1.9195694E-1,8.979211E-1,1.2929161E-1,-1.0450686E0,-8.157272E-1,-6.0129832E-2,-5.6020516E-1,7.0187324E-1,7.905574E-1,-1.7260571E-1,-8.597883E-1,1.0626324E-1],"categories":[],"categories_nodes":[],"categories_segments":[],"categories_sizes":[],"default_left":[1,1,1,1,1,1,1,0,0,1,1,1,0,0,1,0,1,0,1,1,1,0,0,1,0,1,1,1,1,0,0,0,0,0,0,0,0,0,0,0,0],"id":3,"left_children":[1,3,5,7,9,11,13,-1,-1,15,17,19,-1,-1,21,-1,23,-1,25,27,29,-1,-1,31,-1,33,35,37,39,-1,-1,-1,-1,-1,-1,-1,-1,-1,-1,-1,-1],"loss_changes":[9.633402E0,2.3593845E0,1.4566553E0,1.8416119E-1,3.1625025E0,3.1455326E0,1.2558317E0,0E0,0E0,9.9182653E-1,3.1241062E0,1.609645E0,0E0,0E0,1.6090912E0,0E0,1.4113481E0,0E0,2.1837516E0,3.4412959E0,1.5653118E0,0E0,0E0,1.3136609E0,0E0,4.727292E-1,2.120028E0,9.7011447E-1,1.238101E0,0E0,0E0,0E0,0E0,0E0,0E0,0E0,0E0,0E0,0E0,0E0,0E0],"parents":[2147483647,0,0,1,1,2,2,3,3,4,4,5,5,6,6,9,9,10,10,11,11,14,14,16,16,18,18,19,19,20,20,23,23,25,25,26,26,27,27,28,28],"right_children":[2,4,6,8,10,12,14,-1,-1,16,18,20,-1,-1,22,-1,24,-1,26,28,30,-1,-1,32,-1,34,36,38,40,-1,-1,-1,-1,-1,-1,-1,-1,-1,-1,-1,-1],"split_conditions":[3.5E0,-9.536743E-7,6.35E1,3.185E2,2.28E2,5.75E1,-9.536743E-7,-3.4402388E-1,-8.74726E-2,2.5E0,2.315E2,2.715E2,2.4316332E-1,-2.6800513E-1,6.65E1,-3.6219537E-1,5.85E1,3.047741E-1,5.55E1,2.065E2,1.29E2,-1.3100335E-1,2.1527542E-1,4.95E1,1.19299084E-1,1.39E2,2.43E2,5.45E1,5.35E1,-5.7587083E-2,2.6937634E-1,3.8787484E-2,-3.135206E-1,-2.4471816E-1,-1.803895E-2,-1.6806155E-1,2.1056198E-1,2.3716722E-1,-5.1781714E-2,-2.579365E-1,3.1878974E-2],"split_indices":[2,1,0,4,4,0,1,0,0,2,4,4,0,0,0,0,0,0,0,4,3,0,0,0,0,3,4,0,0,0,0,0,0,0,0,0,0,0,0,0,0],"split_type":[0,0,0,0,0,0,0,0,0,0,0,0,0,0,0,0,0,0,0,0,0,0,0,0,0,0,0,0,0,0,0,0,0,0,0,0,0,0,0,0,0],"sum_hessian":[5.0869392E1,2.7282915E1,2.3586477E1,9.561405E0,1.772151E1,1.9446465E1,4.140014E0,8.456104E0,1.1053013E0,7.77272E0,9.94879E0,1.3237692E1,6.2087717E0,1.2081732E0,2.931841E0,3.8105023E0,3.9622173E0,1.2599744E0,8.688815E0,9.345418E0,3.8922737E0,1.7900041E0,1.1418366E0,2.9589427E0,1.0032746E0,4.9580956E0,3.7307196E0,3.2756631E0,6.069755E0,1.7735089E0,2.1187649E0,1.1378338E0,1.8211088E0,3.75137E0,1.2067256E0,1.23866E0,2.4920595E0,2.1702747E0,1.1053884E0,4.596388E0,1.4733675E0],"tree_param":{"num_deleted":"0","num_feature":"6","num_nodes":"41","size_leaf_vector":"0"}},{"base_weights":[-2.4423264E-1,-5.847841E-1,1.3790122E-1,-9.3957675E-1,-3.625856E-1,-2.0562994E-1,2.958912E-1,-1.0051616E0,-2.6194742E-1,-9.6735907E-1,-1.1650068E-1,-4.7302967E-1,4.6796435E-1,1.1575831E-1,6.5529686E-1,1.2491044E-1,-6.771464E-1,-5.710864E-1,-5.9520416E-2,7.641671E-1,-1.6892072E-2,8.851613E-1,1.3979945E-1,6.5678245E-1,-1.43907E-1,-1.0598861E-1,-1.0411478E0,-8.38029E-1,-2.1336687E-1,-6.547905E-1,1.8440056E-1,1.1679286E0,-9.2779E-2,-7.732377E-1,3.065993E-1,-3.337622E-1,4.893834E-3,-6.4643726E-2,3.967626E-1],"categories":[],"categories_nodes":[],"categories_segments":[],"categories_sizes":[],"default_left":[1,1,1,1,1,1,1,0,0,0,1,1,0,1,1,1,1,1,0,0,1,0,0,1,1,0,0,0,1,0,1,0,0,0,0,0,0,0,0],"id":4,"left_children":[1,3,5,7,9,11,13,-1,-1,-1,15,17,-1,19,21,23,25,27,-1,-1,29,-1,-1,31,33,-1,-1,-1,35,-1,37,-1,-1,-1,-1,-1,-1,-1,-1],"loss_changes":[6.357915E0,1.6851006E0,1.3384402E0,1.4856052E-1,2.4812286E0,1.6632941E0,9.945736E-1,0E0,0E0,0E0,1.9151827E0,2.1853256E-1,0E0,1.0647013E0,5.049391E-1,1.566973E0,7.6839614E-1,2.907927E-1,0E0,0E0,1.5498897E0,0E0,0E0,1.501939E0,2.4091854E0,0E0,0E0,0E0,9.2110336E-2,0E0,5.1436114E-1,0E0,0E0,0E0,0E0,0E0,0E0,0E0,0E0],"parents":[2147483647,0,0,1,1,2,2,3,3,4,4,5,5,6,6,10,10,11,11,13,13,14,14,15,15,16,16,17,17,20,20,23,23,24,24,28,28,30,30],"right_children":[2,4,6,8,10,12,14,-1,-1,-1,16,18,-1,20,22,24,26,28,-1,-1,30,-1,-1,32,34,-1,-1,-1,36,-1,38,-1,-1,-1,-1,-1,-1,-1,-1],"split_conditions":[3.5E0,-9.536743E-7,-9.536743E-7,-9.536743E-7,4.45E1,1.425E2,2.645E2,-3.015485E-1,-7.858423E-2,-2.9020774E-1,-9.536743E-7,3.04E2,1.4038931E-1,4.2E1,3.01E2,5.05E1,1.39E2,5.4E1,-1.7856125E-2,2.2925013E-1,4.9E1,2.655484E-1,4.1939836E-2,1.24E2,5.65E1,-3.1796582E-2,-3.1234437E-1,-2.5140873E-1,1.26E2,-1.9643717E-1,5.75E1,3.5037857E-1,-2.7833702E-2,-2.3197132E-1,9.197979E-2,-1.00128666E-1,1.4681502E-3,-1.9393118E-2,1.19028784E-1],"split_indices":[2,1,1,5,0,3,4,0,0,0,5,4,0,0,4,0,3,0,0,0,0,0,0,3,0,0,0,0,3,0,0,0,0,0,0,0,0,0,0],"split_type":[0,0,0,0,0,0,0,0,0,0,0,0,0,0,0,0,0,0,0,0,0,0,0,0,0,0,0,0,0,0,0,0,0,0,0,0,0,0,0],"sum_hessian":[4.723616E1,2.4696625E1,2.2539537E1,8.267324E0,1.6429298E1,7.005449E0,1.5534088E1,7.0970783E0,1.1702467E0,3.9039736E0,1.2525326E1,5.227871E0,1.7775782E0,1.1228491E1,4.305598E0,9.298599E0,3.226726E0,3.9177659E0,1.310105E0,1.0984403E0,1.0130051E1,2.4818292E0,1.8237684E0,2.6373029E0,6.6612964E0,1.7585485E0,1.4681774E0,1.4746404E0,2.4431252E0,1.8894464E0,8.240604E0,1.2361735E0,1.4011294E0,2.4802117E0,4.1810846E0,1.2335134E0,1.2096121E0,4.112882E0,4.127722E0],"tree_param":{"num_deleted":"0","num_feature":"6","num_nodes":"39","size_leaf_vector":"0"}},{"base_weights":[-2.0132148E-1,-4.942233E-1,1.1330146E-1,-8.0399305E-1,-2.4537891E-1,2.2689277E-1,-3.3444375E-1,-9.165958E-1,-2.6255807E-1,8.63153E-1,-4.0709257E-1,2.0834621E-2,6.3312435E-1,7.8839324E-2,-8.148849E-1,-5.2127206E-1,1.8238275E-1,2.0321195E-1,-6.688671E-1,6.952653E-1,1.6015768E-1,-3.135086E-1,4.4759634E-1,-7.642688E-1,-1.2980366E-1,8.125606E-1,-5.4401178E-2,3.00146E-1,8.637706E-1,1.4478281E-2,-9.0980214E-1,-8.0484086E-1,2.3034799E-1,-4.0192437E-1,6.089422E-1,-1.4880696E-1,6.0954505E-1],"categories":[],"categories_nodes":[],"categories_segments":[],"categories_sizes":[],"default_left":[1,1,1,1,1,1,1,0,0,0,1,1,1,1,0,1,0,1,0,1,0,0,0,1,1,0,1,1,0,0,0,0,0,0,0,0,0],"id":5,"left_children":[1,3,5,7,9,11,13,-1,-1,-1,15,17,19,21,-1,23,-1,25,-1,27,-1,-1,-1,29,31,-1,33,35,-1,-1,-1,-1,-1,-1,-1,-1,-1],"loss_changes":[4.2265816E0,1.6237588E0,1.2269912E0,3.741598E-1,2.9578085E0,1.5478445E0,1.0538915E0,0E0,0E0,0E0,9.9481964E-1,1.8223054E0,7.210302E-2,6.598941E-1,0E0,9.907484E-1,0E0,1.8290241E0,0E0,8.814168E-2,0E0,0E0,0E0,7.912178E-1,1.5451298E0,0E0,2.3030608E0,5.202671E-1,0E0,0E0,0E0,0E0,0E0,0E0,0E0,0E0,0E0],"parents":[2147483647,0,0,1,1,2,2,3,3,4,4,5,5,6,6,10,10,11,11,12,12,13,13,15,15,17,17,19,19,23,23,24,24,26,26,27,27],"right_children":[2,4,6,8,10,12,14,-1,-1,-1,16,18,20,22,-1,24,-1,26,-1,28,-1,-1,-1,30,32,-1,34,36,-1,-1,-1,-1,-1,-1,-1,-1,-1],"split_conditions":[3.5E0,2.28E2,6.35E1,5.85E1,2.315E2,5.75E1,2.585E2,-2.7497876E-1,-7.876743E-2,2.589459E-1,1.53E2,5.65E1,3.125E2,2.255E2,-2.4446549E-1,5.55E1,5.4714825E-2,2.07E2,-2.0066014E-1,2.365E2,4.8047308E-2,-9.405258E-2,1.3427891E-1,1.16E2,2.53E2,2.437682E-1,2.715E2,1.375E2,2.591312E-1,4.3434845E-3,-2.7294067E-1,-2.4145226E-1,6.91044E-2,-1.2057731E-1,1.8268266E-1,-4.464209E-2,1.8286352E-1],"split_indices":[2,4,0,0,4,0,4,0,0,0,3,0,4,4,0,0,0,4,0,4,0,0,0,3,4,0,4,3,0,0,0,0,0,0,0,0,0],"split_type":[0,0,0,0,0,0,0,0,0,0,0,0,0,0,0,0,0,0,0,0,0,0,0,0,0,0,0,0,0,0,0,0,0,0,0,0,0],"sum_hessian":[4.4256874E1,2.262398E1,2.1632895E1,9.084449E0,1.353953E1,1.7648731E1,3.9841633E0,6.9468126E0,2.1376362E0,1.1714962E0,1.2368034E1,1.2406771E1,5.241961E0,2.5911324E0,1.393031E0,1.0458046E1,1.909988E0,1.0370002E1,2.0367694E0,4.217795E0,1.0241665E0,1.3279991E0,1.2631333E0,5.865088E0,4.5929585E0,2.4412854E0,7.928716E0,2.092478E0,2.1253166E0,1.0652837E0,4.799804E0,1.168359E0,3.4245992E0,5.4615326E0,2.4671838E0,1.0654719E0,1.027006E0],"tree_param":{"num_deleted":"0","num_feature":"6","num_nodes":"37","size_leaf_vector":"0"}},{"base_weights":[-1.5572937E-1,-4.1043353E-1,1.0416051E-1,-7.771949E-1,-2.0438598E-1,-2.0763423E-1,2.470105E-1,-8.393344E-1,-2.1832389E-1,-7.582159E-1,-5.131495E-3,-4.0716314E-1,3.525605E-1,9.995081E-2,5.6013566E-1,5.256222E-1,-2.1044382E-1,-6.410739E-1,-2.0264442E-1,3.2368055E-1,-1.6626726E-1,3.5134472E-2,7.831792E-1,9.45273E-1,-2.898152E-1,-5.337815E-1,3.8153112E-1,-3.6626709E-1,1.897168E-1,2.9006524E-2,8.3973086E-1,4.039502E-1,-5.1611704E-1,-6.680518E-1,6.409213E-2,1.11000314E-1,5.900872E-1,-6.079167E-2,-5.704292E-1,4.842896E-1,-3.4215853E-1,-7.676867E-1,4.6148837E-2],"categories":[],"categories_nodes":[],"categories_segments":[],"categories_sizes":[],"default_left":[1,1,1,1,1,1,1,0,0,0,1,1,0,1,1,1,1,0,1,1,1,0,0,0,0,1,1,1,0,1,0,0,1,0,0,0,0,0,0,0,0,0,0],"id":6,"left_children":[1,3,5,7,9,11,13,-1,-1,-1,15,17,-1,19,21,23,25,-1,27,29,31,-1,-1,-1,-1,33,35,37,-1,39,-1,-1,41,-1,-1,-1,-1,-1,-1,-1,-1,-1,-1],"loss_changes":[2.8696637E0,1.4863555E0,1.028284E0,7.632208E-2,1.6840875E0,9.7464293E-1,6.5775496E-1,0E0,0E0,0E0,1.4461366E0,1.5457422E-1,0E0,7.54483E-1,5.2706647E-1,1.541613E0,2.0318656E0,0E0,3.6704248E-1,9.99258E-1,1.4119092E0,0E0,0E0,0E0,0E0,5.721741E-1,1.577707E-1,1.9059604E-1,0E0,1.0647881E0,0E0,0E0,6.2636185E-1,0E0,0E0,0E0,0E0,0E0,0E0,0E0,0E0,0E0,0E0],"parents":[2147483647,0,0,1,1,2,2,3,3,4,4,5,5,6,6,10,10,11,11,13,13,14,14,15,15,16,16,18,18,19,19,20,20,25,25,26,26,27,27,29,29,32,32],"right_children":[2,4,6,8,10,12,14,-1,-1,-1,16,18,-1,20,22,24,26,-1,28,30,32,-1,-1,-1,-1,34,36,38,-1,40,-1,-1,42,-1,-1,-1,-1,-1,-1,-1,-1,-1,-1],"split_conditions":[3.5E0,-9.536743E-7,-9.536743E-7,-9.536743E-7,4.45E1,1.425E2,2.645E2,-2.5180033E-1,-6.549717E-2,-2.2746478E-1,5.05E1,1.22E2,1.0576815E-1,2.205E2,1.21E2,2.44E2,2.455E2,-1.9232218E-1,3.04E2,2.115E2,1.21E2,1.0540342E-2,2.3495378E-1,2.835819E-1,-8.694456E-2,1.51E2,6.05E1,2.525E2,5.691504E-2,1.9E2,2.5191927E-1,1.2118507E-1,2.48E2,-2.0041554E-1,1.9227639E-2,3.3300094E-2,1.7702615E-1,-1.8237501E-2,-1.7112876E-1,1.4528689E-1,-1.02647565E-1,-2.3030603E-1,1.3844651E-2],"split_indices":[2,1,1,5,0,3,4,0,0,0,0,3,0,4,3,4,4,0,4,4,3,0,0,0,0,3,0,4,0,4,0,0,4,0,0,0,0,0,0,0,0,0,0],"split_type":[0,0,0,0,0,0,0,0,0,0,0,0,0,0,0,0,0,0,0,0,0,0,0,0,0,0,0,0,0,0,0,0,0,0,0,0,0,0,0,0,0,0,0],"sum_hessian":[4.1705814E1,2.07705E1,2.0935314E1,6.4743457E0,1.4296155E1,6.43541E0,1.4499904E1,5.3748865E0,1.0994595E0,3.040312E0,1.1255843E1,4.946686E0,1.488724E0,1.076385E1,3.7360537E0,2.7044497E0,8.5513935E0,1.3118066E0,3.6348794E0,5.7313633E0,5.0324864E0,1.4591115E0,2.2769423E0,1.6804256E0,1.0240241E0,5.5941586E0,2.9572346E0,2.6120899E0,1.0227895E0,4.3204927E0,1.4108704E0,1.8547708E0,3.1777158E0,4.4723744E0,1.1217842E0,1.9543546E0,1.0028801E0,1.5662968E0,1.045793E0,1.8034906E0,2.5170023E0,1.9430219E0,1.234694E0],"tree_param":{"num_deleted":"0","num_feature":"6","num_nodes":"43","size_leaf_vector":"0"}}]},"name":"gbtree"},"learner_model_param":{"base_score":"5E-1","num_class":"0","num_feature":"6","num_target":"1"},"objective":{"name":"reg:squarederror","reg_loss_param":{"scale_pos_weight":"1"}}},"version":[1,6,2]}