{"learner":{"attributes":{"best_ntree_limit":"8"},"feature_names":[],"feature_types":[],"gradient_booster":{"model":{"gbtree_model_param":{"num_parallel_tree":"1","num_trees":"8","size_leaf_vector":"0"},"tree_info":[0,0,0,0,0,0,0,0],"trees":[{"base_weights":[-6.793876E-1,-1.7808897E0,5.106799E-1,-2.259107E0,-1.0384527E0,-3.535954E-1,7.106094E-1,-1.7302775E0,-3.9997336E-1,-6.6939425E-1,3.8916964E-2,4.6575657E-1,1.2226014E0,-6.922734E-1,-2.027427E0,-1.066509E0,6.582622E-1,-5.183827E-1,5.255181E-1,8.453885E-1,-2.2782734E-1,1.320068E0,4.0872458E-1,-5.193002E-1,-1.381923E0,-1.3544889E-1,1.0258564E0,-7.173358E-1,7.014306E-1,-5.4734353E-2,-7.2479093E-1,1.1696405E0,1.0753799E-1,-1.3839619E0,1.2655033E-1],"categories":[],"categories_nodes":[],"categories_segments":[],"categories_sizes":[],"default_left":[1,1,1,0,1,1,1,1,1,0,1,1,1,0,0,1,0,0,0,1,1,0,0,1,0,0,1,1,0,0,0,0,0,0,0],"id":0,"left_children":[1,3,5,-1,7,9,11,13,15,-1,17,19,21,-1,-1,23,-1,-1,-1,25,27,-1,-1,29,-1,-1,31,33,-1,-1,-1,-1,-1,-1,-1],"loss_changes":[7.639809E1,8.351273E0,5.1686134E0,0E0,5.3393364E0,7.7152073E-1,2.3695421E0,5.250931E-1,6.6281796E0,0E0,1.2558367E0,4.7938056E0,1.3285637E-2,0E0,0E0,2.3795414E-1,0E0,0E0,0E0,2.1755533E0,3.6732602E0,0E0,0E0,3.0651975E-1,0E0,0E0,1.1727324E0,3.0211055E0,0E0,0E0,0E0,0E0,0E0,0E0,0E0],"parents":[2147483647,0,0,1,1,2,2,4,4,5,5,6,6,7,7,8,8,10,10,11,11,12,12,15,15,19,19,20,20,23,23,26,26,27,27],"right_children":[2,4,6,-1,8,10,12,14,16,-1,18,20,22,-1,-1,24,-1,-1,-1,26,28,-1,-1,30,-1,-1,32,34,-1,-1,-1,-1,-1,-1,-1],"split_conditions":[3.5E0,5.55E1,1.16E2,-6.7773217E-1,-9.536743E-7,2.335E2,1.43E2,6.25E1,2.455E2,-2.0081829E-1,5.2E1,1.335E2,1.72E2,-2.0768203E-1,-6.082281E-1,2.305E2,1.9747867E-1,-1.5551482E-1,1.5765545E-1,-9.536743E-7,2.82E2,3.960204E-1,1.2261738E-1,1.37E2,-4.1457692E-1,-4.063467E-2,6.45E1,5.45E1,2.1042919E-1,-1.6420307E-2,-2.1743728E-1,3.508922E-1,3.2261398E-2,-4.1518858E-1,3.79651E-2],"split_indices":[2,0,3,0,1,4,3,0,4,0,0,3,3,0,0,4,0,0,0,1,4,0,0,3,0,0,0,0,0,0,0,0,0,0,0],"split_type":[0,0,0,0,0,0,0,0,0,0,0,0,0,0,0,0,0,0,0,0,0,0,0,0,0,0,0,0,0,0,0,0,0,0,0],"sum_hessian":[5.6587013E1,2.9129179E1,2.7457832E1,1.6474699E1,1.265448E1,5.014039E0,2.2443794E1,5.252803E0,7.4016767E0,2.3876376E0,2.6264014E0,1.6474699E1,5.9690943E0,1.9101101E0,3.3426926E0,4.5365114E0,2.8651652E0,1.1938188E0,1.4325826E0,1.0505606E1,5.9690943E0,4.775275E0,1.1938188E0,2.6264014E0,1.9101101E0,1.6713463E0,8.834259E0,4.058984E0,1.9101101E0,1.1938188E0,1.4325826E0,7.4016767E0,1.4325826E0,1.9101101E0,2.1488738E0],"tree_param":{"num_deleted":"0","num_feature":"6","num_nodes":"35","size_leaf_vector":"0"}},{"base_weights":[-4.848761E-1,-1.2384188E0,4.0504414E-1,-1.3422462E0,2.4530746E-2,2.012505E-1,1.0406598E0,-1.5586723E0,-9.1148514E-1,-4.5225307E-1,4.9013135E-1,-7.2980064E-1,4.7533873E-1,1.1469704E0,2.754948E-1,-4.197019E-1,-1.3771181E0,-8.922482E-1,-8.197519E-2,6.744017E-1,-2.6276594E-2,-1.3033118E0,7.0361644E-1,-1.2427752E0,-3.170504E-1,3.0244797E-1,1.155692E0,-5.6468534E-1,8.987364E-1,1.0329436E0,-1.9931385E-2,-7.12503E-2,5.2359563E-1,3.2566693E-1,-1.3622013E0],"categories":[],"categories_nodes":[],"categories_segments":[],"categories_sizes":[],"default_left":[1,1,1,1,1,1,1,0,1,0,0,1,1,0,0,1,0,1,0,1,1,0,1,0,0,1,0,1,0,0,0,0,0,0,0],"id":1,"left_children":[1,3,5,7,9,11,13,-1,15,-1,-1,17,19,-1,-1,21,-1,23,-1,25,27,-1,29,-1,-1,31,-1,33,-1,-1,-1,-1,-1,-1,-1],"loss_changes":[3.9020077E1,4.143734E0,3.2996588E0,1.2815857E0,9.68332E-1,5.8980055E0,1.9951868E-1,0E0,2.193162E0,0E0,0E0,4.890089E-1,1.7562702E0,0E0,0E0,8.186532E0,0E0,4.4666696E-1,0E0,1.8885584E0,3.450389E0,0E0,9.4369125E-1,0E0,0E0,7.320434E-1,0E0,3.5318213E0,0E0,0E0,0E0,0E0,0E0,0E0,0E0],"parents":[2147483647,0,0,1,1,2,2,3,3,4,4,5,5,6,6,8,8,11,11,12,12,15,15,17,17,19,19,20,20,22,22,25,25,27,27],"right_children":[2,4,6,8,10,12,14,-1,16,-1,-1,18,20,-1,-1,22,-1,24,-1,26,28,-1,30,-1,-1,32,-1,34,-1,-1,-1,-1,-1,-1,-1],"split_conditions":[3.5E0,1.58E2,1.43E2,5.55E1,2.715E2,-9.536743E-7,3.06E2,-4.6760172E-1,1.39E2,-1.3567592E-1,1.4703941E-1,2.815E2,1.31E2,3.4409112E-1,8.264845E-2,1.22E2,-4.1313544E-1,5.4E1,-2.4592558E-2,1.225E2,2.82E2,-3.9099357E-1,6.15E1,-3.7283257E-1,-9.5115125E-2,2.255E2,3.467076E-1,2.215E2,2.6962093E-1,3.098831E-1,-5.979416E-3,-2.137509E-2,1.570787E-1,9.770008E-2,-4.086604E-1],"split_indices":[2,3,3,0,4,1,4,0,3,0,0,4,3,0,0,3,0,0,0,3,4,0,0,0,0,4,0,4,0,0,0,0,0,0,0],"split_type":[0,0,0,0,0,0,0,0,0,0,0,0,0,0,0,0,0,0,0,0,0,0,0,0,0,0,0,0,0,0,0,0,0,0,0],"sum_hessian":[5.643941E1,3.0349377E1,2.6090036E1,2.7985865E1,2.3635108E0,2.075281E1,5.337227E0,1.6884312E1,1.1101553E1,1.1818953E0,1.1816156E0,4.3417287E0,1.641108E1,4.2480288E0,1.0891982E0,6.323879E0,4.7776747E0,3.169623E0,1.172106E0,1.1502088E1,4.9089923E0,3.4499168E0,2.873962E0,1.2483004E0,1.9213225E0,7.4065347E0,4.095553E0,3.3491433E0,1.559849E0,1.6811615E0,1.1928005E0,3.0055435E0,4.4009914E0,1.86202E0,1.4871234E0],"tree_param":{"num_deleted":"0","num_feature":"6","num_nodes":"35","size_leaf_vector":"0"}},{"base_weights":[-3.71664E-1,-9.605102E-1,3.2643732E-1,-1.0463146E0,2.181827E-2,-3.1274483E-1,4.9794877E-1,-1.2391974E0,-6.918644E-1,-3.7371218E-1,4.1786534E-1,-5.101193E-1,-2.9086266E-2,3.1912276E-1,9.0858895E-1,-3.0667624E-1,-1.0599098E0,-4.5598802E-1,3.9068162E-1,6.1129504E-1,-7.40144E-2,1.0233189E0,2.3935261E-1,-9.9484456E-1,5.972247E-1,-4.003518E-1,-1.2506615E0,-2.0702119E-1,7.9502964E-1,-4.5691144E-1,6.3533217E-1,-5.3064086E-2,9.156756E-1,9.691513E-1,-1.888938E-2,1.038143E-1,-8.1887555E-1],"categories":[],"categories_nodes":[],"categories_segments":[],"categories_sizes":[],"default_left":[1,1,1,1,1,1,1,0,1,0,0,0,1,1,1,1,1,0,0,1,1,0,0,0,1,0,0,0,1,1,0,0,0,0,0,0,0],"id":2,"left_children":[1,3,5,7,9,11,13,-1,15,-1,-1,-1,17,19,21,23,25,-1,-1,27,29,-1,-1,-1,31,-1,-1,-1,33,35,-1,-1,-1,-1,-1,-1,-1],"loss_changes":[2.253247E1,2.5155125E0,2.9487498E0,1.0034771E0,6.8175524E-1,3.213235E-1,1.213459E0,0E0,1.35572E0,0E0,0E0,0E0,8.09664E-1,1.8605089E0,1.9038343E-1,5.0729113E0,2.1084976E-1,0E0,0E0,1.5439222E0,2.362557E0,0E0,0E0,0E0,8.224937E-1,0E0,0E0,0E0,1.1093373E0,1.20875E0,0E0,0E0,0E0,0E0,0E0,0E0,0E0],"parents":[2147483647,0,0,1,1,2,2,3,3,4,4,5,5,6,6,8,8,12,12,13,13,14,14,15,15,16,16,19,19,20,20,24,24,28,28,29,29],"right_children":[2,4,6,8,10,12,14,-1,16,-1,-1,-1,18,20,22,24,26,-1,-1,28,30,-1,-1,-1,32,-1,-1,-1,34,36,-1,-1,-1,-1,-1,-1,-1],"split_conditions":[3.5E0,1.58E2,1.16E2,5.55E1,2.715E2,2.335E2,1.43E2,-3.7175924E-1,1.39E2,-1.1211366E-1,1.2535961E-1,-1.530358E-1,5.2E1,1.31E2,6.35E1,1.22E2,2.165E2,-1.3679641E-1,1.17204495E-1,-9.536743E-7,2.82E2,3.069957E-1,7.180579E-2,-2.984534E-1,2.35E2,-1.2010554E-1,-3.7519845E-1,-6.210636E-2,6.45E1,2.215E2,1.9059967E-1,-1.5919227E-2,2.747027E-1,2.907454E-1,-5.6668143E-3,3.114429E-2,-2.4566267E-1],"split_indices":[2,3,3,0,4,4,3,0,3,0,0,0,0,3,0,3,4,0,0,1,4,0,0,0,4,0,0,0,0,4,0,0,0,0,0,0,0],"split_type":[0,0,0,0,0,0,0,0,0,0,0,0,0,0,0,0,0,0,0,0,0,0,0,0,0,0,0,0,0,0,0,0,0,0,0,0,0],"sum_hessian":[5.305087E1,2.8573404E1,2.4477465E1,2.6218164E1,2.3552399E0,5.004273E0,1.9473192E1,1.53622875E1,1.0855877E1,1.2066041E0,1.1486357E0,2.4801707E0,2.5241022E0,1.4803628E1,4.6695633E0,6.2001715E0,4.6557055E0,1.2086378E0,1.3154644E0,8.17397E0,6.629658E0,3.5345385E0,1.135025E0,3.4630384E0,2.7371328E0,1.7395868E0,2.9161186E0,1.4755287E0,6.698441E0,4.5366807E0,2.0929778E0,1.1737199E0,1.5634129E0,5.3608685E0,1.3375726E0,2.0594845E0,2.4771962E0],"tree_param":{"num_deleted":"0","num_feature":"6","num_nodes":"37","size_leaf_vector":"0"}},{"base_weights":[-2.9657483E-1,-7.894919E-1,2.6995894E-1,-1.1410078E0,-5.089852E-1,-2.457884E-1,4.2004606E-1,-8.1759346E-1,5.5797026E-2,9.791588E-2,-3.5657316E-1,2.8447595E-1,9.597732E-1,-4.6084225E-2,-9.441418E-1,3.0898646E-1,-5.5181503E-1,-7.2440976E-1,-1.6159128E-2,1.2659962E-1,7.118073E-1,-1.7899242E-1,5.7595384E-1,-3.6172065E-1,3.340691E-1,4.2145073E-1,-2.2574805E-1,8.293295E-1,1.9193873E-1,7.5644135E-2,8.1499594E-1,-1.688616E-1,5.938137E-1,-5.1448E-1,3.0490798E-1],"categories":[],"categories_nodes":[],"categories_segments":[],"categories_sizes":[],"default_left":[1,1,1,0,1,1,1,1,1,0,1,1,0,0,0,1,0,0,1,1,1,0,1,0,0,1,1,0,0,0,0,0,0,0,0],"id":3,"left_children":[1,3,5,-1,7,9,11,13,15,-1,17,19,-1,-1,-1,21,-1,-1,23,25,27,-1,29,-1,-1,31,33,-1,-1,-1,-1,-1,-1,-1,-1],"loss_changes":[1.4099796E1,2.0663624E0,1.9518274E0,0E0,2.9627538E0,2.639105E-1,1.1075084E0,1.0193934E0,1.2243012E0,0E0,5.847629E-1,1.0231252E0,0E0,0E0,0E0,8.164983E-1,0E0,0E0,5.4403883E-1,1.4733093E0,9.957647E-2,0E0,3.900329E-1,0E0,0E0,8.705938E-1,1.1826216E0,0E0,0E0,0E0,0E0,0E0,0E0,0E0,0E0],"parents":[2147483647,0,0,1,1,2,2,4,4,5,5,6,6,7,7,8,8,10,10,11,11,15,15,18,18,19,19,20,20,22,22,25,25,26,26],"right_children":[2,4,6,-1,8,10,12,14,16,-1,18,20,-1,-1,-1,22,-1,-1,24,26,28,-1,30,-1,-1,32,34,-1,-1,-1,-1,-1,-1,-1,-1],"split_conditions":[3.5E0,-9.536743E-7,1.16E2,-3.4230235E-1,5.75E1,4.45E1,-9.536743E-7,1.11E2,-9.536743E-7,2.9374765E-2,2.265E2,1.43E2,2.8793198E-1,-1.38252685E-2,-2.8324255E-1,1.31E2,-1.6554451E-1,-2.1732293E-1,5.3E1,1.31E2,2.97E2,-5.3697728E-2,5.95E1,-1.085162E-1,1.0022073E-1,-9.536743E-7,2.645E2,2.4879886E-1,5.7581622E-2,2.2693241E-2,2.4449879E-1,-5.0658483E-2,1.7814413E-1,-1.54344E-1,9.1472395E-2],"split_indices":[2,1,3,0,0,0,5,3,5,0,4,3,0,0,0,3,0,0,0,3,4,0,0,0,0,1,4,0,0,0,0,0,0,0,0],"split_type":[0,0,0,0,0,0,0,0,0,0,0,0,0,0,0,0,0,0,0,0,0,0,0,0,0,0,0,0,0,0,0,0,0,0,0],"sum_hessian":[4.8727695E1,2.584634E1,2.2881355E1,1.0109719E1,1.5736621E1,5.0140023E0,1.7867353E1,9.886703E0,5.849918E0,1.2505118E0,3.7634904E0,1.55008745E1,2.366478E0,1.5853976E0,8.301305E0,4.4761844E0,1.3737335E0,1.2667115E0,2.4967792E0,1.226563E1,3.2352448E0,1.6994193E0,2.7767653E0,1.2402455E0,1.2565336E0,6.5708766E0,5.6947536E0,2.1532178E0,1.0820268E0,1.323389E0,1.4533762E0,1.489595E0,5.081281E0,3.7078056E0,1.986948E0],"tree_param":{"num_deleted":"0","num_feature":"6","num_nodes":"35","size_leaf_vector":"0"}},{"base_weights":[-2.3080948E-1,-6.4198714E-1,2.2635093E-1,-9.6171534E-1,-4.022933E-1,-1.8299541E-1,3.9396966E-1,-6.7046833E-1,4.6653077E-2,-6.468026E-1,4.3970764E-1,2.2207406E-1,6.9894326E-1,-3.7784398E-2,-7.8518844E-1,-2.1865144E-1,5.774326E-1,-8.2526374E-1,-5.968265E-2,8.5575867E-1,-2.90742E-1,-6.731222E-2,8.0282146E-1,-9.891255E-2,9.358711E-1,-8.908846E-1,-3.4134853E-1,-5.870861E-1,2.1976212E-1,-2.4734557E-1,-1.0428005E0,9.3279773E-1,-4.1656685E-1,-1.3853538E-1,-1.0149659E0,-7.506027E-1,2.066829E-1,-7.6440465E-1,-1.6836426E-1],"categories":[],"categories_nodes":[],"categories_segments":[],"categories_sizes":[],"default_left":[1,1,1,0,1,1,1,1,1,1,1,1,1,0,1,1,0,1,0,0,0,1,0,0,0,1,1,0,0,0,0,0,1,0,0,0,0,0,0],"id":4,"left_children":[1,3,5,-1,7,9,11,13,15,17,19,21,23,-1,25,27,-1,29,-1,-1,-1,31,-1,-1,-1,33,35,-1,-1,-1,-1,-1,37,-1,-1,-1,-1,-1,-1],"loss_changes":[8.824679E0,1.4960623E0,1.6230049E0,0E0,1.9289138E0,2.3781672E0,7.02111E-1,6.9124365E-1,1.0879253E0,4.2848778E-1,1.3702002E0,2.0580785E0,1.1188996E0,0E0,8.7958336E-2,9.816537E-1,0E0,1.7186666E-1,0E0,0E0,0E0,3.4907641E0,0E0,0E0,0E0,4.3152523E-1,8.7925667E-1,0E0,0E0,0E0,0E0,0E0,4.9928665E-1,0E0,0E0,0E0,0E0,0E0,0E0],"parents":[2147483647,0,0,1,1,2,2,4,4,5,5,6,6,7,7,8,8,9,9,10,10,11,11,12,12,14,14,15,15,17,17,21,21,25,25,26,26,32,32],"right_children":[2,4,6,-1,8,10,12,14,16,18,20,22,24,-1,26,28,-1,30,-1,-1,-1,32,-1,-1,-1,34,36,-1,-1,-1,-1,-1,38,-1,-1,-1,-1,-1,-1],"split_conditions":[3.5E0,-9.536743E-7,-9.536743E-7,-2.885146E-1,5.75E1,1.39E2,2.725E2,1.11E2,2.715E2,2.615E2,2.965E2,5.95E1,1.21E2,-1.133532E-2,5.35E1,2.5E0,1.7322978E-1,2.14E2,-1.7904796E-2,2.567276E-1,-8.7222606E-2,1.9E2,2.4084644E-1,-2.9673766E-2,2.8076136E-1,2E2,2.48E2,-1.7612582E-1,6.592864E-2,-7.420367E-2,-3.1284016E-1,2.7983934E-1,2.115E2,-4.1560616E-2,-3.044898E-1,-2.2518082E-1,6.2004875E-2,-2.293214E-1,-5.0509278E-2],"split_indices":[2,1,1,0,0,3,4,3,4,4,4,0,3,0,0,2,0,4,0,0,0,4,0,0,0,4,4,0,0,0,0,0,4,0,0,0,0,0,0],"split_type":[0,0,0,0,0,0,0,0,0,0,0,0,0,0,0,0,0,0,0,0,0,0,0,0,0,0,0,0,0,0,0,0,0,0,0,0,0,0,0],"sum_hessian":[4.517318E1,2.3569809E1,2.160337E1,8.8082285E0,1.476158E1,6.249517E0,1.5353854E1,8.932428E0,5.8291516E0,3.559556E0,2.6899612E0,1.0924521E1,4.4293327E0,1.5750965E0,7.357332E0,4.2785964E0,1.5505552E0,2.418741E0,1.140815E0,1.6045104E0,1.0854509E0,7.8813434E0,3.0431778E0,1.1475323E0,3.2818005E0,5.12875E0,2.2285824E0,2.140579E0,2.1380177E0,1.2458874E0,1.1728535E0,1.6074624E0,6.273881E0,1.0257499E0,4.1029997E0,1.0642194E0,1.164363E0,1.7465118E0,4.5273695E0],"tree_param":{"num_deleted":"0","num_feature":"6","num_nodes":"39","size_leaf_vector":"0"}},{"base_weights":[-1.8764247E-1,-5.367823E-1,1.8696779E-1,-7.810639E-1,-2.5628784E-1,6.335833E-2,6.7270344E-1,-3.1222513E-1,-8.695972E-1,1.6402995E-2,-4.9620762E-1,-4.604005E-1,2.5322884E-1,8.0276066E-1,1.3386524E-1,-7.0509213E-1,2.5754923E-1,-2.311633E-1,-9.4118696E-1,-5.2517384E-1,7.959582E-1,-7.909527E-1,-3.479166E-2,-6.0236305E-1,-1.1114323E-1,4.509727E-2,4.3802354E-1,-1.0137379E0,-3.3164164E-1,-1.4061622E-1,-6.312554E-1,1.6412075E-1,-2.4297388E-1,-3.8042385E-2,-8.173949E-1,5.6133467E-1,-2.1577246E-1,5.8569086E-1,-9.941998E-2,-8.178675E-1,-1.2678617E-1,-5.939188E-1,5.3193957E-1,-2.2642869E-1,7.9893124E-1],"categories":[],"categories_nodes":[],"categories_segments":[],"categories_sizes":[],"default_left":[1,1,1,1,1,1,1,1,1,1,1,1,1,0,0,0,0,0,1,1,0,0,1,1,0,1,1,0,0,0,1,0,0,0,0,0,1,1,0,0,0,0,0,0,0],"id":5,"left_children":[1,3,5,7,9,11,13,15,17,19,21,23,25,-1,-1,-1,-1,-1,27,29,-1,-1,31,33,-1,35,37,-1,-1,-1,39,-1,-1,-1,-1,-1,41,43,-1,-1,-1,-1,-1,-1,-1],"loss_changes":[5.7170544E0,1.3405504E0,1.2457483E0,2.0709324E-1,7.9031557E-1,1.9274125E0,1.903007E-1,9.40807E-1,2.001214E-1,3.1890957E0,8.4178126E-1,1.9085574E-1,5.1907283E-1,0E0,0E0,0E0,0E0,0E0,1.2800217E-2,9.380841E-2,0E0,0E0,1.863659E-1,3.9005852E-1,0E0,1.1585529E0,6.380532E-1,0E0,0E0,0E0,1.9954991E-1,0E0,0E0,0E0,0E0,0E0,1.967103E0,1.1985536E0,0E0,0E0,0E0,0E0,0E0,0E0,0E0],"parents":[2147483647,0,0,1,1,2,2,3,3,4,4,5,5,6,6,7,7,8,8,9,9,10,10,11,11,12,12,18,18,19,19,22,22,23,23,25,25,26,26,30,30,36,36,37,37],"right_children":[2,4,6,8,10,12,14,16,18,20,22,24,26,-1,-1,-1,-1,-1,28,30,-1,-1,32,34,-1,36,38,-1,-1,-1,40,-1,-1,-1,-1,-1,42,44,-1,-1,-1,-1,-1,-1,-1],"split_conditions":[3.5E0,5.55E1,1.43E2,1.11E2,1.39E2,-9.536743E-7,6.25E1,2.245E2,1.975E2,1.29E2,1.51E2,1.31E2,2.355E2,2.408282E-1,4.0159572E-2,-2.1152765E-1,7.726477E-2,-6.934899E-2,1.39E2,5.9E1,2.3878747E-1,-2.3728581E-1,6.75E1,2.14E2,-3.3342972E-2,1.9E2,1.37E2,-3.0412138E-1,-9.94925E-2,-4.2184867E-2,2.73E2,4.9236227E-2,-7.289217E-2,-1.1412716E-2,-2.4521849E-1,1.684004E-1,5.75E1,4.55E1,-2.9825995E-2,-2.4536027E-1,-3.8035855E-2,-1.7817564E-1,1.5958187E-1,-6.792861E-2,2.3967938E-1],"split_indices":[2,0,3,3,3,1,0,4,4,3,3,3,4,0,0,0,0,0,3,0,0,0,0,4,0,4,3,0,0,0,4,0,0,0,0,0,0,0,0,0,0,0,0,0,0],"split_type":[0,0,0,0,0,0,0,0,0,0,0,0,0,0,0,0,0,0,0,0,0,0,0,0,0,0,0,0,0,0,0,0,0,0,0,0,0,0,0,0,0,0,0,0,0],"sum_hessian":[4.1943913E1,2.1485935E1,2.0457977E1,1.0530428E1,1.0955506E1,1.720907E1,3.248907E0,2.3916733E0,8.138755E0,5.5635986E0,5.391908E0,4.19961E0,1.300946E1,2.2226386E0,1.0262685E0,1.2750297E0,1.1166437E0,1.247007E0,6.891748E0,3.4754388E0,2.0881596E0,2.8543866E0,2.5375216E0,2.470663E0,1.7289474E0,6.703474E0,6.305986E0,5.5661354E0,1.3256127E0,1.2542368E0,2.221202E0,1.4058852E0,1.1316363E0,1.0064065E0,1.4642565E0,1.8636665E0,4.8398075E0,4.8763847E0,1.4296016E0,1.1679229E0,1.0532792E0,3.3508437E0,1.488964E0,1.0012616E0,3.875123E0],"tree_param":{"num_deleted":"0","num_feature":"6","num_nodes":"45","size_leaf_vector":"0"}},{"base_weights":[-1.6009244E-1,-4.6670437E-1,1.581064E-1,-7.714852E-1,-2.6234275E-1,-1.3479324E-1,3.2233372E-1,-4.074293E-1,3.1040433E-1,3.3783543E-1,-3.3337885E-1,1.8790495E-1,8.079666E-1,1.4097987E-1,-5.218641E-1,-9.1149473E-1,9.450782E-2,1.2165336E-2,5.05948E-1,1.8615645E-1,-6.383801E-1,5.2965397E-1,-3.400667E-1,-3.143949E-1,6.277511E-1,8.928656E-1,-3.418671E-1,-7.185218E-1,-9.130026E-2,1.3640597E-1,-4.8301613E-1,7.495608E-1,1.7416725E-1],"categories":[],"categories_nodes":[],"categories_segments":[],"categories_sizes":[],"default_left":[1,1,1,0,1,1,1,1,0,0,1,1,0,0,1,0,1,1,1,0,1,0,0,1,1,0,0,0,0,0,0,0,0],"id":6,"left_children":[1,3,5,-1,7,9,11,13,-1,-1,15,17,-1,-1,19,-1,21,23,25,-1,27,-1,-1,29,31,-1,-1,-1,-1,-1,-1,-1,-1],"loss_changes":[3.9766502E0,1.0822825E0,1.0236573E0,0E0,1.2783777E0,8.659259E-1,7.1981585E-1,7.948228E-1,0E0,0E0,1.6086318E0,6.5114814E-1,0E0,0E0,9.20804E-1,0E0,1.0203011E0,1.9260318E0,1.6701375E0,0E0,3.1028724E-1,0E0,0E0,5.436329E-1,5.2569985E-2,0E0,0E0,0E0,0E0,0E0,0E0,0E0,0E0],"parents":[2147483647,0,0,1,1,2,2,4,4,5,5,6,6,7,7,10,10,11,11,14,14,16,16,17,17,18,18,20,20,23,23,24,24],"right_children":[2,4,6,-1,8,10,12,14,-1,-1,16,18,-1,-1,20,-1,22,24,26,-1,28,-1,-1,30,32,-1,-1,-1,-1,-1,-1,-1,-1],"split_conditions":[3.5E0,-9.536743E-7,1.225E2,-2.3144557E-1,1.51E2,4.45E1,-9.536743E-7,1.5E0,9.3121305E-2,1.01350635E-1,2.26E2,5.95E1,2.4238999E-1,4.2293962E-2,1.94E2,-2.7344844E-1,2.47E2,2.725E2,2.99E2,5.5846937E-2,2.79E2,1.588962E-1,-1.0202002E-1,1.31E2,5.4E1,2.678597E-1,-1.0256013E-1,-2.1555655E-1,-2.7390078E-2,4.0921792E-2,-1.4490485E-1,2.2486824E-1,5.2250177E-2],"split_indices":[2,1,3,0,3,0,5,2,0,0,4,0,0,0,4,0,4,4,4,0,4,0,0,3,0,0,0,0,0,0,0,0,0],"split_type":[0,0,0,0,0,0,0,0,0,0,0,0,0,0,0,0,0,0,0,0,0,0,0,0,0,0,0,0,0,0,0,0,0],"sum_hessian":[3.900327E1,1.9625607E1,1.9377665E1,6.7635236E0,1.28620825E1,7.0260043E0,1.235166E1,1.0492735E1,2.3693473E0,1.8712556E0,5.154749E0,1.0760075E1,1.5915848E0,1.7714407E0,8.721294E0,1.7117653E0,3.4429836E0,7.5992446E0,3.16083E0,1.1479539E0,7.5733404E0,1.6110386E0,1.831945E0,5.284932E0,2.3143125E0,2.1338618E0,1.0269682E0,6.33234E0,1.2410004E0,1.4906912E0,3.7942412E0,1.3099866E0,1.004326E0],"tree_param":{"num_deleted":"0","num_feature":"6","num_nodes":"33","size_leaf_vector":"0"}},{"base_weights":[-1.15189716E-1,-3.7369278E-1,1.4428781E-1,-6.2549627E-1,-1.2526083E-1,-1.6529484E-1,2.800639E-1,-1.8073952E-1,-7.2759914E-1,1.372995E-1,-3.8466626E-1,-4.772224E-1,3.0104908E-1,6.8844235E-1,1.9362497E-1,-1.6441797E-1,-8.0518305E-1,-4.481666E-1,6.554851E-1,-7.2286344E-1,-8.666495E-2,-6.1571175E-1,-3.8290706E-2,7.111049E-1,-2.6320213E-1,-2.5392193E-1,3.4296218E-1,-8.952824E-1,-2.0824723E-1,-1.7764071E-2,9.6547216E-1,-5.513786E-1,3.427707E-1,-1.9458278E-1,-7.7135724E-1,-6.543818E-1,3.3588755E-1,-5.6047596E-2,4.333922E-1,6.548772E-1,7.3987395E-2],"categories":[],"categories_nodes":[],"categories_segments":[],"categories_sizes":[],"default_left":[1,1,1,1,1,1,1,0,1,1,1,1,1,0,1,0,1,0,1,0,1,1,0,0,0,1,1,0,0,0,0,0,0,0,0,0,0,0,1,0,0],"id":7,"left_children":[1,3,5,7,9,11,13,-1,15,17,19,21,23,-1,25,-1,27,-1,29,-1,31,33,-1,-1,-1,35,37,-1,-1,-1,-1,-1,-1,-1,-1,-1,-1,-1,39,-1,-1],"loss_changes":[2.5900114E0,1.1239023E0,8.697614E-1,2.9055405E-1,7.9688275E-1,1.1039445E0,3.6051476E-1,0E0,1.8345118E-1,2.1644783E0,5.176976E-1,2.4038762E-1,9.412129E-1,0E0,9.517163E-1,0E0,1.4145708E-1,0E0,7.845651E-1,0E0,1.0266304E0,6.192553E-2,0E0,0E0,0E0,1.1200054E0,3.8964117E-1,0E0,0E0,0E0,0E0,0E0,0E0,0E0,0E0,0E0,0E0,0E0,6.177547E-1,0E0,0E0],"parents":[2147483647,0,0,1,1,2,2,3,3,4,4,5,5,6,6,8,8,9,9,10,10,11,11,12,12,14,14,16,16,18,18,20,20,21,21,25,25,26,26,38,38],"right_children":[2,4,6,8,10,12,14,-1,16,18,20,22,24,-1,26,-1,28,-1,30,-1,32,34,-1,-1,-1,36,38,-1,-1,-1,-1,-1,-1,-1,-1,-1,-1,-1,40,-1,-1],"split_conditions":[3.5E0,5.55E1,-9.536743E-7,1.11E2,1.39E2,1.39E2,4.15E1,-5.4221857E-2,1.975E2,1.22E2,-9.536743E-7,2.615E2,2.965E2,2.0653272E-1,4.9E1,-4.932539E-2,5.35E1,-1.3444999E-1,2.35E2,-2.1685904E-1,5.95E1,2.14E2,-1.1487212E-2,2.1333149E-1,-7.896064E-2,2.67E2,2.02E2,-2.6858473E-1,-6.2474173E-2,-5.3292215E-3,2.8964165E-1,-1.6541359E-1,1.02831215E-1,-5.8374833E-2,-2.3140718E-1,-1.9631456E-1,1.0076627E-1,-1.681428E-2,1.31E2,1.9646317E-1,2.2196218E-2],"split_indices":[2,0,1,3,3,3,0,0,4,3,1,4,4,0,0,0,0,0,4,0,0,4,0,0,0,4,4,0,0,0,0,0,0,0,0,0,0,0,3,0,0],"split_type":[0,0,0,0,0,0,0,0,0,0,0,0,0,0,0,0,0,0,0,0,0,0,0,0,0,0,0,0,0,0,0,0,0,0,0,0,0,0,0,0,0],"sum_hessian":[3.680938E1,1.8218813E1,1.8590565E1,8.294236E0,9.924577E0,5.601407E0,1.2989159E1,2.0658092E0,6.228427E0,5.1662297E0,4.758347E0,3.3424115E0,2.2589955E0,1.0524398E0,1.1936719E1,1.1318152E0,5.0966115E0,2.4890869E0,2.677143E0,1.5610404E0,3.1973066E0,2.2346094E0,1.1078023E0,1.1575274E0,1.1014681E0,2.8112848E0,9.125434E0,3.9939783E0,1.1026334E0,1.141234E0,1.535909E0,1.399201E0,1.7981057E0,1.2102394E0,1.02437E0,1.6092088E0,1.2020761E0,1.7562847E0,7.3691487E0,4.0507426E0,3.3184066E0],"tree_param":{"num_deleted":"0","num_feature":"6","num_nodes":"41","size_leaf_vector":"0"}}]},"name":"gbtree"},"learner_model_param":{"base_score":"5E-1","num_class":"0","num_feature":"6","num_target":"1"},"objective":{"name":"reg:squarederror","reg_loss_param":{"scale_pos_weight":"1"}}},"version":[1,6,2]}