{"learner":{"attributes":{"best_ntree_limit":"1"},"feature_names":[],"feature_types":["q","q","q","q","q","q","q","c","c","c","c","c","c","c","c","c","c","c","c","c","c","c","c"],"gradient_booster":{"model":{"gbtree_model_param":{"num_parallel_tree":"1","num_trees":"1","size_leaf_vector":"0"},"tree_info":[0],"trees":[{"base_weights":[-2.38844E0,-2.4267778E0,4.360068E-1,-1.8914397E0,-2.5410194E0,-6.305815E-1,9.4627255E-1,-2.4698908E0,-1.3830113E0,-1.2344031E0,-2.5615776E0,-2.4796486E-1,-2.391634E0,3.865496E-2,1.1826493E0,-2.4921017E0,-7.0983356E-1,-6.675159E-1,-1.9030904E0,4.3417557E1,-2.5291219E0,-2.6353493E0,-2.3895175E0,-4.9557346E-1,1.174061E-1,-3.4637356E0,-1.8374847E0,2.9719677E1,8.877853E-1,-7.6989454E-1,-2.1930344E0,-9.8395264E-1,4.11857E-1,-1.7823248E0,-3.3161324E-1,-2.0832536E0,-1.1499953E0,-2.1102962E0,1.1956971E2,-2.5376904E0,-6.3272685E-1,-1.9345223E0,-2.629413E0,-2.445486E0,-1.7307807E0,5.4036655E0,-1.9502495E-1,4.0384692E-1,-2.3451273E0,7.290491E-2,1.5570586E1,-1.4734678E-1,1.1879029E0,-7.54168E-1,2.5891778E0,-4.5744884E-1,-1.0661462E-1,-6.696542E-1,-4.197735E-1,-2.0740636E-1,7.6165736E-2,-6.195117E-1,-3.2709138E0,-5.023634E-1,-1.7317215E-1,-1.5393597E-1,-6.720612E-1,-7.629935E-1,-3.027317E-1,1.574978E-1,-4.145452E-1,-7.891823E-1,-3.853912E-2,-6.784681E-1,-7.710039E-1,-6.836257E-1,-3.664884E-1,1.937463E0,-1.0604755E-1,-7.180802E-1,-1.5341894E-1,6.8163776E0,2.3857939E-1],"categories":[1,2,3,4,5,6,7,8,10,12,13,16,1,2,3,4,7,8,5,1,3,8,10,12,13,14,15,16,19,21,22,23,24,25,26,27,29,30,31,32,33,34,35,36,37,38,39,40,41,42,43,44,10,19,23,24,31,32,33,36,37,44,1,0,1,2,3,4,5,6,7,8,9,10,11,12,13,14,15,16,17,18,19,20,21,23,24,25,26,27,28,29,30,31,32,33,34,35,36,37,1,1,2,3,4,5,0,1,2,3,4,5,6,7,8,9,10,12,13,15,16,17,18,19,20,21,22,23,24,25,26,27,28,29,30,31,32,33,34,35,36,37,38,39,40,41,42,43,44,45,46,48,49,50,51,1,1,1,0,1,2,3,10,12,13,19,22,23,24,26,27,29,30,31,32,36,37,38,40,41,42,44,1,1,3,4,6,7,0,1,2,3,4,5,6,7,8,9,10,12,13,14,16],"categories_nodes":[1,4,5,6,8,9,11,14,15,21,24,28,31,36,40,43,44,46,52],"categories_segments":[0,12,18,19,20,52,62,63,100,101,106,155,156,157,158,162,182,183,188],"categories_sizes":[12,6,1,1,32,10,1,37,1,5,49,1,1,1,4,20,1,5,15],"default_left":[1,0,0,1,0,0,0,1,0,0,1,0,1,0,0,0,0,1,1,0,1,0,1,0,0,0,0,0,0,0,0,0,0,0,1,0,0,0,0,1,0,0,1,0,0,0,0,0,0,0,0,0,0,0,0,0,0,0,0,0,0,0,0,0,0,0,0,0,0,0,0,0,0,0,0,0,0,0,0,0,0,0,0],"id":0,"left_children":[1,3,5,7,9,11,13,15,17,19,21,23,25,-1,27,29,31,33,35,37,39,41,43,-1,45,-1,47,49,51,-1,53,55,-1,57,59,61,63,65,-1,67,69,-1,71,73,75,-1,77,-1,79,-1,-1,-1,81,-1,-1,-1,-1,-1,-1,-1,-1,-1,-1,-1,-1,-1,-1,-1,-1,-1,-1,-1,-1,-1,-1,-1,-1,-1,-1,-1,-1,-1,-1],"loss_changes":[5.7940625E3,3.2232188E3,3.9097784E2,2.7278125E3,1.1652188E3,1.5621127E2,9.367081E1,1.6800781E2,1.83875E3,3.9172938E4,5.3728125E2,9.883283E1,1.8890202E2,0E0,3.1419927E3,8.9552734E1,3.3047974E1,7.793859E2,3.8604004E2,3.0959525E5,9.07959E0,6.6125E2,4.699297E2,0E0,8.6181256E2,0E0,6.819995E1,2.4851587E3,1.5524374E2,0E0,3.0065078E3,1.6336636E1,0E0,7.994922E1,3.375693E2,3.4842285E2,1.6574762E2,2.568695E0,0E0,3.0561523E0,4.4459343E0,0E0,8.9046875E1,2.656328E2,2.791682E2,0E0,1.6240459E2,0E0,1.8936768E0,0E0,0E0,0E0,2.5793347E3,0E0,0E0,0E0,0E0,0E0,0E0,0E0,0E0,0E0,0E0,0E0,0E0,0E0,0E0,0E0,0E0,0E0,0E0,0E0,0E0,0E0,0E0,0E0,0E0,0E0,0E0,0E0,0E0,0E0,0E0],"parents":[2147483647,0,0,1,1,2,2,3,3,4,4,5,5,6,6,7,7,8,8,9,9,10,10,11,11,12,12,14,14,15,15,16,16,17,17,18,18,19,19,20,20,21,21,22,22,24,24,26,26,27,27,28,28,30,30,31,31,33,33,34,34,35,35,36,36,37,37,39,39,40,40,42,42,43,43,44,44,46,46,48,48,52,52],"right_children":[2,4,6,8,10,12,14,16,18,20,22,24,26,-1,28,30,32,34,36,38,40,42,44,-1,46,-1,48,50,52,-1,54,56,-1,58,60,62,64,66,-1,68,70,-1,72,74,76,-1,78,-1,80,-1,-1,-1,82,-1,-1,-1,-1,-1,-1,-1,-1,-1,-1,-1,-1,-1,-1,-1,-1,-1,-1,-1,-1,-1,-1,-1,-1,-1,-1,-1,-1,-1,-1],"split_conditions":[7.43E3,NaN,1.052E4,4.8E1,NaN,NaN,NaN,1E4,NaN,NaN,4.9E1,NaN,3.7E1,3.865496E-2,NaN,NaN,4E4,3.2E1,9.5E1,1E1,6.514E3,NaN,4.5E1,-4.9557346E-1,NaN,-3.4637356E0,7.443E3,1.3E1,NaN,-7.6989454E-1,3.9E1,NaN,4.11857E-1,2.9E1,1.3E1,6.1E1,NaN,3.2E1,1.1956971E2,4E3,NaN,-1.9345223E0,2.1E4,NaN,NaN,5.4036655E0,NaN,4.0384692E-1,8.3E1,7.290491E-2,1.5570586E1,-1.4734678E-1,NaN,-7.54168E-1,2.5891778E0,-4.5744884E-1,-1.0661462E-1,-6.696542E-1,-4.197735E-1,-2.0740636E-1,7.6165736E-2,-6.195117E-1,-3.2709138E0,-5.023634E-1,-1.7317215E-1,-1.5393597E-1,-6.720612E-1,-7.629935E-1,-3.027317E-1,1.574978E-1,-4.145452E-1,-7.891823E-1,-3.853912E-2,-6.784681E-1,-7.710039E-1,-6.836257E-1,-3.664884E-1,1.937463E0,-1.0604755E-1,-7.180802E-1,-1.5341894E-1,6.8163776E0,2.3857939E-1],"split_indices":[2,10,2,6,7,15,13,4,9,9,6,13,0,0,16,13,4,0,4,4,2,15,4,0,8,0,2,4,13,0,0,13,0,0,4,0,13,0,0,4,14,0,4,9,13,0,7,0,0,0,0,0,10,0,0,0,0,0,0,0,0,0,0,0,0,0,0,0,0,0,0,0,0,0,0,0,0,0,0,0,0,0,0],"split_type":[0,1,0,0,1,1,1,0,1,1,0,1,0,0,1,1,0,0,0,0,0,1,0,0,1,0,0,0,1,0,0,1,0,0,0,0,1,0,0,0,1,0,0,1,1,0,1,0,0,0,0,0,1,0,0,0,0,0,0,0,0,0,0,0,0,0,0,0,0,0,0,0,0,0,0,0,0,0,0,0,0,0,0],"sum_hessian":[5.3497418E4,5.278113E4,7.162913E2,9.285701E3,4.3495426E4,2.3171365E2,4.8457764E2,4.3419287E3,4.943773E3,6.746957E2,4.282073E4,1.9129301E2,4.042064E1,1.0904172E2,3.7553592E2,4.2874077E3,5.452086E1,2.081898E3,2.8618752E3,1.8095285E1,6.5660034E2,2.9960623E4,1.2860108E4,3.877561E1,1.5251741E2,1.1750185E0,3.924562E1,2.8200445E0,3.7271588E2,3.4289392E3,8.5846857E2,4.8645767E1,5.8750925E0,4.8105258E2,1.6008452E3,2.3079714E3,5.5390375E2,1.6920267E1,1.1750185E0,6.533103E2,3.290052E0,4.4885708E1,2.9915736E4,1.1850532E4,1.0095759E3,1.645026E0,1.5087238E2,5.1700816E0,3.407554E1,1.645026E0,1.1750185E0,6.650605E1,3.0620984E2,8.3449817E2,2.3970379E1,2.5380402E1,2.3265368E1,2.1902345E2,2.6202914E2,9.9148065E2,6.093646E2,2.3044463E3,3.5250556E0,2.8811456E2,2.6578918E2,1.645026E0,1.5275241E1,6.5025525E2,3.0550482E0,1.4100223E0,1.8800297E0,2.9901402E4,1.4335226E1,4.7919604E3,7.0585713E3,4.8457764E2,5.249983E2,2.5850408E0,1.4828734E2,3.290052E1,1.1750185E0,4.4650707E0,3.0174475E2],"tree_param":{"num_deleted":"0","num_feature":"23","num_nodes":"83","size_leaf_vector":"0"}}]},"name":"gbtree"},"learner_model_param":{"base_score":"5E-1","num_class":"0","num_feature":"23","num_target":"1"},"objective":{"name":"reg:squarederror","reg_loss_param":{"scale_pos_weight":"1"}}},"version":[1,6,2]}