{"learner":{"attributes":{"best_ntree_limit":"1"},"feature_names":[],"feature_types":["q","q","q","q","q","q","q","c","c","c","c","c","c","c","c","c","c","c","c","c","c","c","c"],"gradient_booster":{"model":{"gbtree_model_param":{"num_parallel_tree":"1","num_trees":"1","size_leaf_vector":"0"},"tree_info":[0],"trees":[{"base_weights":[-2.388441E0,-2.42667E0,4.506181E-1,-1.8953704E0,-2.539867E0,-6.54218E-1,9.7265E-1,-2.4786317E0,-1.3842028E0,-1.2430567E0,-2.5606308E0,-2.9778555E-1,-2.35412E0,-5.774619E-2,1.147914E0,-2.499281E0,-9.235387E-1,-6.76837E-1,-1.8957392E0,1.6576277E2,-2.4035926E0,-2.6352165E0,-2.3852742E0,-4.92205E-1,9.682142E-2,-3.2034671E0,-1.7662612E0,1.280609E0,-5.7838666E-1,1.3509226E0,5.228838E-1,-2.5651968E0,-2.190618E0,-1.1818749E0,4.0671286E-1,-1.7203488E0,-3.0473796E-1,-2.0389214E0,-9.430465E-1,-4.0560654E-1,1.0950082E2,-2.465669E0,-2.3734982E0,-2.1161087E0,-2.6291316E0,-2.4419327E0,-1.7242397E0,-2.8426394E-1,1.664919E1,4.0075397E-1,-2.2676842E0,1.3592038E0,7.290491E-2,-1.8110701E0,-7.193763E-2,2.8717938E-1,1.4239055E0,-6.859034E-2,8.326479E-1,-7.8089744E-1,-7.0987916E-1,-6.681591E-1,-9.898505E-2,-1.639463E-1,-4.4694915E-1,-6.717539E-1,-4.0665343E-1,7.736094E-2,-2.0692639E-1,-8.122799E0,-6.027496E-1,-4.390441E-1,-1.12487964E-1,-7.1838015E-1,-3.2936346E-2,-7.891368E-1,1.4901283E-2,-6.764458E-1,-7.7022463E-1,-6.8430465E-1,-3.6596414E-1,-6.6095555E-1,4.021375E-2,-1.5341894E-1,7.8465133E0,-6.948486E-1,-1.5341894E-1,4.1995674E-1,1.2244079E-1,-6.574205E-1,-2.563562E-1,1.3878995E-1,-2.3771273E-1,2.1144729E0,4.082934E-1,1.9763329E0,1.0236162E-1],"categories":[1,2,3,4,5,6,7,8,10,12,13,16,1,2,3,4,7,8,5,3,8,10,12,13,14,15,16,19,21,22,23,24,25,26,27,29,30,31,32,33,34,35,36,37,38,39,40,41,42,43,44,1,3,4,5,1,0,1,2,3,4,5,6,7,8,9,10,11,12,13,14,15,16,17,18,19,20,21,23,24,25,26,0,5,8,10,12,13,14,20,21,22,23,24,25,26,27,28,30,31,32,33,34,36,37,38,39,40,41,44,45,46,1,2,3,4,5,1,1,1,2,22,35,37,1,10,12,13,19,22,23,24,26,27,29,30,31,32,36,37,38,40,41,42,44,1,1,1,0,1,2,3,4,5,6,7,8,12,16,0,1,2,3,5,6,7,8,9,10,11,12,13,14,15,16,17,18,19,20,21,22,23,24,25,26,27,28,29,30,32,33,34,35,36,38,39,41,42,44,45,46,48,49,50,51],"categories_nodes":[1,4,5,8,9,11,13,14,21,29,30,31,33,38,45,46,47,50,54,58],"categories_segments":[0,12,18,19,51,55,56,82,112,117,118,119,120,124,125,145,146,147,148,159],"categories_sizes":[12,6,1,32,4,1,26,30,5,1,1,1,4,1,20,1,1,1,11,46],"default_left":[1,0,0,1,0,0,1,1,0,0,1,0,1,0,0,1,0,1,1,0,1,0,1,0,0,0,0,1,0,0,0,0,1,0,0,0,0,1,0,0,0,0,1,0,1,0,0,0,0,0,0,0,0,1,0,0,1,0,0,0,0,0,0,0,0,0,0,0,0,0,0,0,0,0,0,0,0,0,0,0,0,0,0,0,0,0,0,0,0,0,0,0,0,0,0,0,0],"id":0,"left_children":[1,3,5,7,9,11,13,15,17,19,21,23,25,27,29,31,33,35,37,39,41,43,45,-1,47,-1,49,51,53,55,57,59,61,63,-1,65,67,69,71,-1,-1,-1,73,-1,75,77,79,81,83,-1,85,87,-1,89,91,-1,93,-1,95,-1,-1,-1,-1,-1,-1,-1,-1,-1,-1,-1,-1,-1,-1,-1,-1,-1,-1,-1,-1,-1,-1,-1,-1,-1,-1,-1,-1,-1,-1,-1,-1,-1,-1,-1,-1,-1,-1],"loss_changes":[5.8075312E3,3.1699375E3,4.1108804E2,2.7619805E3,1.1685E3,1.38022E2,8.741794E1,1.3676562E2,1.788206E3,1.3368216E5,5.5384375E2,1.01061905E2,1.7462732E2,5.0399044E1,5.1752563E1,8.133008E1,3.5954132E1,8.059625E2,3.894961E2,1.5898419E5,1.0018359E2,7.890625E2,4.7483594E2,0E0,9.390053E2,0E0,6.2340195E1,1.3227234E0,3.2330246E1,7.584656E0,2.4166138E1,2.027539E1,5.091577E1,9.543831E0,0E0,1.0026697E2,3.320911E2,1.8034102E3,1.1084412E2,0E0,0E0,0E0,3.230664E1,0E0,1.06546875E2,2.7076562E2,2.8172827E2,1.1729922E2,5.5985376E2,0E0,1.6417999E0,1.487732E-1,0E0,3.6209526E0,1.4961122E1,0E0,8.266882E1,0E0,2.0463252E2,0E0,0E0,0E0,0E0,0E0,0E0,0E0,0E0,0E0,0E0,0E0,0E0,0E0,0E0,0E0,0E0,0E0,0E0,0E0,0E0,0E0,0E0,0E0,0E0,0E0,0E0,0E0,0E0,0E0,0E0,0E0,0E0,0E0,0E0,0E0,0E0,0E0,0E0],"parents":[2147483647,0,0,1,1,2,2,3,3,4,4,5,5,6,6,7,7,8,8,9,9,10,10,11,11,12,12,13,13,14,14,15,15,16,16,17,17,18,18,19,19,20,20,21,21,22,22,24,24,26,26,27,27,28,28,29,29,30,30,31,31,32,32,33,33,35,35,36,36,37,37,38,38,42,42,44,44,45,45,46,46,47,47,48,48,50,50,51,51,53,53,54,54,56,56,58,58],"right_children":[2,4,6,8,10,12,14,16,18,20,22,24,26,28,30,32,34,36,38,40,42,44,46,-1,48,-1,50,52,54,56,58,60,62,64,-1,66,68,70,72,-1,-1,-1,74,-1,76,78,80,82,84,-1,86,88,-1,90,92,-1,94,-1,96,-1,-1,-1,-1,-1,-1,-1,-1,-1,-1,-1,-1,-1,-1,-1,-1,-1,-1,-1,-1,-1,-1,-1,-1,-1,-1,-1,-1,-1,-1,-1,-1,-1,-1,-1,-1,-1,-1],"split_conditions":[7.43E3,NaN,1.052E4,4.8E1,NaN,NaN,4.4E1,1E4,NaN,NaN,5E1,NaN,3.9E1,NaN,NaN,2.6E1,4E4,3.3E1,3E2,1.504E3,1E1,NaN,4.5E1,-4.92205E-1,5.8E1,-3.2034671E0,7.443E3,2.77E4,4.5E1,NaN,NaN,NaN,1.902E3,NaN,4.0671286E-1,2.9E1,1.99998E5,5E1,NaN,-4.0560654E-1,1.0950082E2,-2.465669E0,2.258E3,-2.1161087E0,2.1E4,NaN,NaN,NaN,1.6E1,4.0075397E-1,NaN,8.6E1,7.290491E-2,2.6E1,NaN,2.8717938E-1,3.6E1,-6.859034E-2,NaN,-7.8089744E-1,-7.0987916E-1,-6.681591E-1,-9.898505E-2,-1.639463E-1,-4.4694915E-1,-6.717539E-1,-4.0665343E-1,7.736094E-2,-2.0692639E-1,-8.122799E0,-6.027496E-1,-4.390441E-1,-1.12487964E-1,-7.1838015E-1,-3.2936346E-2,-7.891368E-1,1.4901283E-2,-6.764458E-1,-7.7022463E-1,-6.8430465E-1,-3.6596414E-1,-6.6095555E-1,4.021375E-2,-1.5341894E-1,7.8465133E0,-6.948486E-1,-1.5341894E-1,4.1995674E-1,1.2244079E-1,-6.574205E-1,-2.563562E-1,1.3878995E-1,-2.3771273E-1,2.1144729E0,4.082934E-1,1.9763329E0,1.0236162E-1],"split_indices":[2,10,2,6,7,15,6,4,9,15,6,13,0,16,9,6,4,0,4,3,6,15,4,0,0,0,2,4,0,13,13,13,3,16,0,0,4,6,13,0,0,0,3,0,4,9,13,13,4,0,21,0,0,6,10,0,0,0,8,0,0,0,0,0,0,0,0,0,0,0,0,0,0,0,0,0,0,0,0,0,0,0,0,0,0,0,0,0,0,0,0,0,0,0,0,0,0],"split_type":[0,1,0,0,1,1,0,0,1,1,0,1,0,1,1,0,0,0,0,0,0,1,0,0,0,0,0,0,0,1,1,1,0,1,0,0,0,0,1,0,0,0,0,0,0,1,1,1,0,0,1,0,0,0,1,0,0,0,1,0,0,0,0,0,0,0,0,0,0,0,0,0,0,0,0,0,0,0,0,0,0,0,0,0,0,0,0,0,0,0,0,0,0,0,0,0,0],"sum_hessian":[5.3497656E4,5.2787004E4,7.1065125E2,9.274422E3,4.3512582E4,2.279536E2,4.8269763E2,4.3299434E3,4.944478E3,6.8668085E2,4.2825902E4,1.89413E2,3.8540607E1,7.0266106E1,4.1243152E2,4.2726025E3,5.7340904E1,2.0760227E3,2.8684553E3,3.7600594E0,6.829208E2,3.0036295E4,1.2789606E4,4.2300667E1,1.4711232E2,1.4100223E0,3.7130585E1,1.9270304E1,5.0995804E1,3.104399E2,1.0199161E2,3.5147156E3,7.5788696E2,5.193582E1,5.4050856E0,5.447386E2,1.5312842E3,2.4926843E3,3.7577094E2,2.5850408E0,1.1750185E0,2.1150334E0,6.808057E2,3.9715626E1,2.9996578E4,1.1777446E4,1.01216095E3,1.4476228E2,2.350037E0,4.9350777E0,3.2195507E1,1.7625278E1,1.645026E0,1.4100223E1,3.6895584E1,5.0760803E1,2.596791E2,2.984547E1,7.214614E1,2.9434214E3,5.71294E2,7.430817E2,1.4805234E1,1.7860283E1,3.407554E1,2.2278352E2,3.2195508E2,6.222898E2,9.089943E2,1.8800297E0,2.4908042E3,1.9528809E2,1.8048285E2,6.7446063E2,6.3451004E0,2.9981773E4,1.4805234E1,4.7353247E3,7.042121E3,4.7940756E2,5.327534E2,2.5145397E1,1.1961689E2,1.1750185E0,1.1750185E0,3.1020489E1,1.1750185E0,1.645026E1,1.1750185E0,9.165145E0,4.9350777E0,2.1385338E1,1.5510244E1,1.645026E0,2.580341E2,4.700074E0,6.744607E1],"tree_param":{"num_deleted":"0","num_feature":"23","num_nodes":"97","size_leaf_vector":"0"}}]},"name":"gbtree"},"learner_model_param":{"base_score":"5E-1","num_class":"0","num_feature":"23","num_target":"1"},"objective":{"name":"reg:squarederror","reg_loss_param":{"scale_pos_weight":"1"}}},"version":[1,6,2]}