{"learner":{"attributes":{"best_ntree_limit":"1"},"feature_names":[],"feature_types":["q","q","c","c","c","c","c","c","c","c"],"gradient_booster":{"model":{"gbtree_model_param":{"num_parallel_tree":"1","num_trees":"1","size_leaf_vector":"0"},"tree_info":[0],"trees":[{"base_weights":[2.4355647E-1,4.8294833E-1,-1.2890054E-1,-4.1765323E-1,5.0633997E-1,-1.2939879E0,3.8857067E-1,1.4736156E-1,-6.83148E-1,1.301684E-1,7.563043E-1,-1.2047113E2,3.479144E-1,7.017692E0,1.1064597E-1,6.613183E-1,-2.5443697E-1,-2.8240594E-1,-1.2961752E0,6.9171333E-1,7.110383E-1,-9.1230545E1,8.8451153E-1,9.765501E0,-1.24885134E-1,5.1236904E-1,3.273799E1,-1.8164036E0,1.9186953E-1,9.056832E-1,-1.54297E-1,3.6988133E-3,-8.440073E-1,-7.59946E-1,-4.8863593E-1,-5.1967627E-1,7.4540424E-1,5.198531E-1,-1.0204841E-1,1.7401867E1,3.1849527E-1,1.5594947E-1,-3.5615298E-1,6.806174E-1,-1.4889184E-1,-1.8012058E1,4.250324E-1,3.913523E0,9.20263E-2,3.0416474E-1,1.2019397E-1,8.492207E-2,-2.8752512E-1,6.717763E-2,-4.2272243E-1,6.943862E-2,-3.5745007E-1,-3.3661234E-1,6.21814E-2,2.4505244E-1,1.22500904E-1,1.6713097E1,-1.2473252E-1,2.4539992E-1,-1.2643826E-1,-1.2571101E0,-4.0870685E-2,2.8143415E-1,1.0212093E-1,1.1929978E-1,-2.1512096E-1,-1.1042298E1,2.6384196E-1,1.7274208E-1,-4.4321847E-1,-1.7851312E-1,8.6000405E-2],"categories":[2,3,3,0,2,3,4,5,6,10,11,12,0,1,2,3,4,5,6,7,8,9,1,0,2,3,4,5,6,9,10,11,12,0,1,2,3,4,5,6,7,8,9,10,11,12,1,3,5,10,0,1,2,3,4,5,6,7,8,1,2,4,7,6,11,0,1,2,3,4,5,8,2,3,2,0,1,2,3,4,5,6,7,8,10,11,0,1,2,3,4,5,6,7,8,9,10,11,12,0,2,3,4,6,1,5,1,0,2,4,5,0,1,2,3,0,2,3,4,5,6,10,11,12,1,2,3,5,0,1,4,5,7,0,1,2,7,8,1,3],"categories_nodes":[0,2,3,4,5,6,10,11,12,14,15,17,18,22,24,25,27,28,29,32,33,35,36,39,40,42,43,44,45,48],"categories_segments":[0,2,3,12,22,23,33,46,47,50,59,60,63,65,72,74,75,86,99,104,106,107,111,114,115,124,128,133,138,139],"categories_sizes":[2,1,9,10,1,10,13,1,3,9,1,3,2,7,2,1,11,13,5,2,1,4,3,1,9,4,5,5,1,1],"default_left":[0,0,0,0,0,0,0,0,0,0,0,0,0,0,0,0,0,0,0,0,1,0,0,1,0,0,0,0,0,0,0,0,0,0,0,0,0,0,0,0,0,0,0,0,0,0,0,0,0,0,0,0,0,0,0,0,0,0,0,0,0,0,0,0,0,0,0,0,0,0,0,0,0,0,0,0,0],"id":0,"left_children":[1,3,5,7,9,11,13,15,17,-1,19,21,23,25,27,29,-1,31,33,-1,35,-1,37,39,41,43,-1,45,47,49,-1,51,53,55,-1,57,59,-1,-1,61,63,-1,65,67,69,71,73,-1,75,-1,-1,-1,-1,-1,-1,-1,-1,-1,-1,-1,-1,-1,-1,-1,-1,-1,-1,-1,-1,-1,-1,-1,-1,-1,-1,-1,-1],"loss_changes":[3.6160236E2,5.2215027E1,9.5746967E2,9.557351E0,4.325055E1,9.561022E4,2.0256335E3,1.1292608E1,1.0213715E1,0E0,3.6191162E1,1.4824084E5,2.150761E3,2.9331031E4,1.657352E2,4.6013503E0,0E0,4.3928795E0,1.7488213E0,0E0,2.261444E1,0E0,5.778964E0,1.6602139E3,6.8871666E1,4.8403635E0,0E0,1.5624739E3,1.3011058E3,2.648363E-1,0E0,5.4039407E0,5.882469E0,3.8205423E0,0E0,6.7418633E0,1.1986877E1,0E0,0E0,8.72601E3,4.5362077E0,0E0,2.8581735E2,2.6710691E0,3.2229238E0,1.8894514E3,1.19227915E1,0E0,1.349717E2,0E0,0E0,0E0,0E0,0E0,0E0,0E0,0E0,0E0,0E0,0E0,0E0,0E0,0E0,0E0,0E0,0E0,0E0,0E0,0E0,0E0,0E0,0E0,0E0,0E0,0E0,0E0,0E0],"parents":[2147483647,0,0,1,1,2,2,3,3,4,4,5,5,6,6,7,7,8,8,10,10,11,11,12,12,13,13,14,14,15,15,17,17,18,18,20,20,22,22,23,23,24,24,25,25,27,27,28,28,29,29,31,31,32,32,33,33,35,35,36,36,39,39,40,40,42,42,43,43,44,44,45,45,46,46,48,48],"right_children":[2,4,6,8,10,12,14,16,18,-1,20,22,24,26,28,30,-1,32,34,-1,36,-1,38,40,42,44,-1,46,48,50,-1,52,54,56,-1,58,60,-1,-1,62,64,-1,66,68,70,72,74,-1,76,-1,-1,-1,-1,-1,-1,-1,-1,-1,-1,-1,-1,-1,-1,-1,-1,-1,-1,-1,-1,-1,-1,-1,-1,-1,-1,-1,-1],"split_conditions":[NaN,4E0,NaN,NaN,NaN,NaN,NaN,2E0,1.05E2,1.301684E-1,NaN,NaN,NaN,4E1,NaN,NaN,-2.5443697E-1,NaN,NaN,6.9171333E-1,4E1,-9.1230545E1,NaN,1.95E2,NaN,NaN,3.273799E1,NaN,NaN,NaN,-1.54297E-1,3E0,NaN,NaN,-4.8863593E-1,NaN,NaN,5.198531E-1,-1.0204841E-1,NaN,NaN,1.5594947E-1,NaN,NaN,NaN,NaN,6.5E1,3.913523E0,NaN,3.0416474E-1,1.2019397E-1,8.492207E-2,-2.8752512E-1,6.717763E-2,-4.2272243E-1,6.943862E-2,-3.5745007E-1,-3.3661234E-1,6.21814E-2,2.4505244E-1,1.22500904E-1,1.6713097E1,-1.2473252E-1,2.4539992E-1,-1.2643826E-1,-1.2571101E0,-4.0870685E-2,2.8143415E-1,1.0212093E-1,1.1929978E-1,-2.1512096E-1,-1.1042298E1,2.6384196E-1,1.7274208E-1,-4.4321847E-1,-1.7851312E-1,8.6000405E-2],"split_indices":[6,0,3,5,7,8,5,0,1,0,5,4,5,1,7,3,0,7,5,0,1,0,5,1,6,2,0,5,5,2,0,0,2,8,0,5,7,0,0,6,5,0,7,7,7,8,1,0,3,0,0,0,0,0,0,0,0,0,0,0,0,0,0,0,0,0,0,0,0,0,0,0,0,0,0,0,0],"split_type":[1,0,1,1,1,1,1,0,0,0,1,1,1,0,1,1,0,1,1,0,0,0,1,0,1,1,0,1,1,1,0,0,1,1,0,1,1,0,0,1,1,0,1,1,1,1,0,0,1,0,0,0,0,0,0,0,0,0,0,0,0,0,0,0,0,0,0,0,0,0,0,0,0,0,0,0,0],"sum_hessian":[4.053814E3,2.467539E3,1.586275E3,6.2040977E1,2.405498E3,4.873977E2,1.0988773E3,1.9975315E1,4.2065662E1,1.8671045E3,5.383935E2,5.640089E0,4.817576E2,4.3240685E1,1.0556367E3,1.3395211E1,6.580104E0,2.6320415E1,1.5745249E1,1.3865219E1,5.2452826E2,1.645026E0,3.995063E0,2.209035E1,4.5966727E2,4.1595657E1,1.645026E0,4.183066E1,1.013806E3,1.1280178E1,2.1150334E0,1.8095285E1,8.22513E0,7.2851152E0,8.460134E0,1.3865219E1,5.1066306E2,2.1150334E0,1.8800297E0,1.1750185E1,1.0340163E1,1.2102691E2,3.3864035E2,3.3135525E1,8.460134E0,4.230067E0,3.7600594E1,6.8151073E0,1.0069909E3,8.460134E0,2.8200445E0,1.45702305E1,3.5250556E0,3.0550482E0,5.1700816E0,2.350037E0,4.9350777E0,7.2851152E0,6.580104E0,4.2018665E2,9.0476425E1,3.0550482E0,8.695137E0,6.1100965E0,4.230067E0,1.7390274E1,3.2125006E2,1.7860283E1,1.5275241E1,4.4650707E0,3.995063E0,1.645026E0,2.5850408E0,3.548556E1,2.1150334E0,2.218435E2,7.851474E2],"tree_param":{"num_deleted":"0","num_feature":"10","num_nodes":"77","size_leaf_vector":"0"}}]},"name":"gbtree"},"learner_model_param":{"base_score":"5E-1","num_class":"0","num_feature":"10","num_target":"1"},"objective":{"name":"reg:squarederror","reg_loss_param":{"scale_pos_weight":"1"}}},"version":[1,6,2]}