{"learner":{"attributes":{"best_ntree_limit":"15"},"feature_names":[],"feature_types":[],"gradient_booster":{"model":{"gbtree_model_param":{"num_parallel_tree":"1","num_trees":"15","size_leaf_vector":"0"},"tree_info":[0,0,0,0,0,0,0,0,0,0,0,0,0,0,0],"trees":[{"base_weights":[-9.702375E-1,-1.631326E0,1.0795834E0,-1.9390525E0,1.2663292E0,1.310438E0,-2.0669122E0,-2.2303624E0,-6.2153872E-2,1.3988137E0,-1.1700157E0,-5.191119E-1,1.4068124E0,8.6790216E-1,-2.3822007E0,-2.3434348E0,-9.570346E-1,-1.4125829E0,9.6784925E-1,1.2772442E-1,1.4425292E0,1.1859777E0,-1.2861398E0,1.4320595E0,-1.1347431E0,-3.3039504E-1,-2.396388E0,-1.3611683E0,4.211662E-1,-1.715946E0,1.0305088E0,8.576384E-2,1.3416368E0,4.4874826E-1,1.4718084E0,4.266259E-2,-1.951078E0,1.1291604E0,1.542421E0,-1.0192981E0,9.169542E-1,-2.4082463E0,-6.70421E-2,-1.7330805E0,-3.2226938E-1,-7.9414797E-1,9.100768E-1,-1.8434831E0,8.6790216E-1,-6.4635336E-1,7.858549E-1,7.0572826E-3,1.4233733E0,1.5033667E0,4.4874826E-1,8.6790216E-1,-7.198092E-1,7.3660904E-1,1.542793E0],"categories":[],"categories_nodes":[],"categories_segments":[],"categories_sizes":[],"default_left":[1,1,1,1,1,1,0,1,1,0,0,0,1,0,0,0,1,1,0,0,0,0,0,1,0,1,1,1,1,1,0,1,1,0,1,1,0,1,0,0,0,0,0,0,0,0,0,0,0,0,0,0,0,0,0,0,0,0,0],"id":0,"left_children":[1,3,5,7,9,11,13,15,17,19,-1,21,23,-1,-1,25,27,29,31,-1,33,-1,35,37,-1,39,41,43,45,47,-1,49,51,-1,53,55,-1,57,-1,-1,-1,-1,-1,-1,-1,-1,-1,-1,-1,-1,-1,-1,-1,-1,-1,-1,-1,-1,-1],"loss_changes":[1.175355E3,5.867324E2,1.5655522E2,3.2394702E2,2.2136597E1,3.563022E1,1.5822502E1,7.162866E1,1.1356958E2,3.1881256E0,0E0,1.5434532E1,1.370755E1,0E0,0E0,4.9365967E1,2.482166E1,2.7938484E1,1.5168999E1,0E0,1.0439148E0,0E0,6.9884434E0,4.505707E0,0E0,1.2294797E1,1.2498291E1,1.253994E1,7.04193E0,1.2074448E1,0E0,8.1270895E0,3.5341454E0,0E0,1.148262E0,2.8805099E0,0E0,7.5733414E0,0E0,0E0,0E0,0E0,0E0,0E0,0E0,0E0,0E0,0E0,0E0,0E0,0E0,0E0,0E0,0E0,0E0,0E0,0E0,0E0,0E0],"parents":[2147483647,0,0,1,1,2,2,3,3,4,4,5,5,6,6,7,7,8,8,9,9,11,11,12,12,15,15,16,16,17,17,18,18,20,20,22,22,23,23,25,25,26,26,27,27,28,28,29,29,31,31,32,32,34,34,35,35,37,37],"right_children":[2,4,6,8,10,12,14,16,18,20,-1,22,24,-1,-1,26,28,30,32,-1,34,-1,36,38,-1,40,42,44,46,48,-1,50,52,-1,54,56,-1,58,-1,-1,-1,-1,-1,-1,-1,-1,-1,-1,-1,-1,-1,-1,-1,-1,-1,-1,-1,-1,-1],"split_conditions":[5.55E-2,5.5E-2,3.9999998E-1,3.79E-1,2.15E-1,9.5E0,1.940001E0,1.9999999E-1,5.35E1,3.4E-1,-3.5100472E-1,4.640001E0,1.6E-1,2.6037067E-1,-7.146602E-1,2.5E1,6.05E-1,8.1E-1,5.64E-1,3.831733E-2,2.5E-1,3.5579333E-1,1.845E0,1.43E-1,-3.4042293E-1,6.0000002E-2,3.5500002E-1,1.6600001E-1,1.74E0,6.5999997E-1,3.0915263E-1,8.45E-1,9.5E0,1.3462448E-1,4.7E-2,4.65E-1,-5.8532345E-1,4.5499998E-1,4.6272632E-1,-3.0578944E-1,2.7508628E-1,-7.224739E-1,-2.011263E-2,-5.1992416E-1,-9.668082E-2,-2.382444E-1,2.7302304E-1,-5.53045E-1,2.6037067E-1,-1.9390602E-1,2.3575647E-1,2.117185E-3,4.2701203E-1,4.5101002E-1,1.3462448E-1,2.6037067E-1,-2.1594276E-1,2.2098272E-1,4.6283793E-1],"split_indices":[16,2,13,15,13,17,2,6,18,10,0,2,14,0,0,12,0,6,15,0,11,0,6,15,0,1,11,15,9,7,0,10,17,0,16,10,0,0,0,0,0,0,0,0,0,0,0,0,0,0,0,0,0,0,0,0,0,0,0],"split_type":[0,0,0,0,0,0,0,0,0,0,0,0,0,0,0,0,0,0,0,0,0,0,0,0,0,0,0,0,0,0,0,0,0,0,0,0,0,0,0,0,0,0,0,0,0,0,0,0,0,0,0,0,0,0,0,0,0,0,0],"sum_hessian":[8.6504865E2,6.542503E2,2.1079832E2,5.917393E2,6.2510986E1,1.969331E2,1.3865219E1,5.1207306E2,7.966626E1,5.969094E1,2.8200445E0,9.635152E0,1.8729796E2,1.1750185E0,1.2690201E1,4.695374E2,4.253567E1,3.4310543E1,4.5355717E1,2.1150334E0,5.757591E1,2.8200445E0,6.8151073E0,1.8588794E2,1.4100223E0,1.2220193E1,4.5731723E2,3.290052E1,9.635152E0,3.0785486E1,3.5250556E0,1.3865219E1,3.1490498E1,2.1150334E0,5.5460876E1,2.5850408E0,4.230067E0,5.264083E1,1.332471E2,7.990126E0,4.230067E0,4.549672E2,2.350037E0,2.3735374E1,9.165145E0,2.5850408E0,7.0501113E0,2.9610468E1,1.1750185E0,6.8151073E0,7.0501113E0,1.8800297E0,2.9610468E1,5.334584E1,2.1150334E0,1.1750185E0,1.4100223E0,2.843545E1,2.4205381E1],"tree_param":{"num_deleted":"0","num_feature":"19","num_nodes":"59","size_leaf_vector":"0"}},{"base_weights":[-6.581545E-1,-1.1048561E0,8.3630174E-1,-1.2892367E0,1.0839994E0,1.0930064E0,-1.19475E0,-1.44859E0,1.7622246E-1,1.2071872E0,-9.6719164E-1,-3.5325348E-1,1.1870826E0,-1.5891367E0,5.410562E-1,-1.4781116E0,7.624047E-1,-9.557084E-1,8.9268327E-1,7.4872E-2,1.2579205E0,-1.1974118E0,-3.0578393E-1,1.0775144E0,-9.759608E-1,9.1104573E-1,1.296041E0,-1.6975127E0,1.0533752E-2,1.0549992E0,-5.5136853E-1,-1.5246714E0,-2.6272318E-1,-4.2131624E-1,1.2787493E0,-1.1754413E0,8.063382E-1,1.0190781E0,-1.3483634E0,7.4369633E-1,-6.0926604E-1,5.706751E-1,1.3349468E0,1.9509399E-1,-1.3886536E0,1.2240148E0,5.3986096E-1,5.938982E-1,1.3108842E0,-1.7508466E0,-5.4974514E-1,-1.3781636E0,-1.7827566E0,7.4515474E-1,-6.6332626E-1,8.110764E-1,-1.3395774E0,2.9126102E-2,1.1731158E0,-6.8976957E-1,9.462595E-1,-3.809156E-1,-1.5465739E0,-1.591707E-2,1.2899178E0,2.1434064E-1,1.2520744E0,9.2119193E-1,-1.1186892E-1],"categories":[],"categories_nodes":[],"categories_segments":[],"categories_sizes":[],"default_left":[1,1,1,1,1,1,1,1,1,0,1,0,1,1,1,1,1,0,0,0,0,0,0,0,0,0,0,1,0,0,0,1,0,0,0,0,0,0,0,0,0,0,0,0,0,0,1,0,0,0,0,0,0,0,0,0,0,0,0,0,0,0,0,0,0,0,0,0,0],"id":1,"left_children":[1,3,5,7,9,11,13,15,17,19,21,23,25,27,29,31,33,35,37,39,41,-1,-1,-1,43,45,47,49,-1,-1,-1,51,53,-1,-1,55,-1,57,-1,-1,-1,59,-1,-1,61,63,65,67,-1,-1,-1,-1,-1,-1,-1,-1,-1,-1,-1,-1,-1,-1,-1,-1,-1,-1,-1,-1,-1],"loss_changes":[5.718992E2,2.6732007E2,1.04221634E2,1.4227887E2,1.423999E1,2.4333618E1,1.634951E1,3.6937256E1,4.9948353E1,2.7349472E0,1.6468883E-1,1.1302433E1,3.7896576E0,3.2583504E0,3.352491E0,3.0255737E1,5.3603606E0,1.0220057E1,1.2021603E1,1.9059955E0,1.7300491E0,0E0,0E0,0E0,4.398777E0,5.1635475E0,4.316864E-1,1.09451294E-1,0E0,0E0,0E0,1.7263672E1,9.052327E0,0E0,0E0,8.161919E0,0E0,5.478695E0,0E0,0E0,0E0,3.725521E0,0E0,0E0,4.355631E-1,2.1788216E0,5.463716E0,1.0806903E0,0E0,0E0,0E0,0E0,0E0,0E0,0E0,0E0,0E0,0E0,0E0,0E0,0E0,0E0,0E0,0E0,0E0,0E0,0E0,0E0,0E0],"parents":[2147483647,0,0,1,1,2,2,3,3,4,4,5,5,6,6,7,7,8,8,9,9,10,10,11,11,12,12,13,13,14,14,15,15,16,16,17,17,18,18,19,19,20,20,24,24,25,25,26,26,27,27,31,31,32,32,35,35,37,37,41,41,44,44,45,45,46,46,47,47],"right_children":[2,4,6,8,10,12,14,16,18,20,22,24,26,28,30,32,34,36,38,40,42,-1,-1,-1,44,46,48,50,-1,-1,-1,52,54,-1,-1,56,-1,58,-1,-1,-1,60,-1,-1,62,64,66,68,-1,-1,-1,-1,-1,-1,-1,-1,-1,-1,-1,-1,-1,-1,-1,-1,-1,-1,-1,-1,-1],"split_conditions":[4.45E-2,5.5E-2,1.9999999E-1,5.085E-1,2.3E-1,9.5E0,1.4050001E-1,2.8E-1,3.5E1,2.55E-1,1.8E1,4.640001E0,1.43E-1,3.9E-1,3.5999998E-1,7.8499997E-1,1.355E2,3.8035002E0,4.4805E0,7.4001E-2,9.95E-1,-3.5922354E-1,-9.1735184E-2,3.2325435E-1,1.0520001E1,2.940001E0,3.9499998E-1,5.3499997E-1,3.1601258E-3,3.1649977E-1,-1.6541056E-1,2.4999999E-2,3.175E0,-1.2639488E-1,3.8362482E-1,9.080001E0,2.4190147E-1,5.64E-1,-4.0450904E-1,2.231089E-1,-1.8277982E-1,3.95E-1,4.0048406E-1,5.85282E-2,1.845E0,8.05E-1,2.7E-1,4.260001E0,3.9326528E-1,-5.25254E-1,-1.6492355E-1,-4.1344908E-1,-5.34827E-1,2.2354643E-1,-1.9899788E-1,2.4332292E-1,-4.0187326E-1,8.737831E-3,3.5193476E-1,-2.0693088E-1,2.8387785E-1,-1.1427469E-1,-4.6397218E-1,-4.7751213E-3,3.8697538E-1,6.43022E-2,3.7562233E-1,2.763576E-1,-3.356068E-2],"split_indices":[16,2,13,15,13,17,15,11,18,3,17,2,15,2,14,6,18,15,15,16,9,0,0,0,8,12,10,7,0,0,0,13,0,0,0,6,0,15,0,0,0,8,0,0,6,9,7,6,0,0,0,0,0,0,0,0,0,0,0,0,0,0,0,0,0,0,0,0,0],"split_type":[0,0,0,0,0,0,0,0,0,0,0,0,0,0,0,0,0,0,0,0,0,0,0,0,0,0,0,0,0,0,0,0,0,0,0,0,0,0,0,0,0,0,0,0,0,0,0,0,0,0,0,0,0,0,0,0,0,0,0,0,0,0,0,0,0,0,0,0,0],"sum_hessian":[8.542961E2,6.5790515E2,1.9639096E2,6.071705E2,5.0734646E1,1.7476434E2,2.1626612E1,5.476326E2,5.953782E1,4.824847E1,2.4861765E0,1.0505502E1,1.6425885E2,1.7691484E1,3.9351263E0,5.40744E2,6.888645E0,2.2948202E1,3.6589615E1,2.1752353E0,4.6073235E1,1.2430882E0,1.2430882E0,2.9642656E0,7.541236E0,4.9136677E1,1.1512217E2,1.6511671E1,1.1798137E0,2.6994162E0,1.2357101E0,5.205481E2,2.0195929E1,2.1481194E0,4.7405257E0,2.0699785E1,2.248418E0,3.5152298E1,1.4373199E0,1.0559072E0,1.1193279E0,5.490913E0,4.058232E1,2.1024897E0,5.4387465E0,2.5412346E1,2.3724329E1,3.232322E0,1.1188985E2,1.5276381E1,1.2352899E0,3.360957E2,1.8445238E2,5.499541E0,1.4696387E1,1.2789799E0,1.9420805E1,4.8933516E0,3.0258945E1,1.0685118E0,4.422401E0,1.1990856E0,4.2396607E0,1.3207924E0,2.4091555E1,1.7175253E1,6.549076E0,1.9997289E0,1.232593E0],"tree_param":{"num_deleted":"0","num_feature":"19","num_nodes":"69","size_leaf_vector":"0"}},{"base_weights":[-5.168593E-1,-1.0525827E0,3.2201815E-1,-1.1631163E0,6.327106E-1,-4.2612496E-1,9.1268176E-1,-1.2158438E0,3.92607E-1,8.489687E-1,-6.2992203E-1,1.1091439E0,-6.5532273E-1,1.0123286E0,-1.0287768E0,-1.2737336E0,-5.8712834E-1,8.166019E-1,-4.034677E-1,4.8295277E-1,1.1202178E0,-1.0455528E0,2.185701E-1,-1.8766169E-1,1.198692E0,-8.1458855E-1,1.1349673E0,-1.4803433E-1,1.0530196E0,-1.3357934E0,4.5926186E-1,-1.3940195E0,-1.0698477E0,-8.2863593E-1,6.507184E-1,2.3207131E-1,1.1516536E0,-8.6245185E-1,5.6539464E-1,-2.6153293E-1,7.747085E-1,2.4321708E-1,1.1778384E0,-9.7052485E-1,4.9289718E-1,1.5316398E-1,1.2520872E0,-6.762221E-1,6.503062E-1,5.9097266E-1,1.1358883E0,-1.4056622E0,1.0188217E-1,-6.4604807E-1,-1.4114845E0,-5.012283E-1,-1.4115473E0,-6.3009596E-1,1.209687E0,6.422521E-1,-6.4360183E-1,-1.2628597E0,-3.0075083E-3,-9.730757E-1,8.1723017E-1,1.0198084E0,-1.5344241E-1,-1.1138816E0,-1.1164575E-1,-1.8844718E-1,1.1541125E0,1.3729314E0,5.190181E-1,1.898808E-2,-9.8636335E-1,6.549534E-2,1.0739076E0,1.1483096E0,-1.9248296E-1],"categories":[],"categories_nodes":[],"categories_segments":[],"categories_sizes":[],"default_left":[1,1,1,1,1,0,1,1,0,1,1,0,1,1,1,1,1,1,0,0,0,0,0,0,0,1,0,0,1,0,0,1,1,1,1,1,0,1,0,1,1,0,0,1,0,0,0,0,0,0,1,0,0,0,0,0,0,0,0,0,0,0,0,0,0,0,0,0,0,0,0,0,0,0,0,0,0,0,0],"id":2,"left_children":[1,3,5,7,9,11,13,15,17,19,21,23,25,27,29,31,33,35,37,39,41,-1,-1,-1,-1,43,45,47,49,-1,-1,51,53,55,57,59,-1,61,-1,63,65,-1,-1,67,69,-1,71,73,-1,75,77,-1,-1,-1,-1,-1,-1,-1,-1,-1,-1,-1,-1,-1,-1,-1,-1,-1,-1,-1,-1,-1,-1,-1,-1,-1,-1,-1,-1],"loss_changes":[3.4441968E2,8.781824E1,1.3258638E2,3.649292E1,8.568325E0,4.7409203E1,3.3444275E1,1.4717163E1,5.442695E0,1.9951038E0,1.9481964E0,2.2692585E0,3.4017334E1,7.7019043E0,4.5757065E0,8.029724E0,1.1803722E1,1.7333364E0,3.1263402E0,2.9461339E0,4.1664314E-1,0E0,0E0,0E0,0E0,2.232705E1,9.4653034E-1,3.0926237E0,5.2454376E0,0E0,0E0,4.338318E0,2.0567673E1,5.3937283E0,5.5672336E0,2.2000272E0,0E0,1.5180552E0,0E0,4.0988054E0,2.2782784E0,0E0,0E0,1.1705612E1,5.660589E0,0E0,5.856228E-2,9.4079995E-1,0E0,6.4222355E0,2.3650818E0,0E0,0E0,0E0,0E0,0E0,0E0,0E0,0E0,0E0,0E0,0E0,0E0,0E0,0E0,0E0,0E0,0E0,0E0,0E0,0E0,0E0,0E0,0E0,0E0,0E0,0E0,0E0,0E0],"parents":[2147483647,0,0,1,1,2,2,3,3,4,4,5,5,6,6,7,7,8,8,9,9,10,10,11,11,12,12,13,13,14,14,15,15,16,16,17,17,18,18,19,19,20,20,25,25,26,26,27,27,28,28,31,31,32,32,33,33,34,34,35,35,37,37,39,39,40,40,43,43,44,44,46,46,47,47,49,49,50,50],"right_children":[2,4,6,8,10,12,14,16,18,20,22,24,26,28,30,32,34,36,38,40,42,-1,-1,-1,-1,44,46,48,50,-1,-1,52,54,56,58,60,-1,62,-1,64,66,-1,-1,68,70,-1,72,74,-1,76,78,-1,-1,-1,-1,-1,-1,-1,-1,-1,-1,-1,-1,-1,-1,-1,-1,-1,-1,-1,-1,-1,-1,-1,-1,-1,-1,-1,-1],"split_conditions":[7.9500005E-2,4.5E-2,1.85E1,1.64E-1,1.5E-1,1.4540001E1,3.9E-1,1.05000004E-1,3.595E-1,4.45E-1,4.3E-1,7.1000004E-1,4.2000002E-1,7.05E1,8.05E-1,1.25E1,1.075E0,2.05E1,1.0120001E0,1.4300001E0,5.3999998E-2,-3.1366587E-1,6.557103E-2,-5.629851E-2,3.596076E-1,7E-1,5.2E-1,5.345E-1,4.15E-1,-4.0073803E-1,1.3777857E-1,2.7499998E-1,6.5E-2,1.2E-1,1.55E0,1.35E1,3.4549612E-1,1.55E1,1.696184E-1,4.75E-2,2.7499998E-1,7.296513E-2,3.5335153E-1,3.5500002E-1,4.53E-1,4.59492E-2,1.3320001E1,6.140001E0,1.9509187E-1,3.8E-1,7E-2,-4.2169866E-1,3.056465E-2,-1.9381443E-1,-4.2344537E-1,-1.5036848E-1,-4.234642E-1,-1.890288E-1,3.629061E-1,1.9267564E-1,-1.9308056E-1,-3.7885794E-1,-9.0225256E-4,-2.9192272E-1,2.4516906E-1,3.0594254E-1,-4.6032727E-2,-3.341645E-1,-3.3493727E-2,-5.6534156E-2,3.4623376E-1,4.1187942E-1,1.5570544E-1,5.6964243E-3,-2.9590902E-1,1.9648604E-2,3.2217228E-1,3.4449288E-1,-5.774489E-2],"split_indices":[15,2,17,16,13,2,13,6,16,0,0,9,3,18,6,17,0,17,16,9,16,0,0,0,0,6,3,15,10,0,0,5,13,13,9,17,0,17,0,15,3,0,0,0,15,0,10,6,0,15,14,0,0,0,0,0,0,0,0,0,0,0,0,0,0,0,0,0,0,0,0,0,0,0,0,0,0,0,0],"split_type":[0,0,0,0,0,0,0,0,0,0,0,0,0,0,0,0,0,0,0,0,0,0,0,0,0,0,0,0,0,0,0,0,0,0,0,0,0,0,0,0,0,0,0,0,0,0,0,0,0,0,0,0,0,0,0,0,0,0,0,0,0,0,0,0,0,0,0,0,0,0,0,0,0,0,0,0,0,0,0],"sum_hessian":[7.646338E2,4.6647745E2,2.9815634E2,4.3805646E2,2.842101E1,1.316655E2,1.6649086E2,4.2390756E2,1.4148871E1,2.4544718E1,3.8762903E0,1.6604164E1,1.1506133E2,1.5881798E2,7.672881E0,3.8722723E2,3.668034E1,9.215075E0,4.933797E0,1.1630852E1,1.2913866E1,2.445918E0,1.4303724E0,1.0017344E0,1.5602429E1,1.06162056E2,8.899277E0,5.2912917E0,1.5352669E2,6.4453664E0,1.2275146E0,2.3987291E2,1.4735434E2,3.0968815E1,5.711525E0,3.97425E0,5.240824E0,3.4223433E0,1.5114537E0,3.303854E0,8.326998E0,1.1180378E0,1.1795828E1,9.508012E1,1.1081942E1,1.1944115E0,7.7048655E0,3.276501E0,2.0147908E0,2.4584337E1,1.2894235E2,2.3808025E2,1.7926618E0,6.705892E1,8.029541E1,2.1021437E1,9.947377E0,1.6966326E0,4.0148926E0,2.8880148E0,1.0862353E0,2.0144413E0,1.407902E0,2.0497968E0,1.2540572E0,6.50931E0,1.8176882E0,8.122571E1,1.3854403E1,5.810034E0,5.271908E0,5.865158E0,1.839707E0,1.3003724E0,1.9761285E0,1.2317448E1,1.226689E1,1.278821E2,1.0602466E0],"tree_param":{"num_deleted":"0","num_feature":"19","num_nodes":"79","size_leaf_vector":"0"}},{"base_weights":[-4.2470053E-1,-7.487763E-1,5.701893E-1,-8.5727566E-1,7.9319334E-1,8.677599E-1,-9.362877E-1,-9.910427E-1,3.047761E-2,9.388708E-1,-9.0074307E-1,-3.569175E-1,9.597262E-1,-1.1081189E0,4.8112652E-1,-1.0801754E0,-4.1349366E-1,-5.060873E-1,5.572024E-1,-4.733993E-1,1.0080197E0,8.412779E-1,-7.6835436E-1,6.986705E-1,1.0895709E0,-1.2002962E0,2.4905826E-1,9.059229E-1,-3.0694437E-1,-1.0961636E0,6.75625E-1,-8.08148E-1,4.641371E-1,-9.759339E-1,5.96868E-2,-9.527296E-1,6.8026215E-1,2.467612E-1,1.1098819E0,-9.5539945E-1,2.8033006E-1,4.04046E-1,1.1475877E0,6.9462144E-1,1.1182784E0,-1.278711E0,-3.7106672E-1,-1.1093559E0,8.874167E-1,-3.2554182E-1,1.2735398E0,-8.833634E-1,5.597188E-1,-7.79145E-1,8.277928E-1,-1.1254936E0,6.413561E-1,-4.4367847E-1,6.132748E-1,-9.507783E-1,7.9538363E-1,-4.695828E-1,8.455461E-1,-1.1679212E0,9.0136945E-2,1.0238494E0,1.2769324E-1,1.5747355E-1,1.2014078E0,-7.031456E-1,1.0258931E0,-7.709396E-1,2.4515937E-1],"categories":[],"categories_nodes":[],"categories_segments":[],"categories_sizes":[],"default_left":[1,1,1,1,1,1,1,1,1,0,0,0,1,1,0,1,1,0,0,0,0,0,1,1,0,1,0,0,0,1,0,1,0,1,1,0,0,1,0,1,0,0,1,1,0,0,1,0,0,0,0,0,0,0,0,0,0,0,0,0,0,0,0,0,0,0,0,0,0,0,0,0,0],"id":3,"left_children":[1,3,5,7,9,11,13,15,17,19,-1,21,23,25,27,29,31,33,35,-1,37,-1,39,41,43,45,-1,-1,-1,47,49,51,53,55,57,-1,59,61,-1,63,-1,65,67,69,-1,-1,71,-1,-1,-1,-1,-1,-1,-1,-1,-1,-1,-1,-1,-1,-1,-1,-1,-1,-1,-1,-1,-1,-1,-1,-1,-1,-1],"loss_changes":[2.152476E2,8.4833466E1,7.445412E1,5.5893066E1,9.133635E0,1.5851273E1,7.249811E0,2.0600098E1,1.796582E1,3.545185E0,0E0,5.7472568E0,3.5894012E0,3.4137707E0,1.5096767E0,1.0665863E1,1.9868702E1,8.437066E0,6.6035213E0,0E0,2.0732937E0,0E0,1.8811369E0,5.543825E0,1.7481232E-1,1.0527191E0,0E0,0E0,0E0,1.0162964E1,2.6947896E0,4.5262756E0,8.825414E0,4.9009113E0,4.519514E0,0E0,6.4303713E0,2.4808836E0,0E0,1.706605E0,0E0,4.8308077E0,7.4092865E-1,4.5769644E0,0E0,0E0,1.0361531E0,0E0,0E0,0E0,0E0,0E0,0E0,0E0,0E0,0E0,0E0,0E0,0E0,0E0,0E0,0E0,0E0,0E0,0E0,0E0,0E0,0E0,0E0,0E0,0E0,0E0,0E0],"parents":[2147483647,0,0,1,1,2,2,3,3,4,4,5,5,6,6,7,7,8,8,9,9,11,11,12,12,13,13,14,14,15,15,16,16,17,17,18,18,20,20,22,22,23,23,24,24,25,25,29,29,30,30,31,31,32,32,33,33,34,34,36,36,37,37,39,39,41,41,42,42,43,43,46,46],"right_children":[2,4,6,8,10,12,14,16,18,20,-1,22,24,26,28,30,32,34,36,-1,38,-1,40,42,44,46,-1,-1,-1,48,50,52,54,56,58,-1,60,62,-1,64,-1,66,68,70,-1,-1,72,-1,-1,-1,-1,-1,-1,-1,-1,-1,-1,-1,-1,-1,-1,-1,-1,-1,-1,-1,-1,-1,-1,-1,-1,-1,-1],"split_conditions":[1.85E-2,6E-2,2.2E-1,3.915E-1,2.3E-1,9.5E0,2.42E-1,1.24E0,5.35E1,2.55E-1,-2.7022293E-1,4.640001E0,1.485E-1,1.1E-1,6.15E-1,1.285E2,1.3499999E-1,7.98E-1,5.6E-1,-1.420198E-1,9.95E-1,2.5238338E-1,1.25E0,4.5499998E-1,2.35E-1,3.35E-1,7.4717484E-2,2.7177688E-1,-9.208331E-2,1.13E0,3.840001E0,3E-1,8.7E-2,6.3E0,1.9100001E0,-2.8581887E-1,3.5000002E-1,3.47E2,3.3296457E-1,4.9E-1,8.4099025E-2,6.4E-1,1.1E2,5.245E2,3.3548352E-1,-3.8361332E-1,2.75E1,-3.328068E-1,2.6622504E-1,-9.766255E-2,3.8206196E-1,-2.6500905E-1,1.6791564E-1,-2.337435E-1,2.4833785E-1,-3.376481E-1,1.9240685E-1,-1.3310355E-1,1.8398245E-1,-2.852335E-1,2.386151E-1,-1.4087485E-1,2.5366384E-1,-3.5037637E-1,2.7041085E-2,3.0715483E-1,3.8307972E-2,4.7242068E-2,3.6042234E-1,-2.109437E-1,3.0776793E-1,-2.3128189E-1,7.354782E-2],"split_indices":[16,2,13,15,13,17,15,10,18,3,0,2,15,2,13,17,0,15,1,0,9,0,8,0,11,3,0,0,0,12,13,1,15,9,9,0,8,18,0,6,0,6,18,18,0,0,17,0,0,0,0,0,0,0,0,0,0,0,0,0,0,0,0,0,0,0,0,0,0,0,0,0,0],"split_type":[0,0,0,0,0,0,0,0,0,0,0,0,0,0,0,0,0,0,0,0,0,0,0,0,0,0,0,0,0,0,0,0,0,0,0,0,0,0,0,0,0,0,0,0,0,0,0,0,0,0,0,0,0,0,0,0,0,0,0,0,0,0,0,0,0,0,0,0,0,0,0,0,0],"sum_hessian":[6.6527637E2,5.0200153E2,1.6327481E2,4.6941556E2,3.2585968E1,1.3669733E2,2.6577494E1,4.07845E2,6.1570583E1,3.041596E1,2.170007E0,9.34695E0,1.2735037E2,2.389852E1,2.6789742E0,3.5256375E2,5.5281227E1,3.0519798E1,3.1050783E1,1.1468604E0,2.92691E1,2.1221235E0,7.224826E0,4.4421238E1,8.292913E1,2.2486843E1,1.4116768E0,1.6435182E0,1.0354558E0,3.497546E2,2.8091407E0,3.8187973E1,1.7093256E1,1.6277342E1,1.4242456E1,1.831872E0,2.921891E1,3.8581367E0,2.5410963E1,6.2067366E0,1.0180893E0,2.7966719E1,1.6454521E1,7.326725E0,7.560241E1,2.0048903E1,2.4379401E0,3.4788168E2,1.8729415E0,1.2207004E0,1.5884404E0,3.6533306E1,1.6546671E0,3.6097047E0,1.3483551E1,1.517785E1,1.0994931E0,7.563591E0,6.678865E0,1.4477851E0,2.7771126E1,1.8548722E0,2.0032644E0,5.0609612E0,1.1457751E0,7.790142E0,2.0176575E1,1.0507165E0,1.5403804E1,1.1886735E0,6.1380515E0,1.3262575E0,1.1116828E0],"tree_param":{"num_deleted":"0","num_feature":"19","num_nodes":"73","size_leaf_vector":"0"}},{"base_weights":[-3.5480884E-1,-7.480662E-1,2.5191578E-1,4.66378E-1,-8.273459E-1,8.8586223E-1,-1.4132598E-1,-5.939976E-1,6.556481E-1,-6.6471225E-1,-1.1640675E0,9.2046034E-1,-7.8727967E-1,-1.1647133E0,4.7792125E-2,-9.424528E-1,9.8835744E-2,9.053271E-1,1.906337E-1,-1.0167487E0,-1.6938823E-1,-1.1820947E0,3.456144E-1,6.049712E-1,1.044251E0,-1.2245215E0,-2.54721E-2,-5.0057054E-1,4.339549E-1,1.1278702E0,-3.061196E-1,-2.6987928E-1,8.359388E-1,-1.0681266E0,5.411943E-1,-3.2647198E-1,1.3487068E0,-2.8827965E-1,-1.1905785E0,-6.0184306E-1,7.3575044E-1,5.154876E-1,1.0734975E0,-1.269675E0,-1.7520526E-1,1.1377035E0,-6.002198E-1,-1.151077E0,5.651633E-1,-7.409785E-1,7.437177E-1,-1.0877818E0,-4.736258E-2,1.294896E0,-5.491171E-1,5.8190733E-1,-4.6363452E-1,1.4863681E0,1.6112106E-1,-1.1269931E0,2.0767744E-1,-8.4128296E-1,8.420072E-1,-4.1513103E-1,8.546729E-1,-8.6253965E-1,5.077046E-2,-3.5873365E-1,-1.2515043E0,1.6069847E-1,8.4125715E-1],"categories":[],"categories_nodes":[],"categories_segments":[],"categories_sizes":[],"default_left":[1,0,0,0,1,1,0,1,0,1,1,1,0,1,1,0,0,1,0,1,1,0,0,0,1,1,0,0,0,0,0,1,0,1,0,0,1,0,0,1,0,0,0,0,0,0,0,0,1,0,0,0,0,0,0,0,0,0,0,0,0,0,0,0,0,0,0,0,0,0,0],"id":4,"left_children":[1,3,5,7,9,11,13,15,17,19,21,23,-1,25,27,-1,-1,29,31,33,35,37,-1,39,41,43,-1,45,47,-1,-1,49,-1,51,53,55,57,-1,-1,59,61,63,-1,-1,-1,-1,65,67,69,-1,-1,-1,-1,-1,-1,-1,-1,-1,-1,-1,-1,-1,-1,-1,-1,-1,-1,-1,-1,-1,-1],"loss_changes":[1.3668597E2,3.382927E1,5.639753E1,4.78982E0,1.7102142E1,5.7350082E0,2.7184963E1,1.0215253E0,2.042674E0,3.8616028E1,3.2656708E0,2.6980896E0,0E0,1.4611702E0,2.5473656E1,0E0,0E0,3.620242E0,2.5828629E0,1.0970169E1,2.2764488E1,4.4517517E-1,0E0,4.6100435E0,3.722763E-1,7.625332E-1,0E0,8.804562E0,1.5316874E1,0E0,0E0,3.1223893E0,0E0,2.4769135E0,4.662585E0,1.0940365E1,1.2275085E0,0E0,0E0,1.565366E0,4.775693E0,1.9523216E0,0E0,0E0,0E0,0E0,8.164011E0,6.259918E-3,7.212801E0,0E0,0E0,0E0,0E0,0E0,0E0,0E0,0E0,0E0,0E0,0E0,0E0,0E0,0E0,0E0,0E0,0E0,0E0,0E0,0E0,0E0,0E0],"parents":[2147483647,0,0,1,1,2,2,3,3,4,4,5,5,6,6,7,7,8,8,9,9,10,10,11,11,13,13,14,14,17,17,18,18,19,19,20,20,21,21,23,23,24,24,25,25,27,27,28,28,31,31,33,33,34,34,35,35,36,36,39,39,40,40,41,41,46,46,47,47,48,48],"right_children":[2,4,6,8,10,12,14,16,18,20,22,24,-1,26,28,-1,-1,30,32,34,36,38,-1,40,42,44,-1,46,48,-1,-1,50,-1,52,54,56,58,-1,-1,60,62,64,-1,-1,-1,-1,66,68,70,-1,-1,-1,-1,-1,-1,-1,-1,-1,-1,-1,-1,-1,-1,-1,-1,-1,-1,-1,-1,-1,-1],"split_conditions":[7.9500005E-2,2.1599998E0,1.0600001E1,9E-1,1.2E-1,5.8500004E-1,2.5E1,4.3E-1,2.914001E0,9.5E0,4.95E-1,2.75E1,-2.3618391E-1,3.15E-1,5.35E1,-2.8273585E-1,2.9650724E-2,8.3E-1,8.9E-1,2.25E-1,7.1500003E-1,8.5E-2,1.0368433E-1,5E-1,1.595E2,4.5999998E-1,-7.6416307E-3,7.680001E0,4.15E-1,3.3836108E-1,-9.183588E-2,3.65E-1,2.5078166E-1,4.965E0,2.2220001E1,2.9500002E-1,4.25E-2,-8.6483896E-2,-3.5717356E-1,1.3E-1,2.9500002E-1,2.49E0,3.2204926E-1,-3.8090253E-1,-5.256158E-2,3.4131107E-1,7.9550004E-1,1.385E-1,1.02E2,-2.2229356E-1,2.2311531E-1,-3.2633454E-1,-1.4208775E-2,3.8846883E-1,-1.6473514E-1,1.745722E-1,-1.3909036E-1,4.4591042E-1,4.833632E-2,-3.3809793E-1,6.2303234E-2,-2.523849E-1,2.526022E-1,-1.24539316E-1,2.564019E-1,-2.587619E-1,1.5231139E-2,-1.076201E-1,-3.754513E-1,4.8209544E-2,2.5237715E-1],"split_indices":[15,2,16,14,13,14,13,0,16,17,5,17,0,5,18,0,0,8,2,3,0,11,0,4,18,6,0,7,10,0,0,8,0,10,10,0,15,0,0,1,7,9,0,0,0,0,15,15,18,0,0,0,0,0,0,0,0,0,0,0,0,0,0,0,0,0,0,0,0,0,0],"split_type":[0,0,0,0,0,0,0,0,0,0,0,0,0,0,0,0,0,0,0,0,0,0,0,0,0,0,0,0,0,0,0,0,0,0,0,0,0,0,0,0,0,0,0,0,0,0,0,0,0,0,0,0,0,0,0,0,0,0,0,0,0,0,0,0,0,0,0,0,0,0,0],"sum_hessian":[5.7107935E2,3.463528E2,2.2472655E2,2.0925377E1,3.2542743E2,8.555321E1,1.3917336E2,2.8454633E0,1.8079914E1,2.2144528E2,1.03982155E2,8.426068E1,1.2925253E0,2.0902674E1,1.18270676E2,1.6535401E0,1.1919231E0,1.1147589E1,6.9323254E0,1.2883035E2,9.261494E1,1.0296958E2,1.0125736E0,2.5403954E1,5.8856728E1,1.978893E1,1.113743E0,4.8749153E1,6.952152E1,9.47586E0,1.6717293E0,4.38489E0,2.547435E0,1.25021774E2,3.8085685E0,8.4641655E1,7.9732857E0,1.2970632E0,1.0167252E2,2.1316242E0,2.327233E1,4.061015E0,5.479571E1,1.877118E1,1.0177526E0,2.1978889E0,4.6551266E1,4.720749E0,6.480077E1,3.1771684E0,1.2077216E0,1.2259549E2,2.4262886E0,2.1409507E0,1.6676178E0,1.0678595E1,7.396306E1,6.919599E0,1.0536866E0,1.0550326E0,1.0765917E0,1.0323927E0,2.2239937E1,1.0249543E0,3.0360608E0,3.2949238E1,1.3602029E1,1.0453448E0,3.675404E0,2.6930649E1,3.7870125E1],"tree_param":{"num_deleted":"0","num_feature":"19","num_nodes":"71","size_leaf_vector":"0"}},{"base_weights":[-2.9912776E-1,7.864292E-1,-4.6411124E-1,2.4927786E-1,9.590534E-1,-5.734191E-1,6.675251E-1,-1.4725201E-1,7.272497E-1,1.6100472E-1,9.8444504E-1,-7.0201206E-1,1.4578333E-1,7.8555256E-1,-8.72276E-1,-8.292976E-1,3.5665715E-1,9.996094E-1,-2.3116301E-1,1.0024347E0,2.1914715E-1,-7.4638E-1,6.34795E-1,-4.596554E-1,4.80001E-1,3.1159014E-1,1.0566775E0,9.9714845E-2,-1.207128E0,8.649485E-1,-6.174965E-1,4.791346E-1,1.0371943E0,-6.067375E-1,-1.0761544E0,-8.723563E-1,8.6972016E-1,-6.439832E-1,8.082066E-1,5.656564E-1,-9.3869394E-1,-1.3905523E0,7.635108E-1,-2.2378983E-1,1.1466451E0,8.259128E-1,-3.7709916E-1,1.0572033E0,2.7139354E-1,-6.706658E-1,8.6176133E-1,-1.1001213E0,5.62163E-1,-1.7810042E-1,1.0520134E0,7.5967634E-1,-7.7148867E-1,-4.6642113E-1,6.7794514E-1,4.7779354E-1,1.403917E0],"categories":[],"categories_nodes":[],"categories_segments":[],"categories_sizes":[],"default_left":[0,1,1,1,0,1,1,0,1,0,1,1,1,1,0,0,1,0,0,0,0,1,0,0,1,0,0,0,0,0,0,0,1,1,1,0,1,0,0,0,0,0,0,0,0,0,0,0,0,0,0,0,0,0,0,0,0,0,0,0,0],"id":5,"left_children":[1,3,5,7,9,11,13,15,17,-1,19,21,23,25,-1,27,29,-1,-1,31,-1,33,35,37,39,41,43,-1,-1,-1,-1,45,47,49,51,-1,53,55,-1,57,-1,-1,59,-1,-1,-1,-1,-1,-1,-1,-1,-1,-1,-1,-1,-1,-1,-1,-1,-1,-1],"loss_changes":[8.900201E1,5.8496284E0,5.360224E1,3.3899932E0,8.413696E-1,3.6437744E1,7.6566544E0,3.8353658E0,2.3252E0,0E0,4.3600464E-1,2.0251862E1,1.2446529E1,4.3167534E0,0E0,1.7619247E0,3.813082E0,0E0,0E0,3.443489E-1,0E0,1.4231018E1,4.7427783E0,5.662169E0,5.321128E0,1.2272766E1,2.8578968E0,0E0,0E0,0E0,0E0,1.7186984E0,3.6449814E-1,2.2109344E1,4.3430023E0,0E0,2.142478E0,4.1235075E0,0E0,4.696701E0,0E0,0E0,1.5545979E0,0E0,0E0,0E0,0E0,0E0,0E0,0E0,0E0,0E0,0E0,0E0,0E0,0E0,0E0,0E0,0E0,0E0,0E0],"parents":[2147483647,0,0,1,1,2,2,3,3,4,4,5,5,6,6,7,7,8,8,10,10,11,11,12,12,13,13,15,15,16,16,19,19,21,21,22,22,23,23,24,24,25,25,26,26,31,31,32,32,33,33,34,34,36,36,37,37,39,39,42,42],"right_children":[2,4,6,8,10,12,14,16,18,-1,20,22,24,26,-1,28,30,-1,-1,32,-1,34,36,38,40,42,44,-1,-1,-1,-1,46,48,50,52,-1,54,56,-1,58,-1,-1,60,-1,-1,-1,-1,-1,-1,-1,-1,-1,-1,-1,-1,-1,-1,-1,-1,-1,-1],"split_conditions":[1.4540001E1,4.9000002E-2,3.5E-2,3.45E-1,3.25E-1,3.935E-1,1.1E-1,1.535E0,1.5E-2,4.8301417E-2,3.835E0,2.6999998E-1,3.55E1,1.595E2,-2.616828E-1,1.95E-1,2.2999999E-1,2.9988283E-1,-6.934891E-2,2.05E-1,6.574415E-2,2.15E-1,7.35E-1,3.8035002E0,4.15E-1,9.95E-1,2.65E-2,2.9914455E-2,-3.6213842E-1,2.5948456E-1,-1.8524896E-1,3.605E0,1.03E0,3.9E-1,8.2E-1,-2.617069E-1,9E0,6.760001E0,2.42462E-1,6.15E-1,-2.816082E-1,-4.171657E-1,1.8050001E0,-6.713695E-2,3.4399354E-1,2.4777384E-1,-1.1312975E-1,3.17161E-1,8.141807E-2,-2.0119976E-1,2.585284E-1,-3.300364E-1,1.686489E-1,-5.343013E-2,3.1560403E-1,2.279029E-1,-2.3144661E-1,-1.3992634E-1,2.0338355E-1,1.4333807E-1,4.211751E-1],"split_indices":[2,15,12,0,10,15,13,9,15,0,10,11,18,18,0,2,3,0,0,11,0,13,5,15,13,10,15,0,0,0,0,9,5,7,5,0,17,6,0,10,0,0,12,0,0,0,0,0,0,0,0,0,0,0,0,0,0,0,0,0,0],"split_type":[0,0,0,0,0,0,0,0,0,0,0,0,0,0,0,0,0,0,0,0,0,0,0,0,0,0,0,0,0,0,0,0,0,0,0,0,0,0,0,0,0,0,0,0,0,0,0,0,0,0,0,0,0,0,0,0,0,0,0,0,0],"sum_hessian":[4.9390524E2,6.466385E1,4.292414E2,1.6321281E1,4.8342564E1,3.9188174E2,3.7359653E1,9.298819E0,7.022463E0,1.7170558E0,4.662551E1,3.324617E2,5.942004E1,3.5154835E1,2.2048209E0,3.6766758E0,5.6221423E0,5.4349775E0,1.5874851E0,4.525192E1,1.3735907E0,3.222094E2,1.0252287E1,2.100107E1,3.8418972E1,1.3574335E1,2.1580498E1,1.2758042E0,2.4008715E0,3.7681234E0,1.854019E0,3.7394323E0,4.1512486E1,2.283534E2,9.3856026E1,1.0166539E0,9.235633E0,1.8764997E1,2.2360723E0,3.6798504E1,1.6204696E0,2.4121351E0,1.11622E1,1.319089E0,2.026141E1,2.686714E0,1.0527184E0,4.008462E1,1.4278634E0,2.193478E2,9.005597E0,9.282658E1,1.0294504E0,1.3720567E0,7.8635764E0,1.149758E0,1.761524E1,3.3013244E0,3.3497177E1,8.925961E0,2.2362394E0],"tree_param":{"num_deleted":"0","num_feature":"19","num_nodes":"61","size_leaf_vector":"0"}},{"base_weights":[-2.4546961E-1,-4.5821768E-1,4.5893377E-1,-5.788795E-1,4.1303086E-1,5.534528E-1,-5.195008E-1,-4.2733616E-1,-1.0280659E0,5.637297E-1,-6.2342256E-1,2.4015842E-1,8.1384724E-1,-8.205075E-1,4.3673557E-1,-7.721535E-1,-2.5501512E-2,-1.0627686E0,1.3771622E-1,-5.0624573E-1,6.6974205E-1,1.5943992E-1,-8.375472E-1,-4.45709E-2,8.6242646E-1,-3.7831604E-1,8.6645937E-1,5.0574772E-2,-9.731642E-1,-8.409653E-1,8.288285E-1,-1.5747376E-1,1.06417E0,-1.7313753E-1,-1.084424E0,-8.1861603E-1,1.3360874E-1,9.78781E-1,4.441023E-1,3.5437506E-1,-1.0380539E0,1.0242184E0,2.532478E-1,9.102667E-1,-4.3738997E-1,-8.675486E-1,9.826243E-1,-4.6412197E-1,1.2613746E0,-2.27167E-1,1.6288958E0,1.2459352E0,-1.6812177E-2,2.7324435E-1,1.0356425E0,-8.168148E-1,6.456057E-1,-1.2190852E-1,8.769832E-1,-1.282068E0,3.7479365E-1,1.1108264E0,1.5905245E-1,-6.160416E-1,7.623981E-1,1.1902647E-1,9.7982043E-1],"categories":[],"categories_nodes":[],"categories_segments":[],"categories_sizes":[],"default_left":[1,1,1,1,1,1,0,1,1,1,0,1,1,0,0,1,1,0,0,1,0,0,0,1,1,0,1,0,0,1,1,1,0,0,0,0,0,0,0,0,1,1,1,0,0,0,0,0,0,0,0,0,0,0,0,0,0,0,0,0,0,0,0,0,0,0,0],"id":6,"left_children":[1,3,5,7,9,11,13,15,17,19,21,23,25,27,-1,29,31,33,-1,35,37,-1,-1,39,41,-1,43,-1,-1,45,47,49,51,-1,-1,-1,-1,53,55,57,59,61,63,65,-1,-1,-1,-1,-1,-1,-1,-1,-1,-1,-1,-1,-1,-1,-1,-1,-1,-1,-1,-1,-1,-1,-1],"loss_changes":[6.47519E1,3.506494E1,9.572796E0,1.9396194E1,6.7368875E0,7.3133297E0,3.0526114E0,3.040752E1,3.091423E0,4.4472227E0,1.0830748E0,7.6918097E0,3.4542427E0,1.0421276E0,0E0,1.3713051E1,1.4900232E1,1.176384E0,0E0,8.7576735E-1,1.8931704E0,0E0,0E0,1.2490703E1,1.0819674E0,0E0,3.1422691E0,0E0,0E0,6.368019E0,3.5900683E0,1.1855165E1,2.220828E0,0E0,0E0,0E0,0E0,2.4887466E-1,5.894928E0,5.7244644E0,3.5894632E0,6.0446453E-1,2.3217182E0,2.4592743E0,0E0,0E0,0E0,0E0,0E0,0E0,0E0,0E0,0E0,0E0,0E0,0E0,0E0,0E0,0E0,0E0,0E0,0E0,0E0,0E0,0E0,0E0,0E0],"parents":[2147483647,0,0,1,1,2,2,3,3,4,4,5,5,6,6,7,7,8,8,9,9,10,10,11,11,12,12,13,13,15,15,16,16,17,17,19,19,20,20,23,23,24,24,26,26,29,29,30,30,31,31,32,32,37,37,38,38,39,39,40,40,41,41,42,42,43,43],"right_children":[2,4,6,8,10,12,14,16,18,20,22,24,26,28,-1,30,32,34,-1,36,38,-1,-1,40,42,-1,44,-1,-1,46,48,50,52,-1,-1,-1,-1,54,56,58,60,62,64,66,-1,-1,-1,-1,-1,-1,-1,-1,-1,-1,-1,-1,-1,-1,-1,-1,-1,-1,-1,-1,-1,-1,-1],"split_conditions":[9.5E-2,8.05E-2,2.2E-1,9.5E-2,2.4E-1,9.5E-2,8.75E-1,9.5E0,4.15E-1,9.5E0,6.460001E0,4.2E-2,4.5E0,2.1000009E0,1.3102068E-1,8.5E-2,7.1500003E-1,1.95E-1,4.1314866E-2,2.9099998E0,9.520001E0,4.783198E-2,-2.5126415E-1,4.5E1,4.95E-1,-1.1349482E-1,8.0499995E-1,1.5172432E-2,-2.9194927E-1,5.4999995E-1,1.385E0,6.0950003E0,5.84E0,-5.194126E-2,-3.2532722E-1,-2.4558482E-1,4.0082626E-2,2.45E-1,1.105E-1,1.41E0,1.19E2,4.35E-1,1.535E-1,2.6E-1,-1.31217E-1,-2.6026458E-1,2.947873E-1,-1.392366E-1,3.784124E-1,-6.81501E-2,4.8866874E-1,3.7378058E-1,-5.0436533E-3,8.197331E-2,3.1069276E-1,-2.4504444E-1,1.9368172E-1,-3.6572557E-2,2.63095E-1,-3.8462043E-1,1.124381E-1,3.3324793E-1,4.7715735E-2,-1.8481249E-1,2.2871944E-1,3.5707943E-2,2.9394615E-1],"split_indices":[6,16,13,13,13,0,6,17,5,17,4,16,17,2,0,7,0,11,0,9,11,0,0,17,8,0,5,0,0,5,9,9,9,0,0,0,0,7,15,6,17,5,15,11,0,0,0,0,0,0,0,0,0,0,0,0,0,0,0,0,0,0,0,0,0,0,0],"split_type":[0,0,0,0,0,0,0,0,0,0,0,0,0,0,0,0,0,0,0,0,0,0,0,0,0,0,0,0,0,0,0,0,0,0,0,0,0,0,0,0,0,0,0,0,0,0,0,0,0,0,0,0,0,0,0,0,0,0,0,0,0,0,0,0,0,0,0],"sum_hessian":[4.296781E2,3.3027576E2,9.9402336E1,2.9039383E2,3.9881935E1,9.104184E1,8.360501E0,2.1859662E2,7.179722E1,3.5217464E1,4.664472E0,4.2195946E1,4.884589E1,6.466803E0,1.8936977E0,1.1714878E2,1.0144783E2,6.980758E1,1.9896462E0,2.834428E0,3.2383038E1,1.0566467E0,3.6078253E0,2.958651E1,1.2609437E1,1.8028818E0,4.704301E1,1.0640239E0,5.4027796E0,1.1277627E2,4.372516E0,9.125165E1,1.019618E1,1.8726385E0,6.793494E1,1.7168844E0,1.1175437E0,1.2257379E1,2.0125658E1,2.1568642E1,8.017867E0,9.424952E0,3.184486E0,4.5805866E1,1.2371441E0,1.1167262E2,1.1036413E0,1.0777991E0,3.2947173E0,8.8665306E1,2.5863454E0,8.597869E0,1.5983115E0,1.3471678E0,1.0910212E1,2.3523176E0,1.777334E1,1.1685598E1,9.883044E0,6.915969E0,1.1018984E0,8.309207E0,1.115744E0,1.0986992E0,2.0857868E0,3.9202764E0,4.188559E1],"tree_param":{"num_deleted":"0","num_feature":"19","num_nodes":"67","size_leaf_vector":"0"}},{"base_weights":[-2.0168981E-1,6.722944E-1,-3.279577E-1,1.8559486E-1,8.562408E-1,-1.806304E-1,-9.2500645E-1,-5.428098E-1,3.8356012E-1,3.748562E-1,9.445822E-1,-6.151978E-1,1.4709742E-1,-9.5489395E-1,4.3009347E-1,1.1486426E-1,-8.9540964E-1,9.3524307E-1,-1.0798174E-1,5.862447E-1,-4.4729048E-1,1.3606464E-2,9.793362E-1,-6.9106126E-1,2.9675952E-1,-3.9636075E-2,6.0596997E-1,-9.8180646E-1,3.598433E-1,5.855158E-1,-4.730205E-1,6.2205512E-2,8.2633173E-1,1.4059448E-1,1.009719E0,-7.5504637E-1,5.771053E-1,-2.557194E-1,8.8925076E-1,-1.0637398E-1,1.4407463E0,1.7708632E-1,9.798712E-1,-1.0041803E0,1.9467601E-1,-8.672287E-1,4.1757604E-1,1.0425533E0,2.7876398E-1,-8.0254704E-1,4.8657066E-1,-1.1031352E-1,1.1400799E0,-3.874924E-3,-6.377584E-1,2.6944634E-1,1.2415063E0,-1.9512574E-1,9.1459155E-1,1.6814697E0,4.983396E-1,-1.0851144E0,4.914242E-1,5.749389E-1,1.3124367E0,-6.115266E-2,-1.0186466E0],"categories":[],"categories_nodes":[],"categories_segments":[],"categories_sizes":[],"default_left":[0,1,1,0,0,1,1,0,0,0,0,1,1,1,0,0,0,0,0,1,0,0,0,1,1,1,1,1,0,0,1,0,0,0,1,1,1,1,1,1,1,0,0,0,0,0,0,0,0,0,0,0,0,0,0,0,0,0,0,0,0,0,0,0,0,0,0],"id":7,"left_children":[1,3,5,7,9,11,13,15,17,19,21,23,25,27,-1,-1,-1,-1,29,31,-1,-1,33,35,37,39,41,43,-1,-1,45,-1,-1,-1,47,49,51,53,55,57,59,61,63,65,-1,-1,-1,-1,-1,-1,-1,-1,-1,-1,-1,-1,-1,-1,-1,-1,-1,-1,-1,-1,-1,-1,-1],"loss_changes":[4.195961E1,4.1449127E0,2.89613E1,2.2936556E0,1.1177826E0,3.809529E1,3.055313E0,9.155649E-1,3.3436244E0,1.483059E0,9.1157913E-1,8.155594E0,1.3128325E1,2.624878E0,0E0,0E0,0E0,0E0,2.104735E0,7.060931E-1,0E0,0E0,5.599365E-1,9.068863E0,3.3453493E0,1.098516E1,6.9296627E0,1.8585548E0,0E0,0E0,2.2170033E0,0E0,0E0,0E0,3.4342957E-1,6.389454E0,2.3227563E0,5.4649585E-1,7.17716E-1,9.768806E0,2.5056553E-1,9.202925E0,2.4025383E0,7.857475E-1,0E0,0E0,0E0,0E0,0E0,0E0,0E0,0E0,0E0,0E0,0E0,0E0,0E0,0E0,0E0,0E0,0E0,0E0,0E0,0E0,0E0,0E0,0E0],"parents":[2147483647,0,0,1,1,2,2,3,3,4,4,5,5,6,6,7,7,8,8,9,9,10,10,11,11,12,12,13,13,18,18,19,19,22,22,23,23,24,24,25,25,26,26,27,27,30,30,34,34,35,35,36,36,37,37,38,38,39,39,40,40,41,41,42,42,43,43],"right_children":[2,4,6,8,10,12,14,16,18,20,22,24,26,28,-1,-1,-1,-1,30,32,-1,-1,34,36,38,40,42,44,-1,-1,46,-1,-1,-1,48,50,52,54,56,58,60,62,64,66,-1,-1,-1,-1,-1,-1,-1,-1,-1,-1,-1,-1,-1,-1,-1,-1,-1,-1,-1,-1,-1,-1,-1],"split_conditions":[1.4540001E1,4.9000002E-2,1.2E-1,4E-1,1.035E-1,9.5E0,8.2E-1,2.55E-1,6.39E-1,8.2850003E-1,4.85E-1,9.8399997E-1,1.85E-1,1.09E0,1.2902805E-1,3.4459278E-2,-2.686229E-1,2.8057292E-1,1.2500001E1,3.25E2,-1.3418715E-1,4.0819393E-3,1.05000004E-1,2.5E-1,4.5E0,7.8499997E-1,1.73E2,2.89E2,1.07953E-1,1.7565474E-1,1.4300001E0,1.8661654E-2,2.4789953E-1,4.2178348E-2,1.545E0,8.5E-2,5.5E0,2.055E0,3.09E0,2.0500001E-1,1.155E2,4.15E-1,1.915E0,5.5E-2,5.8402807E-2,-2.601686E-1,1.2527283E-1,3.1276602E-1,8.36292E-2,-2.4076413E-1,1.4597121E-1,-3.3094056E-2,3.4202397E-1,-1.1624773E-3,-1.9132753E-1,8.0833904E-2,3.724519E-1,-5.8537725E-2,2.7437747E-1,5.044409E-1,1.4950189E-1,-3.255343E-1,1.4742726E-1,1.7248167E-1,3.9373103E-1,-1.83458E-2,-3.05594E-1],"split_indices":[2,15,13,5,16,17,5,5,16,15,9,15,0,6,0,0,0,0,0,18,0,0,11,3,17,1,18,17,0,0,9,0,0,0,8,7,17,9,9,11,18,0,9,1,0,0,0,0,0,0,0,0,0,0,0,0,0,0,0,0,0,0,0,0,0,0,0],"split_type":[0,0,0,0,0,0,0,0,0,0,0,0,0,0,0,0,0,0,0,0,0,0,0,0,0,0,0,0,0,0,0,0,0,0,0,0,0,0,0,0,0,0,0,0,0,0,0,0,0,0,0,0,0,0,0,0,0,0,0,0,0,0,0,0,0,0,0],"sum_hessian":[3.772221E2,4.7073143E1,3.3014896E2,1.3462361E1,3.361078E1,2.6585046E2,6.429851E1,2.5046532E0,1.0957707E1,6.0246882E0,2.7586092E1,1.1391797E2,1.519325E2,6.3199932E1,1.0985761E0,1.1094773E0,1.3951759E0,4.737685E0,6.2200227E0,5.020709E0,1.0039794E0,1.0428243E0,2.6543268E1,1.0539283E2,8.525145E0,1.08637276E2,4.329521E1,6.2180336E1,1.0195937E0,1.9367048E0,4.283318E0,1.9731027E0,3.0476062E0,1.1246226E0,2.5418646E1,1.0071584E2,4.6769867E0,4.7056646E0,3.8194802E0,1.0483911E2,3.7981634E0,2.0851316E1,2.2443893E1,6.1163605E1,1.0167313E0,2.9872835E0,1.2960342E0,2.3917969E1,1.5006765E0,9.734532E1,3.3705204E0,2.467772E0,2.2092147E0,3.4448938E0,1.2607708E0,2.0236766E0,1.7958034E0,9.719859E1,7.64052E0,2.4007096E0,1.3974535E0,3.6685317E0,1.7182785E1,1.1351315E1,1.109258E1,1.0030615E0,6.0160545E1],"tree_param":{"num_deleted":"0","num_feature":"19","num_nodes":"67","size_leaf_vector":"0"}},{"base_weights":[-1.5863512E-1,-3.6090818E-1,2.8931445E-1,-4.1523716E-1,9.4398624E-1,8.601972E-1,9.692314E-2,-3.0371717E-1,-1.0012453E0,3.016352E-1,1.0183815E0,1.0775547E-1,9.162872E-1,-1.9334336E-1,4.926751E-1,-6.48907E-1,-4.1815463E-2,-1.0336019E0,6.443755E-3,9.890293E-1,2.4252306E-1,-3.8746235E-1,5.629339E-1,6.6093266E-1,-3.021793E-1,-7.319764E-1,2.2662751E-1,-2.9022834E-1,3.381726E-1,2.4939495E-1,1.0149237E0,-4.591182E-1,6.739491E-1,-4.7783533E-1,8.00911E-1,-2.4038485E-1,7.6195073E-1,-2.7501777E-1,8.2690555E-1,6.3449806E-1,-5.8633643E-1,-8.033406E-1,9.7371444E-2,-2.7062878E-1,7.339454E-1,-5.166683E-1,4.3456128E-1,4.3744424E-1,-7.9451025E-1,-5.629152E-1,4.799695E-1,-1.5594211E-1,1.0202702E0,-5.794784E-2,-5.364496E-1,-1.6624321E-1,9.4612E-1,-8.887303E-1,2.8239343E-1],"categories":[],"categories_nodes":[],"categories_segments":[],"categories_sizes":[],"default_left":[1,1,0,1,1,1,1,1,1,0,0,0,1,1,0,1,0,0,0,1,0,1,1,1,0,1,1,1,1,0,0,0,0,1,0,0,0,1,0,0,1,0,0,0,0,0,0,0,0,0,0,0,0,0,0,0,0,0,0],"id":8,"left_children":[1,3,5,7,9,11,13,15,17,-1,-1,-1,19,21,23,25,27,-1,-1,29,31,33,35,37,39,41,43,45,47,-1,-1,-1,-1,49,-1,-1,51,53,55,-1,57,-1,-1,-1,-1,-1,-1,-1,-1,-1,-1,-1,-1,-1,-1,-1,-1,-1,-1],"loss_changes":[3.0488892E1,1.6801435E1,1.143517E1,1.4263351E1,1.4954472E-1,1.0115566E0,9.235272E0,1.7032963E1,1.1544647E0,0E0,0E0,0E0,9.53516E-1,7.0620503E0,4.7398777E0,6.0817184E0,1.0327261E1,0E0,0E0,1.6156387E-1,1.4286922E0,4.4303656E0,1.7706311E0,4.62836E0,2.1332219E0,4.4891815E0,2.1693864E0,1.1067393E1,5.216353E0,0E0,0E0,0E0,0E0,3.1754255E0,0E0,0E0,2.1028805E0,2.5365815E-1,3.0358906E0,0E0,1.721175E0,0E0,0E0,0E0,0E0,0E0,0E0,0E0,0E0,0E0,0E0,0E0,0E0,0E0,0E0,0E0,0E0,0E0,0E0],"parents":[2147483647,0,0,1,1,2,2,3,3,4,4,5,5,6,6,7,7,8,8,12,12,13,13,14,14,15,15,16,16,19,19,20,20,21,21,22,22,23,23,24,24,25,25,26,26,27,27,28,28,33,33,36,36,37,37,38,38,40,40],"right_children":[2,4,6,8,10,12,14,16,18,-1,-1,-1,20,22,24,26,28,-1,-1,30,32,34,36,38,40,42,44,46,48,-1,-1,-1,-1,50,-1,-1,52,54,56,-1,58,-1,-1,-1,-1,-1,-1,-1,-1,-1,-1,-1,-1,-1,-1,-1,-1,-1,-1],"split_conditions":[9.15E-1,3.9499998E-1,1.5799999E0,6.0000002E-2,8.5E0,8.05E-1,1.645E-1,9.5E0,1.6499999E-1,9.0490565E-2,3.0551445E-1,3.2326642E-2,8.605E-1,8.05E-1,4.935E0,1.0665E0,3.6550002E0,-3.100806E-1,1.9331265E-3,1.05E1,1.0715E0,5.795E0,3E1,4.05E1,1.4280001E1,8.45E-1,4.5E0,4.15E2,2.065E0,7.481849E-2,3.0447713E-1,-1.3773546E-1,2.0218475E-1,2.8649998E-1,2.4027331E-1,-7.211546E-2,7.9500005E-2,9.5E0,6.2E-1,1.9034943E-1,5.505E0,-2.4100219E-1,2.9211434E-2,-8.1188634E-2,2.2018364E-1,-1.5500051E-1,1.303684E-1,1.3123327E-1,-2.3835309E-1,-1.6887456E-1,1.4399086E-1,-4.6782635E-2,3.060811E-1,-1.7384352E-2,-1.609349E-1,-4.9872965E-2,2.83836E-1,-2.666191E-1,8.471803E-2],"split_indices":[10,11,12,14,17,9,15,17,2,0,0,0,15,0,9,15,9,0,0,17,15,9,18,18,7,6,17,18,13,0,0,0,0,16,0,0,15,17,4,0,9,0,0,0,0,0,0,0,0,0,0,0,0,0,0,0,0,0,0],"split_type":[0,0,0,0,0,0,0,0,0,0,0,0,0,0,0,0,0,0,0,0,0,0,0,0,0,0,0,0,0,0,0,0,0,0,0,0,0,0,0,0,0,0,0,0,0,0,0,0,0,0,0,0,0,0,0,0,0,0,0],"sum_hessian":[3.3433942E2,2.3046605E2,1.0387337E2,2.2190872E2,8.557333E0,2.5307459E1,7.856591E1,1.8770575E2,3.420297E1,1.4128499E0,7.1444826E0,1.9582919E0,2.3349167E1,4.5618336E1,3.294757E1,8.033953E1,1.0736622E2,3.311397E1,1.088995E0,2.0651623E1,2.697544E0,3.6688828E1,8.929507E0,2.7330616E1,5.6169553E0,7.3527336E1,6.8121963E0,6.506617E1,4.230005E1,1.0581578E0,1.9593466E1,1.0026753E0,1.6948688E0,3.4651566E1,2.0372622E0,1.7317095E0,7.1977983E0,4.017608E0,2.3313007E1,1.0204142E0,4.596541E0,6.773057E1,5.796762E0,3.6758244E0,3.1363719E0,4.9795975E1,1.5270196E1,3.9455822E1,2.8442256E0,3.22033E1,2.4482677E0,1.6678191E0,5.5299788E0,2.8624983E0,1.1551098E0,2.4562297E0,2.085678E1,3.3925982E0,1.203943E0],"tree_param":{"num_deleted":"0","num_feature":"19","num_nodes":"59","size_leaf_vector":"0"}},{"base_weights":[-1.2558624E-1,-1.1112294E-2,-7.774571E-1,-5.177738E-1,1.5631866E-1,-8.573093E-1,3.6135927E-1,9.409198E-1,-5.748123E-1,-2.4321867E-2,4.7846237E-1,-9.02307E-1,3.9168727E-1,-6.175599E-1,9.7269994E-1,-7.3177946E-1,-1.4136092E-1,-9.0217985E-2,1.0362343E0,1.4398475E-1,7.8337234E-1,-9.6195036E-1,-1.9039045E-1,-7.8897786E-1,-7.026397E-2,-3.7626746E-1,7.75359E-1,-1.4274381E-1,1.220247E0,1.2117493E0,4.630873E-2,3.384078E-1,-7.0945066E-1,2.5212276E-1,9.0403765E-1,-9.915733E-1,-6.480668E-2,-7.167923E-1,5.353831E-1,-8.146792E-1,4.0432952E-2,4.9021775E-1,-7.607699E-1,-5.103892E-1,2.9400927E-1,-2.3330165E-1,4.1384226E-1,-8.3903946E-2,6.435832E-1,2.7914095E-1,-1.3122826E0,7.818159E-1,-6.3447744E-1,4.2745084E-1,9.8805165E-1],"categories":[],"categories_nodes":[],"categories_segments":[],"categories_sizes":[],"default_left":[1,1,1,1,1,1,1,0,1,1,1,1,0,0,0,1,1,1,1,1,0,1,0,1,0,1,0,1,0,0,0,1,1,0,0,0,0,0,0,0,0,0,0,0,0,0,0,0,0,0,0,0,0,0,0],"id":9,"left_children":[1,3,5,7,9,11,13,-1,15,17,19,21,-1,-1,-1,23,25,27,29,31,33,35,37,39,41,43,-1,45,-1,-1,-1,47,49,51,53,-1,-1,-1,-1,-1,-1,-1,-1,-1,-1,-1,-1,-1,-1,-1,-1,-1,-1,-1,-1],"loss_changes":[2.2632662E1,2.206095E1,4.429983E0,5.914688E0,1.1389142E1,2.7496452E0,2.7983747E0,0E0,4.1678467E0,8.9147415E0,7.056122E0,1.5771217E0,0E0,0E0,0E0,1.6793747E0,4.1527486E0,8.417557E0,1.2407255E0,6.005501E0,2.1148472E0,9.457474E-1,2.084412E0,9.304333E-1,2.209959E0,1.4936457E0,0E0,5.9452753E0,0E0,0E0,0E0,3.788484E0,4.400893E0,4.3241205E0,7.5465393E-1,0E0,0E0,0E0,0E0,0E0,0E0,0E0,0E0,0E0,0E0,0E0,0E0,0E0,0E0,0E0,0E0,0E0,0E0,0E0,0E0],"parents":[2147483647,0,0,1,1,2,2,3,3,4,4,5,5,6,6,8,8,9,9,10,10,11,11,15,15,16,16,17,17,18,18,19,19,20,20,21,21,22,22,23,23,24,24,25,25,27,27,31,31,32,32,33,33,34,34],"right_children":[2,4,6,8,10,12,14,-1,16,18,20,22,-1,-1,-1,24,26,28,30,32,34,36,38,40,42,44,-1,46,-1,-1,-1,48,50,52,54,-1,-1,-1,-1,-1,-1,-1,-1,-1,-1,-1,-1,-1,-1,-1,-1,-1,-1,-1,-1],"split_conditions":[2.15E-1,5.5E0,3.25E-1,2.5E0,9.5E-2,1.05E0,5.15E-1,2.8227594E-1,3.04E0,1.48E0,2.75E1,9.095E2,1.1750618E-1,-1.8526798E-1,2.9181E-1,1.0899999E0,7.95E-1,7.8499997E-1,5.35E1,1.9E-1,4.25E-1,1.64E-1,1.605E0,5E-1,1.846E0,7.035E-1,2.326077E-1,1.3949999E-1,3.6607412E-1,3.635248E-1,1.389262E-2,4.3E-1,1.35E1,3.05E-1,7.5E-2,-2.97472E-1,-1.9442003E-2,-2.1503769E-1,1.6061494E-1,-2.4440376E-1,1.2129886E-2,1.4706533E-1,-2.2823098E-1,-1.5311676E-1,8.820278E-2,-6.99905E-2,1.2415268E-1,-2.5171185E-2,1.9307496E-1,8.374229E-2,-3.9368477E-1,2.3454477E-1,-1.9034325E-1,1.2823525E-1,2.964155E-1],"split_indices":[13,17,5,18,0,6,10,0,9,6,17,18,0,0,0,15,0,1,17,5,8,16,14,3,15,15,0,16,0,0,0,10,17,8,15,0,0,0,0,0,0,0,0,0,0,0,0,0,0,0,0,0,0,0,0],"split_type":[0,0,0,0,0,0,0,0,0,0,0,0,0,0,0,0,0,0,0,0,0,0,0,0,0,0,0,0,0,0,0,0,0,0,0,0,0,0,0,0,0,0,0,0,0,0,0,0,0,0,0,0,0,0,0],"sum_hessian":[3.0241226E2,2.581041E2,4.4308178E1,6.3588116E1,1.9451598E2,4.163592E1,2.672258E0,1.8097433E0,6.177837E1,1.25222534E2,6.9293434E1,4.0455986E1,1.1799366E0,1.0233803E0,1.6488775E0,4.484885E1,1.6929522E1,1.18758575E2,6.4639583E0,3.3746593E1,3.554684E1,3.7004578E1,3.4514072E0,4.1102234E1,3.746616E0,1.3945565E1,2.9839563E0,1.1503869E2,3.719887E0,5.3001533E0,1.1638051E0,2.7976645E1,5.769948E0,7.151329E0,2.839551E1,3.5719883E1,1.2846953E0,2.0076432E0,1.443764E0,3.9884087E1,1.2181481E0,2.2281184E0,1.5184975E0,1.1819112E1,2.1264536E0,9.944035E1,1.5598339E1,1.204015E1,1.5936496E1,2.3890557E0,3.3808923E0,4.5507197E0,2.600609E0,5.1678233E0,2.3227688E1],"tree_param":{"num_deleted":"0","num_feature":"19","num_nodes":"55","size_leaf_vector":"0"}},{"base_weights":[-9.705196E-2,-1.2300135E-2,-8.049224E-1,6.451938E-1,-1.0024469E-1,-9.025583E-1,1.997974E-2,7.682487E-1,1.2793745E-1,-4.702211E-1,2.6917635E-2,-9.547967E-1,-7.761874E-2,-2.600159E-1,3.9927965E-1,4.403114E-1,9.2408884E-1,-4.259464E-1,4.6891394E-1,6.5106964E-1,-5.270729E-1,-1.1428875E-1,3.5816556E-1,-9.8608667E-1,-1.3098493E-1,6.256419E-1,-2.9484835E-1,1.6609655E-1,9.774425E-1,1.00810304E-1,-7.653808E-1,-1.3540597E-1,6.7104375E-1,8.618324E-1,1.5240833E-1,-5.886609E-1,2.1628742E-1,-1.5759301E-1,9.521604E-1,5.6233186E-2,6.2274104E-1,-4.7133857E-1,-1.026564E0,3.411072E-2,7.201854E-1,-6.4060503E-1,2.575241E-1,-4.655975E-1,6.331807E-1,-2.1054423E-1,7.367994E-1,1.1327105E0,1.6288058E-1,7.12273E-1,-1.5051505E-1,-9.176227E-2,7.5019765E-1,-6.3417184E-1,-2.8490407E-2],"categories":[],"categories_nodes":[],"categories_segments":[],"categories_sizes":[],"default_left":[1,0,1,1,1,1,0,0,0,1,1,1,0,0,0,1,0,0,0,0,1,1,1,0,0,0,0,0,0,0,0,0,0,0,0,1,0,1,1,0,0,0,0,0,0,0,0,0,0,0,0,0,0,0,0,0,0,0,0],"id":10,"left_children":[1,3,5,7,9,11,13,15,17,19,21,23,-1,-1,-1,25,27,29,31,33,35,37,39,41,-1,43,-1,-1,-1,-1,-1,-1,-1,-1,-1,45,47,49,51,53,55,57,-1,-1,-1,-1,-1,-1,-1,-1,-1,-1,-1,-1,-1,-1,-1,-1,-1],"loss_changes":[1.6560675E1,1.4386795E1,2.3954296E0,1.7702513E0,1.0331622E1,1.0642376E0,5.395001E-1,7.948456E-1,1.4918169E0,3.9230194E0,7.7201505E0,5.089264E-1,0E0,0E0,0E0,1.4767716E0,4.4547462E-1,6.3695455E-1,6.6626585E-1,2.0047462E-1,2.599536E0,5.5009246E0,3.9040985E0,9.845734E-3,0E0,4.169979E-1,0E0,0E0,0E0,0E0,0E0,0E0,0E0,0E0,0E0,2.3687E0,1.6772029E0,5.4689274E0,4.800372E-1,3.3799057E0,2.4531717E0,2.3982435E-1,0E0,0E0,0E0,0E0,0E0,0E0,0E0,0E0,0E0,0E0,0E0,0E0,0E0,0E0,0E0,0E0,0E0],"parents":[2147483647,0,0,1,1,2,2,3,3,4,4,5,5,6,6,7,7,8,8,9,9,10,10,11,11,15,15,16,16,17,17,18,18,19,19,20,20,21,21,22,22,23,23,25,25,35,35,36,36,37,37,38,38,39,39,40,40,41,41],"right_children":[2,4,6,8,10,12,14,16,18,20,22,24,-1,-1,-1,26,28,30,32,34,36,38,40,42,-1,44,-1,-1,-1,-1,-1,-1,-1,-1,-1,46,48,50,52,54,56,58,-1,-1,-1,-1,-1,-1,-1,-1,-1,-1,-1,-1,-1,-1,-1,-1,-1],"split_conditions":[1.2E-1,2.21E0,3.35E-1,2.05E0,5.5E0,2.52E-1,3.1950002E0,2.475E-1,1.4649999E-1,2.5E0,9.25E-1,8.15E1,-2.3285624E-2,-7.800478E-2,1.197839E-1,6.15E-1,6.35E-1,2.6200008E0,1.735E0,2.5E1,1.24E0,1.78E0,2.005E0,3.9499998E-1,-3.929548E-2,2.9500002E-1,-8.845451E-2,4.982897E-2,2.9323277E-1,3.0243093E-2,-2.2961424E-1,-4.0621795E-2,2.0131314E-1,2.5854972E-1,4.57225E-2,2.8E-1,4E0,5.9000003E-1,2.18E0,2.82E-1,5.65E-1,2.75E-1,-3.079692E-1,1.0233217E-2,2.1605563E-1,-1.9218151E-1,7.725723E-2,-1.3967925E-1,1.899542E-1,-6.316327E-2,2.2103983E-1,3.3981314E-1,4.886418E-2,2.136819E-1,-4.5154516E-2,-2.752868E-2,2.250593E-1,-1.9025156E-1,-8.547123E-3],"split_indices":[14,2,6,10,17,15,9,15,16,18,10,17,0,0,0,8,9,4,9,9,6,6,9,9,0,10,0,0,0,0,0,0,0,0,0,7,9,7,9,16,8,9,0,0,0,0,0,0,0,0,0,0,0,0,0,0,0,0,0],"split_type":[0,0,0,0,0,0,0,0,0,0,0,0,0,0,0,0,0,0,0,0,0,0,0,0,0,0,0,0,0,0,0,0,0,0,0,0,0,0,0,0,0,0,0,0,0,0,0,0,0,0,0,0,0,0,0,0,0,0,0],"sum_hessian":[2.7520706E2,2.4668889E2,2.8518162E1,2.8356054E1,2.1833282E2,2.5415792E1,3.1023684E0,2.251461E1,5.8414445E0,5.515694E1,1.6317589E2,2.3754173E1,1.6616193E0,1.9657527E0,1.1366156E0,8.48496E0,1.4029651E1,2.1308637E0,3.7105806E0,2.1572545E0,5.2999687E1,1.14865364E2,4.8310528E1,2.2695185E1,1.058989E0,6.8955846E0,1.5893745E0,1.1930592E0,1.2836592E1,1.1105083E0,1.0203552E0,1.0127633E0,2.6978173E0,1.0044321E0,1.1528224E0,4.9136776E1,3.862912E0,1.1120211E2,3.6632497E0,2.3128698E1,2.518183E1,2.576352E0,2.0118834E1,1.1377581E0,5.757827E0,4.65238E1,2.6129744E0,1.421322E0,2.4415898E0,1.057084E2,5.493718E0,2.6271603E0,1.0360893E0,4.9563656E0,1.8172333E1,3.854442E0,2.1327387E1,1.5678357E0,1.0085162E0],"tree_param":{"num_deleted":"0","num_feature":"19","num_nodes":"59","size_leaf_vector":"0"}},{"base_weights":[-7.168547E-2,1.5679682E-2,-6.554085E-1,-6.33412E-2,6.027251E-1,-7.3764634E-1,4.4352254E-1,-1.3947338E-1,6.756917E-1,7.4173903E-1,-2.0259625E-1,-8.547306E-1,-1.8407768E-1,-2.2347824E-1,2.7185643E-1,-5.6664544E-1,8.4352535E-1,-1.9722292E-1,9.0884244E-1,-8.5477036E-1,7.169852E-1,-9.077031E-1,2.1238434E-1,-5.282191E-1,4.6087137E-1,3.194735E-1,-2.7660933E-1,-8.720502E-1,3.4098226E-1,-1.6803351E-1,1.0581951E0,-4.7473443E-1,2.861739E-1,1.0136199E0,-3.8091838E-1,-4.3513197E-1,-9.581798E-1,-7.5892496E-1,1.09352574E-1,-7.655645E-1,4.8877096E-1,-3.1946725E-1,5.13702E-1,-1.4388402E-1,5.4316527E-1,-5.274805E-1,3.5394496E-1,3.5016526E-2,1.1763754E0,-1.4684403E-1,-5.803008E-1,1.0706598E0,1.7659976E-1,-7.1298754E-1,2.2457813E-1],"categories":[],"categories_nodes":[],"categories_segments":[],"categories_sizes":[],"default_left":[1,1,1,1,1,1,0,1,0,1,1,1,1,0,0,0,1,1,1,0,0,0,0,1,0,0,1,0,1,1,0,1,0,1,0,0,0,0,0,0,0,0,0,0,0,0,0,0,0,0,0,0,0,0,0],"id":11,"left_children":[1,3,5,7,9,11,-1,13,15,17,19,21,23,25,27,-1,29,31,33,-1,-1,35,-1,37,-1,39,41,-1,43,45,47,49,-1,51,-1,53,-1,-1,-1,-1,-1,-1,-1,-1,-1,-1,-1,-1,-1,-1,-1,-1,-1,-1,-1],"loss_changes":[1.3102869E1,1.0442566E1,3.3497925E0,1.1267321E1,3.1398144E0,1.8838367E0,0E0,6.310301E0,4.380724E0,3.7860718E0,3.4414806E0,1.6466866E0,1.7466351E0,4.4368687E0,2.7584693E0,0E0,3.8458815E0,7.1197253E-1,3.0473595E0,0E0,0E0,1.7209625E-1,0E0,8.011037E-1,0E0,2.927553E0,4.8329105E0,0E0,3.0259326E0,9.034452E-1,1.6603451E0,2.224344E-2,0E0,6.935291E-1,0E0,9.3273944E-1,0E0,0E0,0E0,0E0,0E0,0E0,0E0,0E0,0E0,0E0,0E0,0E0,0E0,0E0,0E0,0E0,0E0,0E0,0E0],"parents":[2147483647,0,0,1,1,2,2,3,3,4,4,5,5,7,7,8,8,9,9,10,10,11,11,12,12,13,13,14,14,16,16,17,17,18,18,21,21,23,23,25,25,26,26,28,28,29,29,30,30,31,31,33,33,35,35],"right_children":[2,4,6,8,10,12,-1,14,16,18,20,22,24,26,28,-1,30,32,34,-1,-1,36,-1,38,-1,40,42,-1,44,46,48,50,-1,52,-1,54,-1,-1,-1,-1,-1,-1,-1,-1,-1,-1,-1,-1,-1,-1,-1,-1,-1,-1,-1],"split_conditions":[1.2E-1,2.45E-1,4.15E-1,4.29E2,1.555E2,4.75E-2,1.3305677E-1,4.75E-1,1.55E-2,6.1E-1,2.365E2,6.8E-1,6.235E2,2.21E0,8.95E-1,-1.6999364E-1,3.6E1,1.525E2,3.835E0,-2.5643113E-1,2.1509558E-1,3.9499998E-1,6.371531E-2,3.5999998E-1,1.3826142E-1,2.7E-1,5.74E0,-2.6161507E-1,2.25E1,1.2E-1,6.5E-2,7.35E1,8.5852176E-2,4.75E-1,-1.1427552E-1,1.38E0,-2.8745395E-1,-2.276775E-1,3.2805774E-2,-2.2966936E-1,1.466313E-1,-9.584018E-2,1.541106E-1,-4.3165207E-2,1.6294959E-1,-1.5824415E-1,1.0618349E-1,1.0504958E-2,3.5291263E-1,-4.405321E-2,-1.7409025E-1,3.2119793E-1,5.2979928E-2,-2.1389627E-1,6.737344E-2],"split_indices":[13,7,5,18,17,16,0,15,15,9,17,6,18,3,4,0,17,18,10,0,0,10,0,8,0,11,9,0,18,5,1,18,0,4,0,13,0,0,0,0,0,0,0,0,0,0,0,0,0,0,0,0,0,0,0],"split_type":[0,0,0,0,0,0,0,0,0,0,0,0,0,0,0,0,0,0,0,0,0,0,0,0,0,0,0,0,0,0,0,0,0,0,0,0,0,0,0,0,0,0,0,0,0,0,0,0,0,0,0,0,0,0,0],"sum_hessian":[2.5573235E2,2.2328645E2,3.244589E1,1.9758243E2,2.5704031E1,3.0492743E1,1.9531461E0,1.7986476E2,1.7717665E1,2.1987514E1,3.716516E0,2.4720186E1,5.7725563E0,1.4974036E2,3.0124403E1,1.825884E0,1.5891781E1,3.2946236E0,1.8692892E1,2.2156436E0,1.5008723E0,2.369341E1,1.0267752E0,3.8820863E0,1.89047E0,1.2900097E1,1.3684026E2,1.0547535E0,2.906965E1,2.820128E0,1.3071653E1,2.104423E0,1.1902006E0,1.7486433E1,1.206458E0,3.2149513E0,2.0478458E1,2.7108328E0,1.1712536E0,1.2657591E0,1.1634337E1,1.3036636E2,6.473886E0,8.639392E0,2.0430258E1,1.6638323E0,1.1562958E0,1.4877077E0,1.1583945E1,1.0948422E0,1.0095807E0,1.6109497E1,1.3769366E0,2.2053478E0,1.0096035E0],"tree_param":{"num_deleted":"0","num_feature":"19","num_nodes":"55","size_leaf_vector":"0"}},{"base_weights":[-5.5294342E-2,4.974399E-3,-6.880545E-1,-6.327213E-2,5.4038626E-1,-7.950123E-1,1.19820565E-1,-1.1570603E-1,5.25997E-1,1.0285564E-1,6.6631705E-1,9.093994E-2,-8.51071E-1,4.343914E-1,-2.4051583E-1,-1.5808868E-1,8.6433583E-1,1.0363338E0,3.086839E-1,-8.925706E-1,7.956768E-1,8.695434E-1,2.3709327E-1,-1.2835516E-1,-9.091546E-1,-2.4787529E-1,1.7480175E-1,2.3984692E-1,9.2641366E-1,1.2572641E0,1.5036619E-1,-4.777556E-2,7.943851E-1,2.4253981E-1,8.867765E-1,3.3422017E-1,9.8288435E-1,4.963225E-1,-5.234865E-1,-9.650473E-1,-2.9657263E-1,-2.8106877E-1,8.5590446E-1,7.2359514E-1,-2.0986229E-1,-2.9631898E-1,6.8418354E-1,9.701398E-2,9.317762E-1,-1.6195604E-1,6.385626E-1,2.0955661E-1,1.059769E0,8.1521225E-1,-1.0840368E-1],"categories":[],"categories_nodes":[],"categories_segments":[],"categories_sizes":[],"default_left":[1,1,1,1,0,0,0,1,0,1,1,0,0,0,0,1,0,1,1,0,0,0,1,0,1,1,1,0,0,0,0,1,0,0,0,1,0,0,0,0,0,0,0,0,0,0,0,0,0,0,0,0,0,0,0],"id":12,"left_children":[1,3,5,7,9,11,13,15,17,19,21,-1,23,-1,-1,25,27,29,31,-1,33,35,37,-1,39,41,43,-1,-1,-1,-1,45,47,-1,-1,49,51,53,-1,-1,-1,-1,-1,-1,-1,-1,-1,-1,-1,-1,-1,-1,-1,-1,-1],"loss_changes":[9.150695E0,8.072805E0,1.8983088E0,6.1173787E0,1.3076248E0,9.990816E-1,4.795168E-1,7.647383E0,1.4764042E0,5.375435E0,1.4696636E0,0E0,6.200199E-1,0E0,0E0,5.2491508E0,7.437801E-2,6.7474747E-1,2.2512884E0,0E0,1.25489235E-2,4.398451E-1,1.7480564E0,0E0,2.6435947E-1,5.2815104E0,8.08599E0,0E0,0E0,0E0,0E0,1.7156566E0,4.3348932E-1,0E0,0E0,6.663646E-1,3.6865807E-1,1.2729588E0,0E0,0E0,0E0,0E0,0E0,0E0,0E0,0E0,0E0,0E0,0E0,0E0,0E0,0E0,0E0,0E0,0E0],"parents":[2147483647,0,0,1,1,2,2,3,3,4,4,5,5,6,6,7,7,8,8,9,9,10,10,12,12,15,15,16,16,17,17,18,18,20,20,21,21,22,22,24,24,25,25,26,26,31,31,32,32,35,35,36,36,37,37],"right_children":[2,4,6,8,10,12,14,16,18,20,22,-1,24,-1,-1,26,28,30,32,-1,34,36,38,-1,40,42,44,-1,-1,-1,-1,46,48,-1,-1,50,52,54,-1,-1,-1,-1,-1,-1,-1,-1,-1,-1,-1,-1,-1,-1,-1,-1,-1],"split_conditions":[1.2E-1,3.5E-2,4.25E-1,3.15E-1,9.15E-1,4.100001E0,1.9499999E0,6.85E-1,1.0550001E0,1.595E2,1.905E0,2.7281983E-2,4.8499998E-1,1.3031743E-1,-7.215475E-2,1.05000004E-1,1.3050001E0,1.9E2,1.8349999E-1,-2.6777118E-1,4.3E-1,1.27E-1,6.95E1,-3.850655E-2,3.5749998E0,7.8499997E-1,1.37E0,7.195408E-2,2.7792412E-1,3.7717927E-1,4.5109857E-2,2.275E0,5.95E-1,7.2761945E-2,2.6603296E-1,1.095E0,3E-1,2.725E0,-1.5704596E-1,-2.895142E-1,-8.897179E-2,-8.4320635E-2,2.5677136E-1,2.1707855E-1,-6.295869E-2,-8.889569E-2,2.0525508E-1,2.9104196E-2,2.7953288E-1,-4.8586816E-2,1.9156879E-1,6.2866986E-2,3.1793073E-1,2.4456368E-1,-3.2521106E-2],"split_indices":[14,12,6,3,10,11,0,2,10,18,10,0,5,0,0,6,9,18,15,0,6,16,17,0,13,1,9,0,0,0,0,10,3,0,0,10,8,9,0,0,0,0,0,0,0,0,0,0,0,0,0,0,0,0,0],"split_type":[0,0,0,0,0,0,0,0,0,0,0,0,0,0,0,0,0,0,0,0,0,0,0,0,0,0,0,0,0,0,0,0,0,0,0,0,0,0,0,0,0,0,0,0,0,0,0,0,0,0,0,0,0,0,0],"sum_hessian":[2.3886142E2,2.1899487E2,1.9866549E1,1.9501855E2,2.3976309E1,1.7557907E1,2.3086407E0,1.7982147E2,1.519709E1,5.7646213E0,1.8211689E1,1.007836E0,1.6550072E1,1.1228688E0,1.185772E0,1.7317123E2,6.6502304E0,3.4130507E0,1.17840395E1,2.2473614E0,3.5172596E0,1.1663482E1,6.5482063E0,1.4699367E0,1.5080135E1,1.3658672E2,3.658453E1,1.041059E0,5.6091714E0,2.396387E0,1.0166636E0,7.3162374E0,4.4678016E0,1.0152493E0,2.5020103E0,2.7279315E0,8.935551E0,5.1428165E0,1.4053899E0,1.3291982E1,1.7881533E0,1.3332271E2,3.2639968E0,1.4712854E1,2.1871677E1,5.9059787E0,1.410259E0,1.0161475E0,3.4516542E0,1.214977E0,1.5129545E0,1.1449473E0,7.7906027E0,3.1393025E0,2.003514E0],"tree_param":{"num_deleted":"0","num_feature":"19","num_nodes":"55","size_leaf_vector":"0"}},{"base_weights":[-3.2822926E-2,1.7289463E-2,-6.6088855E-1,-1.8552918E-2,7.731355E-1,-7.493479E-1,1.8702112E-1,-6.189692E-2,5.0965554E-1,-1.8931338E-1,9.958398E-1,-8.2508653E-1,1.1555114E-1,-1.4119306E-1,2.2481483E-1,6.9493306E-1,-2.4069904E-1,-4.8169903E-2,-8.841206E-1,-2.1329525E-1,2.913765E-1,-2.759738E-1,5.182177E-1,2.4061252E-1,1.0303756E0,-8.463605E-1,5.513526E-1,-2.912894E-1,3.071654E-1,-5.568661E-1,5.048567E-1,-5.2805245E-1,4.8608217E-1,1.2276015E-1,9.3769926E-1,-1.0096066E-1,5.4293025E-1,-1.3098198E-1,1.2481424E0],"categories":[],"categories_nodes":[],"categories_segments":[],"categories_sizes":[],"default_left":[1,1,1,1,1,1,0,1,1,0,0,0,0,1,0,1,1,0,0,1,0,1,0,0,1,0,0,0,0,0,0,0,0,0,0,0,0,0,0],"id":13,"left_children":[1,3,5,7,9,11,-1,13,15,-1,-1,17,-1,19,21,23,25,-1,-1,27,29,31,33,35,37,-1,-1,-1,-1,-1,-1,-1,-1,-1,-1,-1,-1,-1,-1],"loss_changes":[7.1441293E0,5.726596E0,1.3980827E0,4.662733E0,2.239645E0,1.1032581E0,0E0,4.3021703E0,2.3149781E0,0E0,0E0,6.119242E-1,0E0,4.670468E0,6.1790495E0,1.6793971E0,2.290478E0,0E0,0E0,5.2537603E0,4.1802387E0,3.2974017E0,4.239627E0,7.442179E-1,1.9263406E0,0E0,0E0,0E0,0E0,0E0,0E0,0E0,0E0,0E0,0E0,0E0,0E0,0E0,0E0],"parents":[2147483647,0,0,1,1,2,2,3,3,4,4,5,5,7,7,8,8,11,11,13,13,14,14,15,15,16,16,19,19,20,20,21,21,22,22,23,23,24,24],"right_children":[2,4,6,8,10,12,-1,14,16,-1,-1,18,-1,20,22,24,26,-1,-1,28,30,32,34,36,38,-1,-1,-1,-1,-1,-1,-1,-1,-1,-1,-1,-1,-1,-1],"split_conditions":[7.1500003E-1,4.85E-1,8.75E-1,4.25E-1,9.5E0,9.07E2,5.610634E-2,2.105E2,3.68E2,-5.6794018E-2,2.9875195E-1,5.45E-1,3.4665342E-2,1.865E0,8.25E-1,1.45E1,5.2500002E-2,-1.4450972E-2,-2.652362E-1,4.255E0,2.03E0,7.2E-2,1.655E0,8.55E-1,6.6999996E-1,-2.5390816E-1,1.654058E-1,-8.738682E-2,9.214963E-2,-1.6705984E-1,1.5145701E-1,-1.5841573E-1,1.4582466E-1,3.6828045E-2,2.8130978E-1,-3.0288199E-2,1.6287908E-1,-3.9294597E-2,3.7444273E-1],"split_indices":[13,11,6,7,17,18,0,18,18,0,0,14,0,10,8,17,16,0,0,9,5,16,9,7,9,0,0,0,0,0,0,0,0,0,0,0,0,0,0],"split_type":[0,0,0,0,0,0,0,0,0,0,0,0,0,0,0,0,0,0,0,0,0,0,0,0,0,0,0,0,0,0,0,0,0,0,0,0,0,0,0],"sum_hessian":[2.25623E2,2.0985173E2,1.5771275E1,2.0128233E2,8.569398E0,1.4386612E1,1.3846622E0,1.8683383E2,1.444849E1,1.6384655E0,6.9309325E0,1.3270551E1,1.1160617E0,1.467536E2,4.008024E1,1.1646578E1,2.801912E0,1.0653957E0,1.2205154E1,1.2622148E2,2.053212E1,1.4829026E1,2.5251213E1,5.676149E0,5.970429E0,1.5489231E0,1.2529889E0,1.10154495E2,1.6066984E1,3.8049622E0,1.6727158E1,1.1373787E1,3.455239E0,1.3663181E1,1.1588033E1,2.9777675E0,2.6983812E0,1.0056713E0,4.964758E0],"tree_param":{"num_deleted":"0","num_feature":"19","num_nodes":"39","size_leaf_vector":"0"}},{"base_weights":[-2.119329E-2,1.4812103E-2,-7.345605E-1,-3.7138936E-1,7.615571E-2,-8.66577E-1,5.8402937E-2,-5.8566296E-1,2.4808875E-1,-1.639957E-2,3.3179796E-1,-6.9508326E-1,7.2647184E-1,-3.2327446E-1,7.800322E-1,-1.2526008E-1,5.30032E-1,1.5657711E-1,1.0598016E0,-8.1546694E-1,5.604163E-1,6.7975897E-1,-8.555914E-1,1.2400476E0,-2.8420046E-1,-1.6464989E-1,8.151775E-1,6.3869154E-1,-2.2448228E-1,2.5081111E-2,1.1510162E0,2.1778522E0,1.0313998E-1,-8.692586E-1,-2.6616544E-2,3.0204815E-1,-2.4412902E-1,8.226978E-2,9.9923736E-1,-9.493719E-3,7.221014E-1,6.9303244E-1,-1.104562E0,-1.0154062E-1,6.3026965E-1,-7.5704163E-1,4.503421E-1],"categories":[],"categories_nodes":[],"categories_segments":[],"categories_sizes":[],"default_left":[1,1,1,1,0,0,0,1,1,1,1,1,0,1,0,1,1,1,1,1,0,0,0,0,0,0,0,0,1,1,0,0,0,0,0,0,0,0,0,0,0,0,0,0,0,0,0],"id":14,"left_children":[1,3,5,7,9,-1,-1,11,13,15,17,19,-1,21,23,25,27,29,31,33,-1,-1,-1,-1,-1,35,37,39,41,43,-1,-1,45,-1,-1,-1,-1,-1,-1,-1,-1,-1,-1,-1,-1,-1,-1],"loss_changes":[5.5844274E0,4.9453435E0,1.1441264E0,3.9440355E0,4.262806E0,0E0,0E0,3.6005654E0,2.7010565E0,7.981223E0,5.94108E0,3.5421753E0,0E0,3.0332649E0,2.538624E0,4.274259E0,1.9712472E0,5.1704636E0,9.523861E0,7.845335E-1,0E0,0E0,0E0,0E0,0E0,4.083473E0,5.465462E-1,1.0745649E0,3.6292727E0,2.833378E0,0E0,0E0,2.1213076E0,0E0,0E0,0E0,0E0,0E0,0E0,0E0,0E0,0E0,0E0,0E0,0E0,0E0,0E0],"parents":[2147483647,0,0,1,1,2,2,3,3,4,4,7,7,8,8,9,9,10,10,11,11,13,13,14,14,15,15,16,16,17,17,18,18,19,19,25,25,26,26,27,27,28,28,29,29,32,32],"right_children":[2,4,6,8,10,-1,-1,12,14,16,18,20,-1,22,24,26,28,30,32,34,-1,-1,-1,-1,-1,36,38,40,42,44,-1,-1,46,-1,-1,-1,-1,-1,-1,-1,-1,-1,-1,-1,-1,-1,-1],"split_conditions":[5.75E-1,1.65E1,8.75E-1,4.14E0,5.74E0,-2.599731E-1,1.7520882E-2,3.85E0,8.5E0,7.05E-1,3.15E1,1.5525E0,2.1794157E-1,3.5E0,6.605E0,7.8499997E-1,1.13E0,1.3499999E-1,3.95E1,2.755E0,1.6812488E-1,2.039277E-1,-2.5667745E-1,3.7201428E-1,-8.526014E-2,1.1960001E1,1.365E0,4.25E-1,2.35E-1,1.16E-1,3.4530488E-1,6.5335566E-1,2.095E0,-2.607776E-1,-7.984963E-3,9.0614446E-2,-7.323871E-2,2.4680935E-2,2.9977122E-1,-2.8481157E-3,2.1663043E-1,2.0790975E-1,-3.3136863E-1,-3.0462187E-2,1.8908091E-1,-2.271125E-1,1.3510263E-1],"split_indices":[14,18,6,9,9,0,0,6,18,0,17,15,0,18,9,1,8,6,17,10,0,0,0,0,0,12,9,6,5,16,0,0,8,0,0,0,0,0,0,0,0,0,0,0,0,0,0],"split_type":[0,0,0,0,0,0,0,0,0,0,0,0,0,0,0,0,0,0,0,0,0,0,0,0,0,0,0,0,0,0,0,0,0,0,0,0,0,0,0,0,0,0,0,0,0,0,0],"sum_hessian":[2.1599565E2,2.065498E2,9.44584E0,2.7618368E1,1.7893144E2,8.01811E0,1.4277291E0,2.0561024E1,7.0573435E0,1.320563E2,4.6875134E1,1.9412464E1,1.1485605E0,3.5917273E0,3.4656162E0,1.10761154E2,2.1295155E1,3.8760963E1,8.114174E0,1.8033777E1,1.3786865E0,1.149246E0,2.4424813E0,2.3043542E0,1.1612622E0,1.0710023E2,3.6609216E0,1.8748623E1,2.5465317E0,3.5139626E1,3.6213374E0,3.1528845E0,4.9612894E0,1.6787134E1,1.2466435E0,1.51776085E1,9.192262E1,1.0252906E0,2.6356308E0,2.2385824E0,1.6510042E1,1.3508043E0,1.1957273E0,2.97478E1,5.3918233E0,1.0872521E0,3.874037E0],"tree_param":{"num_deleted":"0","num_feature":"19","num_nodes":"47","size_leaf_vector":"0"}}]},"name":"gbtree"},"learner_model_param":{"base_score":"5E-1","num_class":"0","num_feature":"19","num_target":"1"},"objective":{"name":"reg:squarederror","reg_loss_param":{"scale_pos_weight":"1"}}},"version":[1,6,2]}