{"learner":{"attributes":{"best_ntree_limit":"13"},"feature_names":[],"feature_types":[],"gradient_booster":{"model":{"gbtree_model_param":{"num_parallel_tree":"1","num_trees":"13","size_leaf_vector":"0"},"tree_info":[0,0,0,0,0,0,0,0,0,0,0,0,0],"trees":[{"base_weights":[-9.702375E-1,-1.9738439E0,4.1118586E-1,-2.1871912E0,8.861441E-1,-8.212751E-1,1.2003663E0,-2.2899501E0,5.5443823E-1,1.0761416E0,-1.2610587E0,8.278495E-1,-1.4315313E0,1.3471516E0,-2.1692314E0,-2.374449E0,-1.0219707E0,-1.549677E0,8.3194727E-1,6.191026E-1,1.4104198E0,-1.8850163E-1,1.037967E0,-1.7712566E0,7.054491E-1,1.5337646E0,9.3709934E-1,-5.1139647E-1,-2.337843E0,-8.166927E-2,-2.4066503E0,-1.5812311E0,7.611768E-1,-1.4309288E0,1.1027943E0,-1.16476804E-1,8.777917E-1,4.0813595E-1,1.4551224E0,-1.0091056E0,5.885253E-1,-9.711626E-1,1.1435732E0,7.910462E-1,-1.9578938E0,-1.1347431E0,9.77867E-1,4.3601736E-1,1.418179E0,9.63744E-1,-1.1700157E0,-2.421041E0,-8.831959E-1,-1.7780526E0,-1.2290753E-1,-1.1347431E0,1.3557094E0,1.3858284E0,6.656541E-2,-6.464616E-1,8.6790216E-1,1.054986E0,-1.3505179E-1,5.2499264E-1,1.5048851E0,-1.729036E0,4.0813595E-1,1.090796E0,-3.0487522E-1,-5.1630255E-2,1.1915071E0,-3.4016135E-1,1.2849069E0,-2.1986933E0,-7.445285E-1,8.539887E-3,1.3440439E0,1.4508727E0,-4.4427356E-1,-5.1630255E-2,1.4706469E0],"categories":[],"categories_nodes":[],"categories_segments":[],"categories_sizes":[],"default_left":[1,1,1,1,1,0,1,1,1,1,0,1,1,0,0,0,1,0,0,0,0,0,0,0,0,0,0,0,0,0,1,1,1,0,0,1,1,0,0,1,1,0,0,1,0,0,1,0,0,0,0,0,0,0,0,0,0,0,0,0,0,0,0,0,0,0,0,0,0,0,0,0,0,0,0,0,0,0,0,0,0],"id":0,"left_children":[1,3,5,7,9,11,13,15,17,19,-1,21,23,25,27,29,31,-1,33,35,37,39,41,43,45,-1,47,-1,-1,49,51,53,55,-1,57,59,61,-1,63,65,67,-1,69,71,73,-1,75,77,79,-1,-1,-1,-1,-1,-1,-1,-1,-1,-1,-1,-1,-1,-1,-1,-1,-1,-1,-1,-1,-1,-1,-1,-1,-1,-1,-1,-1,-1,-1,-1,-1],"loss_changes":[1.2015061E3,3.0811768E2,3.56246E2,1.3290576E2,1.5858355E1,1.4527702E2,1.1325864E2,4.5847656E1,1.1615868E1,4.1983566E0,0E0,8.589493E0,7.73849E1,1.496756E1,1.5145187E0,3.093457E1,3.1026628E1,0E0,1.1553004E1,3.1097636E0,2.3008347E-1,5.4271955E0,8.05418E0,4.495758E1,8.679388E0,0E0,1.616454E1,0E0,0E0,8.949883E0,6.977051E0,6.409073E0,1.0347464E1,0E0,4.3364677E0,3.1670194E0,2.2620497E0,0E0,6.7710876E-3,4.8431096E0,2.3630798E0,0E0,1.869072E0,4.277907E0,2.3167816E1,0E0,4.8477926E0,3.2399834E1,2.7808685E0,0E0,0E0,0E0,0E0,0E0,0E0,0E0,0E0,0E0,0E0,0E0,0E0,0E0,0E0,0E0,0E0,0E0,0E0,0E0,0E0,0E0,0E0,0E0,0E0,0E0,0E0,0E0,0E0,0E0,0E0,0E0,0E0],"parents":[2147483647,0,0,1,1,2,2,3,3,4,4,5,5,6,6,7,7,8,8,9,9,11,11,12,12,13,13,14,14,15,15,16,16,18,18,19,19,20,20,21,21,22,22,23,23,24,24,26,26,29,29,30,30,31,31,32,32,34,34,35,35,36,36,38,38,39,39,40,40,42,42,43,43,44,44,46,46,47,47,48,48],"right_children":[2,4,6,8,10,12,14,16,18,20,-1,22,24,26,28,30,32,-1,34,36,38,40,42,44,46,-1,48,-1,-1,50,52,54,56,-1,58,60,62,-1,64,66,68,-1,70,72,74,-1,76,78,80,-1,-1,-1,-1,-1,-1,-1,-1,-1,-1,-1,-1,-1,-1,-1,-1,-1,-1,-1,-1,-1,-1,-1,-1,-1,-1,-1,-1,-1,-1,-1,-1],"split_conditions":[7.85E-2,4.5E-2,1.85E1,1.64E-1,6.5999997E-1,1.5380001E1,3.9E-1,2.35E-1,4.5E0,4.45E-1,-3.7831762E-1,6.5E0,1.06E-1,1.0600001E1,4.85E-1,3.25E-1,1.075E0,-4.6490312E-1,9.520001E0,1.505E0,3.2999998E-1,2.935E0,2.1000009E0,1.4540001E1,4.760001E0,4.601294E-1,4.75E-1,-1.5341894E-1,-7.013529E-1,7.2000104E-1,7.8499997E-1,9E-2,1.24E0,-4.2927867E-1,3.655E-1,3.25E-1,2.7499998E-1,1.2244079E-1,5.3999998E-2,8.1E-1,3.73E0,-2.913488E-1,2.65E-1,3.15E-1,7.7900004E-1,-3.4042293E-1,5.1E-1,4.360001E0,7.2E-1,2.891232E-1,-3.5100472E-1,-7.2631234E-1,-2.6495877E-1,-5.334158E-1,-3.687226E-2,-3.4042293E-1,4.0671286E-1,4.1574854E-1,1.9969624E-2,-1.939385E-1,2.6037067E-1,3.164958E-1,-4.051554E-2,1.574978E-1,4.5146555E-1,-5.187108E-1,1.2244079E-1,3.272388E-1,-9.146257E-2,-1.5489077E-2,3.5745215E-1,-1.0204841E-1,3.854721E-1,-6.59608E-1,-2.2335856E-1,2.5619662E-3,4.0321317E-1,4.3526182E-1,-1.3328208E-1,-1.5489077E-2,4.411941E-1],"split_indices":[15,2,17,16,13,6,13,6,17,0,0,17,16,16,0,12,0,0,13,9,1,9,14,2,13,0,15,0,0,3,1,5,9,0,16,8,3,0,16,0,9,0,5,10,15,0,10,2,4,0,0,0,0,0,0,0,0,0,0,0,0,0,0,0,0,0,0,0,0,0,0,0,0,0,0,0,0,0,0,0,0],"split_type":[0,0,0,0,0,0,0,0,0,0,0,0,0,0,0,0,0,0,0,0,0,0,0,0,0,0,0,0,0,0,0,0,0,0,0,0,0,0,0,0,0,0,0,0,0,0,0,0,0,0,0,0,0,0,0,0,0,0,0,0,0,0,0,0,0,0,0,0,0,0,0,0,0,0,0,0,0,0,0,0,0],"sum_hessian":[8.6504865E2,5.007929E2,3.6425574E2,4.6624738E2,3.4545544E1,1.4217725E2,2.220785E2,4.495621E2,1.6685263E1,3.2195507E1,2.350037E0,3.8305603E1,1.0387164E2,2.1338336E2,8.695137E0,4.2065665E2,2.8905457E1,1.4100223E0,1.5275241E1,1.4805234E1,1.7390274E1,6.580104E0,3.17255E1,8.9771416E1,1.4100223E1,1.4476228E2,6.8621086E1,1.1750185E0,7.5201187E0,5.8750925E0,4.1478156E2,2.209035E1,6.8151073E0,1.1750185E0,1.4100223E1,3.995063E0,1.0810171E1,1.1750185E0,1.6215256E1,3.0550482E0,3.5250556E0,1.1750185E0,3.0550482E1,5.8750925E0,8.3896324E1,1.4100223E0,1.2690201E1,3.4545544E1,3.407554E1,3.0550482E0,2.8200445E0,4.1031647E2,4.4650707E0,1.9270304E1,2.8200445E0,1.4100223E0,5.4050856E0,1.0810171E1,3.290052E0,2.8200445E0,1.1750185E0,9.165145E0,1.645026E0,1.4100223E0,1.4805234E1,1.8800297E0,1.1750185E0,2.1150334E0,1.4100223E0,1.1750185E0,2.9375463E1,1.8800297E0,3.995063E0,6.9326096E1,1.45702305E1,3.7600594E0,8.930141E0,1.5745249E1,1.8800297E1,1.1750185E0,3.290052E1],"tree_param":{"num_deleted":"0","num_feature":"19","num_nodes":"81","size_leaf_vector":"0"}},{"base_weights":[-6.5968865E-1,-1.1221037E0,8.404471E-1,-1.3051918E0,9.900725E-1,1.0950621E0,-1.473603E0,-1.46402E0,2.0081635E-1,1.144644E0,-1.2489121E0,-3.6354083E-1,1.1826726E0,-1.6198397E0,2.7997872E-1,-1.4962264E0,9.394326E-1,-9.102747E-1,9.7896844E-1,-5.190752E-1,1.1948229E0,-3.8362896E-1,-1.4914633E0,1.0977318E0,-1.0367362E0,8.546287E-1,1.3136064E0,-1.7149822E0,-6.2044436E-1,-1.5459337E0,-1.9384682E-1,-2.3471673E-1,1.2917122E0,7.9292053E-1,-1.1479038E0,1.0486344E0,-5.97443E-1,-1.2170001E-2,1.2283924E0,-1.4804674E0,7.8541964E-1,4.854855E-1,1.2927169E0,3.9058557E-1,1.3211238E0,-1.6098984E0,-9.6527886E-1,-5.1527995E-1,9.2034644E-1,5.67353E-1,-1.2769552E0,-1.8539965E-1,1.107173E0,1.3269693E0,7.4784577E-1,-1.7473094E0,-6.9035284E-2,1.0338275E0,1.04951754E-1,1.3272964E0,2.890822E-1],"categories":[],"categories_nodes":[],"categories_segments":[],"categories_sizes":[],"default_left":[1,1,1,1,1,1,1,1,1,0,0,0,1,1,0,1,1,0,0,0,0,0,0,0,1,1,0,0,0,1,1,0,0,0,0,0,0,0,0,1,0,0,0,0,0,0,0,0,0,0,0,0,0,0,0,0,0,0,0,0,0],"id":1,"left_children":[1,3,5,7,9,11,13,15,17,19,21,23,25,27,-1,29,31,33,35,-1,37,-1,-1,-1,39,41,43,-1,-1,45,47,-1,-1,-1,49,51,-1,-1,53,55,-1,57,59,-1,-1,-1,-1,-1,-1,-1,-1,-1,-1,-1,-1,-1,-1,-1,-1,-1,-1],"loss_changes":[5.9459753E2,2.544289E2,1.207567E2,1.4448181E2,1.969698E1,2.3782593E1,5.702938E0,4.3624023E1,5.137287E1,4.7857285E0,2.4358988E-1,1.2076454E1,6.291931E0,7.465744E-1,0E0,3.456726E1,3.5403352E0,1.0853237E1,4.45055E0,0E0,1.9897385E0,0E0,0E0,0E0,7.733618E0,7.799011E0,3.2717896E-1,0E0,0E0,1.7709106E1,7.974967E0,0E0,0E0,0E0,5.5871906E0,2.6404076E0,0E0,0E0,1.2543945E0,2.4712906E0,0E0,6.1263695E0,4.223976E-1,0E0,0E0,0E0,0E0,0E0,0E0,0E0,0E0,0E0,0E0,0E0,0E0,0E0,0E0,0E0,0E0,0E0,0E0],"parents":[2147483647,0,0,1,1,2,2,3,3,4,4,5,5,6,6,7,7,8,8,9,9,10,10,11,11,12,12,13,13,15,15,16,16,17,17,18,18,20,20,24,24,25,25,26,26,29,29,30,30,34,34,35,35,38,38,39,39,41,41,42,42],"right_children":[2,4,6,8,10,12,14,16,18,20,22,24,26,28,-1,30,32,34,36,-1,38,-1,-1,-1,40,42,44,-1,-1,46,48,-1,-1,-1,50,52,-1,-1,54,56,-1,58,60,-1,-1,-1,-1,-1,-1,-1,-1,-1,-1,-1,-1,-1,-1,-1,-1,-1,-1],"split_conditions":[3.9499998E-2,6.5E-2,3.85E-1,5.085E-1,2.3E-1,9.5E0,2.85E-1,3E-1,1.05E1,2.55E-1,1.95E0,4.640001E0,1.43E-1,3.35E-1,8.399362E-2,7.8499997E-1,9E0,9.080001E0,4.3199997E0,-1.5572257E-1,2.5E-1,-1.15088694E-1,-4.4743901E-1,3.2931957E-1,1.49E0,4.5499998E-1,3.15E-1,-5.1449466E-1,-1.8613331E-1,6.35E-1,2.115E0,-7.041502E-2,3.8751367E-1,2.3787616E-1,7.680001E0,5.45E-1,-1.792329E-1,-3.6510003E-3,4.1540008E0,4.9E-1,2.3562591E-1,2.6200008E0,6.51E-1,1.17175676E-1,3.9633718E-1,-4.8296955E-1,-2.8958368E-1,-1.5458399E-1,2.7610394E-1,1.702059E-1,-3.830866E-1,-5.56199E-2,3.321519E-1,3.980908E-1,2.2435375E-1,-5.2419287E-1,-2.0710586E-2,3.1014827E-1,3.1485528E-2,3.9818892E-1,8.672466E-2],"split_indices":[16,2,13,15,13,17,8,11,17,10,10,2,15,3,0,6,17,6,15,0,11,0,0,0,8,0,10,0,0,0,10,0,0,0,7,1,0,0,15,6,0,12,16,0,0,0,0,0,0,0,0,0,0,0,0,0,0,0,0,0,0],"split_type":[0,0,0,0,0,0,0,0,0,0,0,0,0,0,0,0,0,0,0,0,0,0,0,0,0,0,0,0,0,0,0,0,0,0,0,0,0,0,0,0,0,0,0,0,0,0,0,0,0,0,0,0,0,0,0,0,0,0,0,0,0],"sum_hessian":[8.547978E2,6.535835E2,2.0121432E2,6.018002E2,5.1783287E1,1.8174382E2,1.9470499E1,5.4441266E2,5.7387543E1,4.8896416E1,2.886869E0,1.0119396E1,1.7162444E2,1.8042173E1,1.4283258E0,5.375864E2,6.8262177E0,2.356717E1,3.3820374E1,1.1579858E0,4.773843E1,1.1972852E0,1.6895837E0,2.9926867E0,7.1267095E0,5.1107037E1,1.20517395E2,1.5820082E1,2.2220914E0,5.1764276E2,1.9943653E1,1.6524187E0,5.173799E0,2.5993876E0,2.0967781E1,3.270964E1,1.1107324E0,1.3090457E0,4.6429386E1,5.8818746E0,1.244835E0,2.8880148E1,2.2226887E1,1.4014357E0,1.1911596E2,4.6468115E2,5.296162E1,1.5895499E1,4.0481544E0,1.2295233E0,1.9738258E1,1.383222E0,3.1326418E1,3.7064735E1,9.364649E0,4.7465367E0,1.1353381E0,1.112805E1,1.7752098E1,2.1174833E1,1.0520532E0],"tree_param":{"num_deleted":"0","num_feature":"19","num_nodes":"61","size_leaf_vector":"0"}},{"base_weights":[-5.169767E-1,-8.604454E-1,7.8892815E-1,-1.0046172E0,8.229657E-1,9.8899245E-1,-1.029001E0,-1.1522462E0,7.872724E-2,9.6240664E-1,-1.0055205E0,-6.578084E-1,1.0586382E0,-1.2853966E0,6.327181E-1,3.552665E-1,-1.1944605E0,-7.0925695E-1,7.8061587E-1,-3.43842E-1,1.0273837E0,-3.1855544E-1,-1.1945574E0,7.14783E-1,-1.0790701E0,8.225997E-1,1.1740946E0,-1.3732972E0,-1.0746941E-1,-1.2049152E0,8.026104E-1,-1.2657405E0,-4.197488E-1,-9.2507714E-1,1.0064404E0,-1.087373E0,8.852839E-1,5.6715256E-1,1.1542288E0,-1.3639337E0,3.1374056E-2,6.045772E-1,1.2065258E0,8.6320646E-2,1.1903863E0,-1.436157E0,-3.7246576E-1,-4.4614437E-1,1.1162144E0,-1.1489362E0,-1.4605972E0,4.3523866E-1,-7.8322935E-1,-1.1792144E0,4.7990285E-2,-5.4880655E-1,9.7710043E-1,-4.6317977E-1,8.0360967E-1,4.534998E-1,1.206753E0,1.0106272E0,2.681719E-1,1.2000171E0,2.0293353E-1],"categories":[],"categories_nodes":[],"categories_segments":[],"categories_sizes":[],"default_left":[1,1,1,1,1,1,1,0,1,0,0,0,1,1,0,0,1,1,0,0,1,0,0,0,1,1,0,1,0,0,1,1,0,1,0,0,0,0,0,0,0,0,0,0,1,0,0,0,0,0,0,0,0,0,0,0,0,0,0,0,0,0,0,0,0],"id":2,"left_children":[1,3,5,7,9,11,13,15,17,19,21,23,25,27,-1,29,31,33,35,-1,37,-1,-1,-1,39,41,43,45,-1,-1,47,49,51,53,-1,-1,55,57,59,-1,-1,61,-1,-1,63,-1,-1,-1,-1,-1,-1,-1,-1,-1,-1,-1,-1,-1,-1,-1,-1,-1,-1,-1,-1],"loss_changes":[3.4481497E2,1.4837576E2,5.9316803E1,8.972339E1,1.3335751E1,1.7316696E1,7.792797E0,3.181659E1,3.8245163E1,4.2221184E0,1.2933111E-1,4.5277843E0,2.8335419E0,1.3560009E0,0E0,1.0883285E1,2.5979553E1,1.3013063E1,8.102875E0,0E0,1.894928E0,0E0,0E0,0E0,1.7412839E0,3.3833237E0,1.5149002E0,3.0989075E-1,0E0,0E0,5.057201E0,8.31665E0,1.3376532E1,7.352825E0,0E0,0E0,5.1623173E0,3.1501231E0,6.7728806E-1,0E0,0E0,4.283474E0,0E0,0E0,6.1100006E-1,0E0,0E0,0E0,0E0,0E0,0E0,0E0,0E0,0E0,0E0,0E0,0E0,0E0,0E0,0E0,0E0,0E0,0E0,0E0,0E0],"parents":[2147483647,0,0,1,1,2,2,3,3,4,4,5,5,6,6,7,7,8,8,9,9,10,10,11,11,12,12,13,13,15,15,16,16,17,17,18,18,20,20,24,24,25,25,26,26,27,27,30,30,31,31,32,32,33,33,36,36,37,37,38,38,41,41,44,44],"right_children":[2,4,6,8,10,12,14,16,18,20,22,24,26,28,-1,30,32,34,36,-1,38,-1,-1,-1,40,42,44,46,-1,-1,48,50,52,54,-1,-1,56,58,60,-1,-1,62,-1,-1,64,-1,-1,-1,-1,-1,-1,-1,-1,-1,-1,-1,-1,-1,-1,-1,-1,-1,-1,-1,-1],"split_conditions":[5.55E-2,5.5E-2,1.6E-1,3.935E-1,3.5500002E-1,6.5E0,5.5E-1,2.5E1,5.5E1,3.4E-1,1.95E0,4.640001E0,2.75E1,1.3499999E-1,1.8981543E-1,7.260001E0,1.9999999E-1,8.45E-1,2.940001E0,-1.031526E-1,5.0499998E-2,-9.556664E-2,-3.5836723E-1,2.144349E-1,3.935E0,3.71E-1,2.5E-2,7.1500003E-1,-3.2240823E-2,-3.6147457E-1,1.05E1,2.4999999E-2,1.835E0,4.1E0,3.0193213E-1,-3.2621193E-1,3.5000002E-1,1.005E0,2.55E-1,-4.0918013E-1,9.412217E-3,2.6200008E0,3.6195776E-1,2.5896195E-2,2.19E0,-4.308471E-1,-1.1173973E-1,-1.3384332E-1,3.3486432E-1,-3.4468085E-1,-4.3817917E-1,1.305716E-1,-2.3496881E-1,-3.5376433E-1,1.4397086E-2,-1.6464198E-1,2.9313013E-1,-1.3895394E-1,2.410829E-1,1.3604994E-1,3.6202592E-1,3.0318815E-1,8.045158E-2,3.6000514E-1,6.088006E-2],"split_indices":[16,2,13,15,13,17,15,12,18,10,10,2,17,8,0,13,6,6,13,0,15,0,0,0,9,15,15,0,0,0,17,13,0,9,0,0,8,9,5,0,0,12,0,0,8,0,0,0,0,0,0,0,0,0,0,0,0,0,0,0,0,0,0,0,0],"split_type":[0,0,0,0,0,0,0,0,0,0,0,0,0,0,0,0,0,0,0,0,0,0,0,0,0,0,0,0,0,0,0,0,0,0,0,0,0,0,0,0,0,0,0,0,0,0,0,0,0,0,0,0,0,0,0,0,0,0,0,0,0,0,0,0,0],"sum_hessian":[7.662406E2,6.0694727E2,1.5929332E2,5.594387E2,4.7508587E1,1.4391173E2,1.53816E1,4.9228998E2,6.7148735E1,4.458238E1,2.926207E0,5.496632E0,1.3841508E2,1.3521727E1,1.8598745E0,1.32078705E1,4.790821E2,3.1629253E1,3.5519478E1,1.9092185E0,4.267316E1,1.2109033E0,1.7153038E0,1.1271821E0,4.36945E0,4.813428E1,9.028081E1,1.2428419E1,1.0933075E0,2.5657897E0,1.064208E1,4.3813602E2,4.0946087E1,2.850445E1,3.1248026E0,1.3864794E0,3.4133E1,1.0402185E1,3.2270977E1,3.295718E0,1.0737321E0,3.2342484E1,1.57918E1,1.4251368E0,8.8855675E1,1.1284691E1,1.1437277E0,2.051295E0,8.590785E0,2.7824298E2,1.5989304E2,1.2155713E1,2.8790373E1,2.2433588E1,6.0708613E0,1.7543566E0,3.2378643E1,1.762683E0,8.639503E0,2.9220374E0,2.9348938E1,1.3746229E1,1.8596252E1,8.778423E1,1.0714415E0],"tree_param":{"num_deleted":"0","num_feature":"19","num_nodes":"65","size_leaf_vector":"0"}},{"base_weights":[-4.2730996E-1,-7.239782E-1,6.3632774E-1,-8.382089E-1,7.1845126E-1,8.5410345E-1,-8.420804E-1,-9.6390164E-1,4.539761E-2,8.652029E-1,-8.418957E-1,-2.3592871E-1,9.366147E-1,6.5150666E-1,-1.0298443E0,-1.0534745E0,-4.0679154E-1,-5.39169E-1,6.0718584E-1,-3.6705583E-1,9.1887575E-1,-1.0574092E0,-2.6767159E-1,8.864361E-1,-7.0045525E-1,6.342366E-1,1.0768802E0,-1.1363893E0,3.3435443E-1,-1.0668575E0,1.0176562E0,-7.766194E-1,5.004871E-1,-7.081555E-1,9.018236E-1,9.666598E-2,9.573909E-1,1.0470015E0,4.526077E-1,-1.0423776E0,6.819964E-1,3.1703544E-1,1.089269E0,4.0167722E-1,1.096175E0,-1.4400525E-1,-1.2415624E0,-1.0816425E0,6.6585845E-1,-1.0565677E0,-2.7749807E-1,-6.139481E-1,8.748176E-1,-1.0015067E0,-1.3708565E-1,-6.812673E-1,5.7919705E-1,-8.5475475E-2,1.0459856E0,2.0951383E-1,1.1104378E0,-1.064629E-1,8.554161E-1,-1.242036E0,-3.3059213E-2,1.0677511E-1,1.0342755E0,1.30639E-1,1.146511E0,7.607628E-1,-2.2201589E-1,6.4225346E-1,1.1307551E0,-2.1188873E-1,-1.3015544E0],"categories":[],"categories_nodes":[],"categories_segments":[],"categories_sizes":[],"default_left":[1,1,1,1,1,1,0,1,1,0,1,0,1,0,1,1,1,1,1,0,0,0,0,0,1,1,0,0,0,1,0,1,0,1,0,0,1,0,0,1,0,1,1,0,0,0,0,0,0,0,0,0,0,0,0,0,0,0,0,0,0,0,0,0,0,0,0,0,0,0,0,0,0,0,0],"id":3,"left_children":[1,3,5,7,9,11,13,15,17,19,21,23,25,-1,27,29,31,33,35,-1,37,-1,-1,-1,39,41,43,45,-1,47,-1,49,51,53,-1,55,57,59,61,63,-1,65,67,69,71,-1,73,-1,-1,-1,-1,-1,-1,-1,-1,-1,-1,-1,-1,-1,-1,-1,-1,-1,-1,-1,-1,-1,-1,-1,-1,-1,-1,-1,-1],"loss_changes":[2.1041122E2,8.640018E1,4.760926E1,5.3683258E1,9.601402E0,1.1682587E1,6.0560827E0,2.0673218E1,2.0393076E1,2.7124252E0,1.9191909E-1,5.712808E0,4.3501816E0,0E0,2.9156208E0,1.1165619E1,2.058817E1,8.059076E0,5.562085E0,0E0,1.5990143E0,0E0,0E0,0E0,4.2400646E0,5.4334946E0,5.9713745E-1,1.533844E0,0E0,9.98941E0,0E0,5.737381E0,8.063254E0,4.525689E0,0E0,5.6426563E0,1.812252E0,1.1729412E0,2.172099E0,1.2448688E0,0E0,3.6600602E0,7.301254E-1,1.0178758E0,4.799347E-1,0E0,6.325989E-1,0E0,0E0,0E0,0E0,0E0,0E0,0E0,0E0,0E0,0E0,0E0,0E0,0E0,0E0,0E0,0E0,0E0,0E0,0E0,0E0,0E0,0E0,0E0,0E0,0E0,0E0,0E0,0E0],"parents":[2147483647,0,0,1,1,2,2,3,3,4,4,5,5,6,6,7,7,8,8,9,9,10,10,11,11,12,12,14,14,15,15,16,16,17,17,18,18,20,20,24,24,25,25,26,26,27,27,29,29,31,31,32,32,33,33,35,35,36,36,37,37,38,38,39,39,41,41,42,42,43,43,44,44,46,46],"right_children":[2,4,6,8,10,12,14,16,18,20,22,24,26,-1,28,30,32,34,36,-1,38,-1,-1,-1,40,42,44,46,-1,48,-1,50,52,54,-1,56,58,60,62,64,-1,66,68,70,72,-1,74,-1,-1,-1,-1,-1,-1,-1,-1,-1,-1,-1,-1,-1,-1,-1,-1,-1,-1,-1,-1,-1,-1,-1,-1,-1,-1,-1,-1],"split_conditions":[3.9499998E-2,6.5E-2,1.6E-1,3.935E-1,2.3E-1,9.5E0,1.940001E0,1.24E0,5.5E1,2.55E-1,2.25E1,4.640001E0,1.43E-1,1.95452E-1,2.6E-1,1.13E0,3.5500002E-1,8.45E-1,6.15E-1,-1.1011676E-1,4.1540008E0,-3.1722277E-1,-8.030148E-2,2.6593083E-1,1.49E0,4.5499998E-1,3.9499998E-1,3.9999998E-1,1.0030633E-1,3E-1,3.0529687E-1,3.04E0,1.6E1,3.0749998E0,2.705471E-1,5.68E-1,6.8E1,2.55E-1,8.9E-1,4.9E-1,2.0459893E-1,2.2150002E0,1.025E2,4.280001E0,2.35E-1,-4.3201577E-2,8.5E-2,-3.2449275E-1,1.9975755E-1,-3.1697032E-1,-8.324942E-2,-1.8418443E-1,2.624453E-1,-3.0045202E-1,-4.1125696E-2,-2.043802E-1,1.7375912E-1,-2.5642643E-2,3.137957E-1,6.285415E-2,3.3313134E-1,-3.1938873E-2,2.5662485E-1,-3.726108E-1,-9.917764E-3,3.2032534E-2,3.1028268E-1,3.91917E-2,3.439533E-1,2.2822885E-1,-6.660477E-2,1.9267605E-1,3.3922654E-1,-6.3566625E-2,-3.9046636E-1],"split_indices":[16,2,13,15,13,17,2,10,18,10,17,2,15,0,1,12,0,6,10,0,15,0,0,0,8,0,10,9,0,11,0,9,13,9,0,15,18,5,2,6,0,10,18,6,11,0,11,0,0,0,0,0,0,0,0,0,0,0,0,0,0,0,0,0,0,0,0,0,0,0,0,0,0,0,0],"split_type":[0,0,0,0,0,0,0,0,0,0,0,0,0,0,0,0,0,0,0,0,0,0,0,0,0,0,0,0,0,0,0,0,0,0,0,0,0,0,0,0,0,0,0,0,0,0,0,0,0,0,0,0,0,0,0,0,0,0,0,0,0,0,0,0,0,0,0,0,0,0,0,0,0,0,0],"sum_hessian":[6.6435315E2,5.197145E2,1.4463867E2,4.81965E2,3.7749477E1,1.2643635E2,1.8202324E1,4.2186407E2,6.0100903E1,3.491153E1,2.8379464E0,8.766417E0,1.1766993E2,1.7569177E0,1.6445406E1,3.626636E2,5.920048E1,2.9473072E1,3.062783E1,1.2134541E0,3.3698074E1,1.4516622E0,1.3862842E0,2.3002982E0,6.466118E0,3.903713E1,7.8632805E1,1.5408946E1,1.03646E0,3.6081702E2,1.8465776E0,4.215936E1,1.7041122E1,2.6834707E1,2.6383657E0,1.2980793E1,1.7647038E1,2.5457205E1,8.240871E0,5.3811817E0,1.0849363E0,2.40021E1,1.5035028E1,2.7907546E0,7.584205E1,1.7035869E0,1.3705359E1,3.581368E2,2.6802022E0,2.6294426E1,1.5864934E1,4.1238146E0,1.2917307E1,1.7230093E1,9.604613E0,4.8116393E0,8.169154E0,1.3845394E0,1.6262499E1,2.0954711E0,2.3361732E1,3.7591405E0,4.4817314E0,4.300006E0,1.0811756E0,1.9449354E1,4.552747E0,1.0321333E0,1.4002895E1,1.631603E0,1.1591516E0,6.754233E0,6.9087814E1,1.0040646E0,1.2701295E1],"tree_param":{"num_deleted":"0","num_feature":"19","num_nodes":"75","size_leaf_vector":"0"}},{"base_weights":[-3.547116E-1,-7.386639E-1,2.6035488E-1,-8.2205045E-1,4.251019E-1,-3.2252267E-1,7.537075E-1,-6.4301425E-1,-1.1785376E0,-8.623334E-2,7.903523E-1,-4.628212E-1,9.5340353E-1,8.539961E-1,-8.5589564E-1,-1.0382776E0,-4.4358894E-2,-1.1961143E0,2.701035E-1,6.086662E-1,-4.6295732E-1,1.0770894E0,-9.445082E-2,-6.608457E-1,4.8576364E-1,1.1525812E0,7.24501E-2,3.1698126E-1,9.8403287E-1,-1.0926398E0,3.2551533E-1,-1.0854641E0,3.9117363E-1,-2.2526568E-1,1.4205416E0,1.5190117E-1,-1.2131987E0,-2.1654714E-2,8.727764E-1,5.401258E-1,-8.2853603E-1,3.0593356E-1,1.1308961E0,-7.600447E-1,7.466686E-1,-7.1329314E-1,1.1595017E0,-3.4439838E-1,6.812085E-1,3.1456505E-3,1.0029131E0,1.0054566E0,1.0267936E-1,-1.1179744E0,-1.7504382E-1,1.1947995E0,-5.88159E-1,-5.566646E-1,2.3169634E-1,1.5695701E0,1.0903604E-1,-1.2206666E0,-4.105679E-1,-1.3952771E0,4.555777E-2,-8.718269E-1,6.2243655E-2,6.1249983E-1,-9.062314E-1,1.00394644E-1,9.8879373E-1,-1.0124964E0,3.2164416E-1,4.984956E-1,1.0414306E0,6.308578E-1,-4.459297E-1],"categories":[],"categories_nodes":[],"categories_segments":[],"categories_sizes":[],"default_left":[1,1,1,1,1,1,1,1,1,0,1,1,0,1,1,1,1,0,0,0,0,0,0,1,0,0,0,1,0,0,0,1,0,0,1,0,1,0,0,0,1,0,0,0,0,1,0,0,1,0,0,0,0,0,0,0,0,0,0,0,0,0,0,0,0,0,0,0,0,0,0,0,0,0,0,0,0],"id":4,"left_children":[1,3,5,7,9,11,13,15,17,19,21,23,25,27,29,31,33,35,-1,37,39,41,43,45,47,-1,-1,49,51,-1,-1,53,55,57,59,-1,61,-1,-1,-1,63,-1,-1,-1,-1,65,-1,67,69,71,-1,73,75,-1,-1,-1,-1,-1,-1,-1,-1,-1,-1,-1,-1,-1,-1,-1,-1,-1,-1,-1,-1,-1,-1,-1,-1],"loss_changes":[1.3521848E2,3.4535583E1,6.3646973E1,2.0244614E1,4.5903325E0,1.865968E1,2.0055603E1,5.2308556E1,3.0937042E0,3.1589677E0,3.7100716E0,1.7670946E1,1.7429152E0,7.5924835E0,2.459196E0,9.410431E0,2.391478E1,2.664444E0,0E0,7.3402476E-1,3.2692795E0,1.0306835E-1,3.031025E0,8.162788E0,2.916293E0,0E0,0E0,5.0645533E0,1.6084213E0,0E0,0E0,3.6292267E0,4.6316814E0,1.2260571E1,1.768404E0,0E0,1.3693237E-1,0E0,0E0,0E0,3.0528073E0,0E0,0E0,0E0,0E0,9.31271E0,0E0,2.6054645E0,2.3507605E0,5.8748264E0,0E0,1.0927887E0,1.2273873E0,0E0,0E0,0E0,0E0,0E0,0E0,0E0,0E0,0E0,0E0,0E0,0E0,0E0,0E0,0E0,0E0,0E0,0E0,0E0,0E0,0E0,0E0,0E0,0E0],"parents":[2147483647,0,0,1,1,2,2,3,3,4,4,5,5,6,6,7,7,8,8,9,9,10,10,11,11,12,12,13,13,14,14,15,15,16,16,17,17,19,19,20,20,21,21,22,22,23,23,24,24,27,27,28,28,31,31,32,32,33,33,34,34,36,36,40,40,45,45,47,47,48,48,49,49,51,51,52,52],"right_children":[2,4,6,8,10,12,14,16,18,20,22,24,26,28,30,32,34,36,-1,38,40,42,44,46,48,-1,-1,50,52,-1,-1,54,56,58,60,-1,62,-1,-1,-1,64,-1,-1,-1,-1,66,-1,68,70,72,-1,74,76,-1,-1,-1,-1,-1,-1,-1,-1,-1,-1,-1,-1,-1,-1,-1,-1,-1,-1,-1,-1,-1,-1,-1,-1],"split_conditions":[7.85E-2,4.5E-2,1.75E1,1.2E-1,1.6E-1,3E-1,3.9E-1,9.5E0,4.05E-1,6.39E-1,1.3E-1,5.45E-1,5.165E0,4.15E-1,3.35E-1,2.6999998E-1,7.0500004E-1,5.5E-2,8.1031054E-2,2.85E-1,1.69E0,3.15E-1,1.615E0,7.8E-1,8.85E-1,3.4577438E-1,2.1735031E-2,8.2499996E-2,1.682E1,-3.2779196E-1,9.76546E-2,8.45E-1,2.2220001E1,3.76E0,4.1500002E-2,4.557035E-2,1.46E0,-6.4964145E-3,2.6183292E-1,1.6203775E-1,1.4300001E0,9.1780074E-2,3.3926883E-1,-2.2801341E-1,2.2400059E-1,3.5500002E-1,3.478505E-1,7.460001E0,4.15E1,1.6999999E0,3.0087394E-1,2.35E-1,1.4280001E1,-3.3539233E-1,-5.251315E-2,3.5843986E-1,-1.7644772E-1,-1.6699938E-1,6.95089E-2,4.7087103E-1,3.2710813E-2,-3.662E-1,-1.23170376E-1,-4.1858315E-1,1.3667332E-2,-2.6154807E-1,1.8673098E-2,1.8374996E-1,-2.7186942E-1,3.0118395E-2,2.9663813E-1,-3.037489E-1,9.649325E-2,1.495487E-1,3.124292E-1,1.8925735E-1,-1.3377891E-1],"split_indices":[15,2,17,13,0,3,13,17,5,16,5,6,10,10,6,3,0,11,0,2,8,7,8,12,10,0,0,16,9,0,0,6,10,9,15,0,8,0,0,0,9,0,0,0,0,0,0,7,18,8,0,11,7,0,0,0,0,0,0,0,0,0,0,0,0,0,0,0,0,0,0,0,0,0,0,0,0],"split_type":[0,0,0,0,0,0,0,0,0,0,0,0,0,0,0,0,0,0,0,0,0,0,0,0,0,0,0,0,0,0,0,0,0,0,0,0,0,0,0,0,0,0,0,0,0,0,0,0,0,0,0,0,0,0,0,0,0,0,0,0,0,0,0,0,0,0,0,0,0,0,0,0,0,0,0,0,0],"sum_hessian":[5.7076636E2,3.5128036E2,2.1948604E2,3.280672E2,2.3213146E1,1.007729E2,1.1871313E2,2.2025417E2,1.0781304E2,9.990613E0,1.3222534E1,9.136396E1,9.408947E0,1.1219227E2,6.5208616E0,1.3222076E2,8.8033394E1,1.06692825E2,1.1202109E0,3.295711E0,6.6949024E0,9.822158E0,3.4003758E0,7.5835945E1,1.5528015E1,7.422447E0,1.9864999E0,2.2541187E1,8.965108E1,5.494878E0,1.0259838E0,1.2822856E2,3.9922028E0,7.910999E1,8.923404E0,1.2365077E0,1.0545632E2,1.2442394E0,2.0514717E0,1.6607219E0,5.03418E0,1.0767008E0,8.745457E0,1.9520614E0,1.4483144E0,7.430329E1,1.5326545E0,2.813863E0,1.2714151E1,1.6154552E1,6.3866343E0,8.738611E1,2.2649696E0,1.2358739E2,4.6411786E0,2.071965E0,1.9202379E0,4.5728493E1,3.3381496E1,7.8361955E0,1.0872083E0,1.0396813E2,1.4881878E0,2.6923018E0,2.3418784E0,6.158919E1,1.27141E1,1.0075873E0,1.8062758E0,4.8611765E0,7.8529754E0,3.3363826E0,1.2818171E1,6.7744765E0,8.061163E1,1.0775888E0,1.1873808E0],"tree_param":{"num_deleted":"0","num_feature":"19","num_nodes":"77","size_leaf_vector":"0"}},{"base_weights":[-2.9512984E-1,-5.345947E-1,4.8518768E-1,-6.8044055E-1,1.9031756E-1,7.3825145E-1,-7.38818E-1,-5.1576877E-1,-1.1205178E0,-1.5774645E-1,5.893289E-1,4.12291E-1,9.659604E-1,-8.9747614E-1,4.9829698E-1,-8.4880096E-1,-1.21359145E-2,-1.1408529E0,-6.278866E-2,-6.7135656E-1,4.4064045E-1,-5.569077E-1,7.7394646E-1,2.084042E-1,9.7758305E-1,4.3514085E-1,1.0145394E0,-1.0134395E0,1.9857172E-2,-9.0617967E-1,8.2485104E-1,-1.6678004E-1,1.1111503E0,-8.944429E-2,-1.1525315E0,-8.4457755E-1,7.3682725E-1,9.042712E-1,-1.2642734E-1,-9.2657006E-1,3.458981E-1,9.446321E-1,-2.0221964E-1,8.053791E-1,-7.765241E-2,-5.8774763E-1,7.740677E-1,2.16176E-1,1.0400149E0,-1.1170212E0,-2.2986726E-1,6.986427E-1,-6.736144E-1,-9.639972E-1,3.902605E-2,-3.5335192E-1,1.5202888E0,-2.4233775E-1,1.4057094E0,1.3046703E0,-3.3157138E-4,-9.859776E-1,6.132511E-1,-2.3195855E-1,1.1026295E0,-7.2478557E-1,8.547155E-1,1.6166925E-1,1.1224321E0,5.74714E-1,-1.3110805E0,9.565807E-1,-2.096309E-1,5.5191034E-1,-6.007762E-1,9.0788114E-1,1.0372152E-1,1.0571799E0,3.3010367E-1,-6.366361E-1,3.2058576E-1],"categories":[],"categories_nodes":[],"categories_segments":[],"categories_sizes":[],"default_left":[1,1,1,1,1,1,1,1,1,0,0,1,1,1,0,1,1,0,0,1,0,0,1,0,0,0,0,1,0,1,1,1,0,0,0,1,0,1,0,0,0,1,1,1,1,0,1,0,0,0,0,0,0,0,0,0,0,0,0,0,0,0,0,0,0,0,0,0,0,0,0,0,0,0,0,0,0,0,0,0,0],"id":5,"left_children":[1,3,5,7,9,11,13,15,17,19,21,23,25,27,-1,29,31,33,-1,35,37,39,41,43,-1,45,47,49,51,53,55,57,59,-1,-1,61,-1,63,65,-1,-1,67,69,71,73,-1,75,-1,77,-1,79,-1,-1,-1,-1,-1,-1,-1,-1,-1,-1,-1,-1,-1,-1,-1,-1,-1,-1,-1,-1,-1,-1,-1,-1,-1,-1,-1,-1,-1,-1],"loss_changes":[9.283388E1,4.0259216E1,3.6742928E1,2.2337234E1,9.030815E0,6.8266144E0,4.4750767E0,3.889529E1,1.7620239E0,1.1102194E1,6.8206873E0,4.611337E0,1.0170593E0,1.9929447E0,0E0,1.4154884E1,1.6400282E1,9.2324066E-1,0E0,5.3342924E0,4.5427914E0,1.9124695E0,4.5938168E0,5.5227504E0,0E0,2.7060947E0,8.138313E-1,1.0810928E0,1.9119965E0,7.4405823E0,4.7580013E0,1.0192557E1,2.45817E0,0E0,0E0,4.2465134E0,0E0,2.3720632E0,5.582708E0,0E0,0E0,2.9741821E0,4.851217E0,1.8036833E0,7.751045E0,0E0,3.8204622E-1,0E0,2.5087357E-1,0E0,9.1694266E-1,0E0,0E0,0E0,0E0,0E0,0E0,0E0,0E0,0E0,0E0,0E0,0E0,0E0,0E0,0E0,0E0,0E0,0E0,0E0,0E0,0E0,0E0,0E0,0E0,0E0,0E0,0E0,0E0,0E0,0E0],"parents":[2147483647,0,0,1,1,2,2,3,3,4,4,5,5,6,6,7,7,8,8,9,9,10,10,11,11,12,12,13,13,15,15,16,16,17,17,19,19,20,20,21,21,22,22,23,23,25,25,26,26,27,27,28,28,29,29,30,30,31,31,32,32,35,35,37,37,38,38,41,41,42,42,43,43,44,44,46,46,48,48,50,50],"right_children":[2,4,6,8,10,12,14,16,18,20,22,24,26,28,-1,30,32,34,-1,36,38,40,42,44,-1,46,48,50,52,54,56,58,60,-1,-1,62,-1,64,66,-1,-1,68,70,72,74,-1,76,-1,78,-1,80,-1,-1,-1,-1,-1,-1,-1,-1,-1,-1,-1,-1,-1,-1,-1,-1,-1,-1,-1,-1,-1,-1,-1,-1,-1,-1,-1,-1,-1,-1],"split_conditions":[1.65E-2,9.5E-2,1.6E-1,9.5E-2,9.9999994E-2,2.75E1,1E-1,1.05E1,4.25E-1,1.0699999E0,5.400001E0,3.71E-1,1.595E2,1.4050001E-1,1.494891E-1,1.20000005E-1,7.05E-1,1.80001E-1,-1.8836599E-2,1.20000005E-1,2.2915E0,8.15E-1,9.95E-1,2.6200008E0,2.9327494E-1,1.1500001E0,2.5E-2,3.15E-1,6.15E-1,9.8399997E-1,7E-1,7.8499997E-1,5.63E0,-2.6833287E-2,-3.4575945E-1,6.1E-1,2.2104819E-1,6E0,3.85E0,-2.7797103E-1,1.0376943E-1,6.8E1,1.7E-1,2E-1,6.9E-1,-1.763243E-1,3.68E0,6.4852804E-2,1.0800001E1,-3.3510637E-1,4.95E-1,2.095928E-1,-2.0208432E-1,-2.8919917E-1,1.1707816E-2,-1.0600558E-1,4.5608667E-1,-7.270133E-2,4.2171285E-1,3.914011E-1,-9.947142E-5,-2.957933E-1,1.8397534E-1,-6.9587566E-2,3.3078888E-1,-2.1743567E-1,2.5641468E-1,4.850078E-2,3.3672965E-1,1.7241421E-1,-3.9332417E-1,2.8697422E-1,-6.288928E-2,1.655731E-1,-1.8023287E-1,2.7236435E-1,3.1116458E-2,3.17154E-1,9.9031106E-2,-1.9099084E-1,9.617573E-2],"split_indices":[16,6,13,13,0,17,2,17,5,6,13,15,18,15,0,7,0,6,0,2,15,0,8,12,0,10,15,3,13,15,10,1,9,0,0,7,0,17,6,0,0,18,5,15,9,0,9,0,10,0,7,0,0,0,0,0,0,0,0,0,0,0,0,0,0,0,0,0,0,0,0,0,0,0,0,0,0,0,0,0,0],"split_type":[0,0,0,0,0,0,0,0,0,0,0,0,0,0,0,0,0,0,0,0,0,0,0,0,0,0,0,0,0,0,0,0,0,0,0,0,0,0,0,0,0,0,0,0,0,0,0,0,0,0,0,0,0,0,0,0,0,0,0,0,0,0,0,0,0,0,0,0,0,0,0,0,0,0,0,0,0,0,0,0,0],"sum_hessian":[4.9442526E2,3.785655E2,1.1585979E2,3.1520953E2,6.335596E1,9.633859E1,1.9521196E1,2.3095926E2,8.425025E1,3.416123E1,2.9194733E1,4.0777325E1,5.5561268E1,1.7545547E1,1.975649E0,1.3861403E2,9.2345245E1,8.258397E1,1.6662886E0,1.8317192E1,1.5844037E1,3.7701879E0,2.5424545E1,3.0974323E1,9.803E0,5.493336E0,5.0067932E1,1.5483459E1,2.0620866E0,1.3446272E2,4.1512995E0,8.19189E1,1.0426345E1,1.0023507E0,8.158161E1,1.6667192E1,1.649999E0,8.389883E0,7.4541545E0,2.6562421E0,1.113946E0,2.1668112E1,3.7564328E0,9.445968E0,2.1528355E1,1.1844618E0,4.308874E0,1.8415669E0,4.8226364E1,1.329979E1,2.1836693E0,1.0383093E0,1.0237774E0,1.2669312E2,7.769603E0,1.7234128E0,2.4278867E0,7.897028E1,2.9486122E0,8.732175E0,1.69417E0,1.5488567E1,1.1786244E0,1.2218027E0,7.16808E0,4.7926197E0,2.661535E0,4.3632617E0,1.730485E1,2.4920573E0,1.2643754E0,8.271381E0,1.1745863E0,9.74524E0,1.1783114E1,3.296488E0,1.0123863E0,4.66102E1,1.616165E0,1.1656905E0,1.0179788E0],"tree_param":{"num_deleted":"0","num_feature":"19","num_nodes":"81","size_leaf_vector":"0"}},{"base_weights":[-2.4412425E-1,-5.01023E-1,3.2879242E-1,-5.974172E-1,6.84214E-1,3.711686E-3,8.939876E-1,-4.3501627E-1,-1.0039597E0,8.2031804E-1,-7.152979E-1,-1.3758804E-1,8.579671E-1,-5.055948E-2,9.598844E-1,-7.770913E-1,-7.547298E-2,-1.0362226E0,2.6773545E-1,-1.13940336E-1,8.983754E-1,-2.5439444E-1,8.901364E-1,1.1454548E0,-2.7296992E-2,-5.025217E-1,3.7867364E-1,1.012754E0,8.922239E-2,-8.5177314E-1,4.5280316E-1,-2.3314226E-1,1.0188749E0,-1.0586079E0,3.180881E-1,2.0675062E-1,9.740825E-1,-3.502073E-1,1.0459558E0,1.3828355E-1,9.816857E-1,-6.701236E-1,7.5457066E-1,3.1190202E-1,1.0436358E0,-7.324469E-1,6.7432624E-1,-8.8689756E-1,7.6012194E-1,1.2613021E0,2.2234546E-2,-4.8806012E-1,2.5019073E-1,-4.0181514E-2,1.1173121E0,-1.0761112E0,6.6596046E-2,6.6422373E-1,-3.8470164E-1,4.698368E-1,1.1117241E0,-6.53465E-1,-7.50296E-3,-1.8817735E-1,6.2119037E-1,1.0830318E0,4.574716E-1],"categories":[],"categories_nodes":[],"categories_segments":[],"categories_sizes":[],"default_left":[1,1,1,1,1,1,0,1,1,1,0,1,0,1,1,1,1,1,0,0,0,1,1,0,1,0,0,0,1,1,0,0,0,1,0,0,0,0,0,0,0,0,0,1,1,0,0,0,0,0,0,0,0,0,0,0,0,0,0,0,0,0,0,0,0,0,0],"id":6,"left_children":[1,3,5,7,9,11,13,15,17,19,-1,21,23,25,27,29,31,33,-1,-1,35,37,39,-1,41,-1,-1,43,45,47,49,51,53,55,-1,57,59,61,-1,-1,-1,-1,-1,63,65,-1,-1,-1,-1,-1,-1,-1,-1,-1,-1,-1,-1,-1,-1,-1,-1,-1,-1,-1,-1,-1,-1],"loss_changes":[6.3335346E1,3.430941E1,2.4521217E1,1.77156E1,4.926524E0,1.0467803E1,3.0819244E0,2.4321205E1,3.4659805E0,1.6505613E0,0E0,9.162058E0,3.16364E0,9.9116004E-1,2.0089874E0,9.706017E0,1.710425E1,2.6407242E0,0E0,0E0,8.303995E-1,8.790695E0,4.0243483E-1,0E0,2.5129895E0,0E0,0E0,6.0298157E-1,2.2763166E0,6.1099854E0,2.221406E0,1.074974E1,1.3476515E0,1.5486374E0,0E0,1.1250509E0,6.9169044E-1,6.617963E0,0E0,0E0,0E0,0E0,0E0,6.175185E-1,4.4354248E-1,0E0,0E0,0E0,0E0,0E0,0E0,0E0,0E0,0E0,0E0,0E0,0E0,0E0,0E0,0E0,0E0,0E0,0E0,0E0,0E0,0E0,0E0],"parents":[2147483647,0,0,1,1,2,2,3,3,4,4,5,5,6,6,7,7,8,8,9,9,11,11,12,12,13,13,14,14,15,15,16,16,17,17,20,20,21,21,22,22,24,24,27,27,28,28,29,29,30,30,31,31,32,32,33,33,35,35,36,36,37,37,43,43,44,44],"right_children":[2,4,6,8,10,12,14,16,18,20,-1,22,24,26,28,30,32,34,-1,-1,36,38,40,-1,42,-1,-1,44,46,48,50,52,54,56,-1,58,60,62,-1,-1,-1,-1,-1,64,66,-1,-1,-1,-1,-1,-1,-1,-1,-1,-1,-1,-1,-1,-1,-1,-1,-1,-1,-1,-1,-1,-1],"split_conditions":[1.695E-1,3.5E-2,1.595E2,1.2E-1,1.1E-1,1.95E-1,3.9499998E-1,1.05E1,3.25E-1,5E1,-2.1458937E-1,2.9000002E-1,2.8200002E0,3.36E2,4.15E-1,2.9000002E-1,7.05E-1,2.0385E3,8.032064E-2,-3.41821E-2,2.65E-2,5.65E-1,5.5E0,3.4363645E-1,2.4299998E0,-1.5075651E-1,1.13602094E-1,5.25E-1,1.0699999E0,1.6700001E0,1.025E0,6.4E0,6.55E-1,7.3E-1,9.542644E-2,7.8499997E-1,1.105E0,5.2349997E-1,3.1378675E-1,4.1485067E-2,2.9450572E-1,-2.0103708E-1,2.2637121E-1,1.435E2,1.24E0,-2.1973409E-1,2.0229788E-1,-2.660693E-1,2.280366E-1,3.7839064E-1,6.670364E-3,-1.4641804E-1,7.505722E-2,-1.2054455E-2,3.3519363E-1,-3.2283336E-1,1.9978814E-2,1.9926713E-1,-1.154105E-1,1.4095105E-1,3.3351725E-1,-1.960395E-1,-2.2508882E-3,-5.6453206E-2,1.8635711E-1,3.2490954E-1,1.3724148E-1],"split_indices":[15,12,18,13,13,7,10,17,5,18,0,2,10,18,5,3,0,18,0,0,15,3,17,0,9,0,0,9,10,8,10,9,8,6,0,11,10,15,0,0,0,0,0,17,0,0,0,0,0,0,0,0,0,0,0,0,0,0,0,0,0,0,0,0,0,0,0],"split_type":[0,0,0,0,0,0,0,0,0,0,0,0,0,0,0,0,0,0,0,0,0,0,0,0,0,0,0,0,0,0,0,0,0,0,0,0,0,0,0,0,0,0,0,0,0,0,0,0,0,0,0,0,0,0,0,0,0,0,0,0,0,0,0,0,0,0,0],"sum_hessian":[4.2820197E2,2.957235E2,1.3247844E2,2.739402E2,2.1783337E1,8.4743484E1,4.7734955E1,1.9722505E2,7.671513E1,2.0229818E1,1.5535175E0,7.343566E1,1.1307826E1,3.1282475E0,4.460671E1,1.0047257E2,9.675249E1,7.499761E1,1.7175269E0,1.5244286E0,1.870539E1,6.6616776E1,6.818885E0,8.313969E0,2.9938574E0,1.4406099E0,1.6876374E0,4.1899242E1,2.7074664E0,9.501075E1,5.4618163E0,8.525608E1,1.1496399E1,7.399293E1,1.0046797E0,2.2136297E0,1.649176E1,6.2725677E1,3.8910944E0,1.0126805E0,5.8062043E0,1.7214531E0,1.2724042E0,2.2367537E0,3.9662487E1,1.0213487E0,1.6861178E0,9.3424736E1,1.5860162E0,1.2274979E0,4.2343183E0,5.5810772E1,2.944531E1,1.028022E0,1.0468377E1,7.290251E1,1.0904198E0,1.1788111E0,1.0348186E0,4.4827666E0,1.2008994E1,3.2796978E1,2.9928701E1,1.0043802E0,1.2323735E0,3.6370384E1,3.2921047E0],"tree_param":{"num_deleted":"0","num_feature":"19","num_nodes":"67","size_leaf_vector":"0"}},{"base_weights":[-1.9569725E-1,6.6819656E-1,-3.2716927E-1,2.777284E-1,8.44468E-1,-1.6971096E-1,-9.2152613E-1,-2.9585215E-1,5.2273726E-1,2.5020114E-1,8.8683635E-1,-6.362777E-1,1.6253099E-1,-9.569912E-1,6.855183E-1,-7.14647E-1,5.15594E-1,6.584263E-1,-4.2742243E-1,-4.1071844E-1,6.665978E-1,1.3717043E-1,9.076596E-1,-7.941009E-1,-1.3812916E-1,-5.803543E-2,6.028552E-1,-9.911154E-1,1.5073481E-1,-2.2488905E-1,-9.561879E-1,9.561127E-1,4.2334154E-2,2.2779787E-1,9.3701196E-1,-8.597779E-1,1.8873297E-2,-4.2429855E-1,4.8889154E-1,-1.6752315E-1,1.0833147E0,2.034711E-1,9.57673E-1,1.861427E-1,-1.0179046E0,1.0975135E-1,1.0722642E0,-5.8980834E-1,5.099874E-1,9.5976716E-1,2.569277E-1,-9.319313E-1,-1.492702E-1,-4.6020278E-1,6.9914305E-1,6.8712914E-1,-5.7829934E-1,7.30864E-1,-6.955101E-1,-2.3365957E-1,1.2921693E0,1.0405289E-1,1.2032394E0,4.6107388E-1,-6.6731995E-1,2.3682447E-1,1.1127402E0,-1.029554E0,-1.7621154E-1],"categories":[],"categories_nodes":[],"categories_segments":[],"categories_sizes":[],"default_left":[0,1,1,0,0,1,1,1,1,1,1,1,1,1,0,1,0,1,0,0,0,0,0,1,1,1,1,0,0,0,0,0,0,0,1,1,1,0,1,1,0,1,0,0,1,0,0,0,0,0,0,0,0,0,0,0,0,0,0,0,0,0,0,0,0,0,0,0,0],"id":7,"left_children":[1,3,5,7,9,11,13,15,17,19,21,23,25,27,-1,29,-1,31,-1,-1,-1,-1,33,35,37,39,41,43,-1,-1,-1,45,47,-1,49,51,53,55,57,59,61,63,65,-1,67,-1,-1,-1,-1,-1,-1,-1,-1,-1,-1,-1,-1,-1,-1,-1,-1,-1,-1,-1,-1,-1,-1,-1,-1],"loss_changes":[4.310421E1,3.2207928E0,3.0576046E1,2.5583525E0,6.36631E-1,4.0536263E1,4.5629997E0,2.3252022E0,1.8731823E0,1.281646E0,3.6621857E-1,8.435493E0,1.4908507E1,2.700447E0,0E0,2.838173E-1,0E0,2.0130944E0,0E0,0E0,0E0,0E0,3.9335823E-1,4.4121094E0,5.116916E0,1.3046026E1,7.0604076E0,2.2584534E0,0E0,0E0,0E0,6.1991024E-1,1.6884696E0,0E0,1.9953918E-1,3.7671776E0,2.6462216E0,3.7045498E0,3.098779E0,9.453926E0,9.487629E-1,5.9955754E0,2.736889E0,0E0,4.4903564E-1,0E0,0E0,0E0,0E0,0E0,0E0,0E0,0E0,0E0,0E0,0E0,0E0,0E0,0E0,0E0,0E0,0E0,0E0,0E0,0E0,0E0,0E0,0E0,0E0],"parents":[2147483647,0,0,1,1,2,2,3,3,4,4,5,5,6,6,7,7,8,8,9,9,10,10,11,11,12,12,13,13,15,15,17,17,22,22,23,23,24,24,25,25,26,26,27,27,31,31,32,32,34,34,35,35,36,36,37,37,38,38,39,39,40,40,41,41,42,42,44,44],"right_children":[2,4,6,8,10,12,14,16,18,20,22,24,26,28,-1,30,-1,32,-1,-1,-1,-1,34,36,38,40,42,44,-1,-1,-1,46,48,-1,50,52,54,56,58,60,62,64,66,-1,68,-1,-1,-1,-1,-1,-1,-1,-1,-1,-1,-1,-1,-1,-1,-1,-1,-1,-1,-1,-1,-1,-1,-1,-1],"split_conditions":[1.4540001E1,4.9000002E-2,1.2E-1,1.505E0,2.05E-1,9.5E0,8.2E-1,3.7E-1,5.15E-1,1.6499999E-1,3.35E1,6.3E-1,9.5E-2,6.75E-1,2.056555E-1,2.9000002E-1,1.5467821E-1,3.255E0,-1.2822674E-1,-1.23215534E-1,1.9997935E-1,4.1151132E-2,3.25E-1,1.0780001E0,5.5E0,2.2500001E-1,2.75E1,8.5E-2,4.5220446E-2,-6.746672E-2,-2.8685638E-1,1.6499999E-1,3.835E0,6.833936E-2,1E0,2.75E-1,2.325E0,7.680001E0,1.16E-1,5.94E0,7.3E-1,2.05E1,7.8E-2,5.5842813E-2,2.215E2,3.292541E-2,3.2167926E-1,-1.7694251E-1,1.5299623E-1,2.8793016E-1,7.707831E-2,-2.795794E-1,-4.4781063E-2,-1.3806084E-1,2.0974292E-1,2.0613874E-1,-1.7348981E-1,2.192592E-1,-2.0865303E-1,-7.009787E-2,3.8765082E-1,3.1215867E-2,3.6097184E-1,1.3832217E-1,-2.00196E-1,7.104734E-2,3.3382207E-1,-3.088662E-1,-5.2863464E-2],"split_indices":[2,15,13,9,11,17,5,0,3,1,18,10,0,6,0,10,0,9,0,0,0,0,10,15,17,11,17,11,0,0,0,4,9,0,5,6,9,7,16,9,5,17,15,0,17,0,0,0,0,0,0,0,0,0,0,0,0,0,0,0,0,0,0,0,0,0,0,0,0],"split_type":[0,0,0,0,0,0,0,0,0,0,0,0,0,0,0,0,0,0,0,0,0,0,0,0,0,0,0,0,0,0,0,0,0,0,0,0,0,0,0,0,0,0,0,0,0,0,0,0,0,0,0,0,0,0,0,0,0,0,0,0,0,0,0,0,0,0,0,0,0],"sum_hessian":[3.765877E2,4.920203E1,3.2738568E2,1.6104246E1,3.3097782E1,2.5983514E2,6.7550545E1,4.7579894E0,1.1346256E1,2.6622272E0,3.0435556E1,1.0769048E2,1.5214465E2,6.648776E1,1.062783E0,3.2169728E0,1.5410168E0,1.01970825E1,1.1491736E0,1.0342559E0,1.6279713E0,1.0276068E0,2.940795E1,8.132958E1,2.6360905E1,1.0194616E2,5.019849E1,6.46029E1,1.8848634E0,1.7003454E0,1.5166274E0,6.503022E0,3.6940608E0,1.5796974E0,2.7828253E1,7.519713E1,6.1324553E0,1.8322094E1,8.038811E0,9.38012E1,8.14496E0,2.435635E1,2.5842138E1,1.3050251E0,6.329787E1,1.019455E0,5.483567E0,1.4597114E0,2.2343493E0,2.6529348E1,1.2989045E0,6.7981804E1,7.21532E0,3.788163E0,2.3442924E0,1.808469E0,1.6513624E1,6.9930587E0,1.0457515E0,9.053894E1,3.262255E0,1.0924082E0,7.0525527E0,1.91591E1,5.1972513E0,5.0223556E0,2.0819782E1,6.2213615E1,1.084255E0],"tree_param":{"num_deleted":"0","num_feature":"19","num_nodes":"69","size_leaf_vector":"0"}},{"base_weights":[-1.5757994E-1,-2.9315975E-1,5.312566E-1,-1.5998086E-1,-8.5026914E-1,3.2096437E-1,9.355552E-1,-2.648915E-1,7.1496964E-1,-9.178435E-1,3.3973503E-1,-2.357377E-3,6.06556E-1,3.5418814E-1,1.0278221E0,-5.8515215E-1,-3.0532792E-2,-3.5623685E-1,7.7800786E-1,-9.584092E-1,2.0248184E-1,-6.726889E-1,1.0889204E0,-5.223858E-1,3.5579172E-1,-5.375689E-1,7.390586E-1,7.841649E-1,-4.6448016E-1,-6.668956E-1,4.10536E-1,-1.612537E-1,5.632979E-1,8.431293E-1,-3.151407E-1,2.9570282E-1,-9.931092E-1,4.34264E-1,-8.4261817E-1,5.4279333E-1,-7.013968E-1,8.3300215E-1,-4.3218157E-1,-7.047307E-1,7.9068285E-1,-7.225423E-2,8.749333E-1,-2.1506338E-1,1.2026553E0,-7.321319E-1,6.73023E-1,9.265871E-1,-6.2041253E-2,-1.0190513E0,-3.0050522E-1,-1.1583596E0,-1.00325905E-1,7.575546E-1,-4.40706E-1,8.9204997E-1,1.1549675E-2],"categories":[],"categories_nodes":[],"categories_segments":[],"categories_sizes":[],"default_left":[1,1,1,1,1,1,0,1,0,1,1,1,0,1,0,1,1,0,1,0,0,0,0,0,1,0,1,0,0,1,1,1,1,0,0,0,1,0,0,1,0,0,0,0,0,0,0,0,0,0,0,0,0,0,0,0,0,0,0,0,0],"id":8,"left_children":[1,3,5,7,9,11,13,15,17,19,21,23,25,27,-1,29,31,-1,33,35,-1,-1,-1,37,39,-1,41,-1,-1,43,45,47,49,51,-1,-1,53,-1,55,57,-1,59,-1,-1,-1,-1,-1,-1,-1,-1,-1,-1,-1,-1,-1,-1,-1,-1,-1,-1,-1],"loss_changes":[3.1499008E1,2.07173E1,4.4224825E0,2.1123978E1,4.653675E0,3.516162E0,6.2748337E-1,1.5321885E1,1.9443083E0,2.528328E0,3.4867003E0,3.696395E0,3.461884E0,1.7925346E0,0E0,7.2983475E0,9.333882E0,0E0,1.9479074E0,2.4583397E0,0E0,0E0,0E0,2.8449883E0,2.70492E0,0E0,2.3997507E0,0E0,0E0,4.9767075E0,1.67009E0,7.477907E0,3.5779119E0,1.7628155E0,0E0,0E0,5.6757736E-1,0E0,1.3844471E0,2.5628817E0,0E0,8.386841E-1,0E0,0E0,0E0,0E0,0E0,0E0,0E0,0E0,0E0,0E0,0E0,0E0,0E0,0E0,0E0,0E0,0E0,0E0,0E0],"parents":[2147483647,0,0,1,1,2,2,3,3,4,4,5,5,6,6,7,7,8,8,9,9,10,10,11,11,12,12,13,13,15,15,16,16,18,18,19,19,23,23,24,24,26,26,29,29,30,30,31,31,32,32,33,33,36,36,38,38,39,39,41,41],"right_children":[2,4,6,8,10,12,14,16,18,20,22,24,26,28,-1,30,32,-1,34,36,-1,-1,-1,38,40,-1,42,-1,-1,44,46,48,50,52,-1,-1,54,-1,56,58,-1,60,-1,-1,-1,-1,-1,-1,-1,-1,-1,-1,-1,-1,-1,-1,-1,-1,-1,-1,-1],"split_conditions":[7.9500005E-2,1.2E-1,2.35E-1,9.5E-2,3.25E-1,8.75E-1,1.455E0,8.5E0,1.75E-2,6.75E-1,5.15E-1,1.55E1,7.4499995E-2,1.4300001E0,3.0834666E-1,1.21E0,4.765E-1,-1.0687106E-1,6.05E-2,5.5E-2,6.0744554E-2,-2.0180668E-1,3.2667613E-1,1.0520001E1,1.9E-1,-1.6127068E-1,1.2E-1,2.3524947E-1,-1.3934405E-1,5.4999995E-1,3E1,1.23E2,2.2E1,1.4200001E1,-9.454221E-2,8.8710845E-2,1.174E3,1.3027921E-1,3.42E-1,3.9E-1,-2.1041906E-1,7.5049996E-1,-1.2965448E-1,-2.1141921E-1,2.3720486E-1,-2.167627E-2,2.6248E-1,-6.451902E-2,3.607966E-1,-2.1963958E-1,2.019069E-1,2.7797616E-1,-1.8612377E-2,-3.057154E-1,-9.015157E-2,-3.475079E-1,-3.0097773E-2,2.2726639E-1,-1.322118E-1,2.67615E-1,3.4649025E-3],"split_indices":[16,13,11,7,5,10,9,17,15,6,10,17,15,10,0,6,15,0,16,11,0,0,0,8,5,0,11,0,0,5,18,17,18,9,0,0,18,0,16,13,0,16,0,0,0,0,0,0,0,0,0,0,0,0,0,0,0,0,0,0,0],"split_type":[0,0,0,0,0,0,0,0,0,0,0,0,0,0,0,0,0,0,0,0,0,0,0,0,0,0,0,0,0,0,0,0,0,0,0,0,0,0,0,0,0,0,0,0,0,0,0,0,0,0,0,0,0,0,0,0,0,0,0,0,0],"sum_hessian":[3.3460858E2,2.800603E2,5.4548275E1,2.2706647E2,5.2993847E1,3.706377E1,1.7484503E1,2.0337776E2,2.3688692E1,5.0362705E1,2.631141E0,1.784874E1,1.921503E1,3.05759E0,1.4426912E1,8.530636E1,1.1807141E2,1.0580568E0,2.2630634E1,4.874233E1,1.6203772E0,1.162408E0,1.4687331E0,7.092272E0,1.0756468E1,1.6770556E0,1.7537975E1,2.0323274E0,1.0252627E0,7.913943E1,6.166931E0,9.736643E1,2.0704979E1,2.1574127E1,1.0565068E0,1.109826E0,4.7632504E1,1.6893836E0,5.4028883E0,9.55321E0,1.2032582E0,1.6503073E1,1.0349023E0,7.764058E1,1.498846E0,3.4375975E0,2.7293339E0,9.4481224E1,2.8852062E0,1.1738553E0,1.9531122E1,1.9731226E1,1.842903E0,4.5458485E1,2.174018E0,3.397297E0,2.0055914E0,8.0295725E0,1.523637E0,1.531617E1,1.1869031E0],"tree_param":{"num_deleted":"0","num_feature":"19","num_nodes":"61","size_leaf_vector":"0"}},{"base_weights":[-1.2608771E-1,-2.1945798E-1,6.5544707E-1,-3.7282437E-1,1.4660726E-1,7.140432E-1,-5.7311565E-1,-2.5490588E-1,-8.1709623E-1,-2.8731236E-1,3.2868856E-1,3.232257E-1,9.2281276E-1,1.6067307E-1,-3.9955002E-1,1.3574974E-1,-8.869978E-1,-4.2059818E-1,1.0294943E0,-4.726219E-1,4.3489748E-1,-1.1391884E0,7.167506E-1,9.305013E-2,9.951672E-1,-8.7834366E-2,7.1942925E-1,-4.4472936E-1,5.771978E-1,-6.544858E-1,9.344555E-1,-9.2992496E-1,1.4884463E-1,-5.2864844E-1,4.0866712E-1,2.4004042E-1,-8.300919E-1,5.2089703E-1,-6.409448E-1,-2.6592726E-1,8.64024E-1,1.0493976E0,1.1418501E-1,-3.2478672E-1,7.396723E-1,-4.1264427E-1,9.999025E-1,-4.861591E-1,4.6123332E-1,-2.6747823E-1,1.0768987E0,-9.4959813E-1,-1.2663735E-1,-6.0892165E-1,2.7022597E-1,-7.577136E-2,6.7695504E-1,6.199054E-1,-2.774479E-1,-1.098655E0,8.229469E-2,5.65314E-1,-7.742802E-1,-7.9786164E-1,-7.709156E-2,1.825868E-2,9.9094677E-1],"categories":[],"categories_nodes":[],"categories_segments":[],"categories_sizes":[],"default_left":[1,1,1,1,1,1,0,0,0,0,0,0,0,1,1,0,1,1,0,0,1,0,0,0,0,0,0,1,1,0,0,1,0,1,1,0,1,0,1,0,0,0,0,0,0,0,0,0,0,0,0,0,0,0,0,0,0,0,0,0,0,0,0,0,0,0,0],"id":9,"left_children":[1,3,5,7,9,11,-1,13,15,17,19,21,23,25,27,29,31,33,-1,35,37,-1,39,-1,41,43,45,47,49,-1,-1,51,-1,53,55,57,59,61,63,-1,65,-1,-1,-1,-1,-1,-1,-1,-1,-1,-1,-1,-1,-1,-1,-1,-1,-1,-1,-1,-1,-1,-1,-1,-1,-1,-1],"loss_changes":[2.212364E1,1.5202486E1,2.7413769E0,9.767954E0,6.4453096E0,2.260932E0,0E0,9.197548E0,2.7505932E0,4.696776E0,5.064144E0,7.987493E0,1.1024876E0,5.6094723E0,5.2431774E0,2.8624632E0,1.7802143E0,2.2563224E0,0E0,2.0234113E0,5.045842E0,0E0,1.7395458E0,0E0,7.499924E-1,5.835984E0,4.3513346E0,4.299181E0,2.5803225E0,0E0,0E0,4.4220734E-1,0E0,1.4844012E0,4.657508E-1,7.9466015E-1,1.3138258E0,3.182374E0,3.1169605E-1,0E0,9.810796E-1,0E0,0E0,0E0,0E0,0E0,0E0,0E0,0E0,0E0,0E0,0E0,0E0,0E0,0E0,0E0,0E0,0E0,0E0,0E0,0E0,0E0,0E0,0E0,0E0,0E0,0E0],"parents":[2147483647,0,0,1,1,2,2,3,3,4,4,5,5,7,7,8,8,9,9,10,10,11,11,12,12,13,13,14,14,15,15,16,16,17,17,19,19,20,20,22,22,24,24,25,25,26,26,27,27,28,28,31,31,33,33,34,34,35,35,36,36,37,37,38,38,40,40],"right_children":[2,4,6,8,10,12,-1,14,16,18,20,22,24,26,28,30,32,34,-1,36,38,-1,40,-1,42,44,46,48,50,-1,-1,52,-1,54,56,58,60,62,64,-1,66,-1,-1,-1,-1,-1,-1,-1,-1,-1,-1,-1,-1,-1,-1,-1,-1,-1,-1,-1,-1,-1,-1,-1,-1,-1,-1],"split_conditions":[3.5E-2,1.695E-1,1.35E-1,1.2E-1,4.05E1,1.595E2,-1.719347E-1,2.9250002E0,2.35E-1,3.8035002E0,5.55E-1,1E0,2.65E-2,2.95E1,1.91E0,6.4E-1,2.5E-1,9.5E-1,3.088483E-1,1.0899999E0,5.4999995E-1,-3.4175652E-1,3.45E-1,2.791504E-2,1.025E0,1.54E0,3.2E-1,4.35E-1,3.5E0,-1.9634576E-1,2.8033668E-1,4.05E-1,4.465339E-2,1.21E0,2.75E1,2.225E-1,3.75E-1,4.731E0,1.75E1,-7.977818E-2,1.2799999E-1,3.1481928E-1,3.4255505E-2,-9.743602E-2,2.219017E-1,-1.2379328E-1,2.9997075E-1,-1.4584774E-1,1.3837E-1,-8.024347E-2,3.2306963E-1,-2.8487945E-1,-3.7991207E-2,-1.826765E-1,8.106779E-2,-2.2731408E-2,2.0308653E-1,1.8597163E-1,-8.323438E-2,-3.2959652E-1,2.4688408E-2,1.695942E-1,-2.3228407E-1,-2.393585E-1,-2.3127468E-2,5.477604E-3,2.9728404E-1],"split_indices":[12,15,13,13,18,18,0,0,11,15,10,10,15,17,6,7,2,0,0,9,13,0,6,0,12,0,3,7,17,0,0,5,0,6,18,16,0,15,17,0,16,0,0,0,0,0,0,0,0,0,0,0,0,0,0,0,0,0,0,0,0,0,0,0,0,0,0],"split_type":[0,0,0,0,0,0,0,0,0,0,0,0,0,0,0,0,0,0,0,0,0,0,0,0,0,0,0,0,0,0,0,0,0,0,0,0,0,0,0,0,0,0,0,0,0,0,0,0,0,0,0,0,0,0,0,0,0,0,0,0,0,0,0,0,0,0,0],"sum_hessian":[3.002082E2,2.688123E2,3.139591E1,1.8943027E2,7.938201E1,3.0366388E1,1.029522E0,1.5094125E2,3.8489017E1,2.3293386E1,5.6088623E1,1.1460509E1,1.8905878E1,3.894295E1,1.119983E2,2.5662193E0,3.59228E1,2.1770401E1,1.5229852E0,6.1604185E0,4.9928204E1,2.0282633E0,9.432246E0,1.6997004E0,1.7206179E1,2.753814E1,1.1404814E1,1.0756746E2,4.4308343E0,1.3807144E0,1.1855049E0,3.4591515E1,1.331282E0,1.958151E1,2.1888905E0,2.1675775E0,3.9928412E0,4.671016E1,3.2180429E0,1.1243536E0,8.307893E0,1.6028357E1,1.1778209E0,2.188033E1,5.65781E0,2.170954E0,9.23386E0,1.03306625E2,4.2608385E0,1.8196642E0,2.6111703E0,3.3586807E1,1.0047077E0,1.8009628E1,1.5718832E0,1.0359269E0,1.1529635E0,1.1358725E0,1.0317049E0,2.9270904E0,1.065751E0,4.570623E1,1.0039316E0,2.1927872E0,1.0252558E0,1.2333267E0,7.074566E0],"tree_param":{"num_deleted":"0","num_feature":"19","num_nodes":"67","size_leaf_vector":"0"}},{"base_weights":[-9.946202E-2,-1.6670966E-1,7.8546023E-1,-8.998621E-2,-7.889983E-1,-3.961306E-1,9.674524E-1,-1.6427359E-1,4.5875546E-1,-8.5729706E-1,3.1513456E-1,4.8985428E-1,-1.0774819E0,1.4828406E-1,1.0559962E0,-2.1109435E-1,6.788529E-1,3.2428324E-1,9.266045E-1,9.652103E-2,-9.373446E-1,-4.717737E-1,-6.326743E-2,-3.231151E-1,9.419667E-1,-6.029804E-1,4.8124564E-1,-6.835683E-2,-9.746633E-1,9.7301227E-1,-5.152042E-1,-1.11460365E-1,1.2566445E0,3.119253E-1,1.1795875E0,-5.237827E-3,-9.358564E-1,7.531636E-1,7.871224E-2],"categories":[],"categories_nodes":[],"categories_segments":[],"categories_sizes":[],"default_left":[1,1,0,1,1,1,1,1,1,0,0,0,0,0,0,1,0,0,0,0,0,1,1,0,1,0,1,0,0,0,0,0,0,0,0,0,0,0,0],"id":10,"left_children":[1,3,5,7,9,11,13,15,17,19,-1,-1,-1,-1,-1,21,23,25,-1,-1,27,29,31,-1,33,35,37,-1,-1,-1,-1,-1,-1,-1,-1,-1,-1,-1,-1],"loss_changes":[1.6432007E1,1.2123089E1,4.581107E0,9.390088E0,2.374464E0,2.5289214E0,1.0914288E0,8.117079E0,1.4301901E0,2.1174126E0,0E0,0E0,0E0,0E0,0E0,7.3738585E0,3.168486E0,3.6240337E0,0E0,0E0,7.3067284E-1,4.85415E0,8.012283E0,0E0,9.5849323E-1,7.432265E-1,2.1458158E0,0E0,0E0,0E0,0E0,0E0,0E0,0E0,0E0,0E0,0E0,0E0,0E0],"parents":[2147483647,0,0,1,1,2,2,3,3,4,4,5,5,6,6,7,7,8,8,9,9,15,15,16,16,17,17,20,20,21,21,22,22,24,24,25,25,26,26],"right_children":[2,4,6,8,10,12,14,16,18,20,-1,-1,-1,-1,-1,22,24,26,-1,-1,28,30,32,-1,34,36,38,-1,-1,-1,-1,-1,-1,-1,-1,-1,-1,-1,-1],"split_conditions":[2.6E-1,7.1500003E-1,1.1800001E0,4.5E-2,9.35E-1,4.5499998E-1,9.5E0,5.3499997E-1,4.865E2,1.9E-1,9.454037E-2,1.469563E-1,-3.2324457E-1,4.448522E-2,3.1679887E-1,8.5E0,1.22E0,3.45E-1,2.7798137E-1,2.8956309E-2,3.9999998E-1,2.5E0,7.8499997E-1,-9.6934535E-2,3.9999998E-1,1.6560011E0,2.15E1,-2.0507049E-2,-2.9239902E-1,2.919037E-1,-1.5456127E-1,-3.3438113E-2,3.7699336E-1,9.357759E-2,3.5387626E-1,-1.5713482E-3,-2.8075692E-1,2.2594908E-1,2.3613673E-2],"split_indices":[11,13,9,2,6,10,17,3,18,11,0,0,0,0,0,17,1,5,0,0,14,18,1,0,9,16,17,0,0,0,0,0,0,0,0,0,0,0,0],"split_type":[0,0,0,0,0,0,0,0,0,0,0,0,0,0,0,0,0,0,0,0,0,0,0,0,0,0,0,0,0,0,0,0,0,0,0,0,0,0,0],"sum_hessian":[2.7292627E2,2.5440495E2,1.8521315E1,2.2750049E2,2.690447E1,2.3149278E0,1.6206387E1,2.0099138E2,2.6509111E1,2.5547712E1,1.3567575E0,1.1285237E0,1.1864041E0,1.8417755E0,1.4364612E1,1.9112727E2,9.86411E0,2.1905909E1,4.603203E0,1.9621108E0,2.3585602E1,6.8370575E1,1.2275669E2,2.0041249E0,7.859985E0,2.759928E0,1.914598E1,1.0877763E0,2.2497826E1,1.3706244E0,6.699995E1,1.19315765E2,3.4409306E0,2.785925E0,5.07406E0,1.3505294E0,1.4093986E0,1.0907038E1,8.238942E0],"tree_param":{"num_deleted":"0","num_feature":"19","num_nodes":"39","size_leaf_vector":"0"}},{"base_weights":[-7.201682E-2,1.0275887E-3,-6.842287E-1,-2.965157E-1,1.4569579E-1,6.9424236E-1,-8.0180466E-1,-5.1034606E-1,2.0391877E-1,9.015511E-2,1.0118586E0,-8.7614363E-1,2.2557569E-1,-6.702041E-1,9.720244E-2,2.4378859E-2,7.476868E-1,-6.769441E-2,3.7008682E-1,5.89929E-2,-9.228645E-1,-7.7736926E-1,4.245172E-2,-6.486295E-1,3.438059E-1,-1.19693965E-1,9.516352E-1,-3.746696E-1,1.2486631E0,-2.0950168E-1,5.3763545E-1,1.9233575E0,2.9575655E-1,-9.5909977E-1,-1.7460899E-1,-8.4631014E-1,-3.7983496E-2,-4.2857835E-1,7.6141685E-1,-1.5023349E-1,-8.307759E-1,9.0335125E-1,-3.0944675E-1,3.3057266E-1,-3.4852377E-1,3.7542588E-1,1.4181143E0,-3.9098594E-1,4.991652E-1,-4.3912756E-1,7.38331E-1,7.5467664E-1,1.7266726E-1,-9.837074E-1,-2.4906775E-1],"categories":[],"categories_nodes":[],"categories_segments":[],"categories_sizes":[],"default_left":[1,1,1,1,1,0,1,1,1,0,0,0,0,1,0,1,1,1,0,0,1,1,1,0,0,0,0,0,0,1,0,0,1,1,0,0,0,0,0,0,0,0,0,0,0,0,0,0,0,0,0,0,0,0,0],"id":11,"left_children":[1,3,5,7,9,-1,11,13,15,17,-1,19,-1,21,23,25,27,29,31,-1,33,35,37,39,41,43,-1,-1,45,47,49,-1,51,53,-1,-1,-1,-1,-1,-1,-1,-1,-1,-1,-1,-1,-1,-1,-1,-1,-1,-1,-1,-1,-1],"loss_changes":[1.1416825E1,9.903702E0,4.967309E0,8.158606E0,7.3559556E0,0E0,2.1481628E0,5.2147284E0,2.2514575E0,6.5016937E0,0E0,1.1039066E0,0E0,3.2485428E0,2.4150789E0,2.5868728E0,3.693601E0,8.230461E0,5.550745E0,0E0,4.544468E-1,1.8361397E0,2.511298E0,1.7548716E-1,3.7923765E0,1.8575407E0,0E0,0E0,8.8683605E-2,1.0141929E1,3.8978252E0,0E0,2.7938113E0,1.3335991E-1,0E0,0E0,0E0,0E0,0E0,0E0,0E0,0E0,0E0,0E0,0E0,0E0,0E0,0E0,0E0,0E0,0E0,0E0,0E0,0E0,0E0],"parents":[2147483647,0,0,1,1,2,2,3,3,4,4,6,6,7,7,8,8,9,9,11,11,13,13,14,14,15,15,16,16,17,17,18,18,20,20,21,21,22,22,23,23,24,24,25,25,28,28,29,29,30,30,32,32,33,33],"right_children":[2,4,6,8,10,-1,12,14,16,18,-1,20,-1,22,24,26,28,30,32,-1,34,36,38,40,42,44,-1,-1,46,48,50,-1,52,54,-1,-1,-1,-1,-1,-1,-1,-1,-1,-1,-1,-1,-1,-1,-1,-1,-1,-1,-1,-1,-1],"split_conditions":[6.0000002E-2,9.5E0,4.5E0,6.3E-1,4.85E-1,2.0827271E-1,1.6499999E-1,3.04E0,9.35E-1,3.7649999E0,3.0355757E-1,1.2E-1,6.767271E-2,2.75E-1,7.995E-1,4.95E-1,3E1,4.275E2,3.9E-2,1.769787E-2,1.07999995E-1,1.0899999E0,4.95E1,5.5200005E-1,4.85E0,2.5349998E0,2.8549057E-1,-1.1240089E-1,4.21E-1,6.35E-1,2.55E-2,5.770073E-1,3.85E1,8.9E-1,-5.23827E-2,-2.5389305E-1,-1.1395049E-2,-1.285735E-1,2.2842507E-1,-4.507005E-2,-2.4923278E-1,2.710054E-1,-9.2834026E-2,9.91718E-2,-1.04557134E-1,1.1262777E-1,4.2543432E-1,-1.1729579E-1,1.4974956E-1,-1.3173828E-1,2.2149931E-1,2.26403E-1,5.180018E-2,-2.9511225E-1,-7.472033E-2],"split_indices":[14,17,17,10,11,0,2,9,0,9,0,6,0,6,15,3,18,18,15,0,16,15,18,15,9,9,0,0,15,0,15,0,18,8,0,0,0,0,0,0,0,0,0,0,0,0,0,0,0,0,0,0,0,0,0],"split_type":[0,0,0,0,0,0,0,0,0,0,0,0,0,0,0,0,0,0,0,0,0,0,0,0,0,0,0,0,0,0,0,0,0,0,0,0,0,0,0,0,0,0,0,0,0,0,0,0,0,0,0,0,0,0,0],"sum_hessian":[2.5428769E2,2.2807397E2,2.621371E1,7.4270355E1,1.5380362E2,1.6747034E0,2.4539007E1,5.2022068E1,2.2248287E1,1.4557317E2,8.230455E0,2.30205E1,1.5185065E0,4.1103733E1,1.0918333E1,1.7511288E1,4.7369986E0,9.356907E1,5.2004097E1,1.0829127E0,2.1937588E1,3.565181E1,5.451925E0,2.3079312E0,8.610402E0,1.5910156E1,1.601131E0,1.539691E0,3.1973076E0,7.633937E1,1.7229698E1,1.2389101E0,5.0765186E1,2.0655533E1,1.282054E0,3.2478844E1,3.172965E0,3.537939E0,1.9139857E0,1.1061196E0,1.2018117E0,4.4316278E0,4.178774E0,5.2113E0,1.0698857E1,1.042176E0,2.1551316E0,6.1132168E1,1.5207208E1,2.7342718E0,1.4495426E1,9.651156E0,4.111403E1,1.9591122E1,1.064412E0],"tree_param":{"num_deleted":"0","num_feature":"19","num_nodes":"55","size_leaf_vector":"0"}},{"base_weights":[-5.2574243E-2,-1.16104655E-1,5.402929E-1,-1.997129E-1,2.856882E-1,1.756847E-2,6.9280005E-1,-2.3687151E-1,6.00756E-1,1.3807866E-1,7.8651136E-1,-9.1073847E-1,6.1107737E-1,-1.6886073E-1,7.721472E-1,-2.7935752E-1,3.950171E-1,8.648651E-1,-8.757702E-2,5.8769695E-3,7.283428E-1,-1.2212628E-1,1.0233835E0,1.6291727E-1,7.9026985E-1,6.896106E-3,8.7853223E-1,-3.056805E-1,7.7768296E-1,-4.859628E-2,7.458747E-1,1.2859121E-1,-2.7305964E-1,-4.7925484E-1,2.7286178E-1,9.349418E-2,8.471498E-1,5.52101E-1,-5.454026E-1,9.2102253E-1,1.5036805E-1,-3.236231E-1,9.820358E-1,1.1866246E-1,9.972714E-1,-2.4832338E-1,4.6848223E-1,9.4032055E-1,-1.2819283E-1,-7.8275025E-1,-1.2269103E-1,-1.4810519E-1,5.738085E-1,2.3433585E-1,9.7851336E-1],"categories":[],"categories_nodes":[],"categories_segments":[],"categories_sizes":[],"default_left":[1,1,0,1,1,1,0,1,0,1,1,0,0,0,0,1,1,0,1,0,0,0,0,0,0,0,1,1,1,1,1,0,0,0,1,0,0,0,0,1,0,0,0,0,0,0,0,0,0,0,0,0,0,0,0],"id":12,"left_children":[1,3,5,7,9,11,13,15,17,19,21,-1,23,-1,25,27,29,-1,31,33,35,-1,-1,-1,-1,37,39,41,43,45,47,-1,-1,49,51,-1,-1,-1,-1,53,-1,-1,-1,-1,-1,-1,-1,-1,-1,-1,-1,-1,-1,-1,-1],"loss_changes":[9.105588E0,7.369352E0,1.8543696E0,5.519104E0,2.6935377E0,4.0354314E0,1.3678665E0,4.7672796E0,1.5849948E0,2.3748827E0,1.9362907E0,0E0,2.2862983E-1,0E0,1.3578186E0,4.7765274E0,1.8016795E0,0E0,1.6382557E-1,3.4877317E0,3.4098005E-1,0E0,0E0,0E0,0E0,1.2203169E0,3.1633377E-1,4.0117636E0,4.960606E-1,7.3061585E-1,1.2073684E0,0E0,0E0,9.388368E-1,2.283644E0,0E0,0E0,0E0,0E0,3.1133938E-1,0E0,0E0,0E0,0E0,0E0,0E0,0E0,0E0,0E0,0E0,0E0,0E0,0E0,0E0,0E0],"parents":[2147483647,0,0,1,1,2,2,3,3,4,4,5,5,6,6,7,7,8,8,9,9,10,10,12,12,14,14,15,15,16,16,18,18,19,19,20,20,25,25,26,26,27,27,28,28,29,29,30,30,33,33,34,34,39,39],"right_children":[2,4,6,8,10,12,14,16,18,20,22,-1,24,-1,26,28,30,-1,32,34,36,-1,-1,-1,-1,38,40,42,44,46,48,-1,-1,50,52,-1,-1,-1,-1,54,-1,-1,-1,-1,-1,-1,-1,-1,-1,-1,-1,-1,-1,-1,-1],"split_conditions":[3.5E-2,4.145E-1,9.0999997E-1,6.85E-1,1.45E0,1.595E2,8.05E-1,4.35E-1,5.175E0,1.735E2,3.5E1,-2.7322155E-1,1.36E0,-5.0658222E-2,2.35E-1,7.8499997E-1,2.55E-1,2.5945956E-1,6.35E1,3.045E0,5.15E-1,-3.6637887E-2,3.0701506E-1,4.8875183E-2,2.3708096E-1,2.86E0,1.1245E0,3.2195E3,1.55E1,1.385E0,5.45E-1,3.8577363E-2,-8.19179E-2,6.745E-1,2.25E1,2.8048255E-2,2.5414494E-1,1.6563031E-1,-1.6362078E-1,9E0,4.5110416E-2,-9.708693E-2,2.9461077E-1,3.559874E-2,2.9918143E-1,-7.4497014E-2,1.4054467E-1,2.8209618E-1,-3.8457848E-2,-2.3482509E-1,-3.680731E-2,-4.443156E-2,1.7214255E-1,7.030076E-2,2.93554E-1],"split_indices":[12,15,10,2,10,18,9,3,9,18,18,0,6,0,11,1,10,0,18,9,8,0,0,0,0,9,15,18,17,9,6,0,0,15,18,0,0,0,0,17,0,0,0,0,0,0,0,0,0,0,0,0,0,0,0],"split_type":[0,0,0,0,0,0,0,0,0,0,0,0,0,0,0,0,0,0,0,0,0,0,0,0,0,0,0,0,0,0,0,0,0,0,0,0,0,0,0,0,0,0,0,0,0,0,0,0,0,0,0,0,0,0,0],"sum_hessian":[2.3908586E2,2.1667192E2,2.2413948E1,1.7976743E2,3.6904488E1,5.3142686E0,1.709968E1,1.7246548E2,7.3019443E0,2.9488834E1,7.4156537E0,1.8641126E0,3.4501562E0,1.3467449E0,1.5752934E1,1.621228E2,1.0342678E1,5.091792E0,2.2101521E0,2.4917915E1,4.5709195E0,1.6336019E0,5.782052E0,1.5308008E0,1.9193553E0,2.052643E0,1.3700292E1,1.5887717E2,3.2456305E0,4.9480333E0,5.3946447E0,1.1622937E0,1.0478586E0,8.56308E0,1.6354836E1,1.0022596E0,3.5686598E0,1.0331354E0,1.0195076E0,1.2694669E1,1.005622E0,1.5743225E2,1.4449202E0,1.1961566E0,2.049474E0,3.9442728E0,1.0037607E0,4.350934E0,1.0437108E0,3.9800942E0,4.582986E0,7.029615E0,9.32522E0,1.3728634E0,1.1321806E1],"tree_param":{"num_deleted":"0","num_feature":"19","num_nodes":"55","size_leaf_vector":"0"}}]},"name":"gbtree"},"learner_model_param":{"base_score":"5E-1","num_class":"0","num_feature":"19","num_target":"1"},"objective":{"name":"reg:squarederror","reg_loss_param":{"scale_pos_weight":"1"}}},"version":[1,6,2]}