{"learner":{"attributes":{"best_ntree_limit":"20"},"feature_names":[],"feature_types":[],"gradient_booster":{"model":{"gbtree_model_param":{"num_parallel_tree":"1","num_trees":"20","size_leaf_vector":"0"},"tree_info":[0,0,0,0,0,0,0,0,0,0,0,0,0,0,0,0,0,0,0,0],"trees":[{"base_weights":[-9.0011E-1,-1.4507334E0,4.6351466E-1,-1.5582702E0,6.79363E-1,-2.324514E0,7.593716E-1,-2.3860924E0,-1.3351506E0,1.0011933E0,-1.8488855E0,8.966921E-1,-1.9982368E0,-2.4224334E0,-1.1158732E0,-1.6798663E0,-7.989818E-1,1.1526364E0,-1.085219E0,1.2472533E0,3.8684094E-1,-2.231237E0,2.5339168E-1,8.3280903E-1,-1.8847723E0,-1.0365866E0,-1.8923753E0,-2.1399372E0,-3.955553E-1,1.2507359E0,-7.399845E-1,1.3195455E0,-2.738729E-1,-1.5183558E0,5.03411E-1,-2.2090883E0,-6.728499E-1,1.0756437E-1,-1.9524972E0,-2.2775264E0,-5.856221E-1,3.3593822E-1,-8.159614E-1,-7.399845E-1,1.3564584E0,1.3488245E0,-1.2366726E0,-1.1118499E0,1.0359329E0,-2.9156944E-1,-1.8847723E0,5.8752817E-1,-1.7616742E0],"categories":[],"categories_nodes":[],"categories_segments":[],"categories_sizes":[],"default_left":[1,1,0,0,1,0,1,1,1,1,0,0,1,0,0,0,0,1,0,1,0,0,0,0,0,0,0,1,0,0,0,1,1,0,1,0,0,0,0,0,0,0,0,0,0,0,0,0,0,0,0,0,0],"id":0,"left_children":[1,3,5,7,9,-1,11,13,15,17,-1,19,21,-1,23,25,27,29,-1,31,33,-1,-1,-1,-1,35,37,39,41,43,-1,45,47,49,51,-1,-1,-1,-1,-1,-1,-1,-1,-1,-1,-1,-1,-1,-1,-1,-1,-1,-1],"loss_changes":[7.016019E2,1.5344128E2,2.238834E2,1.1383777E2,2.8430943E1,0E0,9.4264725E1,3.4473267E0,9.1317444E1,1.0612108E1,0E0,4.121747E1,6.804989E0,0E0,9.900442E0,3.9628967E1,1.0631773E2,6.143959E0,0E0,1.5514679E1,2.2197475E1,0E0,0E0,0E0,0E0,3.1676933E1,2.7562256E1,8.415283E0,4.748127E1,6.705948E0,0E0,1.1526489E1,8.922735E0,2.0636425E0,1.850564E1,0E0,0E0,0E0,0E0,0E0,0E0,0E0,0E0,0E0,0E0,0E0,0E0,0E0,0E0,0E0,0E0,0E0,0E0],"parents":[2147483647,0,0,1,1,2,2,3,3,4,4,6,6,7,7,8,8,9,9,11,11,12,12,14,14,15,15,16,16,17,17,19,19,20,20,25,25,26,26,27,27,28,28,29,29,31,31,32,32,33,33,34,34],"right_children":[2,4,6,8,10,-1,12,14,16,18,-1,20,22,-1,24,26,28,30,-1,32,34,-1,-1,-1,-1,36,38,40,42,44,-1,46,48,50,52,-1,-1,-1,-1,-1,-1,-1,-1,-1,-1,-1,-1,-1,-1,-1,-1,-1,-1],"split_conditions":[3.381E0,8.5E-2,3.332E1,6.666E1,1.14999995E-1,-6.973542E-1,1.9999999E-1,1.295E0,2.019E0,1.115E0,-5.546657E-1,1.9100001E0,8.619499E0,-7.2673005E-1,1.325E0,1.035E0,1.3780001E1,1.05E-1,-3.2556573E-1,3.9E-1,6.385E0,-6.693711E-1,7.601751E-2,2.4984272E-1,-5.654317E-1,1.5760001E1,5.6E-1,2.45E-1,1.8E0,2.55E-1,-2.2199537E-1,1.55E-1,7.75E-1,7.1000004E-1,2.127E0,-6.627265E-1,-2.0185497E-1,3.226931E-2,-5.857492E-1,-6.8325794E-1,-1.7568663E-1,1.0078147E-1,-2.4478844E-1,-2.2199537E-1,4.0693754E-1,4.0464738E-1,-3.710018E-1,-3.3355498E-1,3.1077987E-1,-8.747084E-2,-5.654317E-1,1.7625846E-1,-5.285023E-1],"split_indices":[37,9,11,11,21,0,30,1,37,5,0,2,37,0,1,2,21,28,0,21,12,0,0,0,0,30,4,0,2,5,0,26,4,12,33,0,0,0,0,0,0,0,0,0,0,0,0,0,0,0,0,0,0],"split_type":[0,0,0,0,0,0,0,0,0,0,0,0,0,0,0,0,0,0,0,0,0,0,0,0,0,0,0,0,0,0,0,0,0,0,0,0,0,0,0,0,0,0,0,0,0,0,0,0,0,0,0,0,0],"sum_hessian":[9.325224E2,6.642417E2,2.682807E2,6.3257495E2,3.1666748E1,2.5080065E1,2.4320062E2,1.3224034E2,5.0033463E2,2.862674E1,3.0400078E0,2.3230727E2,1.0893361E1,1.2768033E2,4.560012E0,3.0324078E2,1.9709384E2,2.7106737E1,1.5200039E0,1.3680035E2,9.550691E1,9.880026E0,1.013336E0,1.26667E0,3.2933419E0,7.67602E1,2.2648059E2,4.458678E1,1.5250706E2,2.6093401E1,1.013336E0,1.3072034E2,6.0800157E0,4.813346E0,9.0693565E1,1.6973377E1,5.978682E1,6.5866838E0,2.198939E2,4.053344E1,4.053344E0,5.573348E1,9.677358E1,1.013336E0,2.5080065E1,1.29707E2,1.013336E0,3.8000097E0,2.280006E0,1.5200039E0,3.2933419E0,8.8160225E1,2.53334E0],"tree_param":{"num_deleted":"0","num_feature":"38","num_nodes":"53","size_leaf_vector":"0"}},{"base_weights":[-6.34003E-1,-9.948516E-1,3.6558104E-1,-1.0637677E0,4.880761E-1,-1.5865009E0,6.0301363E-1,-1.6125083E0,-9.149495E-1,8.318858E-1,-1.4818146E0,7.1709263E-1,-1.3958501E0,-8.5121804E-1,-1.6448109E0,-1.6231121E0,-7.839986E-1,9.7645646E-1,-9.2700106E-1,1.0498538E0,2.7472368E-1,-1.5527763E0,-3.2998112E-3,-1.3928027E0,9.003069E-1,-1.7245853E0,8.915736E-2,-9.906486E-1,-2.1147673E-1,-6.2134767E-1,1.0699112E0,1.087464E0,-1.2413851E0,4.1918942E-1,-9.960342E-1,-1.7483401E0,-5.034795E-1,6.667127E-1,-6.8661714E-1,-1.5412217E-1,-1.1517946E0,-1.8627146E0,3.0156186E-2,1.1677659E0,-5.654533E-1,1.1224971E0,-1.1450526E0,-1.6592381E0,5.015249E-1,5.110997E-1,-1.639406E0],"categories":[],"categories_nodes":[],"categories_segments":[],"categories_sizes":[],"default_left":[1,1,0,0,1,0,1,0,0,1,0,0,1,1,0,1,1,0,0,1,1,0,0,0,0,1,1,0,0,0,1,1,0,0,0,0,0,0,0,0,0,0,0,0,0,0,0,0,0,0,0],"id":1,"left_children":[1,3,5,7,9,-1,11,13,15,17,-1,19,21,23,-1,25,27,29,-1,31,33,-1,-1,-1,-1,35,37,39,41,-1,43,45,-1,47,49,-1,-1,-1,-1,-1,-1,-1,-1,-1,-1,-1,-1,-1,-1,-1,-1],"loss_changes":[3.3979724E2,7.120984E1,1.1698587E2,5.252826E1,2.2501308E1,0E0,5.206035E1,2.0371094E0,4.7184113E1,7.866825E0,0E0,3.0990509E1,2.7109108E0,8.616884E0,0E0,1.4159897E1,5.2193054E1,4.515091E0,0E0,1.1769516E1,1.7412529E1,0E0,0E0,0E0,0E0,1.3286438E0,2.9044943E0,4.365744E1,4.7433235E1,0E0,4.617443E0,1.0631134E1,0E0,1.5177627E1,1.0288309E1,0E0,0E0,0E0,0E0,0E0,0E0,0E0,0E0,0E0,0E0,0E0,0E0,0E0,0E0,0E0,0E0],"parents":[2147483647,0,0,1,1,2,2,3,3,4,4,6,6,7,7,8,8,9,9,11,11,12,12,13,13,15,15,16,16,17,17,19,19,20,20,25,25,26,26,27,27,28,28,30,30,31,31,33,33,34,34],"right_children":[2,4,6,8,10,-1,12,14,16,18,-1,20,22,24,-1,26,28,30,-1,32,34,-1,-1,-1,-1,36,38,40,42,-1,44,46,-1,48,50,-1,-1,-1,-1,-1,-1,-1,-1,-1,-1,-1,-1,-1,-1,-1,-1],"split_conditions":[3.383E0,5.5E-2,3.332E1,6.666E1,1.14999995E-1,-4.7595027E-1,1.9999999E-1,1.325E0,3.34E1,1.05000004E-1,-4.445444E-1,1.9100001E0,7.762E0,1.665E0,-4.9344328E-1,2.2999999E-1,2.2965E0,2.55E-1,-2.7810034E-1,1.7E-1,1.4000001E0,-4.6583292E-1,-9.899434E-4,-4.1784084E-1,2.7009207E-1,1.805E0,2.495E0,7.05E-1,9.520001E0,-1.864043E-1,1.115E0,1.55E-1,-3.7241554E-1,2.980001E0,3.9450002E0,-5.2450204E-1,-1.5104385E-1,2.0001382E-1,-2.0598514E-1,-4.6236653E-2,-3.4553838E-1,-5.588144E-1,9.046856E-3,3.5032976E-1,-1.69636E-1,3.3674914E-1,-3.4351578E-1,-4.9777144E-1,1.5045749E-1,1.5332991E-1,-4.918218E-1],"split_indices":[37,9,11,11,21,0,30,1,30,28,0,2,37,5,0,12,37,5,0,14,5,0,0,0,0,5,37,5,12,0,5,26,0,27,4,0,0,0,0,0,0,0,0,0,0,0,0,0,0,0,0],"split_type":[0,0,0,0,0,0,0,0,0,0,0,0,0,0,0,0,0,0,0,0,0,0,0,0,0,0,0,0,0,0,0,0,0,0,0,0,0,0,0,0,0,0,0,0,0,0,0,0,0,0,0],"sum_hessian":[9.400451E2,6.907059E2,2.4933925E2,6.603023E2,3.040355E1,2.6422384E1,2.2291685E2,1.387715E2,5.215308E2,2.6377518E1,4.026032E0,2.1148808E2,1.1428783E1,6.7619047E0,1.320096E2,7.9611084E1,4.4191974E2,2.478516E1,1.5923572E0,1.1991312E2,9.157496E1,1.0167904E1,1.2608793E0,5.3213186E0,1.4405861E0,7.51503E1,4.460782E0,3.2417828E2,1.1774146E2,1.0574366E0,2.3727724E1,1.1849346E2,1.4196616E0,8.282873E1,8.746233E0,7.329273E1,1.8575678E0,2.6376588E0,1.8231229E0,5.2677902E1,2.715004E2,1.4173778E1,1.0356768E2,2.2657883E1,1.0698411E0,1.1715229E2,1.3411697E0,2.4263854E0,8.0402336E1,2.6781383E0,6.0680943E0],"tree_param":{"num_deleted":"0","num_feature":"38","num_nodes":"51","size_leaf_vector":"0"}},{"base_weights":[-4.926355E-1,-8.357197E-1,1.4380306E-1,-4.3482956E-1,-1.025916E0,-1.3010112E0,3.633823E-1,-1.3116928E0,-7.031363E-2,-1.8972832E-1,-1.0647187E0,-1.3245159E0,-2.7682742E-1,4.96549E-1,-1.2222521E0,-1.357013E0,3.002164E-1,-1.2946726E0,1.16021626E-1,-1.2500774E0,2.3024772E-1,-9.648785E-1,-1.3635365E0,5.811909E-1,-1.4012103E0,-1.2988348E0,-3.4034213E-3,-1.434029E0,-1.78938E-1,-1.379982E0,-7.881767E-2,-1.6165214E0,2.4974854E-1,5.27199E-1,-8.315999E-1,-1.5675428E0,-9.040035E-1,-1.3712895E0,-3.4618068E-1,6.3384277E-1,-1.7222933E0,-1.5118936E0,-2.8178227E-1,-1.3680333E0,-5.170571E-1,1.1509515E-1,-1.4682931E0,4.0723985E-1,-9.101752E-1,-1.4366802E0,-3.7370232E-1,-9.7543275E-1,4.2946216E-1,-9.38484E-1,7.65004E-1,-1.3536037E0,-8.017331E-1,6.8001664E-1,-1.8933755E0,-4.2864737E-1,-1.6122497E0,1.4763154E-1,-8.832592E-1],"categories":[],"categories_nodes":[],"categories_segments":[],"categories_sizes":[],"default_left":[1,0,0,0,0,1,1,1,0,0,1,0,0,1,1,1,0,1,0,0,1,0,1,1,1,1,0,0,0,1,0,0,1,0,0,0,0,0,0,1,0,0,0,0,0,0,0,0,0,0,0,0,0,0,0,0,0,0,0,0,0,0,0],"id":2,"left_children":[1,3,5,7,9,11,13,15,17,19,21,-1,-1,23,25,27,-1,29,31,-1,33,35,37,39,41,43,-1,45,47,49,-1,-1,51,53,-1,-1,55,-1,-1,57,-1,59,-1,-1,61,-1,-1,-1,-1,-1,-1,-1,-1,-1,-1,-1,-1,-1,-1,-1,-1,-1,-1],"loss_changes":[1.9367516E2,4.34805E1,9.924356E1,5.971403E1,1.2451782E1,6.2734985E-1,5.7838287E1,4.416931E0,3.05442E1,8.531433E0,9.796967E0,0E0,0E0,4.1092823E1,1.9826756E0,4.6035004E0,0E0,1.7250233E0,2.7405735E1,0E0,4.885719E0,8.951355E0,2.4197388E-1,3.0290901E1,9.3683434E-1,3.7607193E-1,0E0,2.830223E0,2.26932E0,4.0221214E-1,0E0,0E0,2.4431957E1,4.7729025E0,0E0,0E0,1.0826141E1,0E0,0E0,2.8838936E1,0E0,3.7217522E-1,0E0,0E0,9.18107E-1,0E0,0E0,0E0,0E0,0E0,0E0,0E0,0E0,0E0,0E0,0E0,0E0,0E0,0E0,0E0,0E0,0E0,0E0],"parents":[2147483647,0,0,1,1,2,2,3,3,4,4,5,5,6,6,7,7,8,8,9,9,10,10,13,13,14,14,15,15,17,17,18,18,20,20,21,21,22,22,23,23,24,24,25,25,27,27,28,28,29,29,32,32,33,33,36,36,39,39,41,41,44,44],"right_children":[2,4,6,8,10,12,14,16,18,20,22,-1,-1,24,26,28,-1,30,32,-1,34,36,38,40,42,44,-1,46,48,50,-1,-1,52,54,-1,-1,56,-1,-1,58,-1,60,-1,-1,62,-1,-1,-1,-1,-1,-1,-1,-1,-1,-1,-1,-1,-1,-1,-1,-1,-1,-1],"split_conditions":[2.7545E0,1.94E0,4E1,3.380001E0,5.7E-1,3.8E-1,3.5000002E-1,4.25E-1,1.5760001E1,1.7800009E0,1.3E-1,-3.973548E-1,-8.304823E-2,4.85E-1,7.762E0,2.05E-2,9.006493E-2,6.3E-1,6.060001E0,-3.7502322E-1,2.2E-2,4E1,2.4650002E-1,4.8E-1,6.105E-1,8.35E-1,-1.0210264E-3,2.4999999E-2,8.55E-1,2.89E-1,-2.3645302E-2,-4.849564E-1,1.1935E0,6.80001E-1,-2.4947998E-1,-4.7026286E-1,6.666E1,-4.1138688E-1,-1.0385421E-1,1.1340001E0,-5.16688E-1,2.720001E0,-8.453468E-2,-4.1041002E-1,1.225E0,3.4528546E-2,-4.4048795E-1,1.2217196E-1,-2.7305257E-1,-4.3100408E-1,-1.121107E-1,-2.9262984E-1,1.2883866E-1,-2.8154522E-1,2.295012E-1,-4.0608114E-1,-2.4051993E-1,2.04005E-1,-5.6801265E-1,-1.2859422E-1,-4.8367494E-1,4.4289462E-2,-2.6497775E-1],"split_indices":[37,2,11,21,4,0,30,1,30,14,29,0,0,12,37,36,0,4,12,0,33,19,36,26,34,5,0,29,5,34,0,0,37,30,0,0,11,0,0,33,0,21,0,0,5,0,0,0,0,0,0,0,0,0,0,0,0,0,0,0,0,0,0],"split_type":[0,0,0,0,0,0,0,0,0,0,0,0,0,0,0,0,0,0,0,0,0,0,0,0,0,0,0,0,0,0,0,0,0,0,0,0,0,0,0,0,0,0,0,0,0,0,0,0,0,0,0,0,0,0,0,0,0,0,0,0,0,0,0],"sum_hessian":[8.8543567E2,5.751026E2,3.10333E2,1.8611055E2,3.8899207E2,4.029171E1,2.7004132E2,5.38861E1,1.3222444E2,1.7511595E1,3.7148047E2,3.9101112E1,1.1905991E0,2.4975308E2,2.0288225E1,5.2566288E1,1.3198118E0,1.6679544E1,1.155449E2,4.407376E0,1.31042185E1,2.8161652E2,8.986397E1,2.397536E2,9.999492E0,1.9027092E1,1.2611322E0,4.9136738E1,3.4295502E0,1.5459831E1,1.2197134E0,7.4848065E0,1.0806009E2,1.0633901E1,2.4703183E0,2.3565634E1,2.5805087E2,8.883905E1,1.0249149E0,2.3510454E2,4.6490636E0,8.780705E0,1.2187858E0,1.6790953E1,2.2361403E0,1.0122565E0,4.812448E1,2.1495216E0,1.2800287E0,1.4230318E1,1.2295133E0,1.3256616E1,9.4803474E1,1.0731604E0,9.56074E0,4.5553524E1,2.1249736E2,2.316039E2,3.5006304E0,1.191448E0,7.5892577E0,1.0063624E0,1.2297779E0],"tree_param":{"num_deleted":"0","num_feature":"38","num_nodes":"63","size_leaf_vector":"0"}},{"base_weights":[-4.0193558E-1,-5.919386E-1,3.2690763E-1,-4.486848E-1,-1.1685033E0,-1.0885297E0,4.6741018E-1,1.0525268E-1,-6.7688715E-1,-4.99495E-1,-1.2392638E0,-1.1278765E-1,-1.1494728E0,8.407348E-1,6.1445173E-2,1.3260549E0,-4.0295232E-2,-9.109421E-1,-3.9289185E-1,6.179659E-1,-7.3285276E-1,-1.2784572E0,-6.7393875E-1,9.3750143E-1,-4.3246698E-1,-1.7233247E-1,7.243132E-1,-1.0913364E0,1.0798407E-1,-2.1024007E-1,-9.624296E-1,-1.311877E0,-2.2309399E-1,3.4172767E-1,-8.9345896E-1,-1.2914691E0,-5.101804E-1,-1.0758438E0,5.606413E-1,9.8021936E-1,-1.0170273E0,-1.1369989E0,8.473449E-1,-1.48760965E-2,-1.20114E0,7.8991145E-1,-2.0280817E-1,-1.1684192E0,-5.7082117E-2,-1.241326E0,2.353911E-1,1.7866635E-1,-9.587007E-1,-2.8630456E-1,-9.887936E-1,-2.599885E-1,-1.3486768E0,-7.430165E-2,-1.2091444E0,1.5578805E-1,-1.0427159E0,-1.3067037E0,-5.5807775E-1,3.116845E-1,-9.8884815E-1,1.0118513E0,-6.604612E-1,-1.4942443E0,-4.5930594E-2,-8.1343365E-1,1.436993E-1,3.5016212E-1,-1.872767E0,1.1021729E0,5.216062E-1],"categories":[],"categories_nodes":[],"categories_segments":[],"categories_sizes":[],"default_left":[1,1,0,0,0,1,0,0,1,1,1,0,0,1,1,0,0,0,0,0,0,1,1,1,1,1,1,1,0,1,0,0,1,0,0,1,1,0,0,1,0,1,0,0,0,0,0,0,0,0,0,0,0,0,0,0,0,0,0,0,0,0,0,0,0,0,0,0,0,0,0,0,0,0,0],"id":3,"left_children":[1,3,5,7,9,11,13,15,17,19,21,-1,-1,23,25,-1,27,29,31,-1,33,35,37,39,41,43,45,47,49,51,53,55,57,-1,59,61,63,-1,-1,65,-1,67,-1,69,71,73,-1,-1,-1,-1,-1,-1,-1,-1,-1,-1,-1,-1,-1,-1,-1,-1,-1,-1,-1,-1,-1,-1,-1,-1,-1,-1,-1,-1,-1],"loss_changes":[1.1308066E2,5.291176E1,3.4159874E1,6.578318E1,5.44664E0,7.968235E-1,2.338343E1,2.7156693E1,2.4123001E1,4.085702E0,1.6908875E0,0E0,0E0,1.0320114E1,1.1771139E1,0E0,2.150906E1,7.054352E0,2.5946524E1,0E0,2.3732343E0,4.069519E-1,5.3584538E0,7.2677383E0,6.7057447E0,9.113336E0,1.3635969E0,1.2933846E0,2.1127403E1,4.5513988E0,3.051941E0,6.5654373E-1,2.0910578E1,0E0,1.8382578E0,4.348297E-1,1.6570364E0,0E0,0E0,4.5091705E0,0E0,1.6987982E0,0E0,6.435648E0,8.43808E0,9.904518E-1,0E0,0E0,0E0,0E0,0E0,0E0,0E0,0E0,0E0,0E0,0E0,0E0,0E0,0E0,0E0,0E0,0E0,0E0,0E0,0E0,0E0,0E0,0E0,0E0,0E0,0E0,0E0,0E0,0E0],"parents":[2147483647,0,0,1,1,2,2,3,3,4,4,5,5,6,6,7,7,8,8,9,9,10,10,13,13,14,14,16,16,17,17,18,18,20,20,21,21,22,22,23,23,24,24,25,25,26,26,27,27,28,28,29,29,30,30,31,31,32,32,34,34,35,35,36,36,39,39,41,41,43,43,44,44,45,45],"right_children":[2,4,6,8,10,12,14,16,18,20,22,-1,-1,24,26,-1,28,30,32,-1,34,36,38,40,42,44,46,48,50,52,54,56,58,-1,60,62,64,-1,-1,66,-1,68,-1,70,72,74,-1,-1,-1,-1,-1,-1,-1,-1,-1,-1,-1,-1,-1,-1,-1,-1,-1,-1,-1,-1,-1,-1,-1,-1,-1,-1,-1,-1,-1],"split_conditions":[3.7915E0,5.5E-2,3.332E1,1.48E0,5.95E-2,3.8815E0,1.9100001E0,1.1700001E0,1.8205E0,1.527E0,1.85E-1,-3.3836298E-2,-3.4484187E-1,3.9E-1,7.54E0,3.978165E-1,1.5760001E1,1.8299999E0,4E1,1.8538977E-1,2.45E-1,5.95E-1,3.55E-1,9.485E-1,7.6195E0,1.4000001E0,4.3E-1,1.85E-1,2.785E0,1.255E-1,7.03E0,1.1760001E1,1.6600001E0,1.02518305E-1,2.335E-1,8.5E-2,9.85E-2,-3.2275316E-1,1.6819239E-1,4.4999998E-2,-3.051082E-1,5.95E-1,2.5420347E-1,9.5100003E-1,3.9450002E0,3.996001E0,-6.0842454E-2,-3.505258E-1,-1.7124636E-2,-3.723978E-1,7.061733E-2,5.359991E-2,-2.8761023E-1,-8.589137E-2,-2.966381E-1,-7.799655E-2,-4.0460306E-1,-2.2290496E-2,-3.6274332E-1,4.6736415E-2,-3.1281477E-1,-3.9201114E-1,-1.6742334E-1,9.350535E-2,-2.9665446E-1,3.035554E-1,-1.9813837E-1,-4.4827333E-1,-1.3779179E-2,-2.440301E-1,4.3109793E-2,1.0504864E-1,-5.618301E-1,3.3065188E-1,1.5648186E-1],"split_indices":[37,21,11,2,34,37,2,8,37,37,1,0,0,21,37,0,30,4,19,0,1,0,2,33,37,5,29,23,14,34,1,30,5,0,36,9,34,0,0,31,0,4,0,36,4,36,0,0,0,0,0,0,0,0,0,0,0,0,0,0,0,0,0,0,0,0,0,0,0,0,0,0,0,0,0],"split_type":[0,0,0,0,0,0,0,0,0,0,0,0,0,0,0,0,0,0,0,0,0,0,0,0,0,0,0,0,0,0,0,0,0,0,0,0,0,0,0,0,0,0,0,0,0,0,0,0,0,0,0,0,0,0,0,0,0,0,0,0,0,0,0,0,0,0,0,0,0,0,0,0,0,0,0],"sum_hessian":[8.141732E2,6.459639E2,1.6820929E2,5.188325E2,1.2713139E2,1.458013E1,1.5362917E2,1.5153523E2,3.672973E2,1.293124E1,1.1420016E2,1.0246983E0,1.3555431E1,7.9474045E1,7.415512E1,1.5278025E1,1.3625722E2,2.0014229E2,1.6715501E2,1.9491862E0,1.0982054E1,1.0561643E2,8.583725E0,7.41055E1,5.3685446E0,5.536813E1,1.8786991E1,1.6059984E1,1.2019723E2,1.4047731E1,1.8609456E2,2.5019205E1,1.421358E2,1.2813165E0,9.700737E0,1.0318779E2,2.4286404E0,6.5726423E0,2.0110822E0,7.300832E1,1.0971746E0,3.534438E0,1.8341066E0,4.8898758E1,6.4693704E0,1.7683775E1,1.1032162E0,1.4825332E1,1.2346524E0,9.615959E0,1.1058127E2,9.745287E0,4.3024445E0,7.4291077E0,1.7866545E2,1.1183097E0,2.3900894E1,1.2443436E2,1.7701454E1,1.2026424E0,8.4980955E0,1.003221E2,2.8656933E0,1.0222697E0,1.4063706E0,7.200339E1,1.0049362E0,2.3842466E0,1.1501913E0,7.417237E0,4.148152E1,2.0992427E0,4.3701277E0,6.7361465E0,1.0947628E1],"tree_param":{"num_deleted":"0","num_feature":"38","num_nodes":"75","size_leaf_vector":"0"}},{"base_weights":[-3.2823485E-1,4.4350144E-1,-4.6671394E-1,-5.9968406E-1,6.9836986E-1,-1.1352053E0,-3.3826065E-1,-2.9602656E-2,-1.0503573E0,-2.8200133E-2,8.9947534E-1,-2.707699E-1,-1.3879205E0,-5.62326E-1,5.445624E-1,-1.5941304E-1,-1.119271E0,7.670868E-1,-7.2147274E-1,9.7248423E-1,-1.0292711E0,-2.0034799E-1,-1.2743189E0,4.1643795E-1,-9.3866706E-1,-5.8262485E-1,9.018928E-1,-1.2445078E0,-3.88482E-1,-2.9866636E-1,1.1672404E0,-1.0412328E0,5.937881E-1,1.015611E0,-7.0043534E-1,-9.4905876E-2,-9.815339E-1,8.491754E-2,-1.3239949E0,-2.277821E-1,-1.0892285E0,-6.233333E-1,3.3930995E-2,3.9815244E-1,-7.7035314E-1,1.6164852E0,-2.6767826E-1,2.9385915E-1,-1.2529213E0,3.5364756E-1,1.0697458E0,-3.0611608E-2,-1.2188696E0,6.7152506E-1,-1.0991472E0,-2.948897E-1,-1.352714E0],"categories":[],"categories_nodes":[],"categories_segments":[],"categories_sizes":[],"default_left":[0,0,0,1,1,0,1,1,0,1,1,1,0,1,0,0,0,0,1,1,0,1,0,0,0,0,0,0,1,0,0,0,0,0,0,1,0,0,0,0,0,0,0,0,0,0,0,0,0,0,0,0,0,0,0,0,0],"id":4,"left_children":[1,3,5,7,9,-1,11,13,15,17,19,21,-1,23,25,-1,27,29,31,33,-1,35,37,-1,39,-1,-1,-1,41,43,45,47,-1,49,-1,51,53,-1,55,-1,-1,-1,-1,-1,-1,-1,-1,-1,-1,-1,-1,-1,-1,-1,-1,-1,-1],"loss_changes":[7.986777E1,3.0706635E1,5.3927505E1,5.853755E0,1.3469933E1,0E0,3.7309837E1,3.7142167E0,6.052246E-1,1.2085705E1,1.1153175E1,3.5156185E1,0E0,2.701004E0,2.88994E0,0E0,5.855932E-1,4.7097135E0,5.534816E0,5.760292E0,0E0,3.857129E1,2.318306E0,0E0,2.696166E-1,0E0,0E0,0E0,3.349083E-1,1.4859332E0,5.356657E0,3.1286144E0,0E0,2.0810547E0,0E0,2.9929579E1,1.157056E1,0E0,5.3437805E-1,0E0,0E0,0E0,0E0,0E0,0E0,0E0,0E0,0E0,0E0,0E0,0E0,0E0,0E0,0E0,0E0,0E0,0E0],"parents":[2147483647,0,0,1,1,2,2,3,3,4,4,6,6,7,7,8,8,9,9,10,10,11,11,13,13,14,14,16,16,17,17,18,18,19,19,21,21,22,22,24,24,28,28,29,29,30,30,31,31,33,33,35,35,36,36,38,38],"right_children":[2,4,6,8,10,-1,12,14,16,18,20,22,-1,24,26,-1,28,30,32,34,-1,36,38,-1,40,-1,-1,-1,42,44,46,48,-1,50,-1,52,54,-1,56,-1,-1,-1,-1,-1,-1,-1,-1,-1,-1,-1,-1,-1,-1,-1,-1,-1,-1],"split_conditions":[1.325E0,1.35E0,6.666E1,1.15E-2,2.1055E0,-3.405616E-1,4.5499998E-1,2.5595E0,1.3E-1,3.7E-2,2.1735E0,1.25E-1,-4.1637617E-1,3.0499998E-2,2.740001E0,-4.7823913E-2,3.5000002E-1,3.5500002E-1,5.25E-1,2E-1,-3.0878136E-1,8.5E-2,4.45E-1,1.2493139E-1,2.95E-1,-1.7478746E-1,2.7056783E-1,-3.7335235E-1,2.291E0,2.6E-1,7.8999996E-1,8.6E-1,1.7813644E-1,3.35E-1,-2.1013062E-1,4.9999997E-2,2.85E0,2.5475262E-2,9.55E-2,-6.833463E-2,-3.2676858E-1,-1.8699999E-1,1.0179299E-2,1.19445734E-1,-2.3110595E-1,4.849456E-1,-8.030348E-2,8.815775E-2,-3.7587643E-1,1.0609427E-1,3.2092375E-1,-9.183483E-3,-3.6566088E-1,2.0145753E-1,-3.2974416E-1,-8.846691E-2,-4.058142E-1],"split_indices":[1,21,11,33,37,0,26,37,9,34,33,14,0,34,11,0,1,1,2,11,0,30,27,0,2,0,0,0,37,1,1,0,0,5,0,28,12,0,35,0,0,0,0,0,0,0,0,0,0,0,0,0,0,0,0,0,0],"split_type":[0,0,0,0,0,0,0,0,0,0,0,0,0,0,0,0,0,0,0,0,0,0,0,0,0,0,0,0,0,0,0,0,0,0,0,0,0,0,0,0,0,0,0,0,0,0,0,0,0,0,0,0,0,0,0,0,0],"sum_hessian":[7.444034E2,1.1291756E2,6.3148584E2,2.1905333E1,9.101222E1,1.00521E2,5.3096484E2,1.0141932E1,1.1763402E1,1.9916407E1,7.109582E1,5.0006946E2,3.0895384E1,5.2715173E0,4.870414E0,1.0824373E0,1.0680964E1,9.226157E0,1.06902485E1,6.898049E1,2.1153262E0,4.6840012E2,3.1669333E1,1.4344214E0,3.8370962E0,1.0205687E0,3.8498452E0,8.518216E0,2.1627488E0,2.5877278E0,6.6384296E0,8.767162E0,1.9230865E0,6.7629944E1,1.3505441E0,4.1368384E2,5.4716305E1,1.0915948E0,3.0577738E1,1.1098335E0,2.7272627E0,1.0842716E0,1.0784773E0,1.1075099E0,1.4802179E0,4.9592514E0,1.6791782E0,1.1467288E0,7.620434E0,5.682065E0,6.194788E1,3.9227188E2,2.1411953E1,3.3215919E0,5.139471E1,1.1360807E0,2.9441656E1],"tree_param":{"num_deleted":"0","num_feature":"38","num_nodes":"57","size_leaf_vector":"0"}},{"base_weights":[-2.6579645E-1,-1.0323075E0,-1.5187934E-1,-1.0580701E0,-3.893589E-1,3.85926E-1,-3.252424E-1,6.5303135E-1,-8.2606363E-1,-1.1755794E0,5.471137E-1,-5.6901973E-1,-8.808464E-2,-1.3249831E0,1.535528E-1,6.319815E-1,-7.3217124E-1,3.950081E-1,-6.388787E-1,-8.540845E-1,5.7456587E-2,-2.9063216E-1,7.6070726E-1,4.563899E-1,-9.698916E-1,8.695943E-1,-5.829289E-1,1.0479219E0,-6.723473E-1,-9.114837E-1,5.951999E-1,1.5871719E-1,-9.585222E-1,-8.735766E-1,1.964173E-1,-1.780936E-2,8.6788666E-1,-1.1913385E0,-7.671658E-2,1.1835315E0,-4.2605782E-1,-1.0688344E0,1.8672873E-1,1.0908488E-1,1.3172324E0,1.0296259E0,-6.942001E-1,-2.7205217E-1,-1.0688939E0,2.1157652E-1,-1.7298486E0,6.563141E-1,-1.1294023E0],"categories":[],"categories_nodes":[],"categories_segments":[],"categories_sizes":[],"default_left":[0,1,0,0,0,0,1,0,0,1,1,0,0,0,0,0,0,0,0,1,1,0,1,0,1,0,0,0,0,0,0,1,0,0,0,0,0,0,0,0,0,0,0,0,0,0,0,0,0,0,0,0,0],"id":5,"left_children":[1,3,5,-1,7,9,11,-1,-1,13,15,17,19,-1,-1,21,23,25,27,29,31,33,35,-1,37,39,41,43,45,47,-1,49,51,-1,-1,-1,-1,-1,-1,-1,-1,-1,-1,-1,-1,-1,-1,-1,-1,-1,-1,-1,-1],"loss_changes":[6.0216732E1,1.067009E0,5.635841E1,0E0,2.8256185E0,3.776396E1,2.6350155E1,0E0,0E0,3.0068035E0,1.5050808E1,1.5404961E1,2.5985714E1,0E0,0E0,1.5249878E1,2.9354167E0,7.849572E0,1.257E1,3.6378307E0,2.0361517E1,4.7760973E0,9.304581E0,0E0,1.4260683E0,5.0000715E0,2.3566413E0,9.890008E-1,8.402367E0,3.3514652E0,0E0,1.8284462E1,5.69339E0,0E0,0E0,0E0,0E0,0E0,0E0,0E0,0E0,0E0,0E0,0E0,0E0,0E0,0E0,0E0,0E0,0E0,0E0,0E0,0E0],"parents":[2147483647,0,0,1,1,2,2,4,4,5,5,6,6,9,9,10,10,11,11,12,12,15,15,16,16,17,17,18,18,19,19,20,20,21,21,22,22,24,24,25,25,26,26,27,27,28,28,29,29,31,31,32,32],"right_children":[2,4,6,-1,8,10,12,-1,-1,14,16,18,20,-1,-1,22,24,26,28,30,32,34,36,-1,38,40,42,44,46,48,-1,50,52,-1,-1,-1,-1,-1,-1,-1,-1,-1,-1,-1,-1,-1,-1,-1,-1,-1,-1,-1,-1],"split_conditions":[6.666E1,2.0149999E0,1.955E0,-3.1742102E-1,2.6400008E0,7.400001E0,2.019E0,1.9590941E-1,-2.478191E-1,7E-2,5.8500004E-1,3.25E-1,3.08E0,-3.9749494E-1,4.606584E-2,1.4300001E0,4.95E-1,5.4999995E-1,2.140001E0,3.95E-1,1.79E0,4.105E-1,1.606E0,1.3691698E-1,9.5E-1,3.65E-1,2.5800009E0,2.46001E-1,2.0500001E-1,6.45E-1,1.7855997E-1,2.48E0,5.320001E0,-2.6207298E-1,5.8925193E-2,-5.342808E-3,2.6036602E-1,-3.5740158E-1,-2.3014974E-2,3.5505947E-1,-1.2781735E-1,-3.2065034E-1,5.601862E-2,3.2725465E-2,3.9516973E-1,3.0888778E-1,-2.0826004E-1,-8.161566E-2,-3.206682E-1,6.347296E-2,-5.1895463E-1,1.9689423E-1,-3.388207E-1],"split_indices":[11,5,4,0,1,12,37,0,0,1,29,6,21,0,0,21,5,5,24,1,5,33,37,0,5,2,29,33,8,0,0,29,1,0,0,0,0,0,0,0,0,0,0,0,0,0,0,0,0,0,0,0,0],"split_type":[0,0,0,0,0,0,0,0,0,0,0,0,0,0,0,0,0,0,0,0,0,0,0,0,0,0,0,0,0,0,0,0,0,0,0,0,0,0,0,0,0,0,0,0,0,0,0,0,0,0,0,0,0],"sum_hessian":[6.904156E2,8.828859E1,6.0212695E2,8.4266426E1,4.0221634E0,1.464829E2,4.556441E2,1.0412929E0,2.9808705E0,1.3117166E1,1.3336572E2,2.2399625E2,2.3164784E2,1.1794503E1,1.3226626E0,1.2554318E2,7.8225446E0,1.48207655E1,2.0917548E2,3.6208755E1,1.9543909E2,1.5217479E1,1.1032571E2,1.1504802E0,6.672065E0,1.0052933E1,4.7678328E0,3.4798973E0,2.0569559E2,3.5186275E1,1.0224806E0,1.7849283E2,1.6946249E1,6.565587E0,8.651893E0,1.3451585E1,9.6874115E1,5.078994E0,1.5930706E0,8.161848E0,1.8910847E0,2.684391E0,2.083442E0,1.0889133E0,2.390984E0,2.0229704E0,2.0367262E2,7.4897437E0,2.7696531E1,1.744968E2,3.9960449E0,1.3497902E0,1.5596459E1],"tree_param":{"num_deleted":"0","num_feature":"38","num_nodes":"53","size_leaf_vector":"0"}},{"base_weights":[-2.1687825E-1,-9.660941E-1,-1.2115188E-1,-9.9275535E-1,-3.391036E-1,-1.979388E-1,7.790022E-1,-4.475022E-1,-1.0086257E0,5.106343E-1,-7.4898696E-1,-1.4434107E-1,-1.2189858E0,8.912088E-1,-3.9123282E-1,-6.2727034E-1,2.0780182E-2,-6.706644E-2,-8.2337135E-1,9.575605E-1,2.5759872E-2,-9.1343856E-1,6.171476E-1,-1.1115644E0,7.172858E-4,-9.321358E-1,3.77188E-1,-2.5303109E-2,1.0130272E0,5.5233514E-1,-7.376531E-1,-1.1755679E0,1.339571E-1,-3.1576693E-1,2.0748812E-1,-9.712595E-1,2.234676E-1,-3.0020255E-1,7.374863E-1,1.0502404E0,1.7293294E-1],"categories":[],"categories_nodes":[],"categories_segments":[],"categories_sizes":[],"default_left":[0,1,1,0,0,1,1,1,0,0,0,1,0,1,1,0,0,0,1,0,0,0,0,1,1,1,0,0,1,0,0,0,0,0,0,0,0,0,0,0,0],"id":6,"left_children":[1,3,5,7,9,11,13,15,-1,-1,-1,17,-1,19,21,-1,-1,23,25,27,29,-1,-1,31,33,35,37,-1,39,-1,-1,-1,-1,-1,-1,-1,-1,-1,-1,-1,-1],"loss_changes":[4.533008E1,8.6104584E-1,3.9070778E1,1.3885498E-1,1.9292917E0,2.8258074E1,6.186144E0,3.2674974E-1,0E0,0E0,0E0,2.5907478E1,0E0,2.3223495E0,2.9779017E0,0E0,0E0,3.152993E1,6.9413834E0,2.0936317E0,1.9905001E0,0E0,0E0,2.3209686E0,2.749703E1,2.3221893E0,1.4183062E0,0E0,9.4169617E-1,0E0,0E0,0E0,0E0,0E0,0E0,0E0,0E0,0E0,0E0,0E0,0E0],"parents":[2147483647,0,0,1,1,2,2,3,3,4,4,5,5,6,6,7,7,11,11,13,13,14,14,17,17,18,18,19,19,20,20,23,23,24,24,25,25,26,26,28,28],"right_children":[2,4,6,8,10,12,14,16,-1,-1,-1,18,-1,20,22,-1,-1,24,26,28,30,-1,-1,32,34,36,38,-1,40,-1,-1,-1,-1,-1,-1,-1,-1,-1,-1,-1,-1],"split_conditions":[6.666E1,2.0149999E0,2.4999999E-2,7.75E-2,7.45E-1,4.5499998E-1,1.14999995E-1,2.75E-1,-3.0258775E-1,1.531903E-1,-2.246961E-1,8E-2,-3.6569574E-1,1.475E0,6.25E-1,-1.8818112E-1,6.234055E-3,6.545E0,2.2999999E-1,2.5E-1,6.45E-1,-2.7403158E-1,1.8514429E-1,9.5E-2,1.8889999E0,2.6999998E-1,2.975E-1,-7.590933E-3,9.5E-2,1.6570055E-1,-2.2129594E-1,-3.5267037E-1,4.018713E-2,-9.473009E-2,6.2246438E-2,-2.9137784E-1,6.704029E-2,-9.006077E-2,2.212459E-1,3.1507212E-1,5.1879883E-2],"split_indices":[11,5,9,36,2,26,21,5,0,0,0,30,0,5,4,0,0,12,12,5,4,0,0,1,37,8,34,0,30,0,0,0,0,0,0,0,0,0,0,0,0],"split_type":[0,0,0,0,0,0,0,0,0,0,0,0,0,0,0,0,0,0,0,0,0,0,0,0,0,0,0,0,0,0,0,0,0,0,0,0,0,0,0,0,0],"sum_hessian":[6.326768E2,7.064802E1,5.620288E2,6.720684E1,3.441178E0,5.185725E2,4.3456303E1,2.7266157E0,6.4480225E1,1.0397813E0,2.4013968E0,4.9379324E2,2.477928E1,3.987169E1,3.5846136E0,1.7249244E0,1.0016913E0,4.4432697E2,4.946628E1,3.693365E1,2.9380364E0,2.423644E0,1.1609696E0,2.6139381E1,4.181876E2,4.556217E1,3.9041135E0,2.002014E0,3.4931637E1,1.9023529E0,1.0356834E0,2.4915228E1,1.224153E0,1.650438E2,2.531438E2,4.422444E1,1.3377255E0,1.4134692E0,2.4906442E0,3.321039E1,1.7212485E0],"tree_param":{"num_deleted":"0","num_feature":"38","num_nodes":"41","size_leaf_vector":"0"}},{"base_weights":[-1.7714244E-1,-9.1034275E-1,-9.733401E-2,-9.386565E-1,-2.974068E-1,-1.5654549E-1,8.39155E-1,-9.560968E-1,-2.8868118E-1,-6.8051195E-1,4.0561485E-1,-1.02229424E-1,-9.8137474E-1,1.0530987E0,-6.508148E-1,-8.004268E-1,-3.2592393E-2,2.8264713E-1,-1.0347916E0,1.091074E0,9.808704E-2,2.4746917E-1,-1.0157518E0,-8.7451506E-1,9.352981E-1,1.4255625E-2,-1.118562E0,-2.5346506E-1,-1.1168693E0,1.1147982E0,2.4292386E-1,-9.224901E-1,2.602999E-1,5.8999117E-2,-1.1057285E0,-7.3261786E-1,2.9648414E-1,-1.1572676E0,-8.0863014E-2,3.5488784E-1,1.1353924E0],"categories":[],"categories_nodes":[],"categories_segments":[],"categories_sizes":[],"default_left":[0,1,1,1,1,1,1,0,0,0,0,0,0,1,0,1,1,0,0,1,0,0,0,1,0,1,0,1,1,0,0,0,0,0,0,0,0,0,0,0,0],"id":7,"left_children":[1,3,5,7,9,11,13,-1,-1,-1,-1,15,17,19,21,23,25,-1,27,29,-1,-1,-1,31,-1,33,-1,35,37,39,-1,-1,-1,-1,-1,-1,-1,-1,-1,-1,-1],"loss_changes":[3.4223846E1,7.177162E-1,2.9516996E1,3.4113693E-1,1.3533747E0,2.2267635E1,1.0781191E1,0E0,0E0,0E0,0E0,2.2803062E1,2.3673668E0,9.112282E-1,1.7575855E0,6.2886105E0,2.179053E1,0E0,1.6214619E0,2.7054214E-1,0E0,0E0,0E0,2.4895134E0,0E0,2.0675539E1,0E0,1.3020239E0,1.01894E0,2.2888184E-3,0E0,0E0,0E0,0E0,0E0,0E0,0E0,0E0,0E0,0E0,0E0],"parents":[2147483647,0,0,1,1,2,2,3,3,4,4,5,5,6,6,11,11,12,12,13,13,14,14,15,15,16,16,18,18,19,19,23,23,25,25,27,27,28,28,29,29],"right_children":[2,4,6,8,10,12,14,-1,-1,-1,-1,16,18,20,22,24,26,-1,28,30,-1,-1,-1,32,-1,34,-1,36,38,40,-1,-1,-1,-1,-1,-1,-1,-1,-1,-1,-1],"split_conditions":[6.666E1,2.0149999E0,1.5E-2,4.2000002E-1,3.9000002E-1,6.5E-2,7.5E-2,-2.8682905E-1,-8.660436E-2,-2.041536E-1,1.2168446E-1,3.34E1,1.85E-1,2.05E-1,7.05E-1,3.85E-1,4.5499998E-1,8.479414E-2,3.25E-1,6.5E-2,2.9426115E-2,7.424075E-2,-3.0472556E-1,2.3500001E-1,2.8058943E-1,1.5699999E0,-3.355686E-1,2.089E0,1.55E-1,8.80001E-1,7.287716E-2,-2.7674705E-1,7.808997E-2,1.7699735E-2,-3.3171856E-1,-2.1978536E-1,8.894525E-2,-3.4718028E-1,-2.4258906E-2,1.0646636E-1,3.4061775E-1],"split_indices":[11,5,8,0,4,14,21,0,0,0,0,30,22,30,4,7,26,0,5,33,0,0,0,20,0,29,0,37,7,19,0,0,0,0,0,0,0,0,0,0,0],"split_type":[0,0,0,0,0,0,0,0,0,0,0,0,0,0,0,0,0,0,0,0,0,0,0,0,0,0,0,0,0,0,0,0,0,0,0,0,0,0,0,0,0],"sum_hessian":[5.853818E2,5.644203E1,5.289397E2,5.3441944E1,3.000089E0,4.982685E2,3.0671225E1,5.1586777E1,1.8551664E0,1.9626043E0,1.0374848E0,4.6853857E2,2.9729921E1,2.7076534E1,3.5946906E0,4.154131E1,4.2699725E2,1.0314307E0,2.869849E1,2.5904009E1,1.1725254E0,1.1314756E0,2.463215E0,4.031659E1,1.2247198E0,4.1028473E2,1.6712543E1,3.1167905E0,2.55817E1,2.489331E1,1.0106982E0,3.8860825E1,1.4557658E0,3.954344E2,1.4850327E1,1.4881011E0,1.6286894E0,2.4508944E1,1.0727562E0,1.1379045E0,2.3755405E1],"tree_param":{"num_deleted":"0","num_feature":"38","num_nodes":"41","size_leaf_vector":"0"}},{"base_weights":[-1.4312333E-1,-8.5788566E-1,-7.798788E-2,-9.1438687E-1,-4.244895E-1,3.2114497E-1,-1.9674164E-1,5.302664E-1,-7.6526254E-1,-9.1808414E-1,4.291174E-1,-1.5736727E-1,-1.2506E0,-1.0549061E0,1.2871842E-1,5.67798E-1,-1.707574E-1,-1.0000421E0,-1.1398899E-1,-1.9265856E-1,-1.3238236E0,6.587013E-1,-5.211379E-1,6.0852814E-1,-5.0853103E-1,-1.1226573E0,9.343807E-3,-7.944085E-2,-1.1411594E0,7.01105E-1,-9.901325E-1,-1.3385484E0,4.199966E-2,1.000364E0,-3.410893E-1,-7.866083E-1,2.8091547E-1,4.7739227E-3,-1.19704E0,-2.3214748E-2,-7.128422E-1,-1.2037175E0,-3.3548462E-1],"categories":[],"categories_nodes":[],"categories_segments":[],"categories_sizes":[],"default_left":[0,1,0,0,0,0,1,0,0,1,1,0,1,0,0,1,0,1,1,0,0,1,0,1,0,0,0,1,1,0,0,0,0,0,0,0,0,0,0,0,0,0,0],"id":8,"left_children":[1,3,5,-1,7,9,11,-1,-1,13,15,17,19,-1,-1,21,23,25,27,-1,-1,29,31,33,35,37,-1,39,41,-1,-1,-1,-1,-1,-1,-1,-1,-1,-1,-1,-1,-1,-1],"loss_changes":[2.5686405E1,7.4069595E-1,2.4144714E1,0E0,2.7428923E0,1.6033018E1,1.6076849E1,0E0,0E0,1.5230808E0,9.097843E0,1.3747292E1,8.280182E-1,0E0,0E0,9.065142E0,5.8594813E0,2.2922268E0,1.2747292E1,0E0,0E0,6.410816E0,3.4381318E0,2.8829355E0,3.5696585E0,1.3849983E0,0E0,1.2486331E1,1.8571854E-1,0E0,0E0,0E0,0E0,0E0,0E0,0E0,0E0,0E0,0E0,0E0,0E0,0E0,0E0],"parents":[2147483647,0,0,1,1,2,2,4,4,5,5,6,6,9,9,10,10,11,11,12,12,15,15,16,16,17,17,18,18,21,21,22,22,23,23,24,24,25,25,27,27,28,28],"right_children":[2,4,6,-1,8,10,12,-1,-1,14,16,18,20,-1,-1,22,24,26,28,-1,-1,30,32,34,36,38,-1,40,42,-1,-1,-1,-1,-1,-1,-1,-1,-1,-1,-1,-1,-1,-1],"split_conditions":[6.666E1,6E-1,1.955E0,-2.7431607E-1,4.6E-1,7.400001E0,7.75E-1,1.5907992E-1,-2.2957878E-1,7E-2,1.35E-2,4E1,1.2615E0,-3.1647184E-1,3.861553E-2,6E-1,4.31E-1,3.05E-1,1.3E-1,-5.779757E-2,-3.971471E-1,3.65E-1,3.560001E0,1.5E-1,6.65E-1,1.9E-1,2.8031422E-3,8.5E-2,3.29E-1,2.1033151E-1,-2.9703978E-1,-4.0156454E-1,1.25998985E-2,3.001092E-1,-1.02326795E-1,-2.359825E-1,8.427464E-2,1.4321769E-3,-3.59112E-1,-6.9644246E-3,-2.1385267E-1,-3.6111525E-1,-1.0064539E-1],"split_indices":[11,4,4,0,11,12,23,0,0,1,33,19,37,0,0,29,36,0,13,0,0,28,1,34,4,6,0,30,34,0,0,0,0,0,0,0,0,0,0,0,0,0,0],"split_type":[0,0,0,0,0,0,0,0,0,0,0,0,0,0,0,0,0,0,0,0,0,0,0,0,0,0,0,0,0,0,0,0,0,0,0,0,0,0,0,0,0,0,0],"sum_hessian":[5.521641E2,4.5099125E1,5.0706503E2,3.8915897E1,6.183226E0,1.15881516E2,3.911835E2,1.480155E0,4.703071E0,8.686079E0,1.0719544E2,3.782024E2,1.2981108E1,7.6751585E0,1.0109208E0,8.711048E1,2.0084955E1,1.7435875E1,3.6076654E2,1.0753554E0,1.1905752E1,8.076352E1,6.3469615E0,5.830858E0,1.4254097E1,1.54472065E1,1.9886695E0,3.5006952E2,1.0697E1,7.929895E1,1.464574E0,2.0273118E0,4.3196497E0,4.0898466E0,1.7410116E0,1.0543732E1,3.7103646E0,1.0139773E0,1.44332285E1,3.224801E2,2.7589428E1,9.467805E0,1.2291949E0],"tree_param":{"num_deleted":"0","num_feature":"38","num_nodes":"43","size_leaf_vector":"0"}},{"base_weights":[-1.1798461E-1,-3.39348E-2,-6.1306953E-1,2.8780842E-1,-1.9708641E-1,-7.3985374E-1,3.0109027E-1,3.4421727E-1,-1.2626164E0,2.5898978E-1,-3.2109547E-1,-1.4086901E-2,-8.5130686E-1,6.042944E-1,-4.0569475E-1,-2.1297552E-2,5.958751E-1,-9.7608817E-1,3.366881E-1,-2.5526774E-1,-9.729162E-1,5.168877E-1,-5.062108E-1,-9.2631483E-1,-6.880879E-2,-3.6846516E-1,8.68662E-1,1.499945E-1,-7.287425E-1,6.963634E-1,-2.2735626E-1,-1.8005694E-1,7.174375E-1,-8.391388E-1,4.2314646E-1,-1.9037564E-1,-8.804685E-1,-1.107976E0,4.4751298E-1,9.1433257E-1,-3.467417E-1,2.64863E-1,-7.383295E-1,-9.691525E-1,2.7086401E-2,-8.051167E-1,6.472434E-1,2.169317E-1,9.5515454E-1,1.0818117E0,-4.7711372E-1,1.0085032E0,-3.3601543E-1,5.619397E-1,-7.782972E-1,7.7146316E-1,-9.631204E-1,-1.5753081E-1,-1.0759056E0,5.323529E-1,-8.435983E-1,4.0967312E-1,-2.4437018E-1,-9.853483E-1,2.553039E-1,3.6759432E-2,-1.1996593E0,1.1688862E0,1.01941295E-1,-8.972182E-1,-8.4562704E-2,-7.6920736E-1,-1.0825069E0,4.655416E-1,-4.3032783E-1,1.2879221E-1,8.2634354E-1],"categories":[],"categories_nodes":[],"categories_segments":[],"categories_sizes":[],"default_left":[1,0,1,1,0,0,0,1,0,1,1,1,1,0,0,0,0,0,0,1,1,1,0,1,1,0,0,0,0,0,0,0,1,0,1,0,1,0,0,0,0,0,1,1,0,0,1,0,0,0,0,0,0,0,0,0,0,0,0,0,0,0,0,0,0,0,0,0,0,0,0,0,0,0,0,0,0],"id":9,"left_children":[1,3,5,7,9,11,13,15,-1,17,19,21,23,25,27,29,31,-1,33,35,37,39,41,43,45,-1,47,-1,-1,49,51,53,55,57,59,61,63,65,-1,67,-1,-1,69,71,73,-1,75,-1,-1,-1,-1,-1,-1,-1,-1,-1,-1,-1,-1,-1,-1,-1,-1,-1,-1,-1,-1,-1,-1,-1,-1,-1,-1,-1,-1,-1,-1],"loss_changes":[2.1778042E1,2.3620413E1,9.027708E0,1.3679599E1,1.696267E1,5.4080467E0,2.380368E0,1.3526501E1,0E0,6.5043654E0,9.838999E0,2.8582036E0,3.3445396E0,2.2164614E0,7.536653E-1,9.159931E0,8.33942E0,0E0,6.5857806E0,8.550375E0,4.5645695E0,2.1274953E0,1.209E0,2.187149E0,3.7687001E0,0E0,1.364379E-1,0E0,0E0,6.769356E0,6.7908497E0,6.0255237E0,7.593708E0,5.6208277E-1,8.438928E0,6.4488955E0,2.6256847E0,2.1069431E0,0E0,6.846938E-1,0E0,0E0,4.0364003E-1,3.1555176E-1,8.5171646E-1,0E0,2.3501313E-1,0E0,0E0,0E0,0E0,0E0,0E0,0E0,0E0,0E0,0E0,0E0,0E0,0E0,0E0,0E0,0E0,0E0,0E0,0E0,0E0,0E0,0E0,0E0,0E0,0E0,0E0,0E0,0E0,0E0,0E0],"parents":[2147483647,0,0,1,1,2,2,3,3,4,4,5,5,6,6,7,7,9,9,10,10,11,11,12,12,13,13,14,14,15,15,16,16,18,18,19,19,20,20,21,21,22,22,23,23,24,24,26,26,29,29,30,30,31,31,32,32,33,33,34,34,35,35,36,36,37,37,39,39,42,42,43,43,44,44,46,46],"right_children":[2,4,6,8,10,12,14,16,-1,18,20,22,24,26,28,30,32,-1,34,36,38,40,42,44,46,-1,48,-1,-1,50,52,54,56,58,60,62,64,66,-1,68,-1,-1,70,72,74,-1,76,-1,-1,-1,-1,-1,-1,-1,-1,-1,-1,-1,-1,-1,-1,-1,-1,-1,-1,-1,-1,-1,-1,-1,-1,-1,-1,-1,-1,-1,-1],"split_conditions":[5.5E-2,1.425E0,4.8634996E0,6.05E-1,2.155E-1,5.95E-2,1.0505E0,2.1485E0,-3.7878492E-1,1.1705E0,4.675E-1,1.8959999E0,1.85E-1,6.7E-1,2.380001E0,3.6E-1,3.15E-1,-2.9282647E-1,1.0700001E1,1.215E0,9.85E-2,4.5E-2,5.3E-1,5.6500003E-2,2.3845E0,-1.1053955E-1,6.55E-2,4.4998355E-2,-2.1862276E-1,5.8E-1,1.3800011E0,1.06000006E-1,2.945E-1,5.3499997E-1,2.75E-1,1.815E0,1.51E0,2.2999999E-1,1.342539E-1,1.0800011E0,-1.0402252E-1,7.945891E-2,2.7259998E0,2.55E-1,5.55E-1,-2.4153502E-1,3.05E-1,6.507951E-2,2.8654638E-1,3.245435E-1,-1.4313412E-1,3.0255097E-1,-1.00804634E-1,1.6858192E-1,-2.3348917E-1,2.3143895E-1,-2.8893614E-1,-4.7259245E-2,-3.2277167E-1,1.5970588E-1,-2.530795E-1,1.2290194E-1,-7.331105E-2,-2.956045E-1,7.659117E-2,1.102783E-2,-3.5989782E-1,3.5066587E-1,3.0582389E-2,-2.691655E-1,-2.5368812E-2,-2.3076221E-1,-3.247521E-1,1.3966249E-1,-1.2909836E-1,3.8637664E-2,2.4790306E-1],"split_indices":[21,5,37,17,34,34,34,37,0,37,34,37,1,1,5,6,5,0,17,29,36,29,5,36,37,0,36,0,0,2,8,34,33,17,30,0,2,33,0,0,0,0,37,5,33,0,2,0,0,0,0,0,0,0,0,0,0,0,0,0,0,0,0,0,0,0,0,0,0,0,0,0,0,0,0,0,0],"split_type":[0,0,0,0,0,0,0,0,0,0,0,0,0,0,0,0,0,0,0,0,0,0,0,0,0,0,0,0,0,0,0,0,0,0,0,0,0,0,0,0,0,0,0,0,0,0,0,0,0,0,0,0,0,0,0,0,0,0,0,0,0,0,0,0,0,0,0,0,0,0,0,0,0,0,0,0,0],"sum_hessian":[5.2286224E2,4.4789273E2,7.496952E1,1.504445E2,2.974482E2,6.600588E1,8.963637E0,1.4591373E2,4.5307693E0,6.335499E1,2.3409323E2,8.936842E0,5.706904E1,6.3741827E0,2.589455E0,5.9870914E1,8.6042816E1,3.0654013E0,6.028959E1,2.1388454E2,2.020869E1,4.2745347E0,4.6623077E0,5.1909367E1,5.1596713E0,1.2779846E0,5.096198E0,1.1488883E0,1.4405667E0,1.2824907E1,4.704601E1,1.1589017E1,7.44538E1,3.5331614E0,5.6756428E1,1.9495398E2,1.893056E1,1.8654886E1,1.5538057E0,2.88715E0,1.3873845E0,1.0461248E0,3.616183E0,4.9661484E1,2.2478814E0,2.482531E0,2.67714E0,1.008107E0,4.088091E0,9.712717E0,3.1121907E0,3.1328208E0,4.391319E1,5.200063E0,6.388953E0,7.265894E1,1.7948529E0,1.3402292E0,2.1929321E0,5.278552E1,3.9709089E0,1.555061E1,1.7940337E2,1.745149E1,1.4790685E0,1.4277267E0,1.722716E1,1.8642018E0,1.0229483E0,2.6095793E0,1.0066036E0,2.0784931E1,2.8876554E1,1.1386542E0,1.1092271E0,1.1287609E0,1.5483792E0],"tree_param":{"num_deleted":"0","num_feature":"38","num_nodes":"77","size_leaf_vector":"0"}},{"base_weights":[-9.552069E-2,-4.518755E-2,-8.505249E-1,-3.8340283E-3,-9.013009E-1,2.0802958E-1,-8.9786816E-1,-5.615498E-1,5.8394488E-2,1.2446439E-1,-9.602526E-1,-2.5125113E-1,-9.640219E-1,7.302367E-1,-6.1941427E-1,9.753047E-2,-8.443433E-1,-1.0016116E0,-1.0853452E-1,2.851791E-1,-5.438632E-1,-6.7524634E-2,-1.0032914E0,-1.108476E0,-5.063543E-1,5.0649637E-1,1.6564957E-3,1.6664667E-1,-9.2201257E-1,-1.037133E0,-1.5517482E-1,-4.0489742E-1,-1.2355888E0,3.0391052E-1,-5.516653E-1,7.709719E-1,8.7855555E-2,3.3576854E-2,-1.2360533E0,-1.0033957E0,1.1463383E-1,-1.0774113E0,-3.3605453E-1],"categories":[],"categories_nodes":[],"categories_segments":[],"categories_sizes":[],"default_left":[1,1,0,1,0,0,0,0,1,0,1,0,0,0,0,0,0,0,0,0,0,0,1,1,0,1,1,0,1,1,0,0,0,0,0,0,0,0,0,0,0,0,0],"id":10,"left_children":[1,3,5,7,9,-1,11,13,15,-1,17,19,21,-1,23,25,27,-1,-1,-1,-1,-1,29,31,33,35,37,-1,39,41,-1,-1,-1,-1,-1,-1,-1,-1,-1,-1,-1,-1,-1],"loss_changes":[1.8656496E1,1.636204E1,1.7248497E0,1.53714905E1,1.4072819E0,0E0,1.0224533E0,3.775446E0,1.4161372E1,0E0,6.047287E-1,7.9810333E-1,8.640671E-1,0E0,1.8214397E0,1.50101595E1,1.4619942E0,0E0,0E0,0E0,0E0,0E0,5.6479454E-1,1.4815235E-1,1.5202703E0,7.981903E0,1.2334122E1,0E0,1.4333429E0,3.1957817E-1,0E0,0E0,0E0,0E0,0E0,0E0,0E0,0E0,0E0,0E0,0E0,0E0,0E0],"parents":[2147483647,0,0,1,1,2,2,3,3,4,4,6,6,7,7,8,8,10,10,11,11,12,12,14,14,15,15,16,16,22,22,23,23,24,24,25,25,26,26,28,28,29,29],"right_children":[2,4,6,8,10,-1,12,14,16,-1,18,20,22,-1,24,26,28,-1,-1,-1,-1,-1,30,32,34,36,38,-1,40,42,-1,-1,-1,-1,-1,-1,-1,-1,-1,-1,-1,-1,-1],"split_conditions":[6.5E-2,3.5E-2,1.3499999E-1,1.1735001E0,7.45E-2,6.2408876E-2,3.25E-1,1.03E0,1.9E-1,3.733932E-2,4.25E-1,6.5E-2,3.65E-1,2.1907102E-1,9.1999996E-1,1.755E0,1.025E-1,-3.004835E-1,-3.256036E-2,8.5553735E-2,-1.6315895E-1,-2.0257391E-2,1.7950001E-1,1.0645001E0,1.4449999E0,9.25E-2,3.15E-1,4.9994003E-2,6.95E-1,3.75E-1,-4.655245E-2,-1.2146923E-1,-3.7067664E-1,9.117316E-2,-1.654996E-1,2.3129158E-1,2.6356667E-2,1.0073056E-2,-3.7081602E-1,-3.0101871E-1,3.439015E-2,-3.232234E-1,-1.0081636E-1],"split_indices":[14,26,13,37,36,0,5,1,28,0,4,34,7,0,2,0,35,0,0,0,0,0,33,37,2,34,32,0,30,28,0,0,0,0,0,0,0,0,0,0,0,0,0],"split_type":[0,0,0,0,0,0,0,0,0,0,0,0,0,0,0,0,0,0,0,0,0,0,0,0,0,0,0,0,0,0,0,0,0,0,0,0,0,0,0,0,0,0,0],"sum_hessian":[4.9094943E2,4.6125897E2,2.9690456E1,4.4096326E2,2.029572E1,1.1257442E0,2.8564713E1,4.34574E1,3.9750586E2,1.0426253E0,1.9253094E1,3.0964615E0,2.546825E1,1.3649955E0,4.2092407E1,3.818439E2,1.5661943E1,1.819363E1,1.0594637E0,1.1018677E0,1.9945939E0,1.1828995E0,2.428535E1,6.2504826E0,3.5841927E1,7.1702484E1,3.1014142E2,1.0356542E0,1.4626289E1,2.3139183E1,1.1461691E0,1.5968941E0,4.6535883E0,1.5959263E0,3.4246E1,4.3426357E1,2.8276125E1,3.0329242E2,6.848996E0,1.3591359E1,1.0349301E0,2.1374393E1,1.764789E0],"tree_param":{"num_deleted":"0","num_feature":"38","num_nodes":"43","size_leaf_vector":"0"}},{"base_weights":[-7.809451E-2,-7.8684425E-1,-2.9640816E-2,-3.2044992E-1,-8.5335547E-1,-7.11019E-2,6.7933214E-1,-6.7681843E-1,4.8142508E-1,-8.951062E-1,-3.484564E-1,-4.1971486E-2,-1.081477E0,7.4030215E-1,-3.6764342E-1,8.350134E-2,-5.502735E-1,2.9267364E-3,-6.8622273E-1,-1.7030811E-1,-1.1583141E0,9.482064E-1,5.282336E-1,3.0219326E-2,-1.019673E0,-8.4822553E-1,5.258848E-1,8.714588E-1,3.6090538E-1,5.652016E-2,-1.0333202E0,-1.2149929E0,-2.2256978E-1,-9.611908E-1,-1.5972722E-1,8.417076E-1,-1.1105995E-1,7.2637814E-1,1.4923413E-1],"categories":[],"categories_nodes":[],"categories_segments":[],"categories_sizes":[],"default_left":[0,0,1,1,1,1,1,0,0,0,1,1,1,0,0,0,0,1,1,0,0,0,0,1,0,1,1,0,1,0,0,0,0,0,0,0,0,0,0],"id":11,"left_children":[1,3,5,7,9,11,13,-1,-1,-1,15,17,19,21,-1,-1,-1,23,25,-1,-1,-1,27,29,31,33,35,-1,37,-1,-1,-1,-1,-1,-1,-1,-1,-1,-1],"loss_changes":[1.6201698E1,6.6316605E-1,1.3078032E1,1.8603182E0,2.3246193E-1,1.2306951E1,1.8415289E0,0E0,0E0,0E0,3.6063495E-1,1.18315115E1,6.2330055E-1,5.380573E-1,0E0,0E0,0E0,1.0728848E1,5.6788273E0,0E0,0E0,0E0,4.8509645E-1,1.052887E1,1.2854271E0,1.704483E0,8.4964955E-1,0E0,7.4772215E-1,0E0,0E0,0E0,0E0,0E0,0E0,0E0,0E0,0E0,0E0],"parents":[2147483647,0,0,1,1,2,2,3,3,4,4,5,5,6,6,10,10,11,11,12,12,13,13,17,17,18,18,22,22,23,23,24,24,25,25,26,26,28,28],"right_children":[2,4,6,8,10,12,14,-1,-1,-1,16,18,20,22,-1,-1,-1,24,26,-1,-1,-1,28,30,32,34,36,-1,38,-1,-1,-1,-1,-1,-1,-1,-1,-1,-1],"split_conditions":[6.666E1,8.75E-1,7.6195E0,3.75E-1,3.799E0,7.75E-1,6E-1,-2.0304553E-1,1.4442752E-1,-2.6853186E-1,1.6299999E-1,5.5E-2,1.339E0,3.996001E0,-1.1029303E-1,2.5050404E-2,-1.6508205E-1,6.365E-1,1.55E-2,-5.1092435E-2,-3.4749424E-1,2.8446195E-1,5.260001E0,1.25E-1,9.865E-1,3.441E0,8.15E-2,2.6143765E-1,9.8925E0,1.6956048E-2,-3.0999607E-1,-3.6449787E-1,-6.677093E-2,-2.8835726E-1,-4.7918167E-2,2.5251228E-1,-3.3317987E-2,2.1791345E-1,4.477024E-2],"split_indices":[11,4,37,2,37,23,29,0,0,0,34,17,37,36,0,0,0,34,36,0,0,0,6,13,34,37,34,0,37,0,0,0,0,0,0,0,0,0,0],"split_type":[0,0,0,0,0,0,0,0,0,0,0,0,0,0,0,0,0,0,0,0,0,0,0,0,0,0,0,0,0,0,0,0,0,0,0,0,0,0,0],"sum_hessian":[4.7146045E2,2.919375E1,4.422667E2,4.369767E0,2.4823984E1,4.186817E2,2.3584997E1,3.1332476E0,1.2365197E0,2.221422E1,2.6097634E0,4.0796118E2,1.0720505E1,2.2563913E1,1.0210831E0,1.0177283E0,1.5920352E0,3.8231305E2,2.5648148E1,1.0838777E0,9.636626E0,9.641002E0,1.2922913E1,3.733198E2,8.993238E0,2.2889133E1,2.7590144E0,2.8561893E0,1.0066723E1,3.652346E2,8.085224E0,6.80219E0,2.1910489E0,1.9322697E1,3.566438E0,1.6295444E0,1.1294701E0,2.8002174E0,7.2665052E0],"tree_param":{"num_deleted":"0","num_feature":"38","num_nodes":"39","size_leaf_vector":"0"}},{"base_weights":[-6.291282E-2,-2.4348577E-2,-8.495416E-1,2.6399903E-6,-1.1806405E0,-9.335793E-1,4.2429098E-1,8.6642975E-1,-3.0829532E-2,-9.004922E-2,-1.0189251E0,-7.119158E-2,9.527861E-1,-2.3495555E-3,-8.261982E-1,-1.0554907E0,-2.7434495E-1,9.968535E-1,2.0389377E-1,2.6555084E-2,-8.2072324E-1,-9.4685614E-1,1.2332935E-1,5.244048E-2,-9.3737394E-1,1.8773623E-1,-9.202766E-1,-1.0725809E0,2.3293965E-2],"categories":[],"categories_nodes":[],"categories_segments":[],"categories_sizes":[],"default_left":[1,1,1,0,0,0,0,0,1,0,1,0,1,1,1,0,0,0,0,1,0,0,0,0,0,0,0,0,0],"id":12,"left_children":[1,3,5,7,-1,9,-1,11,13,-1,15,-1,17,19,21,-1,-1,-1,-1,23,25,27,-1,-1,-1,-1,-1,-1,-1],"loss_changes":[1.3872017E1,1.2321327E1,2.6840696E0,1.1502074E1,0E0,1.3741817E0,0E0,1.2658062E0,9.416137E0,0E0,2.112484E-1,0E0,2.4613667E-1,9.540505E0,1.7631302E0,0E0,0E0,0E0,0E0,9.771375E0,1.5541229E0,1.5941772E0,0E0,0E0,0E0,0E0,0E0,0E0,0E0],"parents":[2147483647,0,0,1,1,2,2,3,3,5,5,7,7,8,8,10,10,12,12,13,13,14,14,19,19,20,20,21,21],"right_children":[2,4,6,8,-1,10,-1,12,14,-1,16,-1,18,20,22,-1,-1,-1,-1,24,26,28,-1,-1,-1,-1,-1,-1,-1],"split_conditions":[1.95E-1,1.14999995E-1,4.5E-1,1.155E0,-3.5419214E-1,4.75E-1,1.272873E-1,2.740001E0,2.8049998E0,-2.7014768E-2,1.005E0,-2.1357475E-2,1.95E-1,1.5699999E0,3.2665E0,-3.1664723E-1,-8.230349E-2,2.9905605E-1,6.116813E-2,2.5E-1,2.7899998E-1,5.9700003E0,3.6998805E-2,1.5732145E-2,-2.8121218E-1,5.6320872E-2,-2.76083E-1,-3.217743E-1,6.9881896E-3],"split_indices":[19,25,1,8,0,29,0,28,5,0,29,0,17,29,37,0,0,0,0,27,34,5,0,0,0,0,0,0,0],"split_type":[0,0,0,0,0,0,0,0,0,0,0,0,0,0,0,0,0,0,0,0,0,0,0,0,0,0,0,0,0],"sum_hessian":[4.569647E2,4.3659186E2,2.0372835E1,4.2856635E2,8.025502E0,1.9362553E1,1.0102824E0,1.3795382E1,4.1477097E2,1.9678692E0,1.7394684E1,1.1782327E0,1.2617149E1,4.0140088E2,1.3370112E1,1.6182413E1,1.2122693E0,1.160327E1,1.0138797E0,3.8864175E2,1.2759123E1,1.1865197E1,1.504915E0,3.7939893E2,9.242801E0,1.0668019E0,1.1692321E1,1.0410488E1,1.4547096E0],"tree_param":{"num_deleted":"0","num_feature":"38","num_nodes":"29","size_leaf_vector":"0"}},{"base_weights":[-5.0992757E-2,-2.265557E-2,-9.541657E-1,-6.165795E-2,5.8919305E-1,-1.0289427E0,-1.5874225E-1,-4.2375855E-2,-1.091854E0,6.9608533E-1,-3.1823498E-1,-1.9141411E-2,-9.258429E-1,-4.8626852E-1,7.720051E-1,3.55409E-1,-9.01439E-1,4.8046866E-3,-8.383585E-1,8.639588E-1,-1.4590272E-1,-4.3097052E-1,5.133387E-2,-1.101611E0,1.6956685E-1,9.120463E-1,1.5113477E-1],"categories":[],"categories_nodes":[],"categories_segments":[],"categories_sizes":[],"default_left":[1,1,1,1,1,0,0,1,0,0,0,1,0,0,1,0,0,1,1,1,0,0,0,0,0,0,0],"id":13,"left_children":[1,3,5,7,9,-1,-1,11,-1,13,15,17,-1,-1,19,-1,-1,21,23,25,-1,-1,-1,-1,-1,-1,-1],"loss_changes":[1.1413967E1,1.0399071E1,6.4369106E-1,8.080878E0,2.754815E0,0E0,0E0,8.247542E0,0E0,2.5008945E0,1.6712995E0,7.720571E0,0E0,0E0,2.036683E0,0E0,0E0,7.791617E0,3.152546E0,5.7238865E-1,0E0,0E0,0E0,0E0,0E0,0E0,0E0],"parents":[2147483647,0,0,1,1,2,2,3,3,4,4,7,7,9,9,10,10,11,11,14,14,17,17,18,18,19,19],"right_children":[2,4,6,8,10,-1,-1,12,-1,14,16,18,-1,-1,20,-1,-1,22,24,26,-1,-1,-1,-1,-1,-1,-1],"split_conditions":[1.25E-1,2.4999999E-2,4.5999998E-1,1.14999995E-1,1.46E0,-3.0868283E-1,-4.7622677E-2,4.6499997E-1,-3.275562E-1,3.5499997E-2,6.45E-1,7.45E-1,-2.7775288E-1,-1.4588057E-1,1.14999995E-1,1.066227E-1,-2.7043173E-1,1.1735001E0,3.486E0,4.9999997E-2,-4.377082E-2,-1.2929116E-1,1.5400162E-2,-3.3048332E-1,5.0870057E-2,2.736139E-1,4.5340434E-2],"split_indices":[13,9,23,25,5,0,0,26,0,34,4,17,0,0,21,0,0,37,37,30,0,0,0,0,0,0,0],"split_type":[0,0,0,0,0,0,0,0,0,0,0,0,0,0,0,0,0,0,0,0,0,0,0,0,0,0,0],"sum_hessian":[4.4581802E2,4.3324985E2,1.2568194E1,4.081326E2,2.5117245E1,1.1219848E1,1.348346E0,4.0165598E2,6.4766273E0,2.2678669E1,2.4385757E0,3.9235892E2,9.297046E0,1.0422301E0,2.1636438E1,1.3127939E0,1.125782E0,3.821817E2,1.0177215E1,1.9719738E1,1.9166994E0,3.607299E1,3.461087E2,7.9958816E0,2.1813333E0,1.8211683E1,1.5080551E0],"tree_param":{"num_deleted":"0","num_feature":"38","num_nodes":"27","size_leaf_vector":"0"}},{"base_weights":[-4.258264E-2,-7.1366566E-1,-7.470044E-3,-7.948938E-1,-2.1481758E-1,4.497181E-2,-3.9926973E-1,-8.5089326E-1,-2.2894843E-1,-5.8267E-1,4.578104E-1,8.557478E-1,1.112542E-2,-5.475645E-1,2.2365287E-1,1.1922914E-1,-4.632915E-1,9.076203E-1,8.223042E-2,2.8367577E-2,-1.353797E0,1.14491455E-1,-6.914438E-1,-4.245021E-1,3.7983066E-1,2.6336637E-1,-7.602592E-2,5.969113E-1,-3.8287124E-1,-7.773203E-1,1.632057E-1,5.619469E-1,-4.0951264E-1,3.2986727E-1,-8.7020326E-1,-1.04167216E-1,8.0937487E-1,8.9366265E-2,8.49656E-1,-7.322388E-1,1.24153994E-1,-8.324659E-1,3.0338287E-1,-6.065238E-1,7.074442E-1,7.1489975E-2,8.3366585E-1],"categories":[],"categories_nodes":[],"categories_segments":[],"categories_sizes":[],"default_left":[0,1,1,1,1,0,1,0,1,0,0,1,1,0,0,0,0,0,0,0,0,1,1,0,1,1,1,0,0,1,1,0,0,0,0,0,0,0,0,0,0,0,0,0,0,0,0],"id":14,"left_children":[1,3,5,7,9,11,13,-1,15,-1,-1,17,19,21,23,-1,-1,-1,-1,25,-1,27,29,-1,31,33,35,37,39,41,43,45,-1,-1,-1,-1,-1,-1,-1,-1,-1,-1,-1,-1,-1,-1,-1],"loss_changes":[1.0220349E1,7.03125E-1,8.511899E0,3.8123894E-1,1.3530285E0,1.0020334E1,4.6398373E0,0E0,3.0039895E-1,0E0,0E0,5.1251316E-1,8.319191E0,3.8692875E0,1.1849709E0,0E0,0E0,0E0,0E0,8.568363E0,0E0,2.1387346E0,2.5362186E0,0E0,1.477502E0,8.38354E0,6.1152496E0,4.926144E-1,8.931914E-1,2.0406551E0,2.0309577E0,9.3618345E-1,0E0,0E0,0E0,0E0,0E0,0E0,0E0,0E0,0E0,0E0,0E0,0E0,0E0,0E0,0E0],"parents":[2147483647,0,0,1,1,2,2,3,3,4,4,5,5,6,6,8,8,11,11,12,12,13,13,14,14,19,19,21,21,22,22,24,24,25,25,26,26,27,27,28,28,29,29,30,30,31,31],"right_children":[2,4,6,8,10,12,14,-1,16,-1,-1,18,20,22,24,-1,-1,-1,-1,26,-1,28,30,-1,32,34,36,38,40,42,44,46,-1,-1,-1,-1,-1,-1,-1,-1,-1,-1,-1,-1,-1,-1,-1],"split_conditions":[6.666E1,6E-1,5.5E-2,3.799E0,3.8E-1,8.820001E0,4.5404997E0,-2.5526798E-1,1.8E-1,-1.7480099E-1,1.3734312E-1,1.4E-1,1.5E-1,5.95E-2,3.720001E0,3.5768744E-2,-1.3898745E-1,2.7228612E-1,2.4669128E-2,2.155E-1,-4.061391E-1,1.8959999E0,1.85E-1,-1.2735064E-1,6.9E-1,7E-2,2.45E-1,6.8E-1,2.8E-1,5.6500003E-2,2.3845E0,5.9000003E-1,-1.2285379E-1,9.896018E-2,-2.6106098E-1,-3.1250168E-2,2.4281247E-1,2.680988E-2,2.5489682E-1,-2.1967165E-1,3.72462E-2,-2.4973978E-1,9.101486E-2,-1.8195716E-1,2.1223326E-1,2.1446994E-2,2.5009978E-1],"split_indices":[11,4,21,37,2,8,37,0,5,0,0,30,31,34,23,0,0,0,0,34,0,37,1,0,2,28,9,5,21,36,37,21,0,0,0,0,0,0,0,0,0,0,0,0,0,0,0],"split_type":[0,0,0,0,0,0,0,0,0,0,0,0,0,0,0,0,0,0,0,0,0,0,0,0,0,0,0,0,0,0,0,0,0,0,0,0,0,0,0,0,0,0,0,0,0,0,0],"sum_hessian":[4.3296332E2,2.0566416E1,4.123969E2,1.717614E1,3.3902755E0,3.6449496E2,4.790194E1,1.5171458E1,2.0046828E0,2.2781324E0,1.112143E0,1.3633237E1,3.5086172E2,3.878875E1,9.113188E0,1.0040803E0,1.0006026E0,1.261397E1,1.0192672E0,3.474518E2,3.4099114E0,6.9612117E0,3.1827538E1,1.4359146E0,7.677273E0,1.0640412E2,2.410477E2,3.4320862E0,3.5291255E0,2.9003683E1,2.8238556E0,6.4721174E0,1.2051556E0,1.0117754E2,5.2265825E0,2.344775E2,6.570207E0,1.5909097E0,1.8411764E0,1.8264306E0,1.7026948E0,2.78141E1,1.189583E0,1.1222235E0,1.7016323E0,2.7576385E0,3.7144787E0],"tree_param":{"num_deleted":"0","num_feature":"38","num_nodes":"47","size_leaf_vector":"0"}},{"base_weights":[-3.3864815E-2,-3.6921655E-3,-7.2827035E-1,1.3530715E-2,-1.0689833E0,1.8608594E-1,-8.3325136E-1,6.026497E-2,-3.773099E-1,1.676387E-1,-9.157482E-1,-4.485006E-2,2.7448183E-1,-6.869981E-1,6.624835E-2,1.592675E-1,-1.0123562E0,-9.312493E-3,-9.056312E-1,3.752388E-1,-3.5722038E-1,3.364168E-1,-7.733842E-1,-1.0931504E0,3.49622E-1,-3.1612822E-1,-1.0588377E0,1.747895E-2,-1.039828E0,-1.41626E0,-2.947475E-1,4.229561E-1,-8.933135E-1,3.841568E-1,-7.3612785E-1,-2.3367344E-1,-8.5122025E-1,-1.1141827E-1,-1.5148232E0,6.578366E-1,-1.0524431E0],"categories":[],"categories_nodes":[],"categories_segments":[],"categories_sizes":[],"default_left":[1,1,0,1,0,0,0,1,1,0,0,1,1,0,0,0,0,1,1,1,0,0,0,1,0,0,0,0,0,0,0,0,0,0,0,0,0,0,0,0,0],"id":15,"left_children":[1,3,5,7,-1,-1,9,11,13,-1,15,17,19,21,23,-1,25,27,29,31,33,-1,35,37,39,-1,-1,-1,-1,-1,-1,-1,-1,-1,-1,-1,-1,-1,-1,-1,-1],"loss_changes":[8.75353E0,7.381292E0,1.8250589E0,7.258099E0,0E0,0E0,1.4571714E0,7.9986563E0,5.8758683E0,0E0,1.6921558E0,7.296017E0,7.5738525E0,2.4776316E0,6.41507E0,0E0,1.07378006E-1,6.3773007E0,2.5325427E0,6.50957E0,4.9435797E0,0E0,7.8547096E-1,1.4245472E0,7.39635E0,0E0,0E0,0E0,0E0,0E0,0E0,0E0,0E0,0E0,0E0,0E0,0E0,0E0,0E0,0E0,0E0],"parents":[2147483647,0,0,1,1,2,2,3,3,6,6,7,7,8,8,10,10,11,11,12,12,13,13,14,14,16,16,17,17,18,18,19,19,20,20,22,22,23,23,24,24],"right_children":[2,4,6,8,-1,-1,10,12,14,-1,16,18,20,22,24,-1,26,28,30,32,34,-1,36,38,40,-1,-1,-1,-1,-1,-1,-1,-1,-1,-1,-1,-1,-1,-1,-1,-1],"split_conditions":[1.25E-1,4.35E-1,4.5999998E-1,6.55E-1,-3.20695E-1,5.5825785E-2,8.050001E-2,2.65E-1,2.4615002E0,5.0291613E-2,5.85E-2,2.05E-1,1.75E-2,7.75E-1,8.55E-1,4.7780253E-2,9.85E-2,9.41E0,3.35E-1,1.14999995E-1,8.85E-1,1.0092505E-1,7.35E-1,3.161E0,2.865E0,-9.483847E-2,-3.176513E-1,5.243685E-3,-3.119484E-1,-4.2487803E-1,-8.842425E-2,1.2688684E-1,-2.6799408E-1,1.1524704E-1,-2.2083837E-1,-7.0102036E-2,-2.553661E-1,-3.3425484E-2,-4.5444697E-1,1.97351E-1,-3.1573296E-1],"split_indices":[14,32,28,29,0,0,35,2,37,0,34,2,33,4,29,0,34,1,5,27,0,0,29,37,29,0,0,0,0,0,0,0,0,0,0,0,0,0,0,0,0],"split_type":[0,0,0,0,0,0,0,0,0,0,0,0,0,0,0,0,0,0,0,0,0,0,0,0,0,0,0,0,0,0,0,0,0,0,0,0,0,0,0,0,0],"sum_hessian":[4.1691696E2,4.005193E2,1.6397667E1,3.951186E2,5.400702E0,1.609221E0,1.4788445E1,3.5367426E2,4.1444332E1,1.0475092E0,1.3740936E1,2.3778506E2,1.1588918E2,2.4081804E1,1.7362526E1,1.0795484E0,1.2661388E1,2.2932802E2,8.457046E0,1.0029763E2,1.559156E1,1.6492165E0,2.2432589E1,2.8488946E0,1.4513632E1,1.2806228E0,1.1380765E1,2.2447513E2,4.852888E0,3.888405E0,4.5686407E0,9.730406E1,2.993564E0,5.268759E0,1.0322802E1,3.33185E0,1.9100739E1,1.2358463E0,1.6130483E0,1.2333238E1,2.1803946E0],"tree_param":{"num_deleted":"0","num_feature":"38","num_nodes":"41","size_leaf_vector":"0"}},{"base_weights":[-3.276073E-2,-4.5739813E-3,-6.91796E-1,3.1086037E-2,-4.970906E-1,-8.4422964E-1,-1.3607076E-1,5.3010214E-2,-9.9848163E-1,6.5089154E-1,-6.721005E-1,3.503447E-2,-9.360557E-1,-5.376598E-1,2.2063927E-1,7.620518E-2,-8.2552886E-1,1.0668927E-2,8.6164033E-1,-7.479205E-1,4.872486E-1,-9.948063E-1,-2.4243233E-1,-3.2519102E-1,6.486516E-1,9.1642715E-2,-1.1739843E0,-9.5513105E-1,-4.154343E-2,-8.8934034E-1,1.014001E-1,-1.0450971E0,-2.9073492E-1,5.9003714E-2,7.720044E-1,-1.8704557E-1,-1.0752676E0,-9.4085515E-1,-4.231098E-2,5.804328E-1,-5.5054635E-1],"categories":[],"categories_nodes":[],"categories_segments":[],"categories_sizes":[],"default_left":[1,1,1,1,0,0,0,1,0,0,1,0,1,0,0,1,1,0,0,1,0,1,0,0,0,1,0,1,0,1,0,0,0,0,0,0,0,0,0,0,0],"id":16,"left_children":[1,3,5,7,9,11,13,15,-1,17,19,-1,21,-1,23,25,27,-1,-1,29,-1,31,-1,-1,-1,33,-1,35,-1,37,39,-1,-1,-1,-1,-1,-1,-1,-1,-1,-1],"loss_changes":[7.5520844E0,6.883427E0,1.2976975E0,8.305052E0,5.753566E0,1.0738173E0,8.0358726E-1,7.3766856E0,0E0,5.3162897E-1,2.4259062E0,0E0,2.3603821E-1,0E0,9.6817356E-1,6.8740077E0,9.0695E-1,0E0,0E0,2.781497E0,0E0,6.7014694E-2,0E0,0E0,0E0,7.6655006E0,0E0,5.324168E-1,0E0,8.0281353E-1,1.5987686E0,0E0,0E0,0E0,0E0,0E0,0E0,0E0,0E0,0E0,0E0],"parents":[2147483647,0,0,1,1,2,2,3,3,4,4,5,5,6,6,7,7,9,9,10,10,12,12,14,14,15,15,16,16,19,19,21,21,25,25,27,27,29,29,30,30],"right_children":[2,4,6,8,10,12,14,16,-1,18,20,-1,22,-1,24,26,28,-1,-1,30,-1,32,-1,-1,-1,34,-1,36,-1,38,40,-1,-1,-1,-1,-1,-1,-1,-1,-1,-1],"split_conditions":[3.5E-2,1.05000004E-1,2.25E-1,6.5E-2,2.85E0,7.35E-2,2.505E-1,4.9E-1,-2.995445E-1,8.7E-1,3.2E-1,1.0510341E-2,9.500001E-3,-1.6129795E-1,7.400001E0,1.1340001E0,3.0125E0,3.2006782E-3,2.584921E-1,7.5E-1,1.4617458E-1,4.1E-1,-7.27297E-2,-9.7557314E-2,1.9459549E-1,1.21E-1,-3.521953E-1,1.3025E0,-1.246303E-2,3.56E-1,1.115E0,-3.1352913E-1,-8.7220475E-2,1.7701115E-2,2.3160134E-1,-5.6113675E-2,-3.2258028E-1,-2.8225654E-1,-1.2693294E-2,1.7412984E-1,-1.651639E-1],"split_indices":[19,30,4,13,12,34,34,28,0,5,17,0,36,0,12,33,37,0,0,4,0,0,0,0,0,36,0,37,0,34,4,0,0,0,0,0,0,0,0,0,0],"split_type":[0,0,0,0,0,0,0,0,0,0,0,0,0,0,0,0,0,0,0,0,0,0,0,0,0,0,0,0,0,0,0,0,0,0,0,0,0,0,0,0,0],"sum_hessian":[4.057197E2,3.9004453E2,1.567515E1,3.6458417E2,2.5460354E1,1.189362E1,3.781531E0,3.5791113E2,6.6730437E0,3.0082805E0,2.2452074E1,1.1831403E0,1.0710479E1,1.540237E0,2.2412941E0,3.4959448E2,8.316645E0,1.005215E0,2.0030656E0,2.1406961E1,1.0451114E0,9.47382E0,1.2366588E0,1.0906514E0,1.1506428E0,3.462457E2,3.3488002E0,6.9495053E0,1.3671389E0,1.8310905E1,3.0960567E0,8.390161E0,1.0836598E0,3.314326E2,1.4813097E1,1.2857944E0,5.663711E0,1.7156696E1,1.1542088E0,1.8479359E0,1.2481209E0],"tree_param":{"num_deleted":"0","num_feature":"38","num_nodes":"41","size_leaf_vector":"0"}},{"base_weights":[-2.948823E-2,-5.494459E-3,-7.815637E-1,-6.407593E-1,2.1313159E-2,2.5022873E-1,-1.0186827E0,-8.179739E-2,-7.348346E-1,6.1446124E-1,-5.5690953E-3,4.1163602E-1,-3.3144582E-2,-2.843908E-1,-1.0911758E0,-4.8202366E-1,3.9061183E-1,-8.089176E-1,-1.5204717E-1,7.202132E-1,-4.8502028E-1,8.321102E-3,-1.2293397E0,8.257922E-1,-2.3666286E-1,2.369384E-2,-1.0137677E0,9.2807233E-1,-1.3860261E-1,-9.1874474E-1,4.0343326E-2],"categories":[],"categories_nodes":[],"categories_segments":[],"categories_sizes":[],"default_left":[1,0,0,0,0,0,0,0,1,1,1,0,0,0,0,0,0,0,0,1,0,1,0,1,0,0,0,0,0,0,0],"id":17,"left_children":[1,3,5,7,9,11,13,15,17,19,21,-1,-1,-1,-1,-1,-1,-1,-1,23,-1,25,-1,27,-1,29,-1,-1,-1,-1,-1],"loss_changes":[7.162733E0,6.585511E0,3.2574215E0,7.632332E-1,5.922945E0,1.5525478E-1,2.3136997E-1,8.27502E-1,4.5021915E-1,2.2218485E0,6.06401E0,0E0,0E0,0E0,0E0,0E0,0E0,0E0,0E0,1.720326E0,0E0,5.572574E0,0E0,1.4915066E0,0E0,5.5113645E0,0E0,0E0,0E0,0E0,0E0],"parents":[2147483647,0,0,1,1,2,2,3,3,4,4,5,5,6,6,7,7,8,8,9,9,10,10,19,19,21,21,23,23,25,25],"right_children":[2,4,6,8,10,12,14,16,18,20,22,-1,-1,-1,-1,-1,-1,-1,-1,24,-1,26,-1,28,-1,30,-1,-1,-1,-1,-1],"split_conditions":[5.75E-1,6.666E1,1.29E0,8.75E-1,3.19E0,9.1499996E-1,6.55E-1,6E-1,3.799E0,7.3E-2,1.4500001E-1,1.2349081E-1,-9.943375E-3,-8.531725E-2,-3.2735276E-1,-1.446071E-1,1.1718355E-1,-2.4267529E-1,-4.5614153E-2,1.44E0,-1.4550608E-1,1.3E-1,-3.6880192E-1,4.5E-1,-7.099886E-2,2.25E-1,-3.0413032E-1,2.784217E-1,-4.1580785E-2,-2.7562344E-1,1.2102998E-2],"split_indices":[23,11,2,4,24,23,23,4,37,33,31,0,0,0,0,0,0,0,0,5,0,25,0,1,0,20,0,0,0,0,0],"split_type":[0,0,0,0,0,0,0,0,0,0,0,0,0,0,0,0,0,0,0,0,0,0,0,0,0,0,0,0,0,0,0],"sum_hessian":[3.9617245E2,3.8490015E2,1.1272321E1,1.4657466E1,3.7024268E2,2.0961056E0,9.176215E0,2.3808427E0,1.2276623E1,1.510471E1,3.5513797E2,1.0470729E0,1.0490327E0,1.2668749E0,7.9093404E0,1.2778732E0,1.1029694E0,1.05477915E1,1.7288319E0,1.4094048E1,1.0106617E0,3.5213434E2,3.0036392E0,1.2816862E1,1.2771852E0,3.4787888E2,4.255458E0,1.1621945E1,1.1949168E0,5.098498E0,3.4278036E2],"tree_param":{"num_deleted":"0","num_feature":"38","num_nodes":"31","size_leaf_vector":"0"}},{"base_weights":[-2.6444374E-2,-9.550053E-1,-9.034783E-3,-1.0859915E0,-9.529461E-2,1.1947281E-2,-7.2754484E-1,2.9724618E-2,-8.4169465E-1,-8.625386E-1,7.1458526E-2,4.3550674E-2,-9.525379E-1,-1.0294497E0,4.5958728E-2,-2.445372E-4,5.139686E-1,-1.948713E-1,7.807213E-2,7.1897024E-1,-2.480677E-1],"categories":[],"categories_nodes":[],"categories_segments":[],"categories_sizes":[],"default_left":[0,1,1,0,0,1,1,1,0,0,0,1,0,0,0,1,1,0,0,0,0],"id":18,"left_children":[1,3,5,-1,-1,7,9,11,-1,13,-1,15,-1,-1,-1,17,19,-1,-1,-1,-1],"loss_changes":[6.3054256E0,7.049012E-1,5.8038497E0,0E0,0E0,5.707899E0,1.2397947E0,5.0365644E0,0E0,1.4758615E0,0E0,7.4921684E0,0E0,0E0,0E0,5.1013746E0,5.016877E0,0E0,0E0,0E0,0E0],"parents":[2147483647,0,0,1,1,2,2,5,5,6,6,7,7,9,9,11,11,15,15,16,16],"right_children":[2,4,6,-1,-1,8,10,12,-1,14,-1,16,-1,-1,-1,18,20,-1,-1,-1,-1],"split_conditions":[9.520001E0,7E-2,2.915E0,-3.2579747E-1,-2.8588384E-2,4.5499998E-1,3.2665E0,5.775E0,-2.525084E-1,5.9700003E0,2.143756E-2,3.85E-1,-2.857614E-1,-3.088349E-1,1.3787619E-2,1.658E0,1.165E0,-5.8461394E-2,2.342164E-2,2.1569107E-1,-7.442032E-2],"split_indices":[15,1,5,0,0,26,37,1,0,5,0,1,0,0,0,37,4,0,0,0,0],"split_type":[0,0,0,0,0,0,0,0,0,0,0,0,0,0,0,0,0,0,0,0,0],"sum_hessian":[3.895794E2,6.178652E0,3.8340076E2,5.1333275E0,1.0453243E0,3.7347775E2,9.922994E0,3.6680414E2,6.673622E0,8.420765E0,1.5022284E0,3.6265515E2,4.148971E0,7.001331E0,1.4194343E0,3.326824E2,2.997276E1,9.5030754E1,2.3765164E2,2.366339E1,6.309369E0],"tree_param":{"num_deleted":"0","num_feature":"38","num_nodes":"21","size_leaf_vector":"0"}},{"base_weights":[-2.3179539E-2,-2.0915237E-3,-6.561943E-1,1.6388154E-2,-7.360182E-1,-8.577776E-1,5.894304E-1,3.6442883E-2,-6.694625E-1,-8.5469145E-1,-4.755929E-2,-1.0059015E0,1.4504236E-1,6.7701526E-2,-4.7519773E-1,-1.005475E0,4.6365085E-1,-1.893589E-1,-9.6523106E-1,1.0214349E-1,-5.0522697E-1,-6.0209614E-1,3.2087767E-1,1.1890347E-1,-8.829971E-1,6.036405E-1,-6.386172E-1,-8.6333364E-1,-2.4547336E-1,6.590809E-1,-1.4151745E-1],"categories":[],"categories_nodes":[],"categories_segments":[],"categories_sizes":[],"default_left":[1,1,1,1,1,0,0,1,1,1,0,0,0,1,1,0,0,0,0,1,0,0,0,0,0,0,0,0,0,0,0],"id":19,"left_children":[1,3,5,7,9,11,-1,13,15,17,-1,-1,-1,19,21,-1,-1,-1,-1,23,25,27,29,-1,-1,-1,-1,-1,-1,-1,-1],"loss_changes":[5.0937877E0,5.0355E0,3.5946622E0,5.0072136E0,7.043667E-1,1.7792549E0,0E0,5.676541E0,4.404414E0,3.8492966E-1,0E0,0E0,0E0,6.632057E0,2.258573E0,0E0,0E0,0E0,0E0,5.3125362E0,3.2074513E0,1.4633121E0,6.3487554E-1,0E0,0E0,0E0,0E0,0E0,0E0,0E0,0E0],"parents":[2147483647,0,0,1,1,2,2,3,3,4,4,5,5,7,7,8,8,9,9,13,13,14,14,19,19,20,20,21,21,22,22],"right_children":[2,4,6,8,10,12,-1,14,16,18,-1,-1,-1,20,22,-1,-1,-1,-1,24,26,28,30,-1,-1,-1,-1,-1,-1,-1,-1],"split_conditions":[4.85E-1,4.45E-1,8.6E-1,6.12E-1,3.0205002E0,1.1475E0,1.7682913E-1,5.5E-2,5.2745E0,1.2965E0,-1.4267788E-2,-3.0177045E-1,4.351271E-2,1.05000004E-1,1.55E-2,-3.0164254E-1,1.3909526E-1,-5.6807674E-2,-2.8956932E-1,3.85E-1,9.15E-1,2.2150001E-1,3.9E-1,3.5671044E-2,-2.6489913E-1,1.8109216E-1,-1.9158517E-1,-2.590001E-1,-7.364201E-2,1.9772428E-1,-4.2455234E-2],"split_indices":[12,28,30,34,37,34,0,17,37,37,0,0,0,30,36,0,0,0,0,27,20,34,17,0,0,0,0,0,0,0,0],"split_type":[0,0,0,0,0,0,0,0,0,0,0,0,0,0,0,0,0,0,0,0,0,0,0,0,0,0,0,0,0,0,0],"sum_hessian":[3.8068777E2,3.6938553E2,1.1302264E1,3.6126678E2,8.118733E0,9.995956E0,1.3063082E0,3.519232E2,9.343602E0,6.7190757E0,1.3996578E0,8.706821E0,1.2891346E0,3.3247812E2,1.9445051E1,7.2934523E0,2.05015E0,1.3438076E0,5.3752685E0,3.1439954E2,1.807861E1,1.6981745E1,2.4633062E0,3.100048E2,4.3947425E0,1.5626864E0,1.6515923E1,8.981588E0,8.000156E0,1.1770383E0,1.286268E0],"tree_param":{"num_deleted":"0","num_feature":"38","num_nodes":"31","size_leaf_vector":"0"}}]},"name":"gbtree"},"learner_model_param":{"base_score":"5E-1","num_class":"0","num_feature":"38","num_target":"1"},"objective":{"name":"reg:squarederror","reg_loss_param":{"scale_pos_weight":"1"}}},"version":[1,6,2]}