{"learner":{"attributes":{"best_ntree_limit":"1"},"feature_names":[],"feature_types":["q","q","q","q","q","q","q","q","q","q","q","q","q","q","c","c","c","c","c","c","c","c","c","c","c","c","c","c","c","c"],"gradient_booster":{"model":{"gbtree_model_param":{"num_parallel_tree":"1","num_trees":"1","size_leaf_vector":"0"},"tree_info":[0],"trees":[{"base_weights":[1.9002993E-1,-1.7766391E0,1.3375293E0,-2.1226795E0,-9.596622E-1,8.237017E-1,4.3964654E-1,-2.2035146E0,-1.4908382E-1,-1.7568351E-1,-1.6762439E0,3.0869013E-2,9.1265845E-1,-2.0897043E-1,-6.8787825E-1,5.034074E-1,-3.6697766E-1,-5.816753E-1,-7.42172E-2,1.079043E0,3.0337638E-1,-3.993714E-2,2.8710338E-1,3.726206E-1,5.031295E-1,2.506684E-1,-8.905071E-2,-7.42172E-2,2.7070844E-1],"categories":[0,1,3],"categories_nodes":[9],"categories_segments":[0],"categories_sizes":[3],"default_left":[1,1,0,0,0,0,0,0,0,0,0,0,0,0,0,0,0,0,0,0,0,0,0,0,0,0,0,0,0],"id":0,"left_children":[1,3,5,7,9,11,-1,13,-1,15,17,-1,19,-1,-1,21,-1,-1,-1,23,25,-1,-1,-1,27,-1,-1,-1,-1],"loss_changes":[1.8368016E2,6.453308E0,2.166191E0,1.5689697E0,5.7508087E0,7.0841885E-1,0E0,9.6559143E-1,0E0,5.0662074E0,1.5864859E0,0E0,7.889023E-1,0E0,0E0,1.4278269E0,0E0,0E0,0E0,1.5041924E-1,1.4468439E0,0E0,0E0,0E0,1.2727824E0,0E0,0E0,0E0,0E0],"parents":[2147483647,0,0,1,1,2,2,3,3,4,4,5,5,7,7,9,9,10,10,12,12,15,15,19,19,20,20,24,24],"right_children":[2,4,6,8,10,12,-1,14,-1,16,18,-1,20,-1,-1,22,-1,-1,-1,24,26,-1,-1,-1,28,-1,-1,-1,-1],"split_conditions":[1E1,9E0,1.1E1,4E0,1.1E1,2E0,4.3964654E-1,2E0,-1.4908382E-1,NaN,5E0,3.0869013E-2,2.6E1,-2.0897043E-1,-6.8787825E-1,5E0,-3.6697766E-1,-5.816753E-1,-7.42172E-2,4E0,3E0,-3.993714E-2,2.8710338E-1,3.726206E-1,2E0,2.506684E-1,-8.905071E-2,-7.42172E-2,2.7070844E-1],"split_indices":[13,13,12,2,11,0,0,7,0,19,6,0,11,0,0,5,0,0,0,7,7,0,0,0,8,0,0,0,0],"split_type":[0,0,0,0,0,0,0,0,0,1,0,0,0,0,0,0,0,0,0,0,0,0,0,0,0,0,0,0,0],"sum_hessian":[7.9338425E1,2.9032358E1,5.030607E1,1.9271479E1,9.7608795E0,1.1512832E1,3.8793236E1,1.8020084E1,1.2513947E0,5.255858E0,4.505021E0,1.5016737E0,1.0011158E1,1.5016737E0,1.651841E1,3.5039053E0,1.7519526E0,3.5039053E0,1.0011158E0,7.2580895E0,2.7530684E0,1.7519526E0,1.7519526E0,4.7553E0,2.5027895E0,1.2513947E0,1.5016737E0,1.0011158E0,1.5016737E0],"tree_param":{"num_deleted":"0","num_feature":"30","num_nodes":"29","size_leaf_vector":"0"}}]},"name":"gbtree"},"learner_model_param":{"base_score":"5E-1","num_class":"0","num_feature":"30","num_target":"1"},"objective":{"name":"reg:squarederror","reg_loss_param":{"scale_pos_weight":"1"}}},"version":[1,6,2]}