{"learner":{"attributes":{"best_ntree_limit":"7"},"feature_names":[],"feature_types":["q","q","q","q","q","q","q","q","q","q","q","q","q","q","c","c","c","c","c","c","c","c","c","c","c","c","c","c","c","c"],"gradient_booster":{"model":{"gbtree_model_param":{"num_parallel_tree":"1","num_trees":"2","size_leaf_vector":"0"},"tree_info":[0,0],"trees":[{"base_weights":[9.1740596E-1,-2.0143058E0,1.3080406E0,-6.8439186E-1,-7.467467E-1,2.4992405E-1,1.4839468E0,-4.857386E-1,1.5495926E-1,-3.241923E-1,7.0120573E-1,8.463221E-1,4.5684657E-1,8.969616E-3,-3.3493608E-1,3.4708196E-1,-7.286072E-2,3.4223893E-1,-3.982207E-2,-5.052352E-1,5.8865154E-1,-2.6278034E-1,2.0667088E-1,-3.0480835E-1,1.2061628E-1,2.774331E-1,-1.5258272E-2],"categories":[1],"categories_nodes":[4],"categories_segments":[0],"categories_sizes":[1],"default_left":[1,0,0,0,0,0,0,0,0,1,0,0,0,0,0,0,0,0,0,0,0,0,0,0,0,0,0],"id":0,"left_children":[1,3,5,-1,7,9,11,-1,-1,13,15,17,-1,19,-1,-1,21,-1,-1,23,25,-1,-1,-1,-1,-1,-1],"loss_changes":[1.4737103E2,3.4587975E0,2.0499527E1,0E0,5.3995104E0,4.6800447E0,1.089386E0,0E0,0E0,2.186956E0,3.5903206E0,2.3899589E0,0E0,2.3237264E0,0E0,0E0,3.4320278E0,0E0,0E0,2.3273997E0,8.3322144E-1,0E0,0E0,0E0,0E0,0E0,0E0],"parents":[2147483647,0,0,1,1,2,2,4,4,5,5,6,6,9,9,10,10,11,11,13,13,16,16,19,19,20,20],"right_children":[2,4,6,-1,8,10,12,-1,-1,14,16,18,-1,20,-1,-1,22,-1,-1,24,26,-1,-1,-1,-1,-1,-1],"split_conditions":[9E0,9E0,1E1,-6.8439186E-1,NaN,1E1,1E1,-4.857386E-1,1.5495926E-1,1E1,3E0,5E0,4.5684657E-1,2E0,-3.3493608E-1,3.4708196E-1,4E0,3.4223893E-1,-3.982207E-2,6E0,2E0,-2.6278034E-1,2.0667088E-1,-3.0480835E-1,1.2061628E-1,2.774331E-1,-1.5258272E-2],"split_indices":[13,12,12,0,16,13,13,0,0,11,9,5,0,8,0,0,10,0,0,11,3,0,0,0,0,0,0],"split_type":[0,0,0,0,1,0,0,0,0,0,0,0,0,0,0,0,0,0,0,0,0,0,0,0,0,0,0],"sum_hessian":[1.25381996E2,1.4253445E1,1.11128555E2,1.1112855E1,3.1405895E0,1.6186115E1,9.494244E1,1.6910866E0,1.4495028E0,7.2475142E0,8.938601E0,6.7643466E0,8.817809E1,5.7980113E0,1.4495028E0,5.3148437E0,3.6237571E0,5.07326E0,1.6910866E0,3.1405895E0,2.6574218E0,1.6910866E0,1.9326705E0,1.9326705E0,1.207919E0,1.4495028E0,1.207919E0],"tree_param":{"num_deleted":"0","num_feature":"30","num_nodes":"27","size_leaf_vector":"0"}},{"base_weights":[7.4410146E-1,-1.4720671E0,1.0918349E0,-5.0131786E-1,-7.461691E-1,1.9865547E-1,1.2586055E0,-4.6190593E-1,1.5840429E-1,-1.8309357E-2,3.0894467E-1,5.978541E-1,3.8709506E-1,4.5517843E-2,-3.374135E-1,3.1105074E-1,-1.1207042E-1],"categories":[1,1],"categories_nodes":[1,9],"categories_segments":[0,1],"categories_sizes":[1,1],"default_left":[1,0,0,0,0,0,0,0,0,0,0,0,0,0,0,0,0],"id":1,"left_children":[1,3,5,-1,7,9,11,-1,-1,13,-1,15,-1,-1,-1,-1,-1],"loss_changes":[8.855992E1,1.0251236E0,1.4363068E1,0E0,6.061404E0,3.016491E0,9.568176E-1,0E0,0E0,2.8353605E0,0E0,2.7926762E0,0E0,0E0,0E0,0E0,0E0],"parents":[2147483647,0,0,1,1,2,2,4,4,5,5,6,6,9,9,11,11],"right_children":[2,4,6,-1,8,10,12,-1,-1,14,-1,16,-1,-1,-1,-1,-1],"split_conditions":[9E0,NaN,1E1,-5.0131786E-1,4E0,1.1E1,6.00001E0,-4.6190593E-1,1.5840429E-1,NaN,3.0894467E-1,5E0,3.8709506E-1,4.5517843E-2,-3.374135E-1,3.1105074E-1,-1.1207042E-1],"split_indices":[13,16,12,0,11,13,4,0,0,24,0,7,0,0,0,0,0],"split_type":[0,1,0,0,0,0,0,0,0,1,0,0,0,0,0,0,0],"sum_hessian":[1.1183234E2,1.4728923E1,9.710342E1,1.0538043E1,4.19088E0,1.5622826E1,8.148059E1,2.4541495E0,1.7367303E0,1.3164385E1,2.4584408E0,4.6405754E0,7.684001E1,1.2158667E1,1.005718E0,3.1498382E0,1.4907372E0],"tree_param":{"num_deleted":"0","num_feature":"30","num_nodes":"17","size_leaf_vector":"0"}}]},"name":"gbtree"},"learner_model_param":{"base_score":"5E-1","num_class":"0","num_feature":"30","num_target":"1"},"objective":{"name":"reg:squarederror","reg_loss_param":{"scale_pos_weight":"1"}}},"version":[1,6,2]}