{"learner":{"attributes":{"best_ntree_limit":"13"},"feature_names":[],"feature_types":["q","q","q","q","q","q","q","q","q","q","q","q","q","q","c","c","c","c","c","c","c","c","c","c","c","c","c","c","c","c","c","c"],"gradient_booster":{"model":{"gbtree_model_param":{"num_parallel_tree":"1","num_trees":"13","size_leaf_vector":"0"},"tree_info":[0,0,0,0,0,0,0,0,0,0,0,0,0],"trees":[{"base_weights":[9.428844E-1,-2.2214415E0,1.3121063E0,-7.037405E-1,-1.5341894E-1,1.9611205E-1,1.5145721E0,-3.6030534E-1,7.188144E-1,7.910462E-1,4.6620435E-1,1.1477437E-1,-3.7831762E-1,-2.3627426E-1,1.0992899E0,3.8070855E-1,-5.7989832E-2,2.997458E-1,-3.342551E-1,-2.1594276E-1,1.2244079E-1,3.937702E-1,7.290491E-2,1.8632534E-1,-2.7247164E-1],"categories":[1],"categories_nodes":[18],"categories_segments":[0],"categories_sizes":[1],"default_left":[1,1,0,0,0,0,0,0,0,0,0,0,0,0,0,0,0,0,0,0,0,0,0,0,0],"id":0,"left_children":[1,3,5,-1,-1,7,9,11,13,15,-1,17,-1,19,21,-1,-1,-1,23,-1,-1,-1,-1,-1,-1],"loss_changes":[1.4658174E2,1.6117859E0,2.4726273E1,0E0,0E0,5.5392838E0,1.4415894E0,4.193009E0,3.7828283E0,3.480031E0,0E0,3.1574755E0,0E0,1.4108602E0,9.794979E-1,0E0,0E0,0E0,3.56086E0,0E0,0E0,0E0,0E0,0E0,0E0],"parents":[2147483647,0,0,1,1,2,2,5,5,6,6,7,7,8,8,9,9,11,11,13,13,14,14,18,18],"right_children":[2,4,6,-1,-1,8,10,12,14,16,-1,18,-1,20,22,-1,-1,-1,24,-1,-1,-1,-1,-1,-1],"split_conditions":[9E0,1.4E1,1E1,-7.037405E-1,-1.5341894E-1,1E1,1E1,5E0,9E0,5E0,4.6620435E-1,3E0,-3.7831762E-1,2E0,2.2E1,3.8070855E-1,-5.7989832E-2,2.997458E-1,NaN,-2.1594276E-1,1.2244079E-1,3.937702E-1,7.290491E-2,1.8632534E-1,-2.7247164E-1],"split_indices":[13,11,12,0,0,13,13,5,12,10,0,4,0,3,11,0,0,0,30,0,0,0,0,0,0],"split_type":[0,0,0,0,0,0,0,0,0,0,0,0,0,0,0,0,0,0,1,0,0,0,0,0,0],"sum_hessian":[1.2196693E2,1.2220193E1,1.09746735E2,1.1045175E1,1.1750185E0,1.7155272E1,9.259146E1,8.460134E0,8.695137E0,5.8750925E0,8.671637E1,6.1100965E0,2.350037E0,2.5850408E0,6.1100965E0,3.7600594E0,2.1150334E0,1.645026E0,4.4650707E0,1.4100223E0,1.1750185E0,4.4650707E0,1.645026E0,1.645026E0,2.8200445E0],"tree_param":{"num_deleted":"0","num_feature":"32","num_nodes":"25","size_leaf_vector":"0"}},{"base_weights":[7.79054E-1,-1.5202341E0,1.0993148E0,-1.5623489E-1,-4.8579052E-1,2.0512475E-1,1.2843616E0,4.1707715E-1,-2.4467471E-1,6.5186125E-1,3.965591E-1,-1.9722998E-1,9.101832E-1,3.2599583E-1,-4.567788E-2,1.2805833E-1,-6.426931E-1,1.4541371E-1,1.1995058E0,-6.1403656E-1,7.5121194E-2,5.032931E-1,9.1444105E-2],"categories":[1,1,1],"categories_nodes":[11,12,18],"categories_segments":[0,1,2],"categories_sizes":[1,1,1],"default_left":[1,0,0,0,0,0,0,0,0,0,0,0,0,0,0,0,1,0,0,0,0,0,0],"id":1,"left_children":[1,3,5,-1,-1,7,9,11,-1,13,-1,15,17,-1,-1,-1,19,-1,21,-1,-1,-1,-1],"loss_changes":[8.251592E1,5.272484E-1,1.5777885E1,0E0,0E0,4.193735E0,1.039093E0,4.847887E0,0E0,2.4234033E0,0E0,2.410624E0,4.9287653E-1,0E0,0E0,0E0,6.635626E0,0E0,1.4207578E0,0E0,0E0,0E0,0E0],"parents":[2147483647,0,0,1,1,2,2,5,5,6,6,7,7,9,9,11,11,12,12,16,16,18,18],"right_children":[2,4,6,-1,-1,8,10,12,-1,14,-1,16,18,-1,-1,-1,20,-1,22,-1,-1,-1,-1],"split_conditions":[9E0,2E0,1E1,-1.5623489E-1,-4.8579052E-1,4E0,1E1,9E0,-2.4467471E-1,5E0,3.965591E-1,NaN,NaN,3.2599583E-1,-4.567788E-2,1.2805833E-1,4E0,1.4541371E-1,NaN,-6.1403656E-1,7.5121194E-2,5.032931E-1,9.1444105E-2],"split_indices":[13,7,12,0,0,1,13,12,0,10,0,27,27,0,0,0,10,0,22,0,0,0,0],"split_type":[0,0,0,0,0,0,0,0,0,0,0,1,1,0,0,0,0,0,1,0,0,0,0],"sum_hessian":[1.08787895E2,1.2842104E1,9.594579E1,1.722398E0,1.1119706E1,1.6812471E1,7.9133316E1,1.4411311E1,2.4011612E0,5.458205E0,7.367511E1,6.6842084E0,7.7271028E0,3.3146207E0,2.1435847E0,2.8013263E0,3.882882E0,4.210531E0,3.5165713E0,1.0073597E0,2.8755224E0,1.7214785E0,1.7950928E0],"tree_param":{"num_deleted":"0","num_feature":"32","num_nodes":"23","size_leaf_vector":"0"}},{"base_weights":[6.9286144E-1,-1.2174326E0,9.811836E-1,-1.3058151E0,-6.565678E-2,2.0217592E-1,1.1320622E0,-1.1493835E-1,-4.113379E-1,5.79449E-1,-6.4476484E-1,8.22934E-2,1.1733377E0,7.716479E-1,-7.843606E-2,5.9921187E-3,-3.4233648E-1,-1.2473321E-1,1.7876087E-1,1.3931014E-1,1.1861893E0,3.6558622E-1,2.2734424E-1,8.3399916E-1,3.7049243E-1,-1.8836926E-1,2.0987381E-1,2.9522827E-1,-8.26262E-2],"categories":[1],"categories_nodes":[22],"categories_segments":[0],"categories_sizes":[1],"default_left":[1,1,0,0,0,0,0,0,0,1,1,0,0,0,0,0,0,0,0,0,0,0,0,0,0,0,0,0,0],"id":2,"left_children":[1,3,5,7,-1,9,11,-1,-1,13,15,17,19,21,-1,-1,-1,-1,-1,-1,23,-1,25,27,-1,-1,-1,-1,-1],"loss_changes":[5.30668E1,8.436184E-1,9.454041E0,1.7100334E-1,0E0,5.033745E0,2.8844528E0,0E0,0E0,1.9176011E0,1.6619365E0,1.188609E0,5.1620483E-2,1.8868904E0,0E0,0E0,0E0,0E0,0E0,0E0,7.481384E-2,0E0,2.5555449E0,2.0866032E0,0E0,0E0,0E0,0E0,0E0],"parents":[2147483647,0,0,1,1,2,2,3,3,5,5,6,6,9,9,10,10,11,11,12,12,13,13,20,20,22,22,23,23],"right_children":[2,4,6,8,-1,10,12,-1,-1,14,16,18,20,22,-1,-1,-1,-1,-1,-1,24,-1,26,28,-1,-1,-1,-1,-1],"split_conditions":[9E0,1.4E1,1E1,2E0,-6.565678E-2,5E0,9E0,-1.1493835E-1,-4.113379E-1,4E0,5E0,2E0,2E0,4E0,-7.843606E-2,5.9921187E-3,-3.4233648E-1,-1.2473321E-1,1.7876087E-1,1.3931014E-1,1.1E1,3.6558622E-1,NaN,5E0,3.7049243E-1,-1.8836926E-1,2.0987381E-1,2.9522827E-1,-8.26262E-2],"split_indices":[13,11,13,5,0,5,12,0,0,1,11,3,5,6,0,0,0,0,0,0,13,0,28,6,0,0,0,0,0],"split_type":[0,0,0,0,0,0,0,0,0,0,0,0,0,0,0,0,0,0,0,0,0,0,1,0,0,0,0,0,0],"sum_hessian":[9.317965E1,1.1796803E1,8.138284E1,1.0554927E1,1.2418764E0,1.358444E1,6.77984E1,1.1516144E0,9.403313E0,9.616546E0,3.9678948E0,2.678147E0,6.5120255E1,7.894513E0,1.7220329E0,2.106523E0,1.8613716E0,1.4562702E0,1.2218769E0,1.820557E0,6.3299698E1,3.6545756E0,4.2399373E0,9.903073E0,5.3396626E1,1.3910488E0,2.8488886E0,8.822438E0,1.0806359E0],"tree_param":{"num_deleted":"0","num_feature":"32","num_nodes":"29","size_leaf_vector":"0"}},{"base_weights":[5.998616E-1,-4.2186368E-1,1.0303587E0,-1.0423423E0,1.150722E-1,7.328207E-2,1.0765964E0,-1.130121E0,-5.479079E-2,4.215202E-1,-5.20488E-1,-1.18631795E-1,1.7049208E-1,7.268152E-1,1.1305138E0,-9.852776E-2,-3.5794324E-1,5.5981565E-1,-1.0252452E-1,-3.2713157E-1,-4.5795258E-2,3.158639E-1,9.742892E-2,8.190997E-2,3.4526432E-1,-3.051737E-3,8.0173135E-1,-2.1384245E-1,1.9489889E-1,2.6406318E-1,-3.4038365E-1,4.7481152E-1,4.4172846E-2],"categories":[1,1],"categories_nodes":[5,17],"categories_segments":[0,1],"categories_sizes":[1,1],"default_left":[1,1,0,1,0,0,0,0,0,1,0,0,0,0,0,0,0,0,0,0,0,0,0,0,0,0,1,0,0,0,0,0,0],"id":3,"left_children":[1,3,5,7,9,11,13,15,-1,17,19,-1,-1,21,23,-1,-1,25,-1,-1,27,-1,29,-1,-1,-1,31,-1,-1,-1,-1,-1,-1],"loss_changes":[3.5227085E1,8.1684E0,2.3967323E0,6.468401E-1,2.917203E0,1.0719025E0,1.8336487E-1,1.167469E-1,0E0,1.2361108E0,1.290254E0,0E0,0E0,1.9327822E0,4.607315E-1,0E0,0E0,1.2158878E0,0E0,0E0,2.2009933E0,0E0,5.325699E0,0E0,0E0,0E0,2.9163342E0,0E0,0E0,0E0,0E0,0E0,0E0],"parents":[2147483647,0,0,1,1,2,2,3,3,4,4,5,5,6,6,7,7,9,9,10,10,13,13,14,14,17,17,20,20,22,22,26,26],"right_children":[2,4,6,8,10,12,14,16,-1,18,20,-1,-1,22,24,-1,-1,26,-1,-1,28,-1,30,-1,-1,-1,32,-1,-1,-1,-1,-1,-1],"split_conditions":[1E1,9E0,9E0,1.4E1,5E0,NaN,1.1E1,2E0,-5.479079E-2,1E1,2E0,-1.18631795E-1,1.7049208E-1,2.2E1,2E0,-9.852776E-2,-3.5794324E-1,NaN,-1.0252452E-1,-3.2713157E-1,2E0,3.158639E-1,2E0,8.190997E-2,3.4526432E-1,-3.051737E-3,5E0,-2.1384245E-1,1.9489889E-1,2.6406318E-1,-3.4038365E-1,4.7481152E-1,4.4172846E-2],"split_indices":[13,13,12,11,5,30,13,5,0,11,3,0,0,11,5,0,0,28,0,0,2,0,8,0,0,0,10,0,0,0,0,0,0],"split_type":[0,0,0,0,0,1,0,0,0,0,0,0,0,0,0,0,0,1,0,0,0,0,0,0,0,0,0,0,0,0,0,0,0],"sum_hessian":[7.810069E1,2.3158129E1,5.4942562E1,1.0306612E1,1.2851516E1,2.65115E0,5.2291412E1,9.066365E0,1.2402469E0,8.897961E0,3.9535549E0,1.4650856E0,1.1860645E0,8.917928E0,4.3373486E1,1.1134715E0,7.9528937E0,7.7587247E0,1.1392363E0,1.2070899E0,2.746465E0,5.431288E0,3.4866407E0,1.3405505E0,4.2032932E1,2.5972295E0,5.1614947E0,1.3891683E0,1.3572967E0,2.3066618E0,1.1799788E0,1.7067134E0,3.4547815E0],"tree_param":{"num_deleted":"0","num_feature":"32","num_nodes":"33","size_leaf_vector":"0"}},{"base_weights":[5.118589E-1,-4.100656E-1,9.4126487E-1,-9.1672236E-1,1.190644E-2,-5.031153E-2,1.0033276E0,-5.831269E-2,-1.0247976E0,2.484453E-1,-1.3136771E-1,-1.494922E-1,1.44779E-1,6.312421E-1,1.0681114E0,-7.864477E-2,-3.3366266E-1,2.220715E-1,-1.1859523E0,2.8899497E-1,7.219423E-2,7.028051E-2,3.2781217E-1,-1.6259351E-1,4.353102E-1,-8.934835E-2,-4.527392E-1,2.3864236E-1,-2.549604E-1,-8.0979735E-2,2.0310827E-1],"categories":[0,1,2,3,4,1,0,1,2,3,4],"categories_nodes":[4,5,24],"categories_segments":[0,5,6],"categories_sizes":[5,1,5],"default_left":[1,1,0,0,0,0,0,0,0,0,0,0,0,0,0,0,0,0,0,0,0,0,0,0,0,0,0,0,0,0,0],"id":4,"left_children":[1,3,5,7,9,11,13,-1,15,-1,17,-1,-1,19,21,-1,-1,23,25,-1,27,-1,-1,-1,29,-1,-1,-1,-1,-1,-1],"loss_changes":[2.6452518E1,4.633091E0,2.8336143E0,5.6874657E-1,1.6036987E0,1.1038017E0,3.5285187E-1,0E0,2.6325226E-1,0E0,4.6381807E0,0E0,0E0,1.557343E0,4.586563E-1,0E0,0E0,1.8054202E0,4.4144583E-1,0E0,3.5748897E0,0E0,0E0,0E0,1.561146E0,0E0,0E0,0E0,0E0,0E0,0E0],"parents":[2147483647,0,0,1,1,2,2,3,3,4,4,5,5,6,6,8,8,10,10,13,13,14,14,17,17,18,18,20,20,24,24],"right_children":[2,4,6,8,10,12,14,-1,16,-1,18,-1,-1,20,22,-1,-1,24,26,-1,28,-1,-1,-1,30,-1,-1,-1,-1,-1,-1],"split_conditions":[1E1,9E0,9E0,2E0,NaN,NaN,1.1E1,-5.831269E-2,3E0,2.484453E-1,5E0,-1.494922E-1,1.44779E-1,2.2E1,2E0,-7.864477E-2,-3.3366266E-1,3E0,2E0,2.8899497E-1,2E0,7.028051E-2,3.2781217E-1,-1.6259351E-1,NaN,-8.934835E-2,-4.527392E-1,2.3864236E-1,-2.549604E-1,-8.0979735E-2,2.0310827E-1],"split_indices":[13,13,12,7,21,30,13,0,6,0,7,0,0,11,5,0,0,11,1,0,8,0,0,0,20,0,0,0,0,0,0],"split_type":[0,0,0,0,1,1,0,0,0,0,0,0,0,0,0,0,0,0,0,0,0,0,0,0,1,0,0,0,0,0,0],"sum_hessian":[6.484456E1,2.0619667E1,4.4224895E1,8.83687E0,1.1782796E1,2.6161427E0,4.1608753E1,1.5142875E0,7.3225827E0,1.0456214E0,1.0737175E1,1.4565796E0,1.1595633E0,7.763417E0,3.3845337E1,1.1641965E0,6.158386E0,8.633215E0,2.1039598E0,4.416737E0,3.34668E0,1.2712779E0,3.257406E1,1.5473381E0,7.085877E0,1.0740176E0,1.0299423E0,1.9524412E0,1.3942387E0,1.778918E0,5.3069587E0],"tree_param":{"num_deleted":"0","num_feature":"32","num_nodes":"31","size_leaf_vector":"0"}},{"base_weights":[4.4163275E-1,-3.0642042E-1,8.946455E-1,-7.821101E-1,-1.9898146E-2,2.1874155E-3,9.6573174E-1,-9.34978E-1,-2.9238968E-3,-3.8754943E-1,2.9094398E-1,1.1871547E-1,-1.4535151E-1,3.1274262E-1,1.0030677E0,-6.883431E-2,-1.0329838E0,2.1910994E-1,-3.114149E-1,-7.752767E-2,5.6260407E-1,-4.7281593E-2,1.8002513E-1,3.123967E-1,4.586389E-1,-1.12912714E-1,-3.606412E-1,2.2489476E-1,-1.8673483E-1,3.838687E-1,-1.4407033E-1,-4.6806924E-2,2.2676122E-1,-1.5492274E-1,6.659837E-2,8.112738E-2,-1.7892504E-1],"categories":[1,1],"categories_nodes":[7,10],"categories_segments":[0,1],"categories_sizes":[1,1],"default_left":[0,1,0,0,0,0,0,0,0,0,0,0,0,0,0,0,0,0,0,0,1,0,0,0,0,0,0,0,1,0,0,0,0,0,0,0,0],"id":5,"left_children":[1,3,5,7,9,11,13,15,-1,17,19,-1,-1,21,23,-1,25,27,-1,-1,29,-1,-1,-1,31,-1,-1,-1,33,-1,35,-1,-1,-1,-1,-1,-1],"loss_changes":[1.9150518E1,2.9494894E0,2.215046E0,9.533472E-1,1.7816001E0,8.7751293E-1,4.754181E-1,2.3278141E-1,0E0,3.0368066E0,1.4115577E0,0E0,0E0,5.275469E-1,1.5063095E-1,0E0,1.7841291E-1,1.1109141E0,0E0,0E0,3.2200232E0,0E0,0E0,0E0,8.062353E-1,0E0,0E0,0E0,5.667821E-1,0E0,8.9556205E-1,0E0,0E0,0E0,0E0,0E0,0E0],"parents":[2147483647,0,0,1,1,2,2,3,3,4,4,5,5,6,6,7,7,9,9,10,10,13,13,14,14,16,16,17,17,20,20,24,24,28,28,30,30],"right_children":[2,4,6,8,10,12,14,16,-1,18,20,-1,-1,22,24,-1,26,28,-1,-1,30,-1,-1,-1,32,-1,-1,-1,34,-1,36,-1,-1,-1,-1,-1,-1],"split_conditions":[1E1,9E0,6.00001E0,9E0,2E0,1.8E1,2E0,NaN,-2.9238968E-3,2E0,NaN,1.1871547E-1,-1.4535151E-1,1.2E1,5E0,-6.883431E-2,5E0,5E0,-3.114149E-1,-7.752767E-2,3E0,-4.7281593E-2,1.8002513E-1,3.123967E-1,1.1E1,-1.12912714E-1,-3.606412E-1,2.2489476E-1,6E0,3.838687E-1,5E0,-4.6806924E-2,2.2676122E-1,-1.5492274E-1,6.659837E-2,8.112738E-2,-1.7892504E-1],"split_indices":[12,13,4,12,2,11,7,28,0,8,30,0,0,12,6,0,11,11,0,0,2,0,0,0,12,0,0,0,11,0,5,0,0,0,0,0,0],"split_type":[0,0,0,0,0,0,0,1,0,0,1,0,0,0,0,0,0,0,0,0,0,0,0,0,0,0,0,0,0,0,0,0,0,0,0,0,0],"sum_hessian":[5.470265E1,2.0754557E1,3.3948093E1,7.1516266E0,1.360293E1,2.5805929E0,3.13675E1,5.7942705E0,1.3573558E0,6.118934E0,7.483996E0,1.5302131E0,1.0503796E0,2.203622E0,2.9163877E1,1.1142318E0,4.6800385E0,3.5093067E0,2.6096277E0,2.4924037E0,4.9915924E0,1.0069133E0,1.1967088E0,2.6396427E1,2.7674499E0,1.6193228E0,3.060716E0,1.1538314E0,2.3554752E0,2.0753546E0,2.9162378E0,1.0569024E0,1.7105474E0,1.1580011E0,1.1974741E0,1.7316566E0,1.1845812E0],"tree_param":{"num_deleted":"0","num_feature":"32","num_nodes":"37","size_leaf_vector":"0"}},{"base_weights":[3.6671385E-1,-3.5512903E-1,7.941901E-1,-6.331015E-1,-2.351184E-2,-2.56771E-1,8.949774E-1,-3.4674096E-1,-3.2756445E-1,5.456377E-1,-2.7100202E-1,-2.06502E-1,1.1091834E-1,5.106037E-1,9.7849023E-1,-2.9844463E-1,5.6645125E-1,1.9623531E-1,5.3141307E-2,1.0398783E-1,-4.9059027E-1,2.573872E-1,1.2165243E-2,2.445349E-2,3.0548757E-1,5.333116E-1,-1.4043623E-1,-9.881287E-1,4.563632E-2,2.0086451E-1,-1.8705535E-1,-3.9001527E-1,-5.489758E-2,1.08847775E-1,-6.6926315E-2],"categories":[0,1,2,3,4,1,0,1,3,4,1,1],"categories_nodes":[3,5,9,10,28],"categories_segments":[0,5,6,10,11],"categories_sizes":[5,1,4,1,1],"default_left":[1,0,0,0,0,0,0,0,0,0,0,0,0,0,0,0,1,0,0,0,1,0,0,0,0,0,0,1,0,0,0,0,0,0,0],"id":6,"left_children":[1,3,5,7,9,11,13,-1,15,17,19,-1,-1,21,23,-1,25,-1,-1,-1,27,-1,29,-1,-1,-1,-1,31,33,-1,-1,-1,-1,-1,-1],"loss_changes":[1.4988569E1,1.6828632E0,3.4331932E0,1.2153578E0,1.4771564E0,1.1801413E0,3.933735E-1,0E0,5.153409E0,1.1723876E-2,1.152672E0,0E0,0E0,1.2113189E0,6.939354E-1,0E0,5.751408E0,0E0,0E0,0E0,1.5815351E0,0E0,2.052441E0,0E0,0E0,0E0,0E0,5.233984E-1,3.9866513E-1,0E0,0E0,0E0,0E0,0E0,0E0],"parents":[2147483647,0,0,1,1,2,2,3,3,4,4,5,5,6,6,8,8,9,9,10,10,13,13,14,14,16,16,20,20,22,22,27,27,28,28],"right_children":[2,4,6,8,10,12,14,-1,16,18,20,-1,-1,22,24,-1,26,-1,-1,-1,28,-1,30,-1,-1,-1,-1,32,34,-1,-1,-1,-1,-1,-1],"split_conditions":[1E1,9E0,9E0,NaN,4E0,NaN,1.1E1,-3.4674096E-1,2E0,NaN,NaN,-2.06502E-1,1.1091834E-1,2.2E1,2E0,-2.9844463E-1,3E0,1.9623531E-1,5.3141307E-2,1.0398783E-1,3E0,2.573872E-1,2E0,2.445349E-2,3.0548757E-1,5.333116E-1,-1.4043623E-1,3E0,NaN,2.0086451E-1,-1.8705535E-1,-3.9001527E-1,-5.489758E-2,1.08847775E-1,-6.6926315E-2],"split_indices":[13,12,12,20,10,30,13,0,2,21,30,0,0,11,5,0,9,0,0,0,9,0,8,0,0,0,0,0,17,0,0,0,0,0,0],"split_type":[0,0,0,1,0,1,0,0,0,1,1,0,0,0,0,0,0,0,0,0,0,0,0,0,0,0,0,0,1,0,0,0,0,0,0],"sum_hessian":[4.6660152E1,1.7417665E1,2.9242489E1,8.980652E0,8.437013E0,2.4235213E0,2.6818968E1,2.2863646E0,6.694288E0,2.1918237E0,6.2451887E0,1.3765581E0,1.0469631E0,6.056691E0,2.0762278E1,3.7687342E0,2.9255536E0,1.0945309E0,1.0972927E0,1.4862733E0,4.7589154E0,3.1442351E0,2.912456E0,1.011642E0,1.9750635E1,1.0168029E0,1.9087507E0,2.0313659E0,2.7275498E0,1.4055998E0,1.5068561E0,1.0210862E0,1.0102798E0,1.0903592E0,1.6371906E0],"tree_param":{"num_deleted":"0","num_feature":"32","num_nodes":"35","size_leaf_vector":"0"}},{"base_weights":[2.763708E-1,-6.5612876E-1,6.393249E-1,-7.82899E-1,2.8606507E-3,2.335448E-1,9.541746E-1,-5.3857755E-2,-8.892392E-1,4.5306027E-1,-2.1236375E-1,1.7418439E-2,3.0277863E-1,-1.3837384E-1,-1.1190132E0,9.1028965E-1,6.134832E-2,-6.015185E-1,1.12694606E-1,5.6979313E-2,-1.14449866E-1,-1.0718441E-1,-3.9308137E-1,8.427749E-2,3.066034E-1,-1.8295342E-1,4.7651592E-1,-2.7468259E-2,-2.3813453E-1,2.2270514E-1,1.9966627E-2],"categories":[0,1,2,4],"categories_nodes":[9],"categories_segments":[0],"categories_sizes":[4],"default_left":[0,1,0,0,0,0,0,0,0,0,0,0,0,0,0,0,1,0,0,0,0,0,0,0,0,0,0,0,0,0,0],"id":7,"left_children":[1,3,5,7,-1,9,11,-1,13,15,17,-1,-1,19,21,23,25,27,-1,-1,-1,-1,-1,-1,-1,-1,29,-1,-1,-1,-1],"loss_changes":[1.4606276E1,1.0401402E0,3.6966906E0,5.0070906E-1,0E0,1.5378462E0,7.781801E-1,0E0,1.3110986E0,1.7689462E0,1.4935399E0,0E0,0E0,3.2245162E-1,4.5913172E-1,3.836322E-2,2.1185079E0,2.9183674E-1,0E0,0E0,0E0,0E0,0E0,0E0,0E0,0E0,4.5345354E-1,0E0,0E0,0E0,0E0],"parents":[2147483647,0,0,1,1,2,2,3,3,5,5,6,6,8,8,9,9,10,10,13,13,14,14,15,15,16,16,17,17,26,26],"right_children":[2,4,6,8,-1,10,12,-1,14,16,18,-1,-1,20,22,24,26,28,-1,-1,-1,-1,-1,-1,-1,-1,30,-1,-1,-1,-1],"split_conditions":[9E0,9E0,1.1E1,3E0,2.8606507E-3,3E0,2E0,-5.3857755E-2,3E0,NaN,2E0,1.7418439E-2,3.0277863E-1,4E0,2E0,5E0,3E0,2E0,1.12694606E-1,5.6979313E-2,-1.14449866E-1,-1.0718441E-1,-3.9308137E-1,8.427749E-2,3.066034E-1,-1.8295342E-1,4E0,-2.7468259E-2,-2.3813453E-1,2.2270514E-1,1.9966627E-2],"split_indices":[12,11,12,11,0,1,6,0,10,21,2,0,0,7,4,5,11,8,0,0,0,0,0,0,0,0,5,0,0,0,0],"split_type":[0,0,0,0,0,0,0,0,0,1,0,0,0,0,0,0,0,0,0,0,0,0,0,0,0,0,0,0,0,0,0],"sum_hessian":[4.09164E1,1.12374525E1,2.9678947E1,9.291791E0,1.9456617E0,1.3727995E1,1.5950953E1,1.7950293E0,7.496762E0,9.188544E0,4.5394497E0,1.0427332E0,1.4908219E1,2.1319854E0,5.364776E0,3.628855E0,5.55969E0,2.7178018E0,1.8216478E0,1.0001829E0,1.1318024E0,1.6522691E0,3.7125072E0,1.0768898E0,2.5519652E0,1.9455105E0,3.6141791E0,1.1482961E0,1.5695058E0,1.7006352E0,1.913544E0],"tree_param":{"num_deleted":"0","num_feature":"32","num_nodes":"31","size_leaf_vector":"0"}},{"base_weights":[2.430234E-1,-5.350559E-1,5.759888E-1,-8.4433466E-1,-2.335345E-1,3.7774578E-2,8.014056E-1,-6.316694E-2,-2.8523818E-1,-2.4614261E-1,1.5571119E-1,2.1412452E-1,-1.6571829E-1,2.7858442E-1,4.1230813E-1,4.1033465E-1,-5.255227E-1,4.2240518E-1,-1.0411481E-1,-2.824833E-1,2.5469193E-1,-3.4386572E-1,1.4955452E-1,1.8136367E-1,-5.868257E-2],"categories":[0,1,2,3,4,1,1,1],"categories_nodes":[4,6,10,11],"categories_segments":[0,5,6,7],"categories_sizes":[5,1,1,1],"default_left":[0,1,1,0,0,1,0,0,0,0,0,0,0,0,1,0,1,1,0,0,0,0,0,0,0],"id":8,"left_children":[1,3,5,7,9,11,13,-1,-1,-1,15,17,-1,-1,19,-1,21,23,-1,-1,-1,-1,-1,-1,-1],"loss_changes":[1.0044449E1,9.014437E-1,3.2211838E0,1.6639948E-1,1.8064302E0,1.0508677E0,5.4961777E-1,0E0,0E0,0E0,5.06062E0,1.0372024E0,0E0,0E0,4.6069665E0,0E0,3.1702828E0,7.9456973E-1,0E0,0E0,0E0,0E0,0E0,0E0,0E0],"parents":[2147483647,0,0,1,1,2,2,3,3,4,4,5,5,6,6,10,10,11,11,14,14,16,16,17,17],"right_children":[2,4,6,8,10,12,14,-1,-1,-1,16,18,-1,-1,20,-1,22,24,-1,-1,-1,-1,-1,-1,-1],"split_conditions":[9E0,9E0,1E1,3E0,NaN,4E0,NaN,-6.316694E-2,-2.8523818E-1,-2.4614261E-1,NaN,NaN,-1.6571829E-1,2.7858442E-1,1.4E1,4.1033465E-1,9E0,2E0,-1.0411481E-1,-2.824833E-1,2.5469193E-1,-3.4386572E-1,1.4955452E-1,1.8136367E-1,-5.868257E-2],"split_indices":[12,13,13,5,20,0,14,0,0,0,15,22,0,0,12,0,11,0,0,0,0,0,0,0,0],"split_type":[0,0,0,0,1,0,1,0,0,0,1,1,0,0,0,0,0,0,0,0,0,0,0,0,0],"sum_hessian":[3.6581085E1,1.0780976E1,2.5800108E1,4.4333344E0,6.347642E0,7.96061E0,1.7839499E1,1.0658537E0,3.3674808E0,2.0893164E0,4.2583256E0,6.619731E0,1.3408787E0,1.2399197E1,5.440301E0,1.1695777E0,3.0887477E0,5.0082083E0,1.6115227E0,1.0447109E0,4.3955903E0,1.8488173E0,1.2399303E0,3.8850138E0,1.1231945E0],"tree_param":{"num_deleted":"0","num_feature":"32","num_nodes":"25","size_leaf_vector":"0"}},{"base_weights":[3.9655232E-1,-1.5621643E-1,7.7205026E-1,-6.185206E-1,1.185584E-1,-3.8671743E-2,8.6370146E-1,7.898219E-3,-7.753428E-1,3.338823E-1,-3.1742403E-1,1.2187188E-1,-1.2979135E-1,2.8970432E-2,8.988226E-1,-6.960902E-2,-2.5734496E-1,-6.548476E-2,6.0420823E-1,3.6368843E-2,-2.0948449E-1,2.8520176E-1,3.2054946E-1,9.374201E-1,-5.5711072E-2,1.7885399E-1,-4.007825E-2,3.9762548E-1,2.9943598E-2],"categories":[1,1,1],"categories_nodes":[5,9,23],"categories_segments":[0,1,2],"categories_sizes":[1,1,1],"default_left":[1,1,0,0,0,0,0,0,0,0,1,0,0,0,0,0,0,0,1,0,0,0,0,0,0,0,0,0,0],"id":9,"left_children":[1,3,5,7,9,11,13,-1,15,17,19,-1,-1,-1,21,-1,-1,-1,23,-1,-1,-1,25,27,-1,-1,-1,-1,-1],"loss_changes":[8.290178E0,2.2014792E0,1.7874279E0,6.682539E-1,1.171203E0,7.6377535E-1,4.8577023E-1,0E0,3.3335924E-2,1.3383874E0,7.9700947E-1,0E0,0E0,0E0,3.009491E-1,0E0,0E0,0E0,1.6721964E0,0E0,0E0,0E0,4.7657034E-1,1.2224131E0,0E0,0E0,0E0,0E0,0E0],"parents":[2147483647,0,0,1,1,2,2,3,3,4,4,5,5,6,6,8,8,9,9,10,10,14,14,18,18,22,22,23,23],"right_children":[2,4,6,8,10,12,14,-1,16,18,20,-1,-1,-1,22,-1,-1,-1,24,-1,-1,-1,26,28,-1,-1,-1,-1,-1],"split_conditions":[1E1,9E0,9E0,2E0,5E0,NaN,2E0,7.898219E-3,3E0,NaN,5E0,1.2187188E-1,-1.2979135E-1,2.8970432E-2,5E0,-6.960902E-2,-2.5734496E-1,-6.548476E-2,4E0,3.6368843E-2,-2.0948449E-1,2.8520176E-1,4E0,NaN,-5.5711072E-2,1.7885399E-1,-4.007825E-2,3.9762548E-1,2.9943598E-2],"split_indices":[13,13,12,7,5,15,5,0,7,28,11,0,0,0,6,0,0,0,1,0,0,0,9,22,0,0,0,0,0],"split_type":[0,0,0,0,0,1,0,0,0,1,0,0,0,0,0,0,0,0,0,0,0,0,0,1,0,0,0,0,0],"sum_hessian":[3.8359375E1,1.5753176E1,2.26062E1,5.406246E0,1.034693E1,2.3547516E0,2.0251448E1,1.2203453E0,4.1859007E0,7.0829644E0,3.2639651E0,1.0912426E0,1.2635092E0,1.0507185E0,1.920073E1,1.0542421E0,3.1316588E0,2.391215E0,4.691749E0,1.8336955E0,1.4302696E0,1.7029797E1,2.1709325E0,3.1684487E0,1.5233006E0,1.1563561E0,1.0145764E0,1.7673771E0,1.4010715E0],"tree_param":{"num_deleted":"0","num_feature":"32","num_nodes":"29","size_leaf_vector":"0"}},{"base_weights":[3.469001E-1,-1.2783086E-1,7.082855E-1,-2.4680188E-1,4.1152917E-2,2.824283E-1,2.6282007E-1,1.821979E-1,-5.681262E-2,2.594387E-1,-5.097874E-1,-2.5233003E-1,1.740263E-1,3.1038532E-1,-7.9691E-2,-2.0251887E-1,7.1048364E-2],"categories":[1,0,1,2,3,4,0,1,2,3,4,1],"categories_nodes":[2,4,8,14],"categories_segments":[0,1,6,11],"categories_sizes":[1,5,5,1],"default_left":[1,1,0,0,0,0,0,0,0,0,0,0,1,0,0,0,0],"id":10,"left_children":[1,3,5,-1,7,-1,9,-1,11,-1,-1,-1,13,-1,15,-1,-1],"loss_changes":[6.030808E0,1.8905275E0,1.8102074E0,0E0,7.928104E-1,0E0,1.114779E1,0E0,2.4220002E0,0E0,0E0,0E0,2.3837705E0,0E0,1.868787E0,0E0,0E0],"parents":[2147483647,0,0,1,1,2,2,4,4,6,6,8,8,12,12,14,14],"right_children":[2,4,6,-1,8,-1,10,-1,12,-1,-1,-1,14,-1,16,-1,-1],"split_conditions":[1E1,8E0,NaN,-2.4680188E-1,NaN,2.824283E-1,5E0,1.821979E-1,NaN,2.594387E-1,-5.097874E-1,-2.5233003E-1,2E0,3.1038532E-1,NaN,-2.0251887E-1,7.1048364E-2],"split_indices":[13,13,14,0,21,0,11,0,20,0,0,0,9,0,28,0,0],"split_type":[0,0,1,0,1,0,0,0,1,0,0,0,0,0,1,0,0],"sum_hessian":[3.3624847E1,1.4812632E1,1.8812218E1,2.1409469E0,1.2671684E1,1.1618247E1,7.19397E0,1.1022204E0,1.1569464E1,5.932984E0,1.2609866E0,2.029719E0,9.539744E0,1.4713141E0,8.068431E0,2.4073794E0,5.6610513E0],"tree_param":{"num_deleted":"0","num_feature":"32","num_nodes":"17","size_leaf_vector":"0"}},{"base_weights":[4.424035E-1,-2.2941262E-1,8.5339975E-1,-5.5993265E-1,-3.2150116E-2,3.0539262E-1,4.8050794E-1,-7.140848E-1,1.5196313E-2,4.7597477E-1,-2.2510812E-1,-3.7778336E-1,2.7623922E-1,-6.5509215E-2,-2.3923023E-1,-2.5096806E-2,2.3219728E-1,1.5888251E-1,-3.6817527E-1,-1.8423046E-1,4.5370075E-1,4.2862132E-1,-3.20587E-2],"categories":[1,0,1,2,4,0,1,2,3,4,1],"categories_nodes":[2,4,17,20],"categories_segments":[0,1,5,10],"categories_sizes":[1,4,5,1],"default_left":[1,1,0,1,0,0,1,0,0,0,0,0,0,0,0,0,0,0,0,0,0,0,0],"id":11,"left_children":[1,3,5,7,9,-1,11,13,-1,15,17,-1,-1,-1,-1,-1,-1,19,-1,-1,21,-1,-1],"loss_changes":[1.0783678E1,9.823449E-1,9.83902E-1,5.701908E-1,1.1532375E0,0E0,8.24048E0,1.577425E-2,0E0,6.080459E-1,3.4319344E0,0E0,0E0,0E0,0E0,0E0,0E0,1.8662957E0,0E0,0E0,3.2235434E0,0E0,0E0],"parents":[2147483647,0,0,1,1,2,2,3,3,4,4,6,6,7,7,9,9,10,10,17,17,20,20],"right_children":[2,4,6,8,10,-1,12,14,-1,16,18,-1,-1,-1,-1,-1,-1,20,-1,-1,22,-1,-1],"split_conditions":[1E1,9E0,NaN,1.4E1,NaN,3.0539262E-1,1.3E1,3E0,1.5196313E-2,1.4E1,5E0,-3.7778336E-1,2.7623922E-1,-6.5509215E-2,-2.3923023E-1,-2.5096806E-2,2.3219728E-1,NaN,-3.6817527E-1,-1.8423046E-1,NaN,4.2862132E-1,-3.20587E-2],"split_indices":[13,13,14,11,21,0,13,5,0,11,5,0,0,0,0,0,0,20,0,0,14,0,0],"split_type":[0,0,1,0,1,0,0,0,0,0,0,0,0,0,0,0,0,1,0,0,1,0,0],"sum_hessian":[3.734612E1,1.4342927E1,2.3003193E1,4.6736135E0,9.669313E0,1.4759256E1,8.243936E0,3.596193E0,1.0774201E0,2.2575855E0,7.411728E0,1.2892809E0,6.9546547E0,1.0386537E0,2.5575395E0,1.0344083E0,1.2231772E0,5.966864E0,1.4448637E0,1.3484304E0,4.6184335E0,1.120571E0,3.4978626E0],"tree_param":{"num_deleted":"0","num_feature":"32","num_nodes":"23","size_leaf_vector":"0"}},{"base_weights":[5.886656E-1,-1.3181703E-1,9.6641785E-1,-2.1512601E-1,-8.053032E-3,3.194454E-1,3.0356517E-1,-1.1719213E-1,1.4504619E-1,-5.6945942E-2,1.9306631E-1,-1.4228031E-1,2.8801322E-1,-2.3590675E-1,1.7233692E-1,1.6845573E-1,-8.35751E-2],"categories":[0,1,2,3,4],"categories_nodes":[4],"categories_segments":[0],"categories_sizes":[5],"default_left":[1,1,0,0,0,0,0,0,0,0,0,0,0,0,0,0,0],"id":12,"left_children":[1,3,5,-1,7,9,-1,-1,11,-1,-1,13,-1,-1,15,-1,-1],"loss_changes":[1.106045E1,1.0588263E0,4.554863E-1,0E0,8.265068E-1,6.502787E-1,0E0,0E0,2.505484E0,0E0,0E0,1.8275805E0,0E0,0E0,1.2848549E0,0E0,0E0],"parents":[2147483647,0,0,1,1,2,2,4,4,5,5,8,8,11,11,14,14],"right_children":[2,4,6,-1,8,10,-1,-1,12,-1,-1,14,-1,-1,16,-1,-1],"split_conditions":[1E1,8E0,2E0,-2.1512601E-1,NaN,1.1E1,3.0356517E-1,-1.1719213E-1,2E0,-5.6945942E-2,1.9306631E-1,3E0,2.8801322E-1,-2.3590675E-1,2E0,1.6845573E-1,-8.35751E-2],"split_indices":[13,13,7,0,20,11,0,0,8,0,0,11,0,0,9,0,0],"split_type":[0,0,0,0,1,0,0,0,0,0,0,0,0,0,0,0,0],"sum_hessian":[3.9170868E1,1.3697268E1,2.54736E1,1.5540951E0,1.2143172E1,2.19961E0,2.327399E1,3.0270853E0,9.116087E0,1.0165932E0,1.1830169E0,7.350204E0,1.765883E0,1.9200753E0,5.4301286E0,2.782943E0,2.6471856E0],"tree_param":{"num_deleted":"0","num_feature":"32","num_nodes":"17","size_leaf_vector":"0"}}]},"name":"gbtree"},"learner_model_param":{"base_score":"5E-1","num_class":"0","num_feature":"32","num_target":"1"},"objective":{"name":"reg:squarederror","reg_loss_param":{"scale_pos_weight":"1"}}},"version":[1,6,2]}