{"learner":{"attributes":{"best_ntree_limit":"6"},"feature_names":[],"feature_types":["q","q","q","q","q","q","q","q","q","q","q","q","q","q","c","c","c","c","c","c","c","c","c","c","c","c","c","c","c","c"],"gradient_booster":{"model":{"gbtree_model_param":{"num_parallel_tree":"1","num_trees":"1","size_leaf_vector":"0"},"tree_info":[0],"trees":[{"base_weights":[9.186372E-1,-1.9959127E0,1.2919544E0,-7.050977E-1,-6.194257E-1,-3.811326E-1,1.4062951E0,-4.2288193E-1,3.7602454E-2,-3.710299E-1,2.0988424E-1,6.151433E-1,4.4512436E-1,6.641145E-1,-8.47623E-1,1.054231E0,-2.4592872E-1,2.0791818E-3,-4.5740992E-1,3.698111E-1,-1.5258272E-2],"categories":[0,1,2,3,4],"categories_nodes":[5],"categories_segments":[0],"categories_sizes":[5],"default_left":[1,0,0,0,0,0,0,0,0,0,1,0,0,0,0,1,0,0,0,0,0],"id":0,"left_children":[1,3,5,-1,7,9,11,-1,-1,-1,13,15,-1,-1,17,19,-1,-1,-1,-1,-1],"loss_changes":[1.403516E2,5.749752E0,2.2125046E1,0E0,2.7555943E0,4.3081284E0,5.573288E0,0E0,0E0,0E0,1.3722167E1,7.8870792E0,0E0,0E0,2.546085E0,1.832283E0,0E0,0E0,0E0,0E0,0E0],"parents":[2147483647,0,0,1,1,2,2,4,4,5,5,6,6,10,10,11,11,14,14,15,15],"right_children":[2,4,6,-1,8,10,12,-1,-1,-1,14,16,-1,-1,18,20,-1,-1,-1,-1,-1],"split_conditions":[9E0,9E0,9E0,-7.050977E-1,4E0,NaN,1E1,-4.2288193E-1,3.7602454E-2,-3.710299E-1,2E0,5E0,4.4512436E-1,6.641145E-1,3E0,4E0,-2.4592872E-1,2.0791818E-3,-4.5740992E-1,3.698111E-1,-1.5258272E-2],"split_indices":[13,12,12,0,11,18,13,0,0,0,3,5,0,0,9,1,0,0,0,0,0],"split_type":[0,0,0,0,0,1,0,0,0,0,0,0,0,0,0,0,0,0,0,0,0],"sum_hessian":[1.2562358E2,1.3770277E1,1.118533E2,1.03881035E1,3.3821733E0,7.0059304E0,1.04847374E2,1.207919E0,2.1742542E0,2.415838E0,4.590092E0,1.014652E1,9.470085E1,1.207919E0,3.3821733E0,7.9722657E0,2.1742542E0,1.9326705E0,1.4495028E0,6.7643466E0,1.207919E0],"tree_param":{"num_deleted":"0","num_feature":"30","num_nodes":"21","size_leaf_vector":"0"}}]},"name":"gbtree"},"learner_model_param":{"base_score":"5E-1","num_class":"0","num_feature":"30","num_target":"1"},"objective":{"name":"reg:squarederror","reg_loss_param":{"scale_pos_weight":"1"}}},"version":[1,6,2]}