{"learner":{"attributes":{"best_ntree_limit":"20"},"feature_names":[],"feature_types":["q","q","q","q","q","q","q","q","q","q","q","q","q","q","c","c","c","c","c","c","c","c","c","c","c","c","c","c","c","c"],"gradient_booster":{"model":{"gbtree_model_param":{"num_parallel_tree":"1","num_trees":"20","size_leaf_vector":"0"},"tree_info":[0,0,0,0,0,0,0,0,0,0,0,0,0,0,0,0,0,0,0,0],"trees":[{"base_weights":[9.1740596E-1,-2.1653967E0,1.276682E0,-6.8612397E-1,-1.5113282E-1,1.9105712E-1,1.4737481E0,-3.515036E-1,7.0120573E-1,7.7256095E-1,4.5364705E-1,1.1207757E-1,-3.710299E-1,-2.3159835E-1,1.0734603E0,3.7247032E-1,-5.6907933E-2,2.9461533E-1,-3.267795E-1,-2.1246223E-1,1.2061628E-1,3.8496354E-1,7.165706E-2,1.831362E-1,-2.6695362E-1],"categories":[1],"categories_nodes":[18],"categories_segments":[0],"categories_sizes":[1],"default_left":[1,1,0,0,0,0,0,0,0,0,0,0,0,0,0,0,0,0,0,0,0,0,0,0,0],"id":0,"left_children":[1,3,5,-1,-1,7,9,11,13,15,-1,17,-1,19,21,-1,-1,-1,23,-1,-1,-1,-1,-1,-1],"loss_changes":[1.4274234E2,1.5900192E0,2.4068985E1,0E0,0E0,5.404566E0,1.4221497E0,4.1181836E0,3.6996975E0,3.4125118E0,0E0,3.1008248E0,0E0,1.3892959E0,9.681339E-1,0E0,0E0,0E0,3.4932365E0,0E0,0E0,0E0,0E0,0E0,0E0],"parents":[2147483647,0,0,1,1,2,2,5,5,6,6,7,7,8,8,9,9,11,11,13,13,14,14,18,18],"right_children":[2,4,6,-1,-1,8,10,12,14,16,-1,18,-1,20,22,-1,-1,-1,24,-1,-1,-1,-1,-1,-1],"split_conditions":[9E0,1.4E1,1E1,-6.8612397E-1,-1.5113282E-1,1E1,1E1,5E0,9E0,5E0,4.5364705E-1,3E0,-3.710299E-1,2E0,2.2E1,3.7247032E-1,-5.6907933E-2,2.9461533E-1,NaN,-2.1246223E-1,1.2061628E-1,3.8496354E-1,7.165706E-2,1.831362E-1,-2.6695362E-1],"split_indices":[13,11,12,0,0,13,13,5,12,10,0,4,0,3,11,0,0,0,28,0,0,0,0,0,0],"split_type":[0,0,0,0,0,0,0,0,0,0,0,0,0,0,0,0,0,0,1,0,0,0,0,0,0],"sum_hessian":[1.25381996E2,1.2562358E1,1.1281964E2,1.1354439E1,1.207919E0,1.7635618E1,9.518402E1,8.697017E0,8.938601E0,6.039595E0,8.9144424E1,6.281179E0,2.415838E0,2.6574218E0,6.281179E0,3.865341E0,2.1742542E0,1.6910866E0,4.590092E0,1.4495028E0,1.207919E0,4.590092E0,1.6910866E0,1.6910866E0,2.8990057E0],"tree_param":{"num_deleted":"0","num_feature":"30","num_nodes":"25","size_leaf_vector":"0"}},{"base_weights":[7.603568E-1,-1.4732904E0,1.0701581E0,-1.5207306E-1,-4.7105202E-1,2.0513138E-1,1.2484195E0,4.1131082E-1,-7.9494506E-1,6.39582E-1,3.8534716E-1,-1.8692127E-1,8.9106166E-1,-7.2378226E-2,-3.2188863E-1,3.1911847E-1,-4.3575834E-2,1.2670693E-1,-6.2323874E-1,1.4319566E-1,1.1759036E0,-6.04524E-1,7.507296E-2,4.9459624E-1,9.077532E-2],"categories":[1,1,1],"categories_nodes":[11,12,20],"categories_segments":[0,1,2],"categories_sizes":[1,1,1],"default_left":[1,0,0,0,0,0,0,0,0,0,0,0,0,0,0,0,0,0,1,0,0,0,0,0,0],"id":1,"left_children":[1,3,5,-1,-1,7,9,11,13,15,-1,17,19,-1,-1,-1,-1,-1,21,-1,23,-1,-1,-1,-1],"loss_changes":[7.998199E1,5.355797E-1,1.5176796E1,0E0,0E0,4.099784E0,9.965515E-1,4.7094746E0,2.750473E-1,2.3589072E0,0E0,2.3556833E0,4.9439573E-1,0E0,0E0,0E0,0E0,0E0,6.5714855E0,0E0,1.4093947E0,0E0,0E0,0E0,0E0],"parents":[2147483647,0,0,1,1,2,2,5,5,6,6,7,7,8,8,9,9,11,11,12,12,18,18,20,20],"right_children":[2,4,6,-1,-1,8,10,12,14,16,-1,18,20,-1,-1,-1,-1,-1,22,-1,24,-1,-1,-1,-1],"split_conditions":[9E0,2E0,1E1,-1.5207306E-1,-4.7105202E-1,4E0,1E1,9E0,6E0,5E0,3.8534716E-1,NaN,NaN,-7.2378226E-2,-3.2188863E-1,3.1911847E-1,-4.3575834E-2,1.2670693E-1,4E0,1.4319566E-1,NaN,-6.04524E-1,7.507296E-2,4.9459624E-1,9.077532E-2],"split_indices":[13,7,12,0,0,1,13,12,11,10,0,25,25,0,0,0,0,0,10,0,20,0,0,0,0],"split_type":[0,0,0,0,0,0,0,0,0,0,0,1,1,0,0,0,0,0,0,0,1,0,0,0,0],"sum_hessian":[1.1230466E2,1.3221671E1,9.9082985E1,1.7726076E0,1.1449063E1,1.7297297E1,8.178569E1,1.4828848E1,2.468449E0,5.6221075E0,7.616358E1,6.8711495E0,7.9576983E0,1.449497E0,1.0189523E0,3.4190216E0,2.203086E0,2.8806212E0,3.990528E0,4.33569E0,3.6220083E0,1.0347557E0,2.9557724E0,1.7739308E0,1.8480775E0],"tree_param":{"num_deleted":"0","num_feature":"30","num_nodes":"25","size_leaf_vector":"0"}},{"base_weights":[6.750304E-1,-1.1657196E0,9.5190233E-1,-1.2502763E0,-6.2950745E-2,1.9798632E-1,1.0963279E0,-1.10766985E-1,-3.940874E-1,5.6172293E-1,-6.203316E-1,9.081626E-2,1.1352527E0,7.5881076E-1,-8.9031324E-2,4.291669E-3,-3.2928723E-1,-1.20027885E-1,1.7823659E-1,1.3735555E-1,1.1476022E0,3.5845086E-1,2.2951849E-1,8.10986E-1,3.582864E-1,-1.8339875E-1,2.0725681E-1,2.868613E-1,-7.987939E-2],"categories":[1],"categories_nodes":[22],"categories_segments":[0],"categories_sizes":[1],"default_left":[1,1,0,0,0,0,0,0,0,1,1,0,0,0,0,0,0,0,0,0,0,0,0,0,0,0,0,0,0],"id":2,"left_children":[1,3,5,7,-1,9,11,-1,-1,13,15,17,19,21,-1,-1,-1,-1,-1,-1,23,-1,25,27,-1,-1,-1,-1,-1],"loss_changes":[5.0942688E1,8.072815E-1,9.0974655E0,1.8231392E-1,0E0,4.8053045E0,2.6981735E0,0E0,0E0,2.0678697E0,1.555303E0,1.1653157E0,5.025482E-2,1.8347588E0,0E0,0E0,0E0,0E0,0E0,0E0,8.312988E-2,0E0,2.5036888E0,2.0171318E0,0E0,0E0,0E0,0E0,0E0],"parents":[2147483647,0,0,1,1,2,2,3,3,5,5,6,6,9,9,10,10,11,11,12,12,13,13,20,20,22,22,23,23],"right_children":[2,4,6,8,-1,10,12,-1,-1,14,16,18,20,22,-1,-1,-1,-1,-1,-1,24,-1,26,28,-1,-1,-1,-1,-1],"split_conditions":[9E0,1.4E1,1E1,2E0,-6.2950745E-2,5E0,9E0,-1.10766985E-1,-3.940874E-1,4E0,5E0,2E0,2E0,4E0,-8.9031324E-2,4.291669E-3,-3.2928723E-1,-1.20027885E-1,1.7823659E-1,1.3735555E-1,1.1E1,3.5845086E-1,NaN,5E0,3.582864E-1,-1.8339875E-1,2.0725681E-1,2.868613E-1,-7.987939E-2],"split_indices":[13,11,13,5,0,5,12,0,0,1,11,3,5,6,0,0,0,0,0,0,13,0,26,6,0,0,0,0,0],"split_type":[0,0,0,0,0,0,0,0,0,0,0,0,0,0,0,0,0,0,0,0,0,0,1,0,0,0,0,0,0],"sum_hessian":[9.677855E1,1.223373E1,8.454482E1,1.0956546E1,1.277185E0,1.3973348E1,7.057147E1,1.1929783E0,9.763567E0,9.890606E0,4.0827417E0,2.7543375E0,6.781713E1,8.138364E0,1.7522418E0,2.1688862E0,1.9138557E0,1.4981534E0,1.2561841E0,1.8959091E0,6.592123E1,3.772882E0,4.365482E0,1.0266731E1,5.5654495E1,1.4314163E0,2.9340658E0,9.146153E0,1.1205775E0],"tree_param":{"num_deleted":"0","num_feature":"30","num_nodes":"29","size_leaf_vector":"0"}},{"base_weights":[5.83544E-1,-3.9760956E-1,9.9202573E-1,-9.8225886E-1,1.151013E-1,8.2243286E-2,1.034873E0,-1.0639167E0,-5.1916018E-2,4.0897936E-1,-4.9745956E-1,-1.138287E-1,1.6999616E-1,7.066408E-1,1.0850437E0,-9.403225E-2,-3.3692932E-1,-2.7040675E-2,6.379537E-1,-3.2304084E-1,-2.867091E-2,3.0625176E-1,1.02923006E-1,8.161738E-2,3.3125353E-1,5.151896E-1,9.735498E-2,-2.0496774E-1,1.939223E-1,2.5850523E-1,-3.3121094E-1,-2.6248175E-1,2.171484E-1],"categories":[1,1,1],"categories_nodes":[5,9,18],"categories_segments":[0,1,2],"categories_sizes":[1,1,1],"default_left":[1,1,0,1,0,0,0,0,0,0,0,0,0,0,0,0,0,0,0,0,0,0,0,0,0,0,1,0,0,0,0,0,0],"id":3,"left_children":[1,3,5,7,9,11,13,15,-1,17,19,-1,-1,21,23,-1,-1,-1,25,-1,27,-1,29,-1,-1,-1,31,-1,-1,-1,-1,-1,-1],"loss_changes":[3.3558537E1,7.6182356E0,2.2035294E0,5.958061E-1,2.7659378E0,1.0485102E0,1.5517807E-1,1.15514755E-1,0E0,1.2195911E0,1.3450584E0,0E0,0E0,1.846818E0,4.259796E-1,0E0,0E0,0E0,3.9723182E0,0E0,2.1329882E0,0E0,5.195444E0,0E0,0E0,0E0,4.15824E0,0E0,0E0,0E0,0E0,0E0,0E0],"parents":[2147483647,0,0,1,1,2,2,3,3,4,4,5,5,6,6,7,7,9,9,10,10,13,13,14,14,18,18,20,20,22,22,26,26],"right_children":[2,4,6,8,10,12,14,16,-1,18,20,-1,-1,22,24,-1,-1,-1,26,-1,28,-1,30,-1,-1,-1,32,-1,-1,-1,-1,-1,-1],"split_conditions":[1E1,9E0,9E0,1.4E1,5E0,NaN,1.1E1,2E0,-5.1916018E-2,NaN,2E0,-1.138287E-1,1.6999616E-1,2.2E1,2E0,-9.403225E-2,-3.3692932E-1,-2.7040675E-2,NaN,-3.2304084E-1,2E0,3.0625176E-1,2E0,8.161738E-2,3.3125353E-1,5.151896E-1,1E1,-2.0496774E-1,1.939223E-1,2.5850523E-1,-3.3121094E-1,-2.6248175E-1,2.171484E-1],"split_indices":[13,13,12,11,5,28,13,5,0,26,3,0,0,11,5,0,0,0,14,0,2,0,8,0,0,0,12,0,0,0,0,0,0],"split_type":[0,0,0,0,0,1,0,0,0,1,0,0,0,0,0,0,0,0,1,0,0,0,0,0,0,0,0,0,0,0,0,0,0],"sum_hessian":[8.17482E1,2.4037615E1,5.7710587E1,1.0803016E1,1.32346E1,2.7270133E0,5.4983574E1,9.526879E0,1.2761359E0,9.168384E0,4.0662165E0,1.507242E0,1.2197715E0,9.290027E0,4.5693546E1,1.1565788E0,8.370301E0,3.074023E0,6.0943604E0,1.2385675E0,2.8276489E0,5.6556716E0,3.634355E0,1.4006699E0,4.4292877E1,1.3073932E0,4.786967E0,1.4295201E0,1.3981287E0,2.4071553E0,1.2271997E0,1.7203503E0,3.0666168E0],"tree_param":{"num_deleted":"0","num_feature":"30","num_nodes":"33","size_leaf_vector":"0"}},{"base_weights":[5.318196E-1,-8.473503E-1,7.58215E-1,-5.4315843E-2,-9.4610775E-1,3.391044E-1,1.0046055E0,-7.208348E-2,-3.0896482E-1,5.1529205E-1,-1.7627683E-1,3.600798E-1,3.1415793E-1,1.8597503E-1,-1.6664538E-1,2.1832968E-1,-4.783312E-1,2.0526314E-1,-7.494849E-2,2.2181161E-1,-2.928015E-1,1.2158559E-1,-2.2019768E-2],"categories":[1,1],"categories_nodes":[9,11],"categories_segments":[0,1],"categories_sizes":[1,1],"default_left":[1,0,0,0,0,0,0,0,0,0,0,0,0,0,0,0,0,0,0,0,0,0,0],"id":4,"left_children":[1,3,5,-1,7,9,11,-1,-1,13,15,17,-1,-1,-1,-1,19,-1,-1,21,-1,-1,-1],"loss_changes":[2.2602194E1,5.1233625E-1,5.952385E0,0E0,2.7357292E-1,2.2766519E0,6.623802E-1,0E0,0E0,2.3826332E0,2.226228E0,9.362284E-1,0E0,0E0,0E0,0E0,2.2230725E0,0E0,0E0,2.0347548E-1,0E0,0E0,0E0],"parents":[2147483647,0,0,1,1,2,2,4,4,5,5,6,6,9,9,10,10,11,11,16,16,19,19],"right_children":[2,4,6,-1,8,10,12,-1,-1,14,16,18,-1,-1,-1,-1,20,-1,-1,22,-1,-1,-1],"split_conditions":[9E0,2E0,1.1E1,-5.4315843E-2,3E0,5E0,2E0,-7.208348E-2,-3.0896482E-1,NaN,4E0,NaN,3.1415793E-1,1.8597503E-1,-1.6664538E-1,2.1832968E-1,7E0,2.0526314E-1,-7.494849E-2,5E0,-2.928015E-1,1.2158559E-1,-2.2019768E-2],"split_indices":[13,7,13,0,6,7,7,0,0,24,6,14,0,0,0,0,11,0,0,10,0,0,0],"split_type":[0,0,0,0,0,0,0,0,0,1,0,1,0,0,0,0,0,0,0,0,0,0,0],"sum_hessian":[6.9330124E1,9.389257E0,5.994087E1,1.5777547E0,7.811503E0,2.3071875E1,3.686899E1,1.2391791E0,6.572324E0,1.7194096E1,5.87778E0,2.8711805E0,3.3997814E1,1.6047195E1,1.1468999E0,1.1190627E0,4.758717E0,1.7952722E0,1.0759083E0,2.2074757E0,2.5512416E0,1.1314263E0,1.0760493E0],"tree_param":{"num_deleted":"0","num_feature":"30","num_nodes":"23","size_leaf_vector":"0"}},{"base_weights":[5.3766453E-1,-7.319052E-1,7.425964E-1,-8.302211E-1,-1.6668273E-2,4.4495562E-1,9.7582E-1,-5.2196138E-2,-2.706624E-1,6.297815E-1,-2.2740194E-1,1.0603082E-1,3.0180657E-1,2.1474206E-1,-8.071149E-2,1.9779892E-1,-5.349406E-1,-2.8126553E-1,-2.126679E-1,-2.07534E-1,9.9005125E-2],"categories":[1,1],"categories_nodes":[9,18],"categories_segments":[0,1],"categories_sizes":[1,1],"default_left":[1,1,0,0,0,0,0,0,0,0,0,0,0,0,0,0,0,0,0,0,0],"id":5,"left_children":[1,3,5,7,-1,9,11,-1,-1,13,15,-1,-1,-1,-1,-1,17,-1,19,-1,-1],"loss_changes":[1.6867735E1,5.6721973E-1,3.350357E0,2.2007656E-1,0E0,3.3481135E0,2.0326233E-1,0E0,0E0,1.7772379E0,2.0695257E0,0E0,0E0,0E0,0E0,0E0,4.7874773E-1,0E0,1.3193479E0,0E0,0E0],"parents":[2147483647,0,0,1,1,2,2,3,3,5,5,6,6,9,9,10,10,16,16,18,18],"right_children":[2,4,6,8,-1,10,12,-1,-1,14,16,-1,-1,-1,-1,-1,18,-1,20,-1,-1],"split_conditions":[9E0,1.4E1,1.1E1,2E0,-1.6668273E-2,5E0,2E0,-5.2196138E-2,-2.706624E-1,NaN,4E0,1.0603082E-1,3.0180657E-1,2.1474206E-1,-8.071149E-2,1.9779892E-1,6.00001E0,-2.8126553E-1,NaN,-2.07534E-1,9.9005125E-2],"split_indices":[13,11,12,5,0,7,6,0,0,24,5,0,0,0,0,0,4,0,23,0,0],"split_type":[0,0,0,0,0,0,0,0,0,1,0,0,0,0,0,0,0,0,1,0,0],"sum_hessian":[6.1743176E1,8.223912E0,5.3519264E1,6.9815373E0,1.2423745E0,2.479001E1,2.8729254E1,1.0279198E0,5.9536176E0,1.949446E1,5.2955513E0,1.9174746E0,2.6811779E1,1.7977465E1,1.5169952E0,1.069101E0,4.22645E0,1.0302209E0,3.1962292E0,1.5516295E0,1.6445997E0],"tree_param":{"num_deleted":"0","num_feature":"30","num_nodes":"21","size_leaf_vector":"0"}},{"base_weights":[5.251374E-1,-6.352575E-1,7.085923E-1,-2.3263808E-1,-2.8743427E-2,8.1717765E-1,1.3905212E-1,2.9030478E-1,5.3004324E-1,-2.6825786E-1,2.2384481E-1,7.59705E-1,-3.4237888E-1,-1.951825E-1,6.93766E-2,8.693444E-1,-1.1348427E-1,-2.0673944E-1,2.2426176E-1,6.547576E-3,2.8642622E-1],"categories":[1,1,1],"categories_nodes":[1,5,9],"categories_segments":[0,1,2],"categories_sizes":[1,1,1],"default_left":[1,0,0,0,0,0,0,0,0,0,0,1,0,0,0,0,0,0,0,0,0],"id":6,"left_children":[1,3,5,-1,-1,7,9,-1,11,13,-1,15,-1,-1,17,19,-1,-1,-1,-1,-1],"loss_changes":[1.2374637E1,5.439279E-1,2.9068756E0,0E0,0E0,1.2509212E0,2.4320183E0,0E0,7.1034045E0,8.3742154E-1,0E0,2.1860304E0,0E0,0E0,2.6564841E0,9.8389244E-1,0E0,0E0,0E0,0E0,0E0],"parents":[2147483647,0,0,1,1,2,2,5,5,6,6,8,8,9,9,11,11,14,14,15,15],"right_children":[2,4,6,-1,-1,8,10,-1,12,14,-1,16,-1,-1,18,20,-1,-1,-1,-1,-1],"split_conditions":[9E0,NaN,5E0,-2.3263808E-1,-2.8743427E-2,NaN,1.1E1,2.9030478E-1,2E0,NaN,2.2384481E-1,3E0,-3.4237888E-1,-1.951825E-1,2E0,2E0,-1.1348427E-1,-2.0673944E-1,2.2426176E-1,6.547576E-3,2.8642622E-1],"split_indices":[13,16,7,0,0,14,12,0,3,23,0,4,0,0,2,6,0,0,0,0,0],"split_type":[0,1,0,0,0,1,0,0,0,1,0,0,0,0,0,0,0,0,0,0,0],"sum_hessian":[5.50151E1,7.1741533E0,4.7840946E1,5.3469596E0,1.8271936E0,3.98152E1,8.025748E0,2.4567644E1,1.5247556E1,5.1372356E0,2.8885124E0,1.3884998E1,1.3625579E0,1.9743942E0,3.1628413E0,1.2880127E1,1.0048707E0,1.4853452E0,1.6774962E0,1.2941195E0,1.1586008E1],"tree_param":{"num_deleted":"0","num_feature":"30","num_nodes":"21","size_leaf_vector":"0"}},{"base_weights":[5.9779954E-1,-6.181708E-1,7.7319455E-1,-2.2846659E-1,-2.3189366E-2,8.932282E-1,2.3697825E-2,5.593611E-1,1.0053742E0,-3.6155623E-1,2.0533353E-1,7.01856E-1,-1.2616469E-1,6.335504E-2,3.0941224E-1,-2.2483866E-1,9.112295E-3,3.0535558E-1,9.7314644E-1,-1.6962266E-1,1.7225619E-1,2.1927284E-1,-1.66625E-1,1.0163284E-1,3.6996877E-1],"categories":[1,1,0,1,2,3,4],"categories_nodes":[1,9,18],"categories_segments":[0,1,2],"categories_sizes":[1,1,5],"default_left":[1,0,0,0,0,0,0,0,0,0,0,0,0,0,0,0,0,0,0,0,0,0,0,0,0],"id":7,"left_children":[1,3,5,-1,-1,7,9,11,13,15,-1,17,-1,-1,-1,-1,19,21,23,-1,-1,-1,-1,-1,-1],"loss_changes":[1.3163084E1,5.6570053E-1,4.6951733E0,0E0,0E0,1.1285095E0,2.3511424E0,2.1954546E0,4.5433044E-1,8.515196E-1,0E0,1.0212016E0,0E0,0E0,0E0,0E0,1.6206697E0,2.7636225E0,7.074075E-1,0E0,0E0,0E0,0E0,0E0,0E0],"parents":[2147483647,0,0,1,1,2,2,5,5,6,6,7,7,8,8,9,9,11,11,16,16,17,17,18,18],"right_children":[2,4,6,-1,-1,8,10,12,14,16,-1,18,-1,-1,-1,-1,20,22,24,-1,-1,-1,-1,-1,-1],"split_conditions":[9E0,NaN,5E0,-2.2846659E-1,-2.3189366E-2,1E1,1.1E1,4E0,2E0,NaN,2.0533353E-1,2E0,-1.2616469E-1,6.335504E-2,3.0941224E-1,-2.2483866E-1,2E0,2E0,NaN,-1.6962266E-1,1.7225619E-1,2.1927284E-1,-1.66625E-1,1.0163284E-1,3.6996877E-1],"split_indices":[13,16,7,0,0,12,12,1,5,23,0,2,0,0,0,0,2,8,18,0,0,0,0,0,0],"split_type":[0,1,0,0,0,0,0,0,0,1,0,0,0,0,0,0,0,0,1,0,0,0,0,0,0],"sum_hessian":[5.847771E1,7.053448E0,5.1424263E1,5.2529016E0,1.8005464E0,4.4160145E1,7.2641172E0,1.2609253E1,3.1550892E1,4.8746943E0,2.3894231E0,1.1256176E1,1.3530765E0,1.2893373E0,3.0261555E1,1.8826128E0,2.9920814E0,5.4363413E0,5.819835E0,1.483347E0,1.5087345E0,3.7387986E0,1.6975424E0,2.3617756E0,3.4580595E0],"tree_param":{"num_deleted":"0","num_feature":"30","num_nodes":"25","size_leaf_vector":"0"}},{"base_weights":[4.6857563E-1,-6.043697E-1,6.492642E-1,-2.2511107E-1,-1.8707229E-2,7.7748233E-1,-7.307824E-2,4.0174E-1,9.3413204E-1,-4.311102E-1,1.8780044E-1,5.171682E-1,-1.07154675E-1,5.4357342E-2,2.892812E-1,-2.4904783E-1,-2.9544696E-2,3.1069702E-2,7.805474E-1,-1.7050327E-1,1.2794828E-1,5.366705E-1,4.897819E-2],"categories":[1,1,0,1,2,3,4],"categories_nodes":[1,9,11],"categories_segments":[0,1,2],"categories_sizes":[1,1,5],"default_left":[1,0,0,0,0,0,0,0,0,0,0,0,0,0,0,0,0,0,1,0,0,0,0],"id":8,"left_children":[1,3,5,-1,-1,7,9,11,13,15,-1,17,-1,-1,-1,-1,19,-1,21,-1,-1,-1,-1],"loss_changes":[1.0397978E1,5.828433E-1,4.192507E0,0E0,0E0,1.8618755E0,2.1834626E0,1.3181059E0,4.1687965E-1,8.805597E-1,0E0,1.1869926E0,0E0,0E0,0E0,0E0,1.188911E0,0E0,4.0386343E0,0E0,0E0,0E0,0E0],"parents":[2147483647,0,0,1,1,2,2,5,5,6,6,7,7,8,8,9,9,11,11,16,16,18,18],"right_children":[2,4,6,-1,-1,8,10,12,14,16,-1,18,-1,-1,-1,-1,20,-1,22,-1,-1,-1,-1],"split_conditions":[9E0,NaN,5E0,-2.2511107E-1,-1.8707229E-2,1E1,1.1E1,4E0,2E0,NaN,1.8780044E-1,NaN,-1.07154675E-1,5.4357342E-2,2.892812E-1,-2.4904783E-1,9E0,3.1069702E-2,3E0,-1.7050327E-1,1.2794828E-1,5.366705E-1,4.897819E-2],"split_indices":[13,16,7,0,0,12,12,1,5,23,0,18,0,0,0,0,12,0,9,0,0,0,0],"split_type":[0,1,0,0,0,0,0,0,0,1,0,1,0,0,0,0,0,0,0,0,0,0,0],"sum_hessian":[5.061003E1,6.9565544E0,4.3653477E1,5.177491E0,1.7790633E0,3.7008083E1,6.645391E0,1.1938E1,2.5070086E1,4.648163E0,1.997228E0,1.0638489E1,1.2995113E0,1.2347478E0,2.3835337E1,1.796055E0,2.8521082E0,4.680925E0,5.9575634E0,1.1945328E0,1.6575754E0,1.5414907E0,4.416073E0],"tree_param":{"num_deleted":"0","num_feature":"30","num_nodes":"23","size_leaf_vector":"0"}},{"base_weights":[3.205322E-1,-3.7573946E-1,5.841057E-1,-7.2958624E-1,-4.7353633E-2,8.07822E-2,7.6217115E-1,-2.7431844E-2,-8.389045E-1,-1.635496E-1,2.4598476E-1,5.6823397E-1,-3.237436E-1,8.164724E-1,1.5456724E-1,-5.317586E-2,-3.131341E-1,3.8155362E-1,-3.9451808E-1,2.2864883E-1,-1.6854128E-2,-1.871334E-1,7.6818764E-2,2.5633477E-2,8.491078E-1,1.551546E-1,-9.291689E-2,-2.727009E-1,4.0681567E-2,3.8179904E-2,8.8279533E-1,9.698717E-2,2.8340125E-1],"categories":[1,0,1,2,3,4,1,0,1,2,1],"categories_nodes":[3,4,12,18,24],"categories_segments":[0,1,6,7,10],"categories_sizes":[1,5,1,3,1],"default_left":[0,1,1,0,0,0,0,0,0,0,1,1,0,0,0,0,0,0,0,0,0,0,0,0,0,0,0,0,0,0,0,0,0],"id":9,"left_children":[1,3,5,7,9,11,13,-1,15,-1,17,19,21,23,25,-1,-1,-1,27,-1,-1,-1,-1,-1,29,-1,-1,-1,-1,-1,31,-1,-1],"loss_changes":[8.46549E0,1.4698818E0,2.894761E0,3.531971E-1,1.2708594E0,2.1042912E0,6.738014E-1,0E0,5.116017E-1,0E0,4.173005E0,6.2158597E-1,1.1963742E0,4.5289326E-1,7.0275193E-1,0E0,0E0,0E0,1.2695817E0,0E0,0E0,0E0,0E0,0E0,3.976097E-1,0E0,0E0,0E0,0E0,0E0,3.824129E-1,0E0,0E0],"parents":[2147483647,0,0,1,1,2,2,3,3,4,4,5,5,6,6,8,8,10,10,11,11,12,12,13,13,14,14,18,18,24,24,30,30],"right_children":[2,4,6,8,10,12,14,-1,16,-1,18,20,22,24,26,-1,-1,-1,28,-1,-1,-1,-1,-1,30,-1,-1,-1,-1,-1,32,-1,-1],"split_conditions":[9E0,9E0,1E1,NaN,NaN,5E0,5E0,-2.7431844E-2,5E0,-1.635496E-1,3E0,3E0,NaN,2E0,4E0,-5.317586E-2,-3.131341E-1,3.8155362E-1,NaN,2.2864883E-1,-1.6854128E-2,-1.871334E-1,7.6818764E-2,2.5633477E-2,NaN,1.551546E-1,-9.291689E-2,-2.727009E-1,4.0681567E-2,3.8179904E-2,1E1,9.698717E-2,2.8340125E-1],"split_indices":[12,13,13,26,18,10,6,0,11,0,9,1,25,5,9,0,0,0,18,0,0,0,0,0,27,0,0,0,0,0,12,0,0],"split_type":[0,0,0,1,1,0,0,0,0,0,0,0,1,0,0,0,0,0,1,0,0,0,0,0,1,0,0,0,0,0,0,0,0],"sum_hessian":[4.393284E1,1.1947099E1,3.198574E1,5.1625466E0,6.784552E0,8.7386265E0,2.3247114E1,1.0236177E0,4.138929E0,2.197235E0,4.587317E0,3.77957E0,4.9590564E0,2.1024414E1,2.2226996E0,1.4195687E0,2.71936E0,1.3843602E0,3.2029567E0,2.7155719E0,1.0639982E0,3.2179918E0,1.7410645E0,1.0531082E0,1.9971306E1,1.1840369E0,1.0386628E0,1.2627532E0,1.9402035E0,1.1035149E0,1.886779E1,2.498663E0,1.6369127E1],"tree_param":{"num_deleted":"0","num_feature":"30","num_nodes":"33","size_leaf_vector":"0"}},{"base_weights":[2.1679263E-1,-4.2532924E-1,4.7744673E-1,-2.2358924E-1,-1.609462E-1,-1.7184488E-2,6.8679917E-1,3.6911216E-1,-6.192261E-1,4.7463265E-1,-3.8801512E-1,2.472531E-1,2.8678727E-1,-7.010378E-2,-4.5275494E-1,2.2150788E-1,-8.353415E-3,-2.0497395E-1,6.2354885E-2,-2.9762444E-1,2.2771056E-1,3.2109293E-1,-2.0686187E-1,-6.8052314E-2,1.863925E-1],"categories":[1,1,1,3,1],"categories_nodes":[1,4,6,9,10],"categories_segments":[0,1,2,3,4],"categories_sizes":[1,1,1,1,1],"default_left":[0,0,1,0,0,0,0,0,0,0,0,0,1,1,0,0,0,0,0,0,0,0,0,0,0],"id":10,"left_children":[1,3,5,-1,7,9,11,-1,13,15,17,-1,19,21,-1,-1,-1,-1,-1,-1,-1,23,-1,-1,-1],"loss_changes":[6.811653E0,8.891728E-1,2.9687834E0,0E0,5.739923E0,1.9108516E0,8.6752415E-1,0E0,3.089327E0,6.19486E-1,1.1883464E0,0E0,4.7806807E0,1.4553056E0,0E0,0E0,0E0,0E0,0E0,0E0,0E0,7.66569E-1,0E0,0E0,0E0],"parents":[2147483647,0,0,1,1,2,2,4,4,5,5,6,6,8,8,9,9,10,10,12,12,13,13,21,21],"right_children":[2,4,6,-1,8,10,12,-1,14,16,18,-1,20,22,-1,-1,-1,-1,-1,-1,-1,24,-1,-1,-1],"split_conditions":[9E0,NaN,1E1,-2.2358924E-1,NaN,5E0,NaN,3.6911216E-1,5E0,NaN,NaN,2.472531E-1,3E0,2E0,-4.5275494E-1,2.2150788E-1,-8.353415E-3,-2.0497395E-1,6.2354885E-2,-2.9762444E-1,2.2771056E-1,2E0,-2.0686187E-1,-6.8052314E-2,1.863925E-1],"split_indices":[12,28,13,0,25,10,14,0,11,19,25,0,3,4,0,0,0,0,0,0,0,1,0,0,0],"split_type":[0,1,0,0,1,0,1,0,0,1,1,0,0,0,0,0,0,0,0,0,0,0,0,0,0],"sum_hessian":[3.8484463E1,1.0929021E1,2.7555439E1,4.1217217E0,6.807299E0,8.467479E0,1.9087961E1,1.2692227E0,5.5380764E0,3.5196273E0,4.9478517E0,1.3419027E1,5.668934E0,4.0919986E0,1.4460778E0,2.0003161E0,1.5193111E0,3.2105048E0,1.7373466E0,1.2319616E0,4.436972E0,2.8032675E0,1.2887311E0,1.0787704E0,1.7244971E0],"tree_param":{"num_deleted":"0","num_feature":"30","num_nodes":"25","size_leaf_vector":"0"}},{"base_weights":[3.564253E-1,-1.4142087E-1,6.7471313E-1,-2.6666752E-1,4.9814644E-1,2.666783E-1,2.2711754E-1,-1.9245645E-2,-3.417647E-1,1.9013555E-1,3.8639255E-2,-5.5605793E-1,6.845795E-1,-6.512739E-2,5.76789E-1,-1.7593269E-1,1.0341256E0,2.3978132E-1,2.3625182E-2,-2.0626548E-1,1.4984463E-1,1.5826879E0,3.9091343E-1,5.668079E-1,1.4866328E-1,1.9812758E-1,-3.8217947E-2],"categories":[3,1,1,1,1],"categories_nodes":[1,2,6,14,15],"categories_segments":[0,1,2,3,4],"categories_sizes":[1,1,1,1,1],"default_left":[1,0,0,1,1,0,0,1,0,0,0,0,0,0,0,0,1,0,0,0,0,1,0,0,0,0,0],"id":11,"left_children":[1,3,5,7,9,-1,11,13,-1,-1,-1,-1,15,-1,17,19,21,-1,-1,-1,-1,23,25,-1,-1,-1,-1],"loss_changes":[6.689301E0,1.4990435E0,2.248577E0,3.1977696E0,7.576221E-2,0E0,1.0421108E1,1.6153157E0,0E0,0E0,0E0,0E0,2.7725515E0,0E0,3.1629384E-1,1.4984531E0,1.5936937E0,0E0,0E0,0E0,0E0,8.262253E-2,6.728029E-1,0E0,0E0,0E0,0E0],"parents":[2147483647,0,0,1,1,2,2,3,3,4,4,6,6,7,7,12,12,14,14,15,15,16,16,21,21,22,22],"right_children":[2,4,6,8,10,-1,12,14,-1,-1,-1,-1,16,-1,18,20,22,-1,-1,-1,-1,24,26,-1,-1,-1,-1],"split_conditions":[1E1,NaN,NaN,5E0,3E0,2.666783E-1,NaN,9E0,-3.417647E-1,1.9013555E-1,3.8639255E-2,-5.5605793E-1,9E0,-6.512739E-2,NaN,NaN,5E0,2.3978132E-1,2.3625182E-2,-2.0626548E-1,1.4984463E-1,1.1E1,1.8E1,5.668079E-1,1.4866328E-1,1.9812758E-1,-3.8217947E-2],"split_indices":[13,20,14,10,3,0,16,13,0,0,0,0,12,0,23,28,7,0,0,0,0,11,11,0,0,0,0],"split_type":[0,1,1,0,0,0,1,0,0,0,0,0,0,0,1,1,0,0,0,0,0,0,0,0,0,0,0],"sum_hessian":[4.0612713E1,1.605545E1,2.455726E1,1.3913764E1,2.1416862E0,1.5941717E1,8.615543E0,1.1636225E1,2.2775395E0,1.0427846E0,1.0989015E0,1.0028026E0,7.612741E0,9.213652E0,2.422573E0,2.342546E0,5.270195E0,1.2564553E0,1.1661177E0,1.3226696E0,1.0198764E0,2.056075E0,3.2141197E0,1.0281368E0,1.0279384E0,1.9341776E0,1.279942E0],"tree_param":{"num_deleted":"0","num_feature":"30","num_nodes":"27","size_leaf_vector":"0"}},{"base_weights":[1.399108E-1,-1.0437999E-1,6.835742E-1,-3.5741597E-1,1.4131127E-1,5.9821305E-4,2.2666547E-1,-5.5522966E-1,1.6413799E-1,3.9274624E-1,-2.6596627E-1,-9.619896E-1,-1.5357779E-1,2.3137552E-1,-1.19066246E-1,-8.5317105E-2,6.149415E-1,1.20714486E-1,-6.392321E-1,-3.346313E-1,-7.244012E-2,-7.532885E-1,2.9525208E-1,-3.318225E-2,8.085268E-1,-2.6106548E-1,-8.011578E-3,-2.706385E-1,-5.869341E-2,5.083375E-2,2.744582E-1],"categories":[2,3,1],"categories_nodes":[7,11],"categories_segments":[0,2],"categories_sizes":[2,1],"default_left":[0,0,0,0,0,0,0,0,1,0,0,0,0,0,0,0,0,0,0,0,0,0,0,0,0,0,0,0,0,0,0],"id":12,"left_children":[1,3,5,7,9,-1,-1,11,13,15,17,19,21,-1,-1,-1,23,-1,25,-1,-1,27,-1,-1,29,-1,-1,-1,-1,-1,-1],"loss_changes":[4.637743E0,1.5792534E0,5.279355E-1,1.370182E0,1.4554572E0,0E0,0E0,1.3580153E0,1.7301427E0,1.4629157E0,1.662248E0,2.1593666E-1,4.717492E0,0E0,0E0,0E0,1.0391839E0,0E0,5.427135E-1,0E0,0E0,1.8724036E-1,0E0,0E0,2.158916E-1,0E0,0E0,0E0,0E0,0E0,0E0],"parents":[2147483647,0,0,1,1,2,2,3,3,4,4,7,7,8,8,9,9,10,10,11,11,12,12,16,16,18,18,21,21,24,24],"right_children":[2,4,6,8,10,-1,-1,12,14,16,18,20,22,-1,-1,-1,24,-1,26,-1,-1,28,-1,-1,30,-1,-1,-1,-1,-1,-1],"split_conditions":[1.1E1,2E0,3E0,3E0,3E0,5.9821305E-4,2.2666547E-1,NaN,2E0,2E0,7E0,NaN,6.00001E0,2.3137552E-1,-1.19066246E-1,-8.5317105E-2,4E0,1.20714486E-1,1E1,-3.346313E-1,-7.244012E-2,2E0,2.9525208E-1,-3.318225E-2,8E0,-2.6106548E-1,-8.011578E-3,-2.706385E-1,-5.869341E-2,5.083375E-2,2.744582E-1],"split_indices":[12,3,5,8,9,0,0,18,0,0,11,28,4,0,0,0,11,0,12,0,0,8,0,0,12,0,0,0,0,0,0],"split_type":[0,0,0,0,0,0,0,1,0,0,0,1,0,0,0,0,0,0,0,0,0,0,0,0,0,0,0,0,0,0,0],"sum_hessian":[3.338238E1,2.3590282E1,9.792098E0,1.1397415E1,1.2192866E1,1.0334715E0,8.758626E0,8.21651E0,3.1809058E0,7.560828E0,4.6320386E0,3.3891623E0,4.8273473E0,1.3477358E0,1.8331699E0,1.7988741E0,5.761954E0,1.6319544E0,3.0000842E0,2.3422444E0,1.0469179E0,3.3823953E0,1.4449519E0,1.3038439E0,4.45811E0,1.8730483E0,1.1270359E0,2.1821985E0,1.2001967E0,1.0059196E0,3.4521904E0],"tree_param":{"num_deleted":"0","num_feature":"30","num_nodes":"31","size_leaf_vector":"0"}},{"base_weights":[6.969151E-2,-1.4285918E-1,6.1341316E-1,-3.9686352E-1,1.1134434E-1,-7.198829E-3,2.1258344E-1,-6.0174483E-1,1.4823432E-1,3.2044107E-1,-2.2347565E-1,-9.2407465E-1,-1.0883704E-1,2.0244575E-1,-9.499086E-2,-4.625309E-4,2.2842267E-1,9.9863976E-2,-5.416253E-1,-3.478223E-1,2.1883226E-3,2.5021532E-1,-7.061126E-1,-1.8868105E-1,3.471245E-1,-2.2500966E-1,-6.6840737E-3,1.6501326E-2,-3.1849936E-1,1.9871873E-1,-7.010421E-2],"categories":[2,1],"categories_nodes":[7,24],"categories_segments":[0,1],"categories_sizes":[1,1],"default_left":[0,0,0,0,0,0,0,0,1,1,0,1,1,0,0,0,0,0,0,0,0,0,0,0,0,0,0,0,0,0,0],"id":13,"left_children":[1,3,5,7,9,-1,-1,11,13,15,17,19,21,-1,-1,23,-1,-1,25,-1,-1,-1,27,-1,29,-1,-1,-1,-1,-1,-1],"loss_changes":[3.7614527E0,1.5722665E0,5.706055E-1,1.4356933E0,9.5437896E-1,0E0,0E0,1.3230848E0,1.2163532E0,1.1568623E0,1.1425748E0,1.1666737E0,3.222502E0,0E0,0E0,1.4699786E0,0E0,0E0,3.9883637E-1,0E0,0E0,0E0,9.796865E-1,0E0,9.483333E-1,0E0,0E0,0E0,0E0,0E0,0E0],"parents":[2147483647,0,0,1,1,2,2,3,3,4,4,7,7,8,8,9,9,10,10,11,11,12,12,15,15,18,18,22,22,24,24],"right_children":[2,4,6,8,10,-1,-1,12,14,16,18,20,22,-1,-1,24,-1,-1,26,-1,-1,-1,28,-1,30,-1,-1,-1,-1,-1,-1],"split_conditions":[1.1E1,2E0,2E0,3E0,3E0,-7.198829E-3,2.1258344E-1,NaN,2E0,1E1,7E0,4E0,5E0,2.0244575E-1,-9.499086E-2,4E0,2.2842267E-1,9.9863976E-2,1E1,-3.478223E-1,2.1883226E-3,2.5021532E-1,5E0,-1.8868105E-1,NaN,-2.2500966E-1,-6.6840737E-3,1.6501326E-2,-3.1849936E-1,1.9871873E-1,-7.010421E-2],"split_indices":[12,3,0,8,9,0,0,18,0,13,11,5,10,0,0,11,0,0,12,0,0,0,11,0,25,0,0,0,0,0,0],"split_type":[0,0,0,0,0,0,0,1,0,0,0,0,0,0,0,0,0,0,0,0,0,0,0,0,1,0,0,0,0,0,0],"sum_hessian":[3.0789143E1,2.266589E1,8.123252E0,1.1056675E1,1.1609215E1,1.1527615E0,6.9704905E0,7.960651E0,3.0960238E0,7.172745E0,4.4364696E0,4.2842727E0,3.6763785E0,1.2398959E0,1.8561279E0,4.7297416E0,2.4430037E0,1.5971674E0,2.8393025E0,3.2246459E0,1.0596269E0,1.271966E0,2.4044125E0,1.396067E0,3.3336747E0,1.7092234E0,1.130079E0,1.0347208E0,1.3696916E0,2.0697174E0,1.2639573E0],"tree_param":{"num_deleted":"0","num_feature":"30","num_nodes":"31","size_leaf_vector":"0"}},{"base_weights":[3.3852775E-2,-1.426792E-1,5.4206175E-1,-4.101246E-1,1.3382022E-1,-5.877138E-3,1.9261982E-1,-6.114061E-1,1.3535585E-1,3.3663806E-1,-1.8918648E-1,-8.857441E-1,-1.757341E-1,1.5369657E-1,-1.3383502E-1,-7.1534E-2,5.3224075E-1,8.254379E-2,-4.6061012E-1,-3.3501145E-1,1.8826212E-3,-6.418862E-1,1.6170555E-1,-1.9042112E-2,6.974757E-1,-1.9673102E-1,-6.602641E-3,-2.9782215E-1,-4.6597468E-4,2.7656835E-1,5.7545155E-2],"categories":[2,2,1],"categories_nodes":[7,21,24],"categories_segments":[0,1,2],"categories_sizes":[1,1,1],"default_left":[0,0,0,0,0,0,0,0,0,0,0,1,0,0,0,0,0,0,0,0,0,0,0,0,0,0,0,0,0,0,0],"id":14,"left_children":[1,3,5,7,9,-1,-1,11,13,15,17,19,21,-1,-1,-1,23,-1,25,-1,-1,27,-1,-1,29,-1,-1,-1,-1,-1,-1],"loss_changes":[2.7446973E0,1.7451994E0,4.5480704E-1,1.3855057E0,8.493513E-1,0E0,0E0,9.019139E-1,1.1090405E0,9.9608135E-1,7.904111E-1,1.0746055E0,1.9007547E0,0E0,0E0,0E0,6.4225984E-1,0E0,3.0204666E-1,0E0,0E0,7.355392E-1,0E0,0E0,3.7232947E-1,0E0,0E0,0E0,0E0,0E0,0E0],"parents":[2147483647,0,0,1,1,2,2,3,3,4,4,7,7,8,8,9,9,10,10,11,11,12,12,16,16,18,18,21,21,24,24],"right_children":[2,4,6,8,10,-1,-1,12,14,16,18,20,22,-1,-1,-1,24,-1,26,-1,-1,28,-1,-1,30,-1,-1,-1,-1,-1,-1],"split_conditions":[1.1E1,2E0,2E0,3E0,3E0,-5.877138E-3,1.9261982E-1,NaN,5E0,2E0,7E0,4E0,4E0,1.5369657E-1,-1.3383502E-1,-7.1534E-2,4E0,8.254379E-2,2E0,-3.3501145E-1,1.8826212E-3,NaN,1.6170555E-1,-1.9042112E-2,NaN,-1.9673102E-1,-6.602641E-3,-2.9782215E-1,-4.6597468E-4,2.7656835E-1,5.7545155E-2],"split_indices":[12,3,0,8,9,0,0,18,5,0,11,5,6,0,0,0,11,0,2,0,0,18,0,0,25,0,0,0,0,0,0],"split_type":[0,0,0,0,0,0,0,1,0,0,0,0,0,0,0,0,0,0,0,0,0,1,0,0,1,0,0,0,0,0,0],"sum_hessian":[2.8731398E1,2.1858025E1,6.873374E0,1.0865267E1,1.0992757E1,1.1603913E0,5.7129827E0,7.8483715E0,3.0168955E0,6.7267733E0,4.265983E0,4.181974E0,3.6663973E0,1.9024615E0,1.1144341E0,1.6516826E0,5.075091E0,1.5686806E0,2.6973023E0,3.121798E0,1.0601761E0,2.2808223E0,1.3855752E0,1.2357503E0,3.8393404E0,1.524031E0,1.1732714E0,1.11793E0,1.1628921E0,2.0890384E0,1.7503022E0],"tree_param":{"num_deleted":"0","num_feature":"30","num_nodes":"31","size_leaf_vector":"0"}},{"base_weights":[-7.6215593E-3,-3.4662342E-1,2.5419164E-1,-2.5696892E-1,-1.4290771E-1,-1.4625919E-1,4.1997996E-1,-5.320564E-1,3.3398688E-1,-1.803846E-1,1.764749E-1,6.783838E-1,1.360394E-1,-4.2026043E-2,-7.408068E-1,-1.3251121E-1,1.8811513E-1,5.1935755E-2,8.230441E-1,-1.815551E-1,1.5142462E-1,-1.0628382E0,-1.2665806E-2,7.99209E-2,2.810175E-1,-1.8042117E-1,1.24735616E-1,-4.5045242E-1,-2.3149362E-2],"categories":[0,1,2,3,4,1,1],"categories_nodes":[1,7,11],"categories_segments":[0,5,6],"categories_sizes":[5,1,1],"default_left":[0,0,0,0,0,0,0,0,0,0,0,0,0,0,1,0,0,0,0,0,0,1,0,0,0,0,0,0,0],"id":15,"left_children":[1,3,5,-1,7,9,11,13,-1,-1,15,17,19,-1,21,-1,-1,-1,23,25,-1,27,-1,-1,-1,-1,-1,-1,-1],"loss_changes":[2.6080654E0,1.206808E0,1.1632924E0,0E0,5.648546E0,9.2863595E-1,7.878599E-1,5.9773564E-1,0E0,0E0,1.4050359E0,2.9821992E-1,9.073954E-1,0E0,1.1611717E0,0E0,0E0,0E0,3.0216217E-2,1.3731136E0,0E0,1.4528675E0,0E0,0E0,0E0,0E0,0E0,0E0,0E0],"parents":[2147483647,0,0,1,1,2,2,4,4,5,5,6,6,7,7,10,10,11,11,12,12,14,14,18,18,19,19,21,21],"right_children":[2,4,6,-1,8,10,12,14,-1,-1,16,18,20,-1,22,-1,-1,-1,24,26,-1,28,-1,-1,-1,-1,-1,-1,-1],"split_conditions":[2E0,NaN,2E0,-2.5696892E-1,4E0,4E0,2E0,NaN,3.3398688E-1,-1.803846E-1,9E0,NaN,2E0,-4.2026043E-2,1E1,-1.3251121E-1,1.8811513E-1,5.1935755E-2,3E0,1.1E1,1.5142462E-1,3E0,-1.2665806E-2,7.99209E-2,2.810175E-1,-1.8042117E-1,1.24735616E-1,-4.5045242E-1,-2.3149362E-2],"split_indices":[3,18,0,0,9,5,9,14,0,0,12,28,2,0,12,0,0,0,11,13,0,2,0,0,0,0,0,0,0],"split_type":[0,1,0,0,0,0,0,1,0,0,0,1,0,0,0,0,0,0,0,0,0,0,0,0,0,0,0,0,0],"sum_hessian":[2.7392227E1,1.1795371E1,1.5596856E1,2.4522417E0,9.343129E0,4.6010695E0,1.0995787E1,7.573456E0,1.7696737E0,1.5510938E0,3.0499756E0,5.029473E0,5.966314E0,3.2124774E0,4.360978E0,1.2941382E0,1.7558374E0,1.6084082E0,3.4210649E0,3.4780364E0,2.4882777E0,2.6280859E0,1.7328924E0,1.1472002E0,2.2738645E0,2.0384686E0,1.4395676E0,1.4565313E0,1.1715546E0],"tree_param":{"num_deleted":"0","num_feature":"30","num_nodes":"29","size_leaf_vector":"0"}},{"base_weights":[-2.1660024E-2,7.301276E-2,-2.726735E-1,-6.705211E-1,2.013482E-1,1.8135895E-1,-3.2757014E-1,-5.5072737E-1,1.4821795E-1],"categories":[1,1],"categories_nodes":[0,4],"categories_segments":[0,1],"categories_sizes":[1,1],"default_left":[0,0,1,0,0,0,1,0,0],"id":16,"left_children":[1,-1,3,-1,5,-1,7,-1,-1],"loss_changes":[1.8383641E0,0E0,1.3613825E1,0E0,2.8242915E0,0E0,8.311805E0,0E0,0E0],"parents":[2147483647,0,0,2,2,4,4,6,6],"right_children":[2,-1,4,-1,6,-1,8,-1,-1],"split_conditions":[NaN,7.301276E-2,1E1,-6.705211E-1,NaN,1.8135895E-1,1.2E1,-5.5072737E-1,1.4821795E-1],"split_indices":[14,0,13,0,14,0,12,0,0],"split_type":[1,0,0,0,1,0,0,0,0],"sum_hessian":[2.5635601E1,1.2484307E1,1.3151294E1,1.835871E0,1.1315423E1,6.339796E0,4.975627E0,1.3194149E0,3.656212E0],"tree_param":{"num_deleted":"0","num_feature":"30","num_nodes":"9","size_leaf_vector":"0"}},{"base_weights":[4.6868086E-1,5.8007234E-1,-7.3803444E-3,-1.08369954E-1,6.4550644E-1,1.578577E-1,-2.2252327E-1,2.0624886E-1,7.3452895E-3,-1.3364285E-1,2.8541617E-2],"categories":[1],"categories_nodes":[4],"categories_segments":[0],"categories_sizes":[1],"default_left":[0,1,0,0,0,0,0,0,0,0,0],"id":17,"left_children":[1,3,5,-1,7,-1,9,-1,-1,-1,-1],"loss_changes":[1.4962983E0,1.6383295E0,8.428756E-1,0E0,5.487509E-1,0E0,4.1126814E-1,0E0,0E0,0E0,0E0],"parents":[2147483647,0,0,1,1,2,2,4,4,6,6],"right_children":[2,4,6,-1,8,-1,10,-1,-1,-1,-1],"split_conditions":[5E0,8E0,4E0,-1.08369954E-1,NaN,1.578577E-1,1E1,2.0624886E-1,7.3452895E-3,-1.3364285E-1,2.8541617E-2],"split_indices":[7,13,6,0,24,0,13,0,0,0,0],"split_type":[0,0,0,0,1,0,0,0,0,0,0],"sum_hessian":[2.7135796E1,2.1813313E1,5.3224835E0,1.123961E0,2.0689352E1,1.1139681E0,4.208515E0,1.9278797E1,1.4105549E0,2.2364743E0,1.9720411E0],"tree_param":{"num_deleted":"0","num_feature":"30","num_nodes":"11","size_leaf_vector":"0"}},{"base_weights":[4.7531322E-1,5.824734E-1,3.8622296E-3,-9.630571E-2,6.4020944E-1,-2.5548577E-1,1.04731955E-1,2.0471196E-1,6.0666916E-3,-1.9388212E-1,6.025973E-2],"categories":[1,1],"categories_nodes":[4,5],"categories_segments":[0,1],"categories_sizes":[1,1],"default_left":[0,1,0,0,0,0,0,0,0,0,0],"id":18,"left_children":[1,3,5,-1,7,9,-1,-1,-1,-1,-1],"loss_changes":[1.4031496E0,1.3875351E0,6.406302E-1,0E0,5.516958E-1,8.599703E-1,0E0,0E0,0E0,0E0,0E0],"parents":[2147483647,0,0,1,1,2,2,4,4,5,5],"right_children":[2,4,6,-1,8,10,-1,-1,-1,-1,-1],"split_conditions":[5E0,8E0,2E0,-9.630571E-2,NaN,NaN,1.04731955E-1,2.0471196E-1,6.0666916E-3,-1.9388212E-1,6.025973E-2],"split_indices":[7,13,3,0,24,23,0,0,0,0,0],"split_type":[0,0,0,0,1,1,0,0,0,0,0],"sum_hessian":[2.6818247E1,2.1659567E1,5.15868E0,1.027077E0,2.063249E1,3.094256E0,2.064424E0,1.922446E1,1.4080302E0,1.4426742E0,1.6515818E0],"tree_param":{"num_deleted":"0","num_feature":"30","num_nodes":"11","size_leaf_vector":"0"}},{"base_weights":[4.6339414E-1,5.8444554E-1,-6.1679415E-2,1.1146688E-1,6.445342E-1,-3.0212247E-1,8.572338E-2,1.5442103E-1,-1.0841597E-1,-3.6472362E-4,7.202971E-1,-2.0356713E-1,4.9644507E-2,1.1192387E-1,-1.086413E-1,2.3278E-1,4.1737086E-3],"categories":[1,1],"categories_nodes":[5,10],"categories_segments":[0,1],"categories_sizes":[1,1],"default_left":[0,1,0,0,0,0,0,0,0,1,0,0,0,0,0,0,0],"id":19,"left_children":[1,3,5,7,9,11,-1,-1,-1,13,15,-1,-1,-1,-1,-1,-1],"loss_changes":[1.7909422E0,5.6854296E-1,5.939931E-1,9.009099E-1,9.6686935E-1,8.300446E-1,0E0,0E0,0E0,5.5112845E-1,6.8498516E-1,0E0,0E0,0E0,0E0,0E0,0E0],"parents":[2147483647,0,0,1,1,2,2,3,3,4,4,5,5,9,9,10,10],"right_children":[2,4,6,8,10,12,-1,-1,-1,14,16,-1,-1,-1,-1,-1,-1],"split_conditions":[5E0,9E0,2E0,3E0,2E0,NaN,8.572338E-2,1.5442103E-1,-1.0841597E-1,4E0,NaN,-2.0356713E-1,4.9644507E-2,1.1192387E-1,-1.086413E-1,2.3278E-1,4.1737086E-3],"split_indices":[7,13,3,7,7,23,0,0,0,11,24,0,0,0,0,0,0],"split_type":[0,0,0,0,0,1,0,0,0,0,1,0,0,0,0,0,0],"sum_hessian":[2.660965E1,2.1532448E1,5.077202E0,2.7490172E0,1.8783432E1,3.0776403E0,1.9995617E0,1.4358696E0,1.3131477E0,2.0793195E0,1.6704111E1,1.4551044E0,1.6225358E0,1.0077767E0,1.0715426E0,1.5393254E1,1.3108577E0],"tree_param":{"num_deleted":"0","num_feature":"30","num_nodes":"17","size_leaf_vector":"0"}}]},"name":"gbtree"},"learner_model_param":{"base_score":"5E-1","num_class":"0","num_feature":"30","num_target":"1"},"objective":{"name":"reg:squarederror","reg_loss_param":{"scale_pos_weight":"1"}}},"version":[1,6,2]}